   0.00528,  -0.02662,  -0.00208,  -0.03889,  -0.00454,  -0.03398,  -0.03153,   0.02245,  -0.00454,  -0.01926,   0.01019,  -0.06343,   0.02736,   0.05190,  -0.03889,  -0.01681,  -0.00208,  -0.00945,   0.01264,  -0.00454,   0.01264,   0.00282,  -0.02417,  -0.00208,  -0.00454,   0.02245,   0.00037,  -0.01190,  -0.03153,  -0.02417,   0.05926,   0.01509,  -0.05116,  -0.00454,   0.01509,  -0.01926,   0.02245,  -0.00945,  -0.02172,  -0.00699,  -0.05852,  -0.01190,  -0.00454,   0.03227,   0.00528,  -0.02908,   0.00037,  -0.02172,   0.03472,   0.01019,  -0.05116,  -0.02908,  -0.04871,  -0.00945,  -0.07325,   0.02736,   0.02245,  -0.02908,  -0.03889,   0.01264,   0.01755,  -0.03889,  -0.02417,   0.02245
  -0.01681,  -0.00699,   0.02245,  -0.04380,  -0.04380,  -0.04135,  -0.02417,  -0.00699,   0.01264,   0.06417,   0.01509,  -0.03398,   0.02982,  -0.00454,  -0.04135,   0.00037,   0.03227,  -0.01926,   0.03472,  -0.02417,   0.00037,   0.01755,   0.01755,   0.00282,  -0.01190,   0.01264,   0.00282,  -0.02908,  -0.06589,  -0.03398,   0.07644,   0.00037,   0.01509,  -0.02417,  -0.01435,  -0.00454,  -0.01681,  -0.01435,  -0.03644,   0.02491,  -0.01681,  -0.03398,  -0.01926,   0.05436,   0.01019,  -0.02908,  -0.01926,   0.02736,   0.02491,   0.03963,  -0.03153,  -0.00208,   0.00282,  -0.06098,  -0.00945,   0.00773,   0.02245,  -0.01926,  -0.02172,   0.00528,   0.02982,  -0.02662,  -0.00208,   0.00528
  -0.01190,  -0.00208,   0.01019,  -0.05852,  -0.04135,  -0.03398,  -0.03644,  -0.02908,  -0.01435,   0.00528,   0.00037,  -0.02908,   0.00037,   0.00282,  -0.00945,  -0.00699,   0.01264,   0.01019,   0.00773,   0.01264,   0.01019,  -0.00699,   0.00773,   0.01264,  -0.04871,  -0.01190,  -0.00699,  -0.02417,  -0.04625,  -0.03889,   0.08380,  -0.00208,  -0.03398,  -0.02662,  -0.00699,  -0.01435,   0.03963,  -0.01926,  -0.00208,   0.01019,   0.00037,  -0.03644,  -0.03153,   0.00282,   0.01264,  -0.05362,   0.00282,  -0.05607,   0.02982,   0.01755,  -0.01435,   0.01019,  -0.02662,  -0.07325,  -0.04380,   0.03227,   0.02000,  -0.01190,  -0.02417,  -0.02172,   0.01264,  -0.04380,   0.00282,  -0.03398
  -0.02172,  -0.03889,   0.02245,   0.00037,  -0.00699,  -0.00454,  -0.03153,   0.06417,  -0.00945,   0.03963,   0.00282,   0.04209,  -0.02662,   0.06663,  -0.06834,   0.02245,   0.00037,   0.00773,   0.00037,  -0.01190,  -0.00945,   0.03718,  -0.00208,  -0.01190,   0.02982,  -0.00699,   0.00773,  -0.01435,   0.00037,  -0.02417,   0.03227,   0.00282,  -0.02908,  -0.04871,   0.00037,  -0.01926,  -0.06834,  -0.00454,  -0.02172,  -0.00208,  -0.00208,   0.02491,  -0.00699,   0.04209,   0.02736,   0.00773,  -0.01681,   0.01755,   0.10098,   0.02736,   0.02491,  -0.03398,   0.00773,  -0.00454,   0.01509,   0.05681,   0.03472,  -0.01435,   0.01264,   0.02245,  -0.00699,  -0.02662,   0.00037,   0.00037
  -0.04871,   0.01019,   0.01755,   0.00282,  -0.00454,   0.04699,   0.01019,   0.09362,  -0.06098,   0.08380,  -0.00699,   0.08380,  -0.01681,  -0.01435,  -0.05116,   0.02491,   0.06417,  -0.00208,   0.00528,   0.00773,  -0.00699,   0.01509,   0.03718,  -0.05607,   0.00773,   0.00528,  -0.02662,  -0.00454,  -0.06589,   0.00773,   0.03472,   0.02982,   0.02491,  -0.04871,   0.01264,   0.03472,  -0.10515,  -0.03889,  -0.03153,   0.01509,  -0.01190,  -0.01190,   0.00528,   0.06663,   0.00282,   0.02245,  -0.02908,   0.05926,   0.07153,   0.04454,   0.02736,  -0.02908,   0.02736,  -0.01681,   0.10834,   0.03227,   0.02491,   0.03227,   0.00773,  -0.00699,  -0.02908,   0.02736,   0.02245,  -0.03398
  -0.03153,  -0.01926,   0.00282,  -0.01926,  -0.04871,   0.02736,  -0.01681,   0.04209,  -0.07816,   0.02245,  -0.00699,   0.01755,  -0.00454,  -0.05607,  -0.01926,   0.01264,   0.05436,   0.00773,   0.02000,  -0.01190,   0.02491,  -0.01190,   0.03227,  -0.00208,  -0.00699,  -0.01926,  -0.00699,  -0.01926,  -0.06343,  -0.03398,   0.10589,   0.00528,  -0.01435,  -0.02172,  -0.00945,  -0.01190,  -0.06098,   0.00037,  -0.01681,   0.00528,  -0.04380,  -0.01435,   0.00037,   0.04209,   0.00037,   0.02245,  -0.04135,  -0.01190,   0.10589,   0.00528,   0.01755,   0.01755,   0.02491,  -0.03644,   0.04699,   0.06663,   0.02491,  -0.01681,  -0.00699,  -0.00699,  -0.02172,  -0.02908,  -0.00945,  -0.01926
   0.01755,   0.00282,  -0.03398,   0.04945,  -0.01190,   0.01019,  -0.05852,   0.00282,   0.01264,   0.04209,   0.00282,   0.02736,  -0.02172,   0.08626,  -0.04380,  -0.00208,  -0.03889,   0.00773,  -0.00699,  -0.00945,   0.00528,   0.01264,   0.01264,   0.01019,   0.01755,   0.00773,  -0.00454,  -0.01190,   0.00528,  -0.01190,  -0.02417,   0.00773,  -0.00699,  -0.06589,   0.03718,  -0.02908,  -0.00454,  -0.00454,   0.00528,  -0.02172,  -0.02662,   0.02491,   0.00528,   0.03718,  -0.00699,  -0.01435,  -0.00699,   0.02000,   0.04209,   0.04454,  -0.00945,   0.01509,  -0.01926,   0.02245,  -0.04135,   0.01509,  -0.01926,  -0.00208,   0.02736,  -0.02417,   0.00528,  -0.03398,  -0.03398,  -0.00945
   0.00282,   0.04454,  -0.02172,   0.00528,  -0.01435,   0.03227,  -0.00699,   0.05681,  -0.05852,   0.06663,  -0.01190,   0.07153,  -0.02417,   0.01755,  -0.02908,   0.02245,   0.02245,   0.01755,   0.00773,   0.00528,  -0.00454,   0.00773,   0.01509,  -0.03153,  -0.00208,   0.03718,  -0.04625,  -0.01435,  -0.01681,   0.00282,   0.00528,   0.01755,   0.02000,  -0.05607,   0.00773,   0.00773,  -0.06098,   0.04209,  -0.01435,  -0.01190,   0.02000,  -0.00699,  -0.00945,   0.02000,   0.07644,   0.00773,  -0.00945,   0.04209,   0.07889,   0.04945,  -0.02172,   0.02000,   0.01019,   0.02736,   0.04699,   0.02245,   0.02000,   0.00528,  -0.00699,  -0.05362,  -0.01435,  -0.02172,  -0.01190,  -0.00699
  -0.00208,   0.00282,  -0.04380,  -0.00945,  -0.02662,  -0.03153,  -0.01435,   0.04945,  -0.07570,  -0.00945,  -0.00945,   0.03963,  -0.00945,   0.02000,  -0.01435,   0.01755,  -0.01435,   0.02491,   0.02491,   0.00037,  -0.03153,   0.00037,   0.00037,  -0.00208,   0.01019,   0.04209,  -0.01190,  -0.04135,   0.03472,  -0.03153,   0.02982,  -0.01190,  -0.00699,  -0.00699,  -0.01681,   0.00773,   0.00282,   0.02245,   0.01755,  -0.02417,   0.01019,   0.02491,   0.01264,   0.01755,   0.04699,  -0.02908,  -0.02908,   0.02982,   0.09853,   0.04209,  -0.01681,   0.01264,   0.00528,   0.02736,   0.01755,   0.03963,  -0.01926,   0.04945,  -0.01435,  -0.03398,   0.01509,  -0.05852,  -0.01681,  -0.01190
   0.02982,   0.00528,  -0.01926,   0.01509,  -0.00208,   0.06908,   0.03227,  -0.03153,  -0.02908,   0.01755,  -0.00208,  -0.01190,   0.00528,  -0.00945,  -0.03644,   0.01509,  -0.03153,  -0.03153,   0.00282,  -0.00208,   0.01755,  -0.04871,   0.02491,  -0.01190,  -0.06589,  -0.01681,  -0.02172,  -0.03398,  -0.02172,   0.03963,   0.02245,   0.00037,   0.00528,   0.00773,   0.00773,   0.01264,   0.04945,  -0.00945,   0.02736,   0.00528,  -0.00454,   0.04945,   0.02491,   0.00282,  -0.02417,   0.02245,   0.01264,   0.02000,  -0.02172,  -0.04625,   0.02000,   0.00282,   0.07153,   0.02000,   0.04209,   0.00528,   0.00773,  -0.02172,   0.00528,   0.03227,   0.02736,   0.00528,   0.00773,   0.02736
  -0.00454,   0.00773,   0.04209,   0.01264,  -0.02417,   0.01019,   0.02736,  -0.03644,  -0.03889,   0.02000,   0.03227,  -0.00945,   0.01264,  -0.02662,  -0.03398,   0.00773,  -0.01926,  -0.02172,   0.01755,  -0.01190,   0.03227,  -0.03153,  -0.01681,  -0.01190,  -0.04871,  -0.03398,   0.00773,  -0.03644,  -0.03644,   0.00773,   0.03227,  -0.02417,   0.02000,   0.01509,   0.04454,  -0.00699,  -0.00945,  -0.02172,   0.03227,  -0.00454,  -0.01190,   0.00282,   0.05436,  -0.03398,   0.01755,   0.03472,   0.00528,  -0.00208,  -0.01190,   0.00282,   0.00037,  -0.01190,   0.05436,   0.01509,   0.01264,   0.00037,  -0.01926,  -0.03889,  -0.04135,   0.03963,   0.03963,   0.02245,  -0.00208,   0.00773
  -0.02172,   0.03718,   0.03718,  -0.01435,  -0.05116,  -0.00454,   0.04209,  -0.01681,  -0.05116,   0.02982,   0.02982,  -0.03644,  -0.02908,  -0.00699,  -0.02908,   0.00528,  -0.02417,   0.01509,  -0.00699,  -0.03398,   0.01755,   0.00282,   0.01264,  -0.03153,  -0.07816,  -0.02662,   0.04699,  -0.01681,   0.01509,   0.01264,   0.02491,  -0.03153,  -0.04135,   0.01755,   0.04699,  -0.01190,   0.05681,   0.02000,   0.01019,  -0.00699,  -0.00699,  -0.00454,   0.04209,  -0.01681,   0.02000,   0.02736,  -0.04625,  -0.00208,  -0.03644,  -0.01681,   0.01019,  -0.00699,   0.06663,  -0.03889,   0.00773,  -0.01681,   0.01755,  -0.00699,  -0.04135,   0.04945,   0.00528,  -0.00208,  -0.01435,   0.02736
  -0.00454,  -0.05607,   0.00282,   0.03227,   0.01755,   0.03472,   0.00773,   0.00282,  -0.00454,   0.00528,   0.01019,  -0.01435,   0.01509,  -0.02417,  -0.02417,   0.02736,   0.00528,  -0.02662,   0.00282,   0.00528,   0.00282,   0.00282,   0.05436,  -0.02662,   0.01509,  -0.01190,  -0.04380,   0.00282,   0.01264,  -0.00454,  -0.02662,   0.00282,   0.00282,   0.04209,  -0.03644,  -0.00945,   0.03963,  -0.01681,   0.02245,  -0.04871,  -0.04135,   0.01019,  -0.01681,  -0.02417,  -0.03889,   0.02245,  -0.00454,  -0.02172,  -0.03889,  -0.01681,   0.01019,   0.03227,  -0.04625,  -0.02417,   0.05190,   0.01755,   0.02000,  -0.04380,   0.01264,   0.03227,   0.00282,  -0.00945,   0.00773,   0.00528
   0.01264,   0.01019,   0.02982,   0.02000,  -0.01435,  -0.06098,  -0.03889,  -0.01190,   0.03227,   0.02736,   0.01509,  -0.01681,  -0.02172,  -0.00945,  -0.04871,   0.00037,   0.05681,  -0.01190,  -0.00699,  -0.00945,  -0.01926,  -0.02172,  -0.01435,  -0.00945,   0.00282,  -0.00454,   0.00773,   0.02491,   0.04209,   0.04945,  -0.02172,   0.01755,   0.10834,   0.01509,  -0.01926,   0.03227,  -0.06098,   0.01019,   0.02736,   0.01019,   0.00773,   0.00037,  -0.02417,   0.00528,   0.02736,   0.04209,   0.00528,  -0.02908,  -0.04380,  -0.01190,  -0.00454,   0.02736,  -0.02908,   0.00528,   0.00282,  -0.00945,  -0.00699,  -0.03153,  -0.03153,   0.00773,   0.01509,   0.01264,  -0.00454,  -0.01190
  -0.03398,   0.03718,  -0.00945,   0.00773,   0.00282,  -0.04625,   0.00528,  -0.03153,   0.02982,   0.03227,   0.00773,   0.05681,  -0.00208,  -0.00945,   0.00037,  -0.01435,   0.09853,  -0.00945,   0.00037,  -0.00945,  -0.00454,  -0.03644,   0.00037,   0.03718,   0.01264,  -0.00699,   0.02245,  -0.01926,   0.01264,   0.02000,  -0.01435,   0.01509,   0.02000,   0.02491,  -0.02662,  -0.01190,  -0.02417,   0.02245,   0.01264,   0.00528,   0.01264,  -0.05116,   0.00773,  -0.00699,   0.09853,   0.00528,   0.02245,  -0.06589,  -0.05362,  -0.04625,   0.02245,   0.00282,  -0.01435,  -0.05607,   0.02000,  -0.02662,   0.00282,  -0.01926,  -0.03644,   0.00037,   0.02736,   0.04209,  -0.00945,  -0.02417
   0.02982,  -0.04380,  -0.01190,   0.04454,   0.01264,   0.10098,   0.03718,   0.04454,   0.00037,  -0.01926,   0.01019,  -0.03398,  -0.00208,   0.04209,   0.02491,   0.02736,   0.02736,  -0.01435,   0.01509,   0.03472,  -0.02172,  -0.04135,   0.01019,  -0.02908,  -0.06343,  -0.02417,  -0.02908,   0.01755,   0.00282,   0.00282,  -0.03153,   0.02245,  -0.02172,  -0.00454,  -0.06834,  -0.03889,  -0.04380,   0.00528,  -0.00208,   0.02245,  -0.03889,  -0.01435,  -0.02172,   0.00037,   0.02491,   0.00282,   0.02736,  -0.00208,  -0.04871,  -0.01926,  -0.00699,   0.04699,  -0.07816,   0.00037,   0.09607,  -0.00699,   0.03718,  -0.03889,   0.01264,   0.03472,  -0.00699,   0.03227,   0.01019,   0.01509
   0.02000,  -0.01190,  -0.02417,   0.04945,   0.01264,   0.00528,  -0.02172,   0.04454,   0.04945,  -0.03398,   0.00037,  -0.03644,   0.00528,   0.02491,  -0.02172,   0.02491,   0.02000,  -0.00208,   0.01509,   0.08871,   0.02736,  -0.02172,   0.00528,  -0.04135,  -0.02417,  -0.00208,  -0.00454,   0.01019,   0.05190,   0.01264,  -0.06098,   0.00528,  -0.00945,  -0.00208,   0.00528,   0.02000,  -0.05116,  -0.01435,  -0.02172,  -0.00945,  -0.04380,   0.01509,  -0.02908,   0.02000,   0.02491,   0.01264,   0.04454,  -0.00208,  -0.02908,  -0.01435,  -0.00208,   0.06908,  -0.08306,  -0.01435,   0.09607,  -0.00945,   0.02000,  -0.02662,  -0.00454,   0.03963,   0.01755,   0.01509,   0.01755,   0.03472
   0.03472,   0.04945,   0.01019,   0.00037,  -0.00945,   0.03963,  -0.00208,   0.04454,   0.02491,  -0.02908,   0.00037,  -0.00208,   0.00528,   0.02491,  -0.01681,   0.03227,   0.07399,   0.02245,   0.00282,   0.06417,   0.03227,  -0.02172,  -0.00208,  -0.00699,  -0.01926,  -0.01681,  -0.00454,   0.02982,   0.01755,  -0.00699,  -0.04135,  -0.00945,  -0.04135,  -0.01435,  -0.03153,   0.02736,   0.00528,   0.01509,   0.00282,   0.02491,  -0.03398,  -0.00945,  -0.04871,  -0.01926,  -0.01435,   0.00037,   0.02245,  -0.06098,  -0.03644,  -0.02908,  -0.00699,   0.05190,  -0.03889,  -0.00454,   0.05190,   0.00282,   0.03963,  -0.02908,  -0.02662,   0.04454,   0.05436,   0.00773,  -0.00208,   0.03472
  -0.01926,  -0.02172,  -0.04135,   0.00282,  -0.00454,  -0.04625,  -0.01435,  -0.04871,   0.01019,   0.02245,  -0.02172,  -0.00208,   0.01509,   0.01509,   0.02982,   0.00773,  -0.02662,  -0.03153,  -0.05607,   0.01264,   0.00528,   0.02982,   0.01264,   0.01509,  -0.01681,  -0.01926,  -0.03644,  -0.02417,  -0.08306,   0.06663,  -0.12969,  -0.00699,  -0.07325,   0.04454,   0.06663,   0.00528,   0.03718,  -0.00699,   0.02245,  -0.00208,   0.02245,   0.02245,   0.10589,   0.02982,  -0.00454,   0.04209,  -0.03889,  -0.02172,   0.01755,  -0.04135,  -0.04380,  -0.02908,   0.03472,   0.04454,   0.02000,   0.01509,   0.08871,   0.01019,   0.01019,  -0.00454,  -0.00208,   0.03472,   0.01019,  -0.01190
   0.02245,   0.05190,  -0.02172,  -0.01681,  -0.04380,  -0.02417,   0.03718,  -0.02908,  -0.01926,   0.11080,  -0.00208,   0.03718,   0.02245,  -0.03644,   0.07153,   0.04699,   0.04209,   0.00528,  -0.02172,   0.03718,  -0.01681,  -0.00945,   0.02245,   0.00037,  -0.01926,   0.03472,  -0.02172,  -0.00699,  -0.06589,   0.04945,  -0.09042,  -0.02662,   0.01264,   0.05190,   0.05926,   0.03718,   0.03718,  -0.06834,   0.02245,  -0.00945,   0.08380,   0.03963,   0.05681,   0.05926,   0.04454,   0.06417,   0.01019,  -0.00945,  -0.02662,   0.00282,  -0.00208,  -0.04871,   0.01755,   0.03718,   0.04699,   0.00773,   0.07153,   0.01755,  -0.03889,  -0.01190,  -0.01190,   0.01264,  -0.03153,   0.01019
  -0.02172,   0.09362,  -0.00945,  -0.04871,  -0.00208,  -0.01190,   0.00528,  -0.01435,  -0.07325,   0.03718,  -0.02417,   0.02491,  -0.01926,   0.01509,   0.06908,   0.00037,   0.03718,   0.05436,  -0.04871,   0.02245,  -0.04625,  -0.00945,   0.05436,   0.06663,  -0.04625,  -0.01926,  -0.04380,  -0.01681,  -0.01681,   0.04945,  -0.02662,   0.00528,  -0.07325,   0.10098,   0.04945,   0.03472,   0.05436,  -0.03398,   0.05436,   0.02245,   0.08135,   0.02000,   0.06663,  -0.00699,  -0.00699,   0.05190,  -0.03398,  -0.03398,  -0.01681,  -0.00699,  -0.01681,  -0.03398,  -0.00454,  -0.01926,   0.01509,  -0.02172,   0.04209,  -0.01681,  -0.02172,  -0.00208,   0.02491,   0.02982,  -0.01926,   0.00282
  -0.02172,  -0.06589,   0.11816,   0.06417,  -0.03153,  -0.01435,  -0.05362,   0.01019,  -0.00699,   0.05436,   0.01019,  -0.04625,  -0.00699,   0.04209,  -0.01926,   0.02245,  -0.04625,   0.02000,  -0.00208,   0.02982,   0.06663,  -0.01190,   0.03472,   0.04209,   0.00037,  -0.00945,  -0.02417,  -0.00208,  -0.05607,   0.06663,  -0.12233,  -0.00699,  -0.03398,   0.06908,  -0.02172,   0.00282,  -0.05116,  -0.01190,   0.00282,   0.03963,   0.02245,   0.03472,   0.06172,   0.00282,  -0.01435,   0.02736,   0.03472,  -0.08306,  -0.08797,  -0.01435,   0.05190,  -0.02908,  -0.01435,   0.00773,   0.08871,  -0.01926,   0.00528,  -0.00454,   0.00528,   0.00773,   0.04454,   0.03718,   0.05681,  -0.03889
  -0.05852,   0.06908,   0.11816,   0.03963,  -0.03644,   0.02000,  -0.00699,  -0.02417,  -0.03153,   0.15006,  -0.01926,   0.05926,   0.02245,  -0.01190,   0.02491,   0.03472,   0.09607,   0.05926,   0.00037,   0.01509,   0.10343,  -0.01190,   0.01755,   0.04454,   0.02491,   0.00037,   0.00037,  -0.01190,  -0.01435,   0.10834,  -0.18122,  -0.02908,   0.10589,   0.02982,  -0.00454,   0.03718,  -0.12723,  -0.00208,   0.02000,   0.07399,   0.06663,   0.00037,   0.06172,   0.00528,   0.05436,  -0.00699,   0.11325,  -0.00945,  -0.15423,  -0.03889,   0.08135,  -0.02908,  -0.00699,  -0.02172,   0.07399,  -0.02662,   0.00773,   0.02736,  -0.04871,   0.05681,   0.07644,   0.03227,   0.07644,  -0.02662
  -0.06098,   0.15497,   0.06908,  -0.02662,  -0.02908,  -0.03153,  -0.11496,   0.03718,  -0.02662,   0.11080,   0.01755,   0.03718,   0.02491,   0.04945,   0.05926,   0.02982,   0.06908,   0.10098,  -0.00945,   0.01509,   0.07153,   0.01019,  -0.00945,   0.17460,   0.04699,   0.00528,  -0.00454,  -0.03398,  -0.02172,   0.07644,  -0.04135,   0.00037,  -0.08797,   0.00773,   0.04699,  -0.00945,  -0.00699,   0.09853,   0.08135,   0.03472,   0.11080,   0.01019,   0.09362,  -0.03153,   0.03963,   0.01509,   0.04945,  -0.06834,  -0.11742,  -0.05852,   0.07153,  -0.05362,  -0.01926,  -0.03889,  -0.04380,  -0.02662,   0.02245,   0.01019,  -0.04135,   0.03963,   0.04945,   0.02245,   0.01755,  -0.00699
  -0.06589,  -0.03153,  -0.00945,   0.06908,  -0.00699,  -0.01435,  -0.02908,   0.05926,   0.01509,   0.00037,   0.04454,  -0.12233,  -0.06343,   0.09362,   0.03472,  -0.02172,  -0.07325,   0.02000,  -0.09779,   0.08626,   0.00037,  -0.00945,  -0.01435,   0.01019,   0.01755,  -0.06589,   0.01264,  -0.03889,   0.03472,   0.03227,  -0.11006,  -0.02662,   0.06908,  -0.01190,  -0.04871,  -0.06589,   0.01755,  -0.00454,   0.04209,  -0.03398,  -0.03644,  -0.00208,  -0.00945,  -0.04380,  -0.05852,  -0.01926,   0.01509,  -0.06343,  -0.06834,   0.02245,  -0.09042,   0.04209,  -0.01681,   0.02245,   0.03718,   0.01019,   0.00282,   0.01755,   0.02000,  -0.03644,   0.01264,  -0.00699,   0.03718,  -0.01435
  -0.06098,   0.03472,   0.05926,   0.09116,  -0.03153,  -0.05362,  -0.05116,   0.08871,   0.01264,   0.06663,   0.03472,   0.02000,  -0.03153,   0.02491,   0.02736,   0.02736,   0.02000,   0.02000,  -0.04625,   0.14760,   0.03718,  -0.02417,  -0.03889,   0.05190,  -0.00208,  -0.05116,   0.02000,   0.00037,   0.00773,   0.04945,  -0.10024,  -0.01435,   0.14515,  -0.02417,  -0.00454,  -0.05852,  -0.05116,  -0.00208,   0.09116,   0.02000,  -0.02908,   0.03227,   0.03472,  -0.03153,   0.02000,  -0.03889,   0.09362,  -0.04871,  -0.09779,   0.02491,  -0.06589,   0.06172,   0.00773,   0.03718,   0.01264,   0.00037,   0.03963,  -0.03889,  -0.02172,   0.00282,   0.02000,   0.03472,   0.02736,  -0.04871
  -0.04625,   0.09116,   0.00773,   0.03718,  -0.04135,  -0.06343,  -0.05116,   0.05436,  -0.01926,   0.01264,   0.01755,  -0.06098,   0.01019,   0.09362,   0.02982,  -0.01435,  -0.04380,   0.04699,  -0.02908,   0.18932,   0.01264,  -0.00454,  -0.06098,   0.14024,  -0.00699,  -0.00208,   0.04209,  -0.03398,  -0.09288,   0.07399,  -0.02172,   0.00037,   0.00282,  -0.02662,   0.04209,  -0.02908,   0.08871,   0.04454,   0.16478,  -0.00699,   0.00282,  -0.02662,   0.06908,  -0.03153,  -0.01681,  -0.05362,   0.10098,  -0.06343,  -0.02662,   0.02000,  -0.01681,   0.07889,  -0.00945,  -0.02908,  -0.02662,   0.02245,   0.10098,  -0.05362,   0.02000,   0.00528,   0.05436,   0.02491,  -0.01435,  -0.02662
   0.03472,  -0.14196,  -0.06834,  -0.00208,  -0.04871,  -0.07079,   0.01019,  -0.06343,   0.03963,  -0.03644,  -0.05362,   0.02000,   0.03718,   0.01755,  -0.00945,   0.02491,  -0.00699,  -0.03889,  -0.02172,   0.01264,   0.06172,  -0.01190,  -0.00208,  -0.05362,   0.01755,  -0.03153,  -0.02172,  -0.01190,  -0.02172,   0.05681,  -0.10024,  -0.01681,  -0.07816,   0.06172,   0.05190,   0.05436,   0.12797,   0.03227,   0.01019,  -0.02417,   0.04945,   0.07153,   0.10098,   0.01509,  -0.05852,   0.03963,  -0.09533,   0.01019,  -0.03153,  -0.03644,  -0.02172,  -0.10515,   0.03227,   0.06172,   0.02000,  -0.04625,  -0.04135,   0.04209,  -0.01435,  -0.00208,   0.03227,   0.00773,   0.01019,   0.00773
   0.01755,  -0.05116,  -0.05116,  -0.02908,  -0.10024,  -0.08552,   0.03472,  -0.11742,   0.02736,   0.07644,  -0.06589,   0.05926,   0.00282,  -0.07079,   0.03472,   0.04454,   0.04699,  -0.01681,   0.00528,  -0.04135,   0.04454,  -0.01190,   0.00037,  -0.05116,  -0.05116,   0.00282,  -0.05607,   0.04209,   0.10834,   0.04945,  -0.06098,  -0.02417,  -0.00454,   0.04945,   0.09116,   0.07153,  -0.04135,   0.02736,  -0.03153,  -0.03153,   0.06663,   0.04945,   0.06908,   0.00528,   0.09362,   0.03963,  -0.01926,   0.00037,  -0.01926,  -0.03153,  -0.00945,  -0.08306,   0.01755,  -0.02417,  -0.11006,  -0.04871,  -0.03398,   0.04209,  -0.07079,  -0.00945,   0.02491,   0.02245,  -0.02172,   0.02000
   0.00528,   0.03963,  -0.07570,  -0.09288,  -0.06343,  -0.05116,  -0.06098,  -0.01926,  -0.06343,  -0.04380,  -0.01435,   0.11080,  -0.00454,   0.01264,   0.06908,  -0.01435,   0.09116,   0.00773,  -0.01190,  -0.08306,   0.02245,   0.00037,  -0.03153,  -0.01435,  -0.03398,   0.03472,  -0.03644,  -0.01435,   0.02982,   0.05681,  -0.01435,   0.00528,  -0.14686,   0.12552,   0.11325,   0.02982,   0.05681,   0.02736,  -0.04380,  -0.05607,   0.02491,  -0.02908,   0.09362,  -0.09533,   0.00037,   0.03472,   0.00037,   0.02245,  -0.01926,  -0.01190,  -0.02662,  -0.11987,  -0.00208,  -0.03889,  -0.03153,  -0.08061,   0.01264,   0.06172,  -0.03153,   0.01019,   0.01019,  -0.00454,  -0.01926,   0.02245
  -0.04871,  -0.06343,   0.07153,   0.06663,   0.02982,   0.02245,  -0.13705,  -0.02172,   0.01509,   0.06417,  -0.03398,  -0.08797,   0.00773,   0.06908,  -0.02417,   0.01755,  -0.09288,   0.04699,   0.04699,   0.00773,   0.05926,   0.00528,   0.00528,  -0.03644,   0.02982,  -0.07079,   0.00282,  -0.02172,  -0.04380,   0.02982,  -0.14686,   0.00282,  -0.10760,   0.09607,  -0.01435,  -0.03398,   0.04699,   0.00037,   0.01755,   0.10098,   0.05926,   0.02491,   0.04209,   0.00773,  -0.04380,  -0.01926,   0.03472,  -0.06343,  -0.10515,  -0.04871,   0.05681,  -0.10515,   0.04454,  -0.06834,   0.13043,  -0.06343,  -0.03398,   0.01264,   0.00037,  -0.04380,   0.02245,   0.01755,   0.06172,  -0.06343
  -0.03153,   0.01264,   0.05436,   0.06663,   0.04945,  -0.06343,  -0.07570,  -0.03153,   0.06908,   0.10343,  -0.05362,  -0.01435,   0.00773,  -0.01190,   0.04454,   0.04209,  -0.03644,   0.04209,   0.05926,  -0.05116,   0.09116,   0.02245,  -0.00699,  -0.07079,   0.02245,  -0.03889,   0.00773,  -0.01681,   0.09116,   0.06663,  -0.13214,  -0.00945,   0.09853,   0.04945,   0.05681,  -0.00454,  -0.18122,   0.02982,  -0.00208,   0.07644,   0.10834,   0.02000,   0.00773,   0.02491,   0.10589,   0.02491,   0.11570,  -0.03153,  -0.11987,  -0.04871,   0.04454,  -0.08061,  -0.05607,  -0.10024,  -0.04625,  -0.08306,   0.00773,  -0.00699,  -0.05362,  -0.01681,   0.02736,   0.05190,   0.02982,  -0.00454
  -0.06589,   0.20159,   0.00773,  -0.00699,   0.00037,  -0.06834,  -0.21557,   0.04699,  -0.01435,   0.02736,  -0.03644,  -0.04625,  -0.01681,   0.01509,   0.10098,   0.01019,   0.02491,   0.04699,   0.02000,  -0.08552,   0.05190,   0.00773,  -0.01435,   0.10589,   0.02491,   0.03227,  -0.01190,  -0.05116,  -0.05116,   0.08626,  -0.05362,   0.01019,  -0.21312,   0.04945,   0.05681,  -0.01435,   0.06908,   0.01264,   0.00773,   0.02982,   0.07399,  -0.01435,   0.07399,  -0.03153,   0.00528,   0.01019,   0.12307,  -0.04380,  -0.07816,  -0.06589,   0.03472,  -0.15423,   0.06663,  -0.04135,  -0.00699,  -0.11006,   0.00528,   0.04209,   0.00282,   0.01264,   0.03718,   0.02736,   0.01755,  -0.00208
  -0.09533,  -0.04871,  -0.05362,   0.13533,  -0.00945,   0.05926,  -0.10515,   0.00773,   0.01019,  -0.01190,  -0.00208,  -0.04871,  -0.00945,   0.02982,   0.03472,  -0.04871,  -0.13460,   0.05436,  -0.07816,   0.09607,  -0.02172,  -0.00945,  -0.00454,  -0.09042,   0.01509,  -0.08061,  -0.03153,  -0.05362,  -0.14686,   0.00773,  -0.15423,  -0.00945,   0.02245,  -0.04625,  -0.09288,  -0.11987,   0.01019,  -0.00454,   0.07153,  -0.00699,  -0.04135,  -0.01190,   0.00773,  -0.04871,  -0.07079,  -0.06343,   0.00528,  -0.06098,  -0.14686,  -0.02417,  -0.08797,  -0.05116,  -0.00945,   0.01509,   0.05926,   0.00282,   0.02245,  -0.05362,   0.02000,  -0.02417,   0.00037,   0.00528,   0.04209,  -0.03398
  -0.07079,   0.01264,   0.01755,   0.09362,   0.01264,  -0.09288,  -0.11006,   0.03718,   0.01755,   0.02491,   0.00037,  -0.06098,  -0.02417,  -0.00945,   0.05681,   0.00037,  -0.16159,   0.08135,  -0.04135,   0.08135,   0.02000,  -0.00454,  -0.01681,   0.02000,   0.02982,  -0.01681,   0.00037,  -0.04871,  -0.08061,   0.02491,  -0.13460,  -0.04380,   0.09607,  -0.06098,  -0.04135,  -0.09288,  -0.04625,  -0.03644,   0.09362,  -0.01926,  -0.02908,  -0.01926,  -0.00699,  -0.04871,  -0.08797,  -0.07570,   0.06172,  -0.11006,  -0.12969,   0.03472,  -0.14196,   0.06417,  -0.05852,   0.00773,  -0.11251,  -0.07325,   0.03718,  -0.04380,  -0.00454,  -0.03398,  -0.00699,   0.01509,   0.05190,  -0.05116
  -0.06834,   0.19914,  -0.06834,   0.03963,  -0.07325,  -0.01435,  -0.09779,   0.03227,  -0.01681,  -0.08061,   0.00282,  -0.02908,  -0.03644,  -0.02417,   0.05681,  -0.01926,  -0.04871,   0.07153,  -0.07079,   0.02245,   0.00037,   0.00528,  -0.00208,  -0.00699,  -0.00208,   0.02000,  -0.00945,  -0.11006,  -0.19840,   0.06172,  -0.04871,   0.02000,  -0.03153,  -0.02662,  -0.01435,  -0.06098,   0.10098,   0.00037,   0.06908,  -0.05607,  -0.04871,  -0.03644,   0.02000,  -0.09779,  -0.03644,  -0.03889,   0.03472,  -0.05362,  -0.08552,   0.02736,  -0.09533,   0.05190,   0.01509,   0.02491,   0.08135,  -0.03153,   0.05926,  -0.03153,   0.03227,  -0.01681,   0.02736,   0.01019,  -0.03644,  -0.02662
  -0.00945,  -0.05607,   0.01755,   0.04699,   0.10343,  -0.00945,  -0.00454,   0.00528,   0.01019,   0.02982,  -0.01681,  -0.08797,  -0.02417,  -0.01926,   0.09853,  -0.04380,  -0.12723,  -0.04625,   0.02736,  -0.00945,   0.00773,   0.01019,   0.02245,   0.07889,   0.01264,   0.04699,  -0.05116,   0.02000,   0.04454,  -0.03644,   0.05926,   0.01509,   0.02982,   0.05681,  -0.02417,  -0.00454,  -0.03153,  -0.06343,  -0.01926,   0.00773,  -0.02172,   0.00037,   0.00037,   0.01509,   0.03963,  -0.02417,   0.06908,  -0.09288,   0.02982,   0.03963,  -0.00945,  -0.01681,  -0.04135,  -0.04871,  -0.10024,  -0.02172,   0.01755,  -0.03889,   0.02736,   0.03472,   0.02982,   0.02736,   0.02491,   0.00528
   0.00282,  -0.07816,  -0.01681,   0.02491,   0.11570,  -0.01190,   0.01509,  -0.02908,   0.03718,  -0.03153,  -0.02662,  -0.09779,   0.00282,  -0.01190,   0.04945,  -0.02908,  -0.05852,  -0.02172,   0.04454,   0.03963,   0.02245,   0.01264,   0.01264,   0.07889,  -0.00208,  -0.02417,   0.01509,   0.00528,  -0.08552,  -0.02172,   0.04699,   0.01264,   0.03227,  -0.01926,  -0.01926,   0.02736,   0.04209,  -0.05116,   0.01019,   0.04209,  -0.02172,  -0.00699,  -0.02662,  -0.00454,   0.01755,  -0.04871,   0.04699,  -0.07079,   0.01264,   0.01755,   0.02000,   0.02982,  -0.02417,  -0.03153,  -0.03398,   0.03472,   0.04209,   0.06417,   0.07153,   0.03227,   0.03718,  -0.00208,  -0.00699,  -0.01681
  -0.00945,  -0.03153,   0.02245,   0.07644,   0.05926,  -0.07816,  -0.01681,   0.00037,  -0.00699,   0.01509,  -0.04625,  -0.11251,  -0.01435,   0.04454,   0.03718,  -0.02172,  -0.13214,  -0.05852,   0.01509,   0.06908,   0.04699,   0.02982,   0.01509,   0.03227,  -0.00945,  -0.02908,   0.02982,  -0.02417,  -0.02172,  -0.05362,   0.02491,   0.03227,   0.02000,   0.00528,  -0.05116,   0.04699,   0.06908,   0.00528,   0.03227,   0.11080,  -0.01926,  -0.02172,  -0.01190,  -0.00945,   0.08135,  -0.00454,   0.05190,  -0.04625,  -0.01435,  -0.01190,   0.00037,   0.09362,  -0.03889,  -0.08797,   0.01019,   0.01264,   0.02000,   0.03472,   0.06663,   0.00282,  -0.00208,   0.00037,  -0.05607,  -0.02417
   0.03227,   0.03472,  -0.02417,  -0.00945,   0.00037,  -0.06343,  -0.02908,   0.03227,   0.09362,  -0.00945,  -0.01926,  -0.01190,  -0.00454,  -0.11987,   0.11080,   0.00282,   0.02491,  -0.03889,  -0.00208,  -0.00699,  -0.00454,  -0.01681,  -0.01190,   0.07644,   0.00773,   0.06908,   0.00282,   0.04945,   0.06172,   0.00037,   0.03963,  -0.00699,   0.00282,  -0.01926,   0.02982,  -0.01926,  -0.03644,  -0.05116,   0.02491,  -0.03153,  -0.01926,   0.03227,  -0.00454,   0.03472,  -0.09779,   0.01264,   0.00528,  -0.02417,  -0.00454,  -0.03398,  -0.00945,  -0.05607,  -0.04625,   0.06663,  -0.15423,  -0.02417,  -0.02417,  -0.04871,   0.03718,  -0.03644,   0.02491,   0.00037,  -0.03153,  -0.00208
   0.01755,   0.05681,  -0.04135,   0.00282,  -0.04871,   0.10834,  -0.03398,   0.01264,  -0.00699,  -0.03153,  -0.02172,   0.01264,  -0.04380,  -0.12969,   0.06663,   0.00282,   0.13533,  -0.03398,   0.00037,  -0.00945,  -0.00699,   0.01019,   0.01019,   0.04945,   0.02736,   0.05681,  -0.05116,   0.04699,  -0.12233,   0.00528,   0.04209,  -0.02662,   0.00282,  -0.05607,  -0.02172,  -0.02172,  -0.01435,  -0.07570,   0.01755,  -0.02908,  -0.04135,   0.01019,  -0.03644,   0.00773,  -0.03153,   0.01019,  -0.00454,  -0.01190,  -0.02662,  -0.02417,   0.00528,   0.00773,   0.00282,   0.07644,   0.04699,   0.00773,  -0.04380,   0.05436,   0.00773,  -0.01681,   0.01019,   0.00037,  -0.03398,   0.02245
   0.03963,   0.04945,  -0.04380,   0.01019,  -0.09042,   0.09362,  -0.05852,  -0.00454,  -0.01190,  -0.02172,  -0.03153,   0.03472,  -0.02662,  -0.03153,   0.08135,  -0.04135,   0.01755,  -0.06098,  -0.03398,   0.00773,   0.02245,  -0.01435,  -0.00208,   0.00773,   0.01509,   0.00037,   0.00773,  -0.00945,  -0.05362,  -0.00699,   0.07153,   0.03718,   0.05926,  -0.06098,  -0.02417,  -0.01681,   0.02491,   0.01264,   0.01019,   0.04454,  -0.01681,   0.00773,  -0.01926,  -0.00208,   0.00773,   0.01264,   0.01019,  -0.04380,  -0.02417,  -0.02908,   0.01019,   0.07644,  -0.01926,  -0.04135,   0.08626,   0.02491,   0.01755,   0.00773,   0.01019,   0.01019,   0.02491,  -0.00208,  -0.05362,  -0.02908
   0.02982,   0.04454,   0.02245,  -0.10515,  -0.05607,  -0.00945,   0.04209,   0.00528,   0.08380,   0.08871,   0.00773,   0.09362,  -0.01435,  -0.00945,   0.01509,   0.01019,  -0.02908,   0.00282,   0.02245,   0.06172,   0.00528,   0.03963,   0.03718,   0.06663,   0.02982,   0.03963,   0.03472,   0.02491,   0.06663,  -0.01926,   0.01755,  -0.00208,   0.00282,  -0.03889,   0.05190,   0.01755,  -0.03644,   0.05190,   0.03227,   0.00282,   0.00037,   0.02491,   0.01755,  -0.00208,   0.02245,   0.02000,  -0.07816,   0.04945,   0.03963,   0.01019,   0.00282,  -0.03398,   0.05926,  -0.04380,  -0.08061,   0.01019,   0.02000,  -0.07816,   0.00282,  -0.02662,  -0.00699,   0.02736,  -0.04871,   0.00773
   0.06172,   0.02736,  -0.02172,  -0.04625,  -0.09533,   0.08871,   0.08135,   0.02000,  -0.05607,   0.01755,   0.03227,   0.13288,  -0.02172,  -0.02908,  -0.03398,  -0.01435,   0.04454,  -0.01926,   0.01509,   0.07399,  -0.01926,   0.00773,   0.01509,  -0.02662,   0.01509,   0.05681,   0.03718,   0.03963,  -0.02662,   0.01264,   0.01755,  -0.02662,  -0.05362,  -0.10024,   0.00282,   0.00773,   0.01019,   0.06417,   0.02982,   0.01264,  -0.00208,  -0.00208,   0.00528,  -0.02662,  -0.01681,   0.03472,  -0.13460,   0.09362,   0.07644,  -0.01926,   0.00773,   0.06417,   0.03227,  -0.03889,   0.04699,   0.07399,   0.05926,   0.03963,  -0.02417,  -0.01681,  -0.00208,  -0.01435,  -0.06589,   0.06417
   0.06417,  -0.05116,   0.00282,   0.00282,  -0.09042,   0.05436,  -0.00208,   0.00282,  -0.13950,   0.01509,   0.01755,   0.02245,   0.01509,   0.03472,  -0.07079,  -0.00945,  -0.05362,  -0.01435,   0.03227,   0.09362,   0.01019,   0.01755,   0.00037,  -0.06343,   0.01509,   0.00037,   0.08135,   0.02245,   0.04209,  -0.01681,   0.05190,   0.00282,  -0.03153,  -0.01435,   0.00282,   0.02000,   0.08626,   0.08380,  -0.00208,   0.11570,   0.00282,   0.00528,   0.00528,  -0.00208,  -0.00945,  -0.00208,  -0.09533,   0.02491,   0.09362,  -0.01435,   0.03227,   0.06908,   0.02245,  -0.09779,   0.02736,   0.05190,   0.02000,  -0.00699,   0.01019,  -0.01681,   0.00528,  -0.00699,  -0.08306,   0.03718
   0.05190,   0.00037,   0.07153,  -0.00208,  -0.03153,   0.04945,  -0.02908,  -0.02172,   0.07153,  -0.01681,   0.04454,  -0.08797,   0.00037,   0.00282,  -0.02172,  -0.02908,  -0.03889,   0.02736,   0.01755,  -0.00699,   0.02736,  -0.02662,   0.01755,   0.04699,  -0.04380,  -0.05607,   0.02000,  -0.01681,   0.05190,   0.04945,   0.03472,   0.02736,  -0.08552,   0.00773,   0.00773,  -0.03398,   0.04945,  -0.02662,   0.05190,   0.02000,   0.01019,   0.07399,   0.04454,   0.00773,  -0.09042,  -0.00699,   0.07644,   0.02245,  -0.07079,  -0.06589,   0.00528,  -0.06834,   0.08871,   0.01019,   0.07889,  -0.00945,   0.05436,  -0.01190,   0.01019,   0.03227,  -0.00699,   0.01755,   0.06663,   0.02736
   0.02000,  -0.04625,   0.09116,  -0.02662,   0.03227,   0.01755,  -0.01926,  -0.03644,   0.03963,   0.00282,   0.06417,  -0.07325,   0.01509,  -0.07816,   0.02982,   0.04209,  -0.11496,   0.00773,   0.00528,   0.00773,   0.00282,  -0.02908,  -0.00699,   0.08135,  -0.04625,   0.01755,   0.02000,  -0.02417,   0.08626,   0.01019,   0.06417,   0.01755,  -0.07816,   0.00528,   0.02736,   0.04454,  -0.01926,  -0.05362,   0.05681,   0.03227,   0.00528,   0.04699,   0.04945,  -0.00945,  -0.01435,  -0.02908,  -0.01435,   0.02736,  -0.06589,  -0.05362,  -0.04380,  -0.09042,   0.06663,   0.03227,  -0.01926,  -0.03644,   0.06417,  -0.05116,  -0.02417,  -0.00208,  -0.00945,   0.00773,   0.04699,   0.02982
   0.03227,   0.10343,  -0.00454,  -0.05116,   0.03472,  -0.06834,  -0.10760,  -0.01926,  -0.05116,  -0.04135,   0.01755,  -0.00945,   0.01755,   0.00773,  -0.00454,   0.02245,  -0.14686,   0.02000,   0.02000,  -0.02662,   0.01264,  -0.00699,   0.02982,  -0.01681,  -0.05607,  -0.00208,   0.00282,  -0.02662,   0.07153,   0.01019,   0.03963,   0.00773,  -0.09533,   0.00773,   0.06908,   0.02736,  -0.02417,  -0.02908,   0.02491,   0.02982,  -0.03153,   0.00528,   0.02982,   0.01264,   0.06172,  -0.00454,  -0.03153,   0.02000,  -0.08797,  -0.03153,  -0.05852,  -0.04135,   0.03963,  -0.02662,   0.02491,  -0.00699,  -0.02172,  -0.04625,   0.01755,  -0.02908,  -0.01435,   0.02245,   0.00037,  -0.03644
   0.01019,  -0.06098,   0.13779,  -0.01190,   0.00037,   0.12797,   0.12552,   0.00037,   0.05436,   0.02245,   0.05436,  -0.09533,   0.00037,  -0.06343,  -0.02172,  -0.01681,  -0.00945,   0.00528,  -0.02662,  -0.03153,   0.00282,  -0.01681,   0.01755,   0.06172,   0.00773,   0.00528,  -0.03398,  -0.02172,  -0.09779,   0.00528,  -0.01190,   0.00037,  -0.05362,   0.01019,  -0.03153,  -0.03889,   0.03718,  -0.05362,   0.07644,  -0.02662,  -0.01435,  -0.00454,   0.00773,  -0.01681,  -0.13460,   0.01509,  -0.03889,  -0.01190,  -0.11006,  -0.06589,   0.01019,  -0.08797,   0.00773,  -0.00699,   0.03718,  -0.01681,   0.02245,  -0.03398,   0.02736,   0.02736,  -0.03889,  -0.01435,   0.01019,  -0.01926
  -0.00454,  -0.10024,   0.12061,  -0.00945,   0.02736,   0.02736,   0.05190,  -0.03153,  -0.03398,   0.07399,   0.07399,   0.00773,  -0.04625,  -0.13950,   0.02736,   0.00282,   0.11080,  -0.01435,   0.00037,  -0.05362,   0.02000,  -0.06343,   0.00528,   0.14515,   0.00528,   0.00037,   0.00528,   0.01755,  -0.04135,   0.00037,  -0.00454,   0.01019,   0.12797,   0.01019,  -0.06098,  -0.01926,  -0.11251,  -0.01435,   0.04209,  -0.01190,  -0.02908,  -0.01435,   0.02491,  -0.07816,  -0.01190,  -0.01681,  -0.05852,   0.00773,  -0.09288,  -0.01681,  -0.00208,  -0.00454,  -0.01681,  -0.00454,  -0.13460,  -0.01681,   0.01264,  -0.03889,  -0.02172,   0.03963,  -0.04135,   0.03718,   0.01755,  -0.00945
  -0.02172,   0.10589,   0.00037,  -0.02417,  -0.00699,  -0.09042,  -0.08552,  -0.03398,  -0.10760,   0.00037,   0.04699,  -0.01435,  -0.00454,  -0.05116,  -0.00454,   0.01755,   0.09116,  -0.00208,  -0.00454,  -0.03153,  -0.00454,  -0.02908,  -0.00208,   0.13779,   0.01264,   0.00037,  -0.04135,  -0.05116,  -0.01681,  -0.00208,  -0.03889,   0.01264,  -0.00699,   0.05681,   0.02000,  -0.02908,   0.07889,  -0.02662,   0.00773,   0.00773,   0.03227,   0.02000,   0.02000,  -0.06834,   0.12552,   0.02736,  -0.07816,  -0.01681,  -0.06343,  -0.01435,   0.00773,  -0.02417,  -0.00945,  -0.04871,  -0.06343,   0.00528,  -0.00699,  -0.01681,  -0.01190,   0.03963,   0.01509,   0.01755,  -0.03644,  -0.02417
   0.03472,  -0.02417,   0.05190,   0.04945,   0.04209,   0.02982,   0.04945,   0.02245,   0.00773,  -0.06343,   0.02491,   0.04209,  -0.05362,   0.00528,  -0.00454,   0.03227,   0.05926,   0.02982,  -0.02417,   0.04945,  -0.02662,  -0.04135,  -0.01190,  -0.03398,  -0.02908,   0.02491,  -0.00699,   0.00282,  -0.09288,  -0.03644,  -0.04625,   0.01755,  -0.11742,  -0.06098,  -0.01681,  -0.01435,  -0.04625,   0.01019,   0.04454,  -0.05607,   0.02245,   0.00528,  -0.04135,  -0.04135,  -0.02417,  -0.02417,   0.01509,  -0.01435,  -0.03889,  -0.03398,  -0.06343,   0.00773,   0.00528,   0.03227,  -0.05362,  -0.01681,   0.03472,  -0.02172,   0.00773,   0.04454,  -0.03398,  -0.01190,   0.02000,   0.01019
  -0.02908,  -0.08061,   0.05190,   0.09116,   0.02736,  -0.06589,   0.01509,   0.05926,  -0.03398,  -0.01190,   0.03718,   0.01019,  -0.04135,  -0.03644,   0.00773,   0.02000,   0.06172,   0.02245,   0.00282,   0.17951,   0.05190,  -0.03889,  -0.00454,   0.11570,  -0.01190,   0.00037,   0.05190,   0.00282,  -0.05607,  -0.00945,  -0.08552,   0.02736,  -0.02172,  -0.01926,  -0.01190,   0.02982,  -0.07816,   0.01019,   0.04699,  -0.03644,  -0.02172,   0.00282,   0.00773,  -0.04380,  -0.05116,  -0.00699,   0.00528,  -0.05852,  -0.03153,   0.00282,  -0.04135,   0.04699,  -0.02172,  -0.02662,  -0.14441,   0.00037,   0.05926,  -0.06589,  -0.00454,   0.03227,   0.04209,   0.02245,   0.03472,  -0.03153
  -0.00454,   0.03227,  -0.04871,   0.05190,  -0.03889,  -0.06098,  -0.12478,   0.02491,  -0.10760,  -0.01926,   0.01019,  -0.02172,  -0.00208,   0.01264,  -0.00699,   0.04454,   0.09853,   0.02736,   0.01509,   0.11570,   0.03963,  -0.00699,  -0.00945,   0.03718,  -0.02662,   0.00773,   0.02982,   0.02000,  -0.04380,  -0.00699,  -0.08552,   0.05681,  -0.04625,  -0.02662,  -0.03153,   0.01755,   0.07889,   0.02982,   0.00773,   0.00282,   0.02245,   0.01264,   0.02245,  -0.05116,   0.04945,   0.00282,   0.00282,  -0.01435,  -0.02172,  -0.01190,   0.02736,   0.12307,  -0.03889,  -0.04380,   0.05926,  -0.00208,   0.01264,  -0.04380,   0.00773,   0.05436,   0.03472,   0.02982,  -0.01681,  -0.03153
  -0.06834,  -0.01190,   0.03472,   0.03718,   0.14270,   0.02982,   0.10098,   0.01264,   0.07399,  -0.05607,   0.05190,  -0.01435,  -0.03153,   0.26294,  -0.04135,  -0.05116,  -0.15177,  -0.00454,  -0.01190,  -0.03644,  -0.03153,  -0.02417,  -0.01926,   0.02245,   0.00528,   0.04699,  -0.05852,  -0.01435,  -0.04625,  -0.07325,   0.07153,  -0.01435,  -0.03398,  -0.00945,   0.01264,  -0.04625,  -0.06343,  -0.05116,   0.05436,  -0.05607,  -0.08306,  -0.03398,  -0.02662,  -0.01926,   0.03718,   0.00773,   0.05681,   0.02491,   0.09607,   0.09853,  -0.01190,   0.04945,  -0.06098,  -0.04380,  -0.15668,   0.18196,  -0.01190,  -0.14441,   0.00282,  -0.04871,  -0.02908,  -0.04380,   0.00282,  -0.00699
  -0.00945,  -0.09533,   0.05436,  -0.05607,   0.07644,  -0.10024,   0.22613,  -0.10024,  -0.05362,   0.02000,   0.03227,  -0.01681,   0.01509,   0.11325,  -0.12233,  -0.01681,  -0.12723,  -0.01190,   0.01755,   0.03718,   0.01019,  -0.01926,  -0.00945,  -0.03889,   0.03227,  -0.00454,  -0.04625,  -0.08061,  -0.24993,  -0.05116,   0.10589,   0.02245,  -0.04135,  -0.05116,  -0.00208,  -0.01435,   0.03963,  -0.06343,   0.00773,  -0.05852,  -0.03153,  -0.06834,  -0.01190,   0.08871,  -0.04380,  -0.03889,   0.03718,   0.04699,   0.11570,   0.02491,   0.00773,   0.06417,  -0.05852,   0.02982,  -0.10760,   0.20159,   0.06417,  -0.04871,   0.02982,  -0.02662,   0.00528,  -0.03889,   0.06663,   0.00037
  -0.06834,  -0.09533,   0.02736,   0.01264,   0.04209,  -0.11742,   0.23595,  -0.04871,   0.05926,   0.06908,   0.06663,  -0.15423,   0.04209,   0.17705,  -0.00454,  -0.06834,  -0.20330,  -0.00945,   0.03472,   0.07644,  -0.00945,  -0.03644,  -0.05116,  -0.00699,   0.01264,   0.01019,  -0.01926,  -0.04625,  -0.05852,  -0.05607,   0.15742,  -0.02662,  -0.07079,  -0.05116,  -0.04135,  -0.04380,  -0.00208,  -0.01681,   0.15497,   0.03718,  -0.02908,  -0.03153,  -0.00454,   0.06172,  -0.09533,  -0.02417,   0.02491,  -0.03889,   0.10343,  -0.06589,  -0.01926,   0.13043,  -0.04380,  -0.07079,  -0.11251,   0.12797,  -0.02662,  -0.07816,   0.00528,  -0.03398,  -0.00208,  -0.04380,   0.01019,  -0.00208
  -0.05116,   0.09362,  -0.03889,   0.00773,   0.03227,  -0.07816,  -0.04625,   0.01509,   0.07644,  -0.10760,   0.02736,   0.03472,  -0.01926,   0.17705,  -0.01190,  -0.03889,  -0.03889,  -0.00208,  -0.00945,  -0.06834,  -0.03153,  -0.01681,  -0.01190,  -0.07079,   0.02491,   0.01755,  -0.01435,  -0.00699,   0.07644,  -0.01190,   0.09362,  -0.02662,  -0.00945,  -0.01926,   0.01264,  -0.10024,  -0.02172,  -0.05362,   0.02736,  -0.05607,  -0.09533,  -0.01435,  -0.06589,   0.03227,  -0.00699,  -0.00699,   0.00528,  -0.06343,   0.08380,   0.09853,  -0.01681,   0.03718,  -0.05116,   0.01509,   0.02245,   0.12797,  -0.05607,  -0.04135,   0.01019,  -0.00699,  -0.00699,  -0.04135,   0.02245,   0.00282
   0.00037,   0.04209,  -0.00945,  -0.03889,  -0.04380,  -0.01681,  -0.08061,  -0.08061,  -0.09779,  -0.02908,   0.01264,   0.11080,   0.03718,  -0.11251,  -0.12723,  -0.00699,   0.20650,   0.03718,   0.03472,  -0.09288,  -0.05116,  -0.02172,   0.01264,  -0.12723,   0.04454,   0.03472,  -0.06834,  -0.06589,  -0.12969,   0.00528,   0.10343,  -0.00454,  -0.02417,  -0.07079,   0.03472,  -0.03644,  -0.00454,  -0.08797,  -0.06589,  -0.03398,  -0.07570,  -0.02417,  -0.07816,   0.06172,   0.03227,   0.00528,  -0.04380,   0.07889,   0.09853,   0.04945,  -0.01435,   0.06172,   0.00037,   0.06417,   0.18441,   0.18932,   0.00282,   0.10343,   0.00528,   0.00037,  -0.00945,  -0.01681,  -0.03889,   0.00282
  -0.02417,   0.02245,  -0.02172,   0.04209,   0.03472,   0.01755,  -0.09779,   0.08135,   0.17214,  -0.08552,  -0.01190,   0.16233,   0.03472,   0.17460,  -0.01190,  -0.04871,   0.06172,   0.00282,   0.01509,   0.02491,  -0.02417,  -0.03644,  -0.03644,  -0.02662,   0.02736,   0.02000,   0.03472,  -0.09042,   0.00773,  -0.01926,   0.08380,  -0.03153,  -0.01435,  -0.10760,   0.00773,  -0.06098,  -0.11496,  -0.03153,   0.04699,   0.00773,  -0.06589,  -0.00699,  -0.06589,   0.04209,   0.16724,  -0.01926,  -0.00945,   0.00037,   0.05681,   0.00282,  -0.05852,   0.06417,  -0.10269,  -0.01926,   0.11080,   0.09853,  -0.05362,  -0.06589,   0.01509,   0.00282,   0.00282,  -0.03153,   0.00282,  -0.00208
   0.01509,   0.05436,  -0.09533,   0.02736,   0.03227,  -0.04380,  -0.07816,   0.05681,   0.05926,  -0.02662,   0.01264,  -0.05852,  -0.07079,   0.25558,   0.09853,   0.02491,  -0.15668,  -0.09042,   0.02245,  -0.01435,  -0.03153,   0.02245,   0.03718,  -0.08552,  -0.02417,   0.03227,   0.05926,   0.04454,   0.18932,  -0.01926,   0.03472,   0.02491,   0.03963,   0.05681,   0.02245,  -0.00699,   0.05190,   0.13533,  -0.06343,   0.01509,  -0.04625,   0.01509,  -0.01926,   0.03963,   0.03718,   0.00282,  -0.10269,  -0.07079,  -0.02417,   0.06172,   0.01509,   0.12797,  -0.09042,   0.02000,  -0.06098,   0.05436,  -0.14686,  -0.03889,   0.07399,   0.01755,   0.00773,   0.00282,  -0.01190,   0.06172
   0.02982,  -0.00699,  -0.14196,  -0.00454,  -0.07816,  -0.01681,  -0.15668,  -0.00454,  -0.09042,  -0.05607,   0.00282,   0.14024,  -0.05852,   0.10589,  -0.01190,   0.01019,   0.00773,  -0.02417,   0.02736,  -0.04135,  -0.03153,  -0.01681,   0.02000,  -0.21312,   0.03227,   0.04209,   0.00773,   0.06908,   0.04209,  -0.00208,  -0.00699,   0.03227,  -0.00945,  -0.02908,  -0.04625,   0.07399,  -0.03398,   0.10589,  -0.19104,  -0.02908,   0.03718,   0.01264,  -0.07079,   0.02982,   0.07399,   0.02245,  -0.16159,   0.07889,  -0.02417,   0.09607,  -0.03398,   0.20895,  -0.02662,   0.09853,   0.14515,   0.09116,  -0.16404,   0.13533,   0.00037,   0.02000,   0.00282,  -0.00699,  -0.01190,  -0.00699
  -0.00945,  -0.07816,  -0.00208,   0.02245,  -0.03398,   0.02245,  -0.11496,   0.07644,   0.04945,  -0.10760,  -0.01435,   0.15497,  -0.03398,   0.18196,   0.05190,  -0.03153,  -0.01926,  -0.02662,   0.05681,   0.08135,  -0.02172,  -0.03398,  -0.00699,  -0.04871,   0.02982,  -0.03153,   0.12307,   0.01755,   0.10834,  -0.02908,  -0.00699,  -0.01435,  -0.00699,  -0.05852,  -0.00945,   0.03963,  -0.12723,   0.07644,  -0.03398,   0.04699,   0.01755,   0.01264,  -0.02417,  -0.05116,   0.12061,   0.01755,  -0.10024,  -0.06834,   0.00528,  -0.01926,  -0.02172,   0.12061,  -0.10024,  -0.05116,   0.03718,  -0.00208,  -0.15177,  -0.05362,   0.02000,  -0.00208,   0.02000,  -0.02662,  -0.04380,   0.01509
  -0.03398,  -0.00208,  -0.11006,   0.00528,   0.02000,   0.07399,  -0.00454,  -0.01926,   0.11570,   0.03227,  -0.04135,  -0.04625,  -0.02172,  -0.04871,  -0.02172,   0.01019,   0.08380,  -0.02662,   0.02491,   0.04209,  -0.02172,  -0.00208,   0.00282,  -0.08306,   0.02736,  -0.04625,   0.00282,  -0.00699,   0.06908,  -0.04625,  -0.01926,   0.00528,   0.06172,   0.02982,  -0.01435,   0.00528,  -0.00454,  -0.00208,   0.00037,   0.06908,  -0.00454,  -0.04625,  -0.02172,   0.03963,  -0.03398,  -0.01190,  -0.10024,   0.02245,   0.02982,  -0.01926,  -0.04380,  -0.06589,  -0.03644,   0.00773,   0.10343,  -0.01926,   0.00528,   0.03227,  -0.00699,  -0.05116,  -0.01681,  -0.03153,  -0.07816,  -0.01190
  -0.00454,   0.02245,  -0.02417,  -0.00208,   0.13779,   0.08380,  -0.01926,  -0.02908,   0.01755,   0.01019,  -0.00699,   0.00282,  -0.03889,  -0.01190,  -0.01681,   0.02736,   0.02982,   0.00528,   0.00282,   0.02982,  -0.01190,   0.01019,  -0.00454,  -0.07325,   0.01264,  -0.01435,  -0.05607,   0.00282,   0.04454,  -0.04625,  -0.03889,   0.01755,   0.03963,   0.03963,  -0.05116,   0.02245,  -0.13705,  -0.04625,   0.04454,   0.02982,   0.01509,  -0.04135,   0.01019,  -0.00945,  -0.05607,  -0.06098,  -0.05852,   0.01755,  -0.00454,  -0.07570,  -0.02417,  -0.09779,  -0.02908,   0.04454,   0.09362,   0.00037,   0.00037,  -0.05116,  -0.01435,  -0.02908,  -0.01926,  -0.01681,  -0.08306,   0.03227
  -0.01435,   0.07399,   0.00282,   0.00282,   0.05436,   0.06663,   0.02982,  -0.02172,  -0.06834,  -0.01435,   0.00773,  -0.02908,  -0.05607,  -0.00945,   0.00773,  -0.00699,   0.01755,  -0.02172,  -0.02172,   0.01019,  -0.00454,   0.02982,  -0.01190,  -0.04625,   0.02736,  -0.02908,  -0.03889,   0.01019,   0.02000,  -0.06098,  -0.01190,   0.01755,   0.02245,   0.06663,  -0.04625,   0.02491,  -0.06589,   0.00282,   0.06417,   0.04209,  -0.01190,  -0.03889,  -0.00454,  -0.03889,  -0.00208,  -0.02172,  -0.09288,   0.03227,   0.01755,  -0.00208,  -0.03153,  -0.14932,   0.03718,  -0.01190,   0.00528,   0.01755,  -0.03153,  -0.00945,   0.00773,  -0.00699,  -0.01435,  -0.02662,  -0.06343,   0.02736
  -0.00945,  -0.02662,   0.02245,   0.02245,  -0.02417,   0.06663,   0.00282,  -0.00454,   0.05436,   0.11080,  -0.01190,  -0.06098,   0.02491,  -0.12233,  -0.00945,   0.02491,  -0.00454,   0.02491,   0.00282,   0.00037,  -0.02908,   0.00773,   0.02736,   0.10098,   0.00528,   0.01264,   0.03963,   0.02000,   0.06908,  -0.05116,  -0.02908,   0.01264,   0.11080,   0.04209,   0.02245,  -0.01681,  -0.05852,   0.01019,   0.01264,   0.00528,   0.04699,  -0.00699,   0.01264,  -0.00945,  -0.02908,  -0.05116,  -0.03889,   0.04209,  -0.02172,   0.01755,   0.02491,  -0.10024,   0.00773,  -0.03398,  -0.02908,  -0.02172,  -0.04871,   0.06417,  -0.03153,  -0.03644,  -0.01681,   0.01509,  -0.08552,   0.00773
   0.01509,  -0.02417,   0.08380,   0.01755,   0.11570,  -0.00208,   0.10834,   0.04945,   0.02491,   0.13043,  -0.02662,   0.04945,   0.01019,   0.11816,   0.00037,   0.00773,  -0.09779,   0.02982,  -0.00208,   0.04945,  -0.01926,   0.05436,  -0.00208,   0.14760,  -0.00699,   0.00282,   0.01755,   0.08380,  -0.07816,  -0.03644,  -0.06098,   0.03227,  -0.04871,   0.02491,  -0.00699,   0.00528,   0.03227,   0.02491,   0.00282,  -0.02662,   0.04209,  -0.01190,   0.00528,  -0.03153,  -0.08306,  -0.01681,   0.05926,  -0.01926,  -0.00699,  -0.05852,   0.03472,  -0.12969,  -0.01190,  -0.01681,  -0.15423,  -0.06098,  -0.00945,  -0.07570,  -0.01681,  -0.02172,  -0.01435,   0.00773,   0.02245,   0.00528
   0.00282,   0.02245,   0.08135,   0.06417,   0.02982,  -0.03644,   0.19423,   0.01019,  -0.10024,   0.09362,   0.00037,  -0.11496,  -0.00699,   0.02982,   0.02000,  -0.03644,  -0.11987,   0.00037,  -0.03889,  -0.00208,  -0.02908,   0.03472,   0.00037,   0.16724,   0.00037,   0.01755,   0.02491,   0.05436,  -0.08306,  -0.02172,  -0.03644,   0.00528,   0.01509,   0.08380,   0.00528,  -0.01435,   0.08380,   0.02982,   0.01509,   0.01755,   0.03472,  -0.01926,   0.02491,  -0.09288,  -0.07325,  -0.02172,   0.00282,  -0.00454,  -0.02908,  -0.05116,   0.02982,  -0.10269,   0.02000,  -0.10515,  -0.21557,  -0.02172,  -0.01190,  -0.01435,   0.00282,   0.00528,  -0.00454,   0.00282,  -0.01435,  -0.01435
  -0.06589,  -0.00208,   0.02491,  -0.06098,   0.00037,  -0.04380,  -0.09288,  -0.03889,   0.01755,   0.08135,  -0.00945,   0.01019,  -0.01190,  -0.12969,  -0.04871,  -0.00208,   0.04454,   0.02982,   0.00528,   0.00282,  -0.00699,   0.01019,  -0.00454,   0.01755,   0.01509,  -0.02908,   0.03963,   0.01755,   0.12552,  -0.00208,  -0.04380,  -0.00945,   0.10589,  -0.01190,   0.02736,  -0.06834,  -0.02417,  -0.03398,   0.01019,  -0.02172,   0.07153,   0.00528,   0.04945,   0.02000,   0.05681,   0.00037,  -0.05607,  -0.01435,   0.01509,   0.01509,  -0.04135,  -0.04380,   0.03472,   0.02491,   0.11325,  -0.00945,   0.02736,   0.03718,   0.00282,  -0.02172,  -0.03398,  -0.02908,  -0.09042,   0.04945
  -0.05607,  -0.05607,   0.04699,  -0.05852,  -0.01681,  -0.11987,   0.05190,  -0.05116,   0.02000,   0.12552,  -0.03398,   0.01264,  -0.01926,   0.03227,  -0.03153,  -0.02172,  -0.11987,   0.02245,  -0.00454,   0.03227,  -0.01681,   0.03472,   0.01019,   0.09853,  -0.00208,  -0.03644,   0.07153,  -0.00699,   0.00773,   0.00282,  -0.03644,   0.01019,   0.01509,  -0.06098,   0.03472,  -0.12723,   0.04209,  -0.00454,   0.06417,  -0.06589,   0.06908,   0.01019,   0.03718,  -0.00699,  -0.06589,  -0.01926,   0.02491,  -0.07079,   0.02736,   0.00282,  -0.01435,   0.00528,  -0.00699,  -0.05116,  -0.06834,   0.00037,   0.04945,  -0.05116,  -0.01681,  -0.02172,  -0.02908,  -0.03889,  -0.01926,   0.01509
  -0.03889,  -0.02172,  -0.00208,  -0.05362,  -0.06589,  -0.05607,   0.11325,  -0.05362,  -0.01926,   0.06908,  -0.00208,  -0.06343,  -0.02662,  -0.01190,  -0.05607,  -0.03398,  -0.07816,   0.00037,   0.00528,   0.08135,  -0.01435,   0.02000,  -0.02662,   0.05681,  -0.01190,  -0.03398,   0.04209,  -0.00699,  -0.03644,   0.02000,  -0.04135,   0.00282,   0.08380,   0.01755,   0.04454,  -0.10515,   0.07153,   0.07644,   0.05926,  -0.00208,   0.01264,  -0.02172,   0.02736,  -0.03889,  -0.09288,  -0.02417,  -0.06343,   0.00282,   0.04945,   0.00037,  -0.04135,   0.01755,   0.01509,  -0.02662,  -0.01190,   0.01264,   0.03472,  -0.00454,   0.01264,   0.00528,  -0.01926,   0.01509,  -0.05852,  -0.01681
   0.01019,   0.00282,   0.00773,  -0.01190,  -0.02417,   0.06908,   0.03718,  -0.04871,  -0.00454,   0.05190,  -0.03644,   0.05926,  -0.03644,  -0.01926,  -0.01435,  -0.01435,   0.06417,  -0.03153,   0.01755,  -0.00699,  -0.00208,   0.02245,   0.02000,  -0.00208,   0.06172,   0.04209,   0.00773,   0.00282,  -0.06834,  -0.03398,   0.05190,  -0.01435,   0.00528,   0.08871,  -0.04871,  -0.00454,   0.06663,   0.01264,  -0.02417,  -0.02172,  -0.01190,   0.00037,   0.02245,   0.01264,   0.03718,  -0.01926,  -0.02908,  -0.00945,   0.01509,   0.02491,   0.00282,  -0.08306,   0.04209,  -0.03398,   0.01509,   0.00037,  -0.06343,   0.01509,   0.04209,  -0.03889,  -0.01926,   0.01755,   0.02491,   0.04699
   0.00773,  -0.04625,   0.02000,   0.02491,   0.04699,  -0.01435,   0.04209,   0.02736,   0.00773,   0.06908,  -0.05362,   0.05926,  -0.00945,   0.01019,  -0.02662,   0.03227,   0.06663,  -0.03644,   0.02000,   0.06172,   0.03472,   0.02982,   0.01509,   0.02736,   0.04699,   0.01019,   0.04945,   0.00037,  -0.00454,  -0.03889,   0.02000,  -0.03644,   0.02491,   0.01509,  -0.02908,   0.02491,   0.06663,   0.03472,  -0.01926,   0.01509,  -0.01926,  -0.00208,   0.04699,  -0.01435,   0.05681,  -0.04380,  -0.02908,  -0.03398,   0.01509,   0.02245,   0.00037,  -0.00454,   0.02736,  -0.09042,  -0.00699,  -0.00699,  -0.00699,   0.05190,   0.03963,  -0.01190,  -0.00454,  -0.01926,   0.02000,   0.01019
  -0.00945,   0.02245,   0.02982,   0.00282,   0.04454,  -0.00945,  -0.01926,   0.03718,  -0.03153,   0.01509,  -0.05607,   0.06908,  -0.01190,  -0.02908,  -0.01926,  -0.00945,   0.09116,  -0.02662,   0.01509,  -0.01681,   0.01509,   0.03227,  -0.03889,   0.03472,   0.06417,  -0.00699,   0.02245,  -0.06343,  -0.07325,  -0.03889,  -0.00454,  -0.05852,  -0.07325,  -0.00945,  -0.02662,   0.02245,   0.02491,   0.00528,  -0.02908,   0.00282,   0.01509,  -0.03398,   0.00282,   0.00282,   0.04209,  -0.03644,  -0.04135,   0.01019,   0.00037,   0.04454,   0.00528,  -0.06589,   0.05190,  -0.05116,   0.08135,  -0.03644,  -0.06098,  -0.02172,   0.05436,  -0.04380,  -0.01681,  -0.01435,  -0.04380,  -0.01926
   0.04699,   0.01755,  -0.01435,   0.01264,  -0.04625,   0.07644,   0.02000,  -0.01435,  -0.02908,   0.02000,  -0.00208,  -0.00945,  -0.01926,   0.01264,   0.03963,  -0.00454,  -0.04135,  -0.01190,  -0.00454,   0.03472,  -0.01435,   0.02245,   0.00528,  -0.02908,  -0.02172,  -0.01681,   0.00773,  -0.01190,   0.04209,  -0.07079,  -0.00945,   0.00528,   0.03963,   0.01019,  -0.03889,   0.03472,  -0.01681,   0.00773,  -0.00454,   0.01019,  -0.03644,  -0.01681,  -0.01681,  -0.00208,  -0.01190,  -0.04380,  -0.00208,  -0.00208,   0.04209,   0.00282,   0.00037,  -0.00454,  -0.03644,  -0.04625,  -0.01435,  -0.02172,  -0.00945,   0.03227,   0.00528,  -0.06834,  -0.00945,  -0.00454,  -0.02172,  -0.01190
   0.04945,   0.01264,  -0.03153,   0.02000,  -0.00699,  -0.00454,  -0.01435,   0.00528,   0.01509,  -0.00454,  -0.03153,  -0.08306,  -0.01190,   0.08380,   0.06172,   0.00037,  -0.09042,  -0.00945,  -0.00208,   0.03227,   0.04699,   0.00773,   0.00282,   0.05926,  -0.01435,  -0.00699,   0.06417,  -0.01926,   0.06908,  -0.01681,   0.00282,  -0.01681,   0.00037,  -0.01435,  -0.02417,   0.02000,   0.08626,   0.03718,   0.03963,   0.06417,  -0.02417,  -0.00945,  -0.03889,   0.03718,  -0.04871,  -0.02908,   0.04454,  -0.05852,   0.02491,   0.01509,  -0.03153,   0.05190,  -0.06589,  -0.02417,  -0.11006,  -0.03153,   0.05681,   0.01509,   0.01264,  -0.03644,   0.01264,  -0.01926,  -0.00208,  -0.04135
   0.03227,   0.03227,  -0.01926,   0.00037,  -0.00945,  -0.01681,  -0.05116,  -0.01926,  -0.08306,  -0.02662,  -0.05362,  -0.04135,  -0.02417,   0.02000,   0.04699,  -0.03398,  -0.01190,  -0.02908,  -0.02417,  -0.00699,   0.02982,   0.00037,  -0.01190,   0.01019,   0.00773,   0.01509,   0.04699,  -0.03889,   0.00282,  -0.01435,   0.02982,  -0.02662,  -0.01926,  -0.03153,  -0.02908,   0.02000,   0.05926,  -0.00699,   0.00037,   0.01755,  -0.01435,  -0.01435,  -0.01435,  -0.00208,  -0.12233,  -0.00945,   0.08380,  -0.01681,   0.03227,   0.05436,   0.04699,   0.04454,  -0.05852,  -0.01681,  -0.05852,  -0.04135,  -0.00454,   0.02491,  -0.00945,  -0.05852,   0.06663,  -0.03644,  -0.01190,  -0.04380
   0.04945,   0.01019,   0.02491,  -0.00454,  -0.03398,   0.11816,   0.05681,   0.02000,  -0.01190,   0.00773,   0.02736,   0.00773,   0.01509,  -0.05362,   0.04454,   0.00037,  -0.09042,  -0.00699,   0.01264,   0.04209,   0.01019,   0.02245,   0.01264,   0.04454,  -0.01926,   0.00773,   0.00773,  -0.01681,   0.00037,   0.00282,  -0.04625,  -0.01926,   0.00282,   0.00282,   0.00773,  -0.04380,  -0.04871,  -0.05362,   0.05436,   0.01019,   0.00282,   0.03227,   0.03472,  -0.06343,  -0.03889,  -0.00454,  -0.00699,   0.02245,   0.00773,  -0.02172,   0.03472,  -0.04871,   0.01755,  -0.03644,   0.03472,  -0.00945,   0.05190,  -0.05852,   0.00528,  -0.04871,  -0.00208,  -0.01681,   0.03472,  -0.01926
   0.08135,  -0.01926,  -0.02662,   0.02491,  -0.00699,   0.05926,   0.01264,   0.01019,  -0.00454,  -0.01190,   0.02736,  -0.11496,   0.02982,  -0.01926,   0.02982,  -0.00454,  -0.10760,  -0.00208,   0.00282,   0.07153,   0.01509,   0.03718,  -0.01926,   0.03472,   0.01264,  -0.00945,   0.07153,  -0.01681,   0.15742,  -0.01190,  -0.01681,  -0.00945,   0.02245,  -0.03398,   0.02491,  -0.00208,   0.03227,  -0.01926,   0.09362,   0.05681,  -0.04625,   0.02736,   0.02736,  -0.02172,  -0.06834,   0.00773,   0.00282,   0.03227,   0.04454,  -0.01190,   0.02491,   0.02491,   0.01264,  -0.02417,   0.06908,   0.03963,   0.10098,   0.00282,   0.02491,  -0.06589,   0.00282,  -0.02172,  -0.02172,  -0.02417
   0.10834,   0.04209,  -0.02417,   0.01509,  -0.05852,  -0.02172,  -0.05852,  -0.02908,  -0.10515,  -0.01435,  -0.00454,  -0.05852,  -0.00454,  -0.02662,  -0.01435,  -0.03153,   0.00037,   0.01509,   0.02245,   0.02000,   0.00037,  -0.00454,  -0.03889,  -0.00454,   0.02982,   0.00773,   0.03718,  -0.03398,   0.02982,   0.02982,   0.02736,   0.00528,  -0.02172,  -0.00945,   0.03472,   0.00037,   0.04945,  -0.05116,   0.09607,   0.02982,  -0.02172,   0.03472,  -0.02417,  -0.00699,  -0.15668,   0.01755,   0.04454,   0.07889,   0.05436,   0.01264,   0.06663,   0.04699,   0.03227,  -0.04625,   0.01019,   0.03472,   0.02245,   0.00773,   0.03718,  -0.08552,   0.02736,  -0.02417,  -0.03644,  -0.02908
   0.00773,   0.01264,   0.03227,   0.00773,  -0.00699,   0.07153,  -0.05607,   0.00528,   0.04209,  -0.03889,  -0.04871,  -0.06589,   0.01019,  -0.01190,  -0.06098,  -0.02662,  -0.00454,   0.04209,   0.03718,   0.03227,   0.01019,  -0.01926,   0.02491,  -0.00208,  -0.00208,  -0.01681,  -0.03153,  -0.03398,  -0.03644,   0.02245,  -0.03398,   0.03472,  -0.02172,   0.02736,   0.02491,   0.03718,   0.00037,  -0.04625,   0.00773,   0.00037,   0.01755,   0.03718,   0.02000,   0.02736,  -0.03889,  -0.01681,   0.03963,   0.03963,  -0.03644,   0.02736,   0.04699,  -0.02662,   0.01509,   0.01019,   0.00528,   0.01264,   0.11080,  -0.04380,  -0.02908,   0.02245,   0.04209,   0.02982,   0.02736,   0.00773
  -0.01435,   0.01264,  -0.02172,  -0.00699,  -0.00699,  -0.01190,  -0.02908,   0.02245,  -0.01190,   0.00528,   0.01264,  -0.00208,   0.03227,   0.00528,  -0.00945,   0.03472,  -0.01435,   0.01509,   0.02491,   0.00773,   0.01509,   0.00773,   0.02245,   0.04454,  -0.03153,  -0.00208,  -0.03398,   0.02000,  -0.04380,   0.01509,  -0.00208,   0.03227,  -0.00945,   0.02982,   0.02245,   0.06663,   0.01019,  -0.02662,   0.01264,  -0.03644,  -0.03153,   0.02245,   0.02491,   0.03227,   0.03227,   0.01755,   0.01019,  -0.00699,  -0.02662,   0.00282,   0.03227,  -0.04380,   0.00528,   0.01509,  -0.06098,   0.02982,   0.04699,  -0.03398,  -0.03644,   0.06172,   0.03472,   0.00773,   0.02736,   0.00282
   0.00528,   0.00528,   0.01509,  -0.02908,   0.01019,  -0.01681,  -0.01926,  -0.02662,   0.00528,  -0.00945,   0.02491,   0.00773,   0.04454,  -0.02908,  -0.02662,  -0.00454,   0.04699,   0.01509,   0.00773,   0.01264,  -0.01435,   0.01264,   0.02736,   0.05926,  -0.01435,   0.01755,   0.01509,  -0.01926,  -0.04135,  -0.01681,   0.00037,   0.01264,  -0.01681,   0.00528,  -0.01926,   0.06908,  -0.01926,  -0.04625,  -0.00945,  -0.00208,  -0.03889,   0.03963,  -0.00945,   0.01019,   0.03472,   0.01755,   0.01509,   0.00037,  -0.03153,  -0.00454,   0.01509,  -0.02172,   0.00282,   0.00773,   0.00528,  -0.01190,   0.02245,  -0.01926,  -0.00454,   0.05436,   0.05190,   0.02000,   0.00528,   0.00528
  -0.01435,  -0.01190,   0.01264,  -0.00699,   0.01264,   0.10589,  -0.03398,   0.02491,  -0.00945,  -0.00945,  -0.02908,  -0.00454,  -0.00454,  -0.01435,  -0.03398,  -0.02662,  -0.05362,   0.01755,   0.03718,  -0.00945,   0.00773,  -0.02908,   0.03718,   0.06172,  -0.00208,  -0.00945,  -0.02417,   0.00528,  -0.00454,   0.01019,  -0.04380,   0.00282,   0.01509,   0.00282,   0.00773,   0.01509,  -0.03153,   0.02736,  -0.01681,  -0.00699,   0.00528,   0.02245,   0.02736,  -0.02662,  -0.07816,   0.02736,  -0.00454,  -0.00699,  -0.03889,  -0.01926,   0.02736,   0.00037,   0.01509,   0.05190,  -0.01926,   0.01019,   0.05436,  -0.01926,  -0.01435,   0.00037,   0.04209,   0.01755,  -0.02662,  -0.00945
  -0.02662,  -0.03153,  -0.00945,   0.00528,  -0.01926,   0.01509,  -0.05607,   0.05926,   0.01264,   0.02245,  -0.01681,  -0.04625,   0.00037,   0.02491,  -0.00208,   0.01019,  -0.03398,   0.03472,   0.03227,   0.06417,   0.02000,  -0.01926,   0.03472,   0.05926,  -0.01926,   0.00773,   0.00037,   0.00773,  -0.00699,   0.00037,  -0.02417,   0.00528,   0.03963,   0.03227,  -0.00699,   0.02982,  -0.00208,  -0.00208,  -0.01435,   0.00282,  -0.01435,  -0.00208,   0.04454,   0.02736,   0.01264,   0.01264,  -0.00454,  -0.00945,  -0.01190,  -0.00454,   0.03472,   0.03472,  -0.03889,   0.06663,  -0.08061,   0.05926,   0.03718,  -0.02417,  -0.01681,   0.03963,   0.02982,   0.01755,  -0.00454,   0.02245
  -0.01926,   0.00528,   0.01264,  -0.01435,   0.01019,   0.05190,  -0.04625,   0.02245,  -0.06098,  -0.00945,  -0.01435,   0.00773,  -0.00208,  -0.02417,  -0.04380,  -0.00208,   0.00037,   0.01019,  -0.02172,   0.01019,  -0.01681,  -0.01435,   0.02736,   0.06663,  -0.00699,   0.01509,  -0.00208,  -0.01435,   0.01755,  -0.03398,  -0.01681,   0.02245,   0.00528,   0.02245,  -0.00208,   0.02982,  -0.02662,  -0.01435,   0.00528,   0.00037,  -0.01190,   0.00037,   0.04945,  -0.00208,   0.03963,  -0.00454,   0.00528,   0.01019,  -0.02662,  -0.02662,   0.01755,  -0.00454,  -0.01435,   0.05190,   0.00528,   0.01264,   0.02491,  -0.01926,  -0.00945,   0.05436,   0.01019,   0.01509,   0.01509,   0.02000
   0.03472,  -0.01190,  -0.02417,   0.00037,   0.00037,   0.03963,   0.04454,  -0.00208,  -0.01190,   0.00773,  -0.00208,   0.05190,   0.01755,   0.03718,  -0.02908,   0.04699,  -0.02172,   0.01264,   0.04699,   0.04454,   0.04699,  -0.03398,   0.06172,   0.01509,  -0.00699,   0.04945,  -0.02662,  -0.04135,   0.02982,  -0.04871,  -0.01435,   0.01755,  -0.03153,  -0.00699,  -0.06343,   0.00528,  -0.02172,  -0.00699,   0.01509,  -0.02417,   0.00773,  -0.00699,  -0.05116,  -0.00699,  -0.01926,  -0.00945,  -0.05852,   0.02736,  -0.00454,   0.01509,   0.01509,   0.02491,  -0.00208,   0.02736,   0.00528,   0.02982,   0.04945,  -0.02172,  -0.00454,   0.04454,   0.02491,  -0.00699,  -0.05116,   0.05681
   0.05926,  -0.08306,   0.00773,   0.01019,  -0.02172,  -0.01681,   0.00773,  -0.00454,   0.00037,   0.01755,  -0.02172,   0.02000,   0.00037,   0.07153,  -0.02417,   0.07399,  -0.03644,   0.01019,   0.04209,   0.07644,   0.03963,   0.01019,   0.03227,   0.03227,  -0.02908,   0.04699,  -0.02662,   0.01755,   0.02245,  -0.06098,  -0.02417,   0.01264,  -0.00454,   0.00037,  -0.07570,   0.01019,  -0.03644,  -0.01190,   0.01755,  -0.03398,   0.01755,  -0.00699,  -0.06098,   0.03472,   0.00773,  -0.00945,  -0.05362,   0.02245,   0.00773,  -0.01190,   0.02491,   0.01264,   0.00037,   0.02982,  -0.02172,   0.02000,   0.03718,   0.00528,  -0.03398,   0.05681,   0.03227,  -0.02662,  -0.00454,   0.06663
   0.04454,   0.01264,  -0.00945,  -0.00945,  -0.01190,   0.03963,   0.02491,  -0.01681,  -0.03398,  -0.04135,  -0.02417,   0.02491,  -0.01435,  -0.00945,   0.01264,   0.06908,  -0.01190,   0.05681,   0.03227,   0.06417,   0.02982,   0.02736,   0.05190,  -0.00945,  -0.03153,  -0.01435,  -0.04380,  -0.01926,  -0.00208,  -0.03644,  -0.00699,   0.02000,  -0.01681,  -0.01926,  -0.05607,   0.02245,  -0.07570,   0.01264,   0.01755,  -0.01435,   0.05190,   0.00528,  -0.05852,   0.02982,   0.02000,   0.01509,  -0.00945,   0.06663,   0.03227,  -0.00699,  -0.01190,  -0.01681,   0.01264,   0.03472,   0.02000,  -0.00699,   0.03718,  -0.00699,  -0.02417,   0.03472,   0.00773,  -0.00208,  -0.00945,   0.05681
   0.03963,   0.05190,   0.00282,   0.00282,  -0.05607,   0.08135,   0.01264,  -0.03889,   0.02491,  -0.01435,   0.00282,   0.03718,   0.00773,  -0.01681,  -0.00945,  -0.01190,   0.06417,   0.01755,  -0.00945,   0.01755,   0.00282,  -0.04380,   0.01755,  -0.04380,   0.00037,   0.02491,   0.02000,  -0.01926,  -0.08306,  -0.01926,  -0.00208,   0.01019,  -0.04871,   0.01509,   0.01755,   0.01019,   0.01755,  -0.01681,  -0.03153,  -0.03889,   0.00037,   0.02736,  -0.00454,  -0.03398,   0.01509,   0.01755,   0.00282,  -0.00945,  -0.00699,   0.00037,   0.02736,  -0.04625,   0.03963,   0.00528,   0.03963,  -0.04135,   0.02736,  -0.03153,   0.02736,  -0.01435,   0.01509,   0.01755,   0.02000,   0.02736
   0.05190,   0.03472,  -0.03398,   0.04945,  -0.03644,  -0.03153,  -0.02662,  -0.06098,   0.01264,   0.00528,  -0.01435,   0.03227,  -0.01681,  -0.00208,  -0.00945,   0.00528,   0.05926,   0.01264,  -0.04135,   0.01264,   0.01264,  -0.01435,   0.03227,   0.04209,  -0.01681,  -0.00699,   0.03472,  -0.04135,  -0.04380,  -0.01681,  -0.00945,   0.04454,  -0.02662,  -0.00699,  -0.02908,   0.05926,   0.00773,   0.02000,  -0.00454,  -0.02417,  -0.00208,   0.04209,   0.00528,  -0.01681,   0.04209,   0.01019,  -0.00454,  -0.04871,   0.00037,  -0.01926,  -0.01435,   0.05681,  -0.00454,  -0.00454,   0.02000,  -0.02417,   0.05436,  -0.01435,   0.05190,  -0.01190,   0.01264,   0.00037,   0.00773,   0.01264
   0.03227,   0.01509,  -0.00454,   0.01755,  -0.00454,  -0.05607,   0.04209,  -0.04625,  -0.07079,  -0.01435,  -0.00208,   0.04454,  -0.02417,  -0.03644,   0.01509,  -0.01435,   0.05190,  -0.01435,  -0.01926,  -0.03644,   0.01264,   0.00037,  -0.00208,   0.01264,  -0.00699,  -0.01435,   0.00528,   0.00528,  -0.08061,  -0.00945,  -0.00945,   0.02982,  -0.04625,  -0.00208,   0.01264,   0.04945,  -0.02662,  -0.01190,   0.00773,  -0.02172,   0.02736,   0.01509,   0.02000,  -0.04380,  -0.01681,   0.01264,   0.03227,   0.01019,  -0.00208,  -0.02908,   0.04945,  -0.00699,   0.02982,   0.02000,  -0.01926,  -0.00945,  -0.01190,  -0.01926,   0.04454,  -0.00945,   0.03963,   0.01019,  -0.02908,   0.03472
   0.04454,   0.03227,   0.05436,   0.00528,  -0.01435,   0.05436,  -0.02662,   0.00282,  -0.00208,  -0.00208,  -0.00208,  -0.02172,  -0.01681,   0.03472,  -0.00454,  -0.00454,  -0.02662,   0.00773,   0.03227,   0.07399,   0.01019,  -0.01681,   0.01019,   0.00282,   0.00528,   0.01019,   0.04454,   0.02736,   0.02982,  -0.01926,  -0.01190,  -0.00208,  -0.00699,   0.02000,  -0.04135,  -0.00208,  -0.05362,   0.00282,  -0.00945,   0.00528,  -0.00208,   0.02982,  -0.01681,  -0.01681,   0.06663,  -0.02417,   0.00528,  -0.04135,   0.01264,   0.01019,   0.01509,   0.01509,   0.00773,  -0.01681,   0.08626,  -0.03398,   0.01509,   0.02245,   0.01755,  -0.04380,  -0.02417,   0.01264,  -0.03153,   0.00528
   0.03963,  -0.00208,  -0.02172,   0.00528,   0.02736,  -0.08306,  -0.05116,  -0.02662,   0.01264,   0.01509,  -0.00454,  -0.05607,  -0.03889,   0.08135,   0.01509,   0.02491,  -0.08797,  -0.01190,   0.03472,   0.03718,   0.02982,   0.00282,  -0.01435,   0.01509,  -0.02417,   0.01019,   0.02736,   0.01509,   0.04454,  -0.02908,  -0.02908,   0.00282,  -0.03889,  -0.02172,  -0.00945,   0.02000,   0.00528,  -0.02417,   0.00528,   0.03472,   0.01509,   0.02000,  -0.02417,  -0.02417,   0.04209,  -0.00699,  -0.06589,  -0.03398,  -0.00699,  -0.01681,   0.00528,   0.04454,  -0.01926,  -0.01926,   0.05436,  -0.00208,   0.02736,  -0.00699,   0.00773,  -0.02172,  -0.00699,  -0.02662,  -0.05362,   0.00528
   0.05436,  -0.03889,  -0.01190,   0.00037,   0.00528,  -0.05607,  -0.01926,  -0.04871,  -0.05852,   0.00773,   0.03718,  -0.03153,  -0.04135,  -0.00208,  -0.03644,  -0.00945,  -0.03644,  -0.01926,   0.00037,   0.00037,   0.02491,   0.01509,   0.00528,  -0.02172,  -0.04135,   0.01019,   0.02982,   0.02491,  -0.00454,  -0.03889,  -0.00945,   0.03227,   0.00282,  -0.00699,  -0.01190,   0.03963,   0.02982,  -0.03644,   0.02982,   0.00528,   0.07153,  -0.00699,  -0.03398,  -0.00208,  -0.03153,  -0.02172,  -0.01435,   0.02245,  -0.02417,   0.00528,  -0.02172,   0.04945,   0.02000,  -0.01190,  -0.00208,   0.00773,  -0.00208,  -0.01681,   0.03227,  -0.00945,   0.00773,  -0.00945,  -0.02417,   0.02245
   0.01755,   0.04209,   0.06172,  -0.04135,  -0.00945,   0.02491,   0.02000,  -0.03153,   0.00528,   0.03227,  -0.00208,   0.03963,   0.00037,   0.00282,   0.03963,   0.00037,  -0.01926,  -0.01190,  -0.00699,  -0.00699,  -0.04380,  -0.03153,   0.00037,  -0.03153,   0.00037,   0.02982,   0.02736,  -0.03644,   0.03227,  -0.03889,   0.04454,  -0.01190,  -0.01926,   0.01019,  -0.03398,  -0.03644,  -0.08061,  -0.06343,  -0.00699,   0.00282,   0.01264,   0.01509,  -0.02662,  -0.02662,   0.05436,  -0.03153,   0.00037,  -0.00208,  -0.00454,  -0.00699,  -0.00699,  -0.02417,  -0.00208,  -0.01190,   0.04209,  -0.01190,   0.00037,   0.02736,   0.01755,   0.00282,  -0.07079,  -0.00699,  -0.02908,   0.02491
   0.04699,   0.03227,   0.00282,  -0.02662,  -0.01435,  -0.05362,  -0.06834,  -0.04380,  -0.00454,  -0.01435,  -0.01926,  -0.06343,   0.01264,   0.04209,   0.03227,   0.01509,  -0.07816,  -0.00945,   0.02245,   0.01509,  -0.01926,   0.01264,   0.01755,  -0.00208,   0.02000,   0.02982,   0.02736,  -0.01681,   0.05926,  -0.06098,   0.02982,  -0.02417,   0.02736,   0.00528,  -0.01190,  -0.01435,  -0.00945,  -0.08797,   0.01509,   0.03472,  -0.03889,   0.00282,  -0.05607,   0.00282,   0.06417,  -0.03153,  -0.04380,  -0.00945,  -0.01190,  -0.04625,   0.00282,   0.03227,  -0.02662,  -0.02172,   0.08380,   0.01019,  -0.00454,  -0.03889,   0.03472,  -0.03644,  -0.05607,  -0.03889,  -0.03889,   0.01019
   0.03227,  -0.01435,   0.01755,  -0.04625,  -0.02662,  -0.03398,  -0.02908,  -0.04871,  -0.03644,  -0.00454,  -0.01190,  -0.02417,  -0.00454,  -0.04135,   0.02000,   0.00282,  -0.04135,  -0.00208,  -0.00699,  -0.00945,  -0.03644,   0.00282,   0.02000,   0.01264,  -0.00699,   0.01264,   0.03227,   0.00528,   0.02000,  -0.04135,   0.03227,   0.03227,   0.00037,  -0.02908,  -0.03153,   0.01019,  -0.05116,  -0.05852,   0.03963,   0.01019,   0.00037,  -0.02417,  -0.04625,  -0.04135,  -0.06098,  -0.01681,  -0.01681,   0.02000,  -0.02172,  -0.05116,  -0.01190,   0.04454,   0.01264,   0.01264,   0.00773,   0.01509,  -0.00945,  -0.00208,  -0.00208,  -0.01435,  -0.02417,  -0.01926,  -0.03153,   0.01019
  -0.02172,  -0.03644,  -0.06098,  -0.02908,   0.00528,  -0.07816,  -0.00208,  -0.07079,  -0.01926,  -0.01926,   0.03227,  -0.04135,   0.00037,   0.01019,  -0.01190,  -0.00945,   0.00282,  -0.01681,   0.00282,  -0.01190,  -0.00699,  -0.00208,   0.00282,   0.01264,   0.01755,  -0.01435,  -0.01681,  -0.03644,  -0.01435,  -0.03153,   0.03472,  -0.00945,  -0.07816,  -0.01926,  -0.03398,  -0.00699,  -0.02172,  -0.01435,   0.04454,  -0.02662,   0.02000,   0.01264,  -0.02908,   0.01755,  -0.00699,   0.00037,  -0.01435,  -0.03153,   0.02736,   0.01509,  -0.02417,  -0.04135,  -0.02662,  -0.01190,  -0.11006,  -0.00945,   0.01019,  -0.06343,  -0.00454,  -0.02417,  -0.00208,  -0.02172,  -0.03644,  -0.00208
   0.00282,   0.04699,  -0.02172,   0.02245,   0.00282,  -0.07816,  -0.04625,  -0.04135,  -0.00699,  -0.00454,  -0.00208,  -0.02662,  -0.01435,  -0.00699,   0.02245,   0.01509,   0.02736,  -0.02417,   0.04454,   0.03963,  -0.00454,   0.00773,   0.00773,   0.02491,  -0.00699,  -0.02172,   0.02491,  -0.02417,  -0.05116,  -0.03644,   0.04699,  -0.00945,   0.01509,  -0.08061,  -0.00945,  -0.01435,  -0.08061,   0.01264,   0.00037,   0.00037,   0.01509,  -0.02172,  -0.01435,   0.04454,  -0.00945,  -0.02662,  -0.00208,   0.01509,   0.03963,   0.01264,  -0.03398,   0.02982,  -0.00208,  -0.09288,  -0.03889,   0.00773,   0.04209,  -0.03153,   0.00773,  -0.05607,   0.02982,  -0.00945,  -0.00454,   0.00037
  -0.02417,   0.00037,  -0.02662,   0.00037,  -0.03153,  -0.07325,  -0.05116,  -0.05607,  -0.01926,  -0.04380,  -0.01681,  -0.04871,  -0.02172,  -0.02172,   0.04945,  -0.02662,   0.03472,  -0.01190,   0.00528,   0.00773,   0.01264,  -0.00208,  -0.03153,   0.00773,   0.01509,  -0.01681,  -0.01926,  -0.06098,  -0.07325,  -0.05852,   0.09607,   0.00282,  -0.04135,  -0.06343,   0.02000,  -0.00454,  -0.00454,   0.00037,   0.00528,  -0.00454,   0.00528,  -0.02908,  -0.02417,   0.01019,  -0.00454,  -0.05607,  -0.00945,  -0.01681,  -0.00208,   0.01264,  -0.01190,   0.00773,  -0.04380,  -0.05852,  -0.01926,   0.02491,  -0.02172,   0.01509,   0.01509,  -0.05362,   0.04454,  -0.02908,  -0.04135,   0.00528
  -0.00454,   0.00528,  -0.01926,   0.01019,   0.01509,  -0.04380,  -0.04380,  -0.00208,   0.00773,   0.03227,   0.00528,   0.03963,  -0.01435,   0.05926,  -0.05116,   0.00037,  -0.01190,   0.00773,   0.04209,  -0.00454,   0.00282,   0.01509,   0.00282,   0.01755,   0.00282,   0.00773,  -0.01681,   0.01755,  -0.00454,  -0.01435,   0.04454,  -0.01190,  -0.04380,  -0.01681,   0.02000,   0.03963,  -0.01681,   0.00528,  -0.01926,  -0.01190,   0.00282,   0.02491,   0.01264,   0.02982,   0.05436,  -0.01681,   0.00528,   0.04454,   0.07889,   0.01019,   0.01264,  -0.03889,   0.02982,   0.01755,  -0.02662,   0.01019,   0.02736,  -0.00699,   0.01264,  -0.03889,   0.02000,  -0.00454,   0.00528,   0.00282
   0.05436,   0.03963,   0.00528,   0.02982,   0.06172,  -0.00208,   0.06908,   0.02736,  -0.09042,   0.10834,   0.01264,   0.04209,  -0.02172,   0.04945,  -0.02908,   0.04699,  -0.03153,   0.01264,   0.03718,  -0.00454,   0.02982,   0.03963,   0.02736,  -0.07325,   0.00282,   0.02982,   0.00282,   0.01755,  -0.05362,  -0.00208,   0.10343,   0.02491,  -0.02417,  -0.07570,   0.01755,   0.04454,  -0.07816,   0.02736,  -0.01681,   0.00037,   0.01755,   0.01019,   0.00528,   0.07153,   0.03472,  -0.00945,  -0.03644,   0.06663,   0.08626,   0.00282,   0.00528,   0.01019,   0.06417,  -0.05607,   0.05436,   0.05190,   0.06417,  -0.01926,   0.00037,  -0.04871,   0.01509,   0.02982,   0.00773,   0.01509
   0.04699,  -0.02417,  -0.00208,   0.01019,   0.01264,  -0.01926,   0.03963,   0.01755,  -0.08306,   0.07153,   0.00037,   0.01755,  -0.02908,   0.03718,  -0.03153,  -0.01681,  -0.03153,  -0.01435,   0.02736,   0.01019,  -0.00699,   0.04699,   0.01264,  -0.05116,  -0.02908,   0.02736,   0.01509,   0.01019,  -0.06834,  -0.02417,   0.13779,   0.03227,  -0.04380,  -0.03398,   0.02245,   0.03472,   0.01264,   0.02982,  -0.01435,   0.02000,  -0.01681,   0.01264,  -0.01681,   0.05681,  -0.02908,  -0.00945,  -0.05362,   0.06172,   0.07153,   0.01509,   0.03718,   0.00282,   0.05926,  -0.02662,   0.07153,   0.03963,   0.02982,   0.01264,   0.02736,  -0.03153,   0.01509,  -0.00699,  -0.00454,  -0.01926
  -0.02417,   0.01264,  -0.02662,  -0.00945,  -0.00454,  -0.06098,  -0.11006,  -0.00699,   0.04699,   0.02245,   0.03718,   0.04454,  -0.01190,   0.02245,  -0.04135,   0.00037,   0.03963,   0.00282,   0.00528,  -0.04135,   0.01509,   0.01509,   0.01019,  -0.02172,   0.01509,   0.02736,  -0.00454,  -0.00454,  -0.02908,   0.00282,  -0.01681,   0.00528,  -0.02908,  -0.01190,   0.00037,  -0.03153,   0.00773,  -0.03153,  -0.00454,  -0.02417,   0.04699,   0.02491,   0.03718,   0.02982,   0.03718,  -0.01435,   0.02000,   0.03963,   0.06908,   0.04209,  -0.02417,   0.02491,  -0.02662,   0.05436,  -0.07325,   0.03718,   0.01019,   0.00282,   0.00037,  -0.06098,   0.00773,  -0.00945,   0.00282,   0.01019
   0.00773,   0.01264,  -0.07079,  -0.01926,   0.01755,   0.03472,   0.04945,  -0.04380,   0.00528,   0.07399,   0.02736,   0.11080,  -0.01926,   0.01019,  -0.03153,   0.02982,  -0.00945,  -0.01190,  -0.00454,  -0.04625,  -0.00454,   0.02982,   0.01509,  -0.03398,  -0.01190,   0.04945,  -0.01681,  -0.01190,  -0.03153,   0.00528,   0.06663,   0.01019,   0.02245,  -0.05607,   0.02736,  -0.01435,  -0.02417,   0.00282,  -0.00945,   0.01019,   0.04209,  -0.01435,   0.04454,   0.05926,   0.07889,  -0.00454,  -0.06343,   0.08380,   0.09853,   0.01019,   0.02000,  -0.01190,   0.02982,  -0.01435,  -0.00454,   0.05190,   0.01755,  -0.00208,  -0.00208,  -0.02417,  -0.00945,  -0.02908,   0.00037,   0.00037
  -0.01681,   0.01019,  -0.06589,  -0.01926,   0.01264,  -0.02172,   0.03718,  -0.02172,  -0.08797,   0.06908,   0.02245,   0.04209,   0.00037,  -0.02417,  -0.06589,   0.00528,   0.01264,  -0.04135,  -0.01190,  -0.03398,  -0.01926,   0.01019,   0.02491,   0.03963,   0.00282,   0.04454,   0.00037,  -0.01926,  -0.01681,  -0.02662,   0.09853,  -0.02172,   0.01019,  -0.03398,   0.01019,   0.00773,   0.02982,  -0.00699,   0.01264,   0.00037,   0.00773,  -0.02172,  -0.01190,   0.02736,   0.01264,   0.00282,  -0.05852,   0.03963,   0.11570,   0.02000,  -0.01681,  -0.01435,   0.07399,   0.00528,   0.01019,   0.07889,  -0.04871,  -0.00945,  -0.01190,  -0.04871,  -0.01435,  -0.01681,  -0.00945,   0.04209
   0.00528,   0.01509,   0.00528,  -0.02172,   0.02736,  -0.01681,  -0.01190,   0.00528,   0.05436,  -0.00208,   0.02245,  -0.00699,   0.02245,  -0.02417,   0.04454,   0.00282,  -0.01190,   0.01264,  -0.00699,  -0.01190,   0.01019,   0.00282,  -0.01190,   0.00528,   0.01509,  -0.01435,  -0.02908,  -0.00699,   0.05926,  -0.04625,  -0.05607,  -0.02172,   0.00037,  -0.03153,   0.02982,  -0.02417,  -0.04625,  -0.03153,   0.00528,  -0.01190,   0.04945,  -0.03644,  -0.02662,  -0.02417,  -0.01435,  -0.01190,  -0.02417,  -0.00454,  -0.01435,  -0.00208,  -0.00454,  -0.03889,   0.00282,   0.02000,  -0.00699,  -0.02172,   0.03472,  -0.01190,  -0.00945,  -0.00945,  -0.03644,  -0.00699,  -0.02172,   0.01264
   0.00528,   0.03718,  -0.01435,  -0.00454,   0.06908,  -0.02662,  -0.02172,  -0.02417,  -0.02417,  -0.00945,  -0.01190,  -0.01681,  -0.05852,   0.00528,  -0.00208,  -0.00208,   0.00528,   0.01264,   0.01264,   0.02245,  -0.00699,   0.02245,  -0.00945,   0.03227,  -0.00699,  -0.03153,  -0.05852,   0.00528,   0.02736,  -0.06343,  -0.04135,   0.02000,   0.00037,  -0.03398,   0.02736,  -0.01190,  -0.00208,  -0.03153,   0.05190,   0.01264,   0.01755,  -0.02662,  -0.03644,  -0.00208,  -0.03398,  -0.01681,  -0.03644,  -0.00208,  -0.02908,  -0.01435,  -0.01435,  -0.00454,   0.01264,  -0.00208,  -0.00454,   0.00037,   0.00037,  -0.00699,  -0.01435,   0.00282,  -0.00208,  -0.01435,  -0.02417,   0.01264
   0.01019,   0.04699,  -0.00208,  -0.00699,   0.02491,  -0.01190,  -0.01926,  -0.01190,  -0.01435,  -0.01190,   0.00037,  -0.01435,   0.01264,   0.01264,   0.01264,  -0.02417,   0.00528,  -0.00454,  -0.00454,  -0.02662,  -0.04380,   0.00528,   0.02245,  -0.01681,  -0.01435,  -0.00454,  -0.04135,   0.02491,  -0.01190,  -0.02172,  -0.02417,   0.01755,   0.01509,  -0.00945,  -0.01681,   0.00282,   0.00528,   0.00528,  -0.01926,   0.03718,   0.01509,  -0.02417,  -0.01681,  -0.00699,  -0.01681,  -0.03398,  -0.01926,  -0.00699,  -0.02908,   0.01509,  -0.01926,  -0.01435,  -0.02662,  -0.00208,  -0.01435,  -0.00208,  -0.00208,   0.07153,   0.01755,   0.01755,  -0.01681,  -0.00945,  -0.02417,   0.01264
   0.01755,  -0.00945,   0.03718,   0.00037,   0.03227,  -0.00945,   0.02245,   0.00528,   0.03963,   0.03472,   0.00773,  -0.00208,   0.01509,  -0.00699,   0.01264,   0.01019,   0.01019,   0.03963,   0.01755,   0.01019,   0.00037,   0.00282,  -0.00699,   0.01019,   0.02000,  -0.02172,   0.01509,  -0.01190,   0.04454,  -0.03644,  -0.05116,   0.01509,   0.00037,   0.00282,   0.02000,  -0.03889,  -0.05852,  -0.01681,   0.04945,  -0.00945,   0.04209,  -0.00699,   0.00037,  -0.00208,   0.02000,  -0.00208,  -0.01681,   0.01264,  -0.05607,   0.00773,  -0.00699,  -0.03398,   0.01019,   0.02491,  -0.01190,  -0.03153,  -0.02908,  -0.00208,  -0.00454,   0.01019,   0.00282,   0.00282,   0.01509,   0.01019
  -0.01926,  -0.00454,   0.01019,   0.00037,   0.06908,   0.00528,   0.04454,  -0.02172,  -0.04380,   0.07399,  -0.01190,  -0.00945,  -0.00208,   0.02000,  -0.03889,   0.00773,  -0.03644,   0.03718,   0.02245,   0.00528,  -0.01435,   0.04699,   0.03227,   0.06908,  -0.00945,  -0.01681,   0.02491,   0.00037,  -0.02908,  -0.04871,  -0.02417,   0.01264,  -0.01926,  -0.00208,   0.01755,  -0.01435,  -0.02908,   0.01264,   0.02000,   0.02000,   0.01019,  -0.00454,   0.00037,  -0.00945,  -0.02908,  -0.01681,  -0.03889,   0.02000,   0.01019,  -0.00208,   0.01509,  -0.00454,   0.03718,  -0.01190,  -0.03398,  -0.00454,   0.01509,  -0.04380,  -0.04871,  -0.02172,  -0.01435,   0.02000,  -0.01681,   0.01755
   0.01264,  -0.00699,   0.00528,   0.00037,   0.03472,   0.03718,   0.02982,  -0.02417,  -0.04135,   0.04699,   0.01019,  -0.00945,   0.01509,   0.02736,  -0.02662,   0.02000,  -0.03153,   0.00773,   0.02736,  -0.00699,  -0.02908,   0.02736,   0.00773,  -0.01435,  -0.00454,   0.01755,   0.01019,   0.01264,  -0.00945,  -0.04625,  -0.03644,   0.01264,   0.02000,  -0.01681,   0.02982,   0.01019,   0.04699,   0.03472,   0.02491,   0.06663,  -0.00208,  -0.00208,   0.00773,   0.01509,  -0.02417,  -0.01681,  -0.03398,   0.00773,   0.00528,  -0.03644,   0.02736,   0.02000,   0.00282,  -0.02908,  -0.00454,   0.02000,  -0.02417,   0.01019,  -0.00699,   0.01509,  -0.02172,  -0.02908,   0.00528,  -0.00454
   0.01264,   0.02736,   0.00282,   0.00037,   0.02982,  -0.00208,  -0.02662,  -0.00945,   0.06908,   0.01755,  -0.01190,  -0.05362,   0.00037,  -0.00454,  -0.01190,  -0.00208,  -0.07570,   0.00282,  -0.02417,   0.00528,  -0.01681,   0.01509,  -0.02417,  -0.03153,   0.00773,   0.00282,   0.02245,   0.01019,   0.07644,  -0.01681,  -0.02172,  -0.00454,   0.05190,  -0.00454,   0.04454,  -0.01190,  -0.00454,   0.02491,   0.01264,  -0.02417,   0.02245,  -0.01190,  -0.01926,   0.02245,  -0.00699,  -0.00945,   0.00528,   0.00037,   0.01509,   0.02491,  -0.01190,  -0.00699,  -0.02662,   0.02736,   0.03227,  -0.01190,   0.00528,  -0.01435,  -0.00945,  -0.02417,  -0.02172,  -0.01681,  -0.01190,   0.03227
  -0.01926,  -0.02662,  -0.00945,  -0.01926,  -0.00699,  -0.00208,   0.00037,  -0.00699,   0.01755,   0.03227,   0.00037,  -0.03644,  -0.00945,   0.01509,  -0.03889,  -0.00945,  -0.04871,   0.01019,  -0.00208,   0.01264,  -0.01681,   0.01755,  -0.00699,   0.02982,  -0.00945,  -0.02172,   0.01019,  -0.03153,   0.02245,  -0.02172,  -0.00945,  -0.01926,   0.01264,  -0.00454,   0.02000,  -0.01435,   0.03227,   0.03472,  -0.00945,  -0.02172,   0.00528,   0.00037,   0.01019,  -0.00699,  -0.00699,  -0.00699,   0.01264,   0.01264,  -0.01435,   0.01019,  -0.01190,   0.01264,   0.01509,   0.02245,   0.02736,   0.00037,  -0.01435,  -0.02908,  -0.02172,   0.02491,   0.01019,   0.00282,  -0.02662,   0.02491
   0.01019,  -0.02662,  -0.00208,  -0.03644,   0.00282,   0.00773,   0.02736,  -0.04135,  -0.02417,   0.05190,   0.00528,  -0.04871,   0.00037,   0.00282,  -0.05116,  -0.01681,  -0.01681,   0.01019,  -0.02662,   0.00282,   0.02000,   0.00528,   0.02245,  -0.00699,  -0.00454,   0.01755,  -0.01926,  -0.00454,   0.01509,  -0.04135,  -0.01926,  -0.03398,   0.02000,  -0.00699,   0.01509,   0.00037,   0.02982,  -0.01190,  -0.02908,   0.03963,   0.00773,  -0.03398,  -0.01435,  -0.00208,   0.01019,  -0.00945,   0.01264,   0.00773,   0.01019,  -0.00454,   0.00037,   0.00037,   0.03472,  -0.03153,   0.01264,   0.01755,   0.03227,   0.02245,   0.01264,   0.02245,  -0.02908,  -0.00454,   0.00037,   0.01509
   0.02736,  -0.05116,  -0.00454,   0.02736,  -0.01190,  -0.00699,   0.04699,   0.00528,   0.03963,   0.04209,  -0.04135,  -0.03398,   0.01019,   0.03472,   0.05436,  -0.01190,   0.03963,  -0.03398,   0.01019,   0.02982,   0.01509,  -0.00945,   0.01755,  -0.04871,   0.01019,   0.01019,  -0.00945,   0.01264,  -0.00699,  -0.05852,  -0.00208,   0.02491,   0.05926,   0.01509,   0.00282,  -0.01435,  -0.01681,   0.01019,  -0.00454,   0.04454,   0.00773,   0.01264,   0.00773,   0.03718,   0.02982,  -0.00454,   0.04699,  -0.00208,  -0.02662,   0.01264,  -0.00454,  -0.02662,  -0.01435,  -0.04625,  -0.04625,  -0.02908,   0.00037,   0.00037,   0.03718,  -0.01926,   0.01755,   0.00773,   0.02245,   0.00773
  -0.00699,  -0.02172,   0.03718,   0.02491,   0.04454,   0.02245,   0.05190,   0.03718,  -0.03153,   0.04945,  -0.00699,  -0.01926,   0.00037,   0.03718,  -0.00208,   0.00282,  -0.05852,   0.00037,   0.02000,   0.05681,   0.03472,   0.02982,   0.02736,   0.04454,   0.02491,  -0.02908,   0.04209,   0.01755,  -0.04135,  -0.01190,  -0.00945,   0.03472,   0.01264,  -0.00699,  -0.00208,   0.05436,   0.01019,   0.02491,   0.02491,   0.02000,  -0.01190,   0.02736,   0.03963,  -0.00208,   0.00528,  -0.01190,   0.02736,   0.01509,  -0.02908,   0.02245,  -0.00454,   0.01509,  -0.00945,  -0.05116,  -0.07325,  -0.03153,   0.04454,   0.00773,   0.04945,  -0.02662,   0.02982,  -0.01926,   0.01509,  -0.00945
   0.03963,  -0.00454,   0.03472,  -0.00945,   0.03227,  -0.01681,  -0.00454,  -0.05362,  -0.11251,  -0.02662,  -0.05116,   0.02491,  -0.00208,   0.00282,  -0.02417,  -0.01681,  -0.04135,  -0.03889,   0.01509,  -0.03644,   0.02000,   0.02982,  -0.00208,   0.01755,   0.04454,  -0.02662,   0.00528,  -0.01926,  -0.11006,  -0.01681,  -0.01190,   0.01755,  -0.11251,   0.02491,   0.02491,   0.06908,  -0.01190,   0.00282,  -0.01435,   0.04209,  -0.02662,   0.02000,   0.02491,  -0.06343,   0.03227,   0.00282,   0.04699,  -0.01681,   0.01509,   0.01264,  -0.00454,  -0.01190,   0.05436,  -0.04625,  -0.04625,  -0.04625,   0.03718,  -0.04380,   0.07644,   0.00037,   0.03718,  -0.05852,   0.00528,   0.00282
   0.06417,   0.01755,  -0.00699,  -0.00454,  -0.00699,   0.06417,   0.04209,  -0.00699,  -0.00699,  -0.00454,  -0.01435,   0.05190,   0.02736,  -0.02908,   0.04209,   0.01509,  -0.00699,  -0.02417,   0.02491,   0.00037,   0.00037,   0.02245,  -0.00454,  -0.02172,  -0.01435,   0.00773,  -0.00699,  -0.03398,   0.04454,  -0.02417,  -0.01681,   0.01019,   0.08871,  -0.05362,  -0.00699,  -0.06098,  -0.11496,  -0.01435,   0.04699,   0.02491,  -0.01435,   0.05190,   0.00528,   0.00773,   0.00528,  -0.00208,   0.02000,   0.02491,  -0.00945,  -0.02662,  -0.00699,   0.03718,  -0.02172,   0.02491,  -0.00699,  -0.04871,  -0.00945,   0.00528,   0.02982,  -0.05116,  -0.04380,   0.02736,  -0.05362,   0.01019
   0.02736,   0.00528,  -0.01435,   0.03472,   0.05926,   0.04945,   0.01019,   0.00528,  -0.01435,  -0.01190,  -0.03398,  -0.00454,   0.00037,  -0.02908,   0.02491,   0.02000,  -0.01926,  -0.02417,   0.00037,   0.01755,   0.01019,   0.00773,   0.03718,   0.05681,   0.02000,  -0.01190,   0.05926,  -0.00699,   0.04454,  -0.00945,   0.00528,  -0.01681,   0.00037,  -0.05116,  -0.00945,   0.00037,  -0.07325,  -0.05116,   0.00037,   0.03472,  -0.02662,   0.03227,   0.00528,  -0.02417,  -0.02417,  -0.00945,   0.00037,  -0.00945,   0.00528,  -0.02662,  -0.03398,   0.01264,  -0.01681,  -0.01190,  -0.00699,  -0.02172,   0.02491,   0.02000,   0.03227,  -0.03398,  -0.05852,   0.00282,  -0.00454,  -0.02417
   0.10098,  -0.02417,  -0.04871,   0.02491,   0.02245,  -0.06343,  -0.10760,  -0.08061,  -0.11251,  -0.04380,  -0.02172,   0.01019,  -0.04380,  -0.00699,   0.01019,  -0.01681,   0.00282,  -0.04871,  -0.00699,  -0.05116,   0.01755,   0.05190,   0.00528,   0.06908,   0.04945,  -0.01190,   0.07399,  -0.00454,  -0.04871,  -0.00945,   0.03963,  -0.00208,  -0.07816,   0.00528,  -0.00699,   0.03227,   0.05926,  -0.01190,   0.00528,   0.03718,  -0.03153,   0.01264,  -0.00208,  -0.08306,  -0.06098,  -0.00454,   0.07889,   0.03963,   0.01264,  -0.01190,   0.00773,   0.02245,   0.02491,   0.00528,  -0.10024,  -0.00699,   0.01019,   0.00282,   0.08626,  -0.03644,   0.01019,  -0.01190,  -0.01435,   0.00773
   0.00282,   0.00282,   0.03472,   0.00037,   0.01509,   0.07644,   0.04699,  -0.07079,  -0.02172,  -0.01926,  -0.02172,   0.08871,   0.00037,  -0.03889,   0.00037,  -0.00945,  -0.01681,  -0.01681,   0.00773,   0.01509,  -0.00699,  -0.00208,  -0.03153,   0.00282,   0.02000,   0.01755,  -0.02417,  -0.02417,  -0.03153,  -0.02172,  -0.00945,   0.00528,  -0.03153,  -0.03889,  -0.00208,  -0.09042,  -0.10269,   0.01019,   0.08871,   0.01509,   0.01019,   0.00773,   0.01264,  -0.03398,  -0.00454,   0.00282,   0.04945,   0.02982,   0.01755,  -0.01435,  -0.01681,   0.03963,  -0.03398,  -0.04135,  -0.09288,  -0.03153,  -0.00699,  -0.02908,  -0.00945,  -0.01681,  -0.00208,   0.00528,  -0.03153,  -0.01926
   0.03718,  -0.00945,   0.00282,   0.00282,   0.02245,   0.00282,   0.04699,   0.00773,   0.04699,  -0.01926,   0.00773,   0.04454,   0.02736,   0.00528,   0.02000,   0.02000,   0.00528,  -0.00208,   0.02245,   0.04945,   0.03472,   0.04209,   0.01509,   0.07153,  -0.00208,  -0.03153,   0.08626,  -0.02417,   0.05926,  -0.03644,  -0.01926,   0.00528,   0.00282,  -0.07816,   0.02245,  -0.02172,  -0.05852,  -0.02417,   0.10834,   0.02982,   0.01019,   0.00037,   0.01019,  -0.03644,  -0.05362,   0.02491,  -0.01681,   0.02245,   0.02982,  -0.02172,   0.01755,   0.02491,  -0.02662,  -0.06589,  -0.06098,  -0.01190,   0.02000,  -0.01190,  -0.02417,  -0.03398,  -0.01435,   0.00037,  -0.04135,   0.01509
   0.03718,  -0.05362,  -0.07079,  -0.00699,  -0.00454,  -0.05362,  -0.07816,  -0.08306,  -0.09533,   0.02245,   0.02245,  -0.06834,  -0.00945,   0.05190,  -0.04871,   0.00282,   0.04209,  -0.02908,   0.02000,   0.03227,   0.03472,   0.02245,  -0.02172,   0.01019,   0.02491,   0.00773,   0.07399,  -0.01681,   0.00773,  -0.00454,  -0.00454,  -0.01190,  -0.02908,  -0.01681,   0.02245,   0.01264,   0.07889,   0.00773,   0.07153,   0.05436,  -0.00945,   0.02000,  -0.01435,  -0.05116,  -0.11006,   0.01755,   0.02245,   0.04699,   0.05436,  -0.05362,   0.04209,   0.04699,  -0.02908,  -0.06343,  -0.07079,   0.03718,  -0.02172,  -0.00454,   0.03963,  -0.02662,   0.02491,   0.00528,  -0.01681,  -0.00945
  -0.02908,   0.02736,   0.00773,  -0.00945,   0.03963,  -0.03889,  -0.08552,   0.00773,   0.01019,  -0.05116,   0.05436,  -0.07816,   0.00037,   0.08380,   0.00037,  -0.03644,  -0.10515,   0.04209,   0.02491,   0.04209,  -0.02172,  -0.02662,  -0.02908,   0.05190,  -0.02908,  -0.01190,  -0.01190,   0.01755,   0.03718,  -0.02417,  -0.02172,  -0.01681,  -0.06343,   0.06172,   0.04945,  -0.06343,   0.02491,  -0.07325,  -0.01435,  -0.05607,  -0.00208,  -0.00208,   0.01264,   0.02736,  -0.07816,  -0.04625,  -0.02662,   0.01264,  -0.11496,   0.00773,   0.00773,  -0.01926,   0.03718,   0.01019,   0.09607,   0.07889,   0.12552,  -0.08306,  -0.00454,   0.01755,  -0.04135,  -0.00699,  -0.01681,   0.04454
  -0.04871,   0.01755,   0.04454,  -0.04380,  -0.00454,  -0.09288,   0.04454,  -0.07325,  -0.01681,  -0.04871,   0.08380,   0.00282,   0.02491,  -0.01190,   0.00282,  -0.04135,  -0.06834,   0.05926,  -0.01435,   0.00773,  -0.00699,  -0.04135,  -0.01926,   0.04454,  -0.03889,   0.06908,  -0.00699,  -0.04135,  -0.10024,   0.01264,   0.00037,  -0.01681,  -0.11251,   0.00773,   0.00282,  -0.00945,   0.03227,  -0.09042,   0.02000,   0.02245,  -0.01681,  -0.01681,   0.02000,   0.00773,   0.00037,  -0.00208,  -0.00699,   0.01755,  -0.07325,  -0.02662,  -0.00945,  -0.07816,   0.03963,   0.08871,   0.02000,   0.02982,   0.08871,  -0.02908,  -0.00699,  -0.00208,   0.01264,   0.01019,   0.08135,  -0.00208
  -0.04871,   0.09853,   0.02245,  -0.02908,   0.01509,  -0.06098,   0.08871,  -0.03153,  -0.01435,  -0.03153,   0.07889,  -0.02908,   0.05926,   0.10098,   0.08626,  -0.01435,  -0.13950,   0.07644,   0.02245,   0.08135,  -0.00945,   0.01264,   0.03718,   0.01755,  -0.04625,   0.06172,   0.00037,  -0.03889,   0.07399,  -0.00699,   0.05436,  -0.03398,   0.02245,   0.04454,  -0.00454,  -0.02662,   0.02245,  -0.02417,   0.08871,   0.05681,  -0.04135,  -0.03644,   0.01509,   0.04699,   0.11325,   0.02245,  -0.02172,   0.03227,  -0.08552,  -0.01926,  -0.06098,  -0.03889,   0.02000,  -0.02662,   0.00037,   0.00528,   0.06417,  -0.08061,   0.01755,   0.00037,   0.00773,  -0.01926,   0.04454,  -0.00699
  -0.04135,  -0.02662,  -0.02662,   0.01019,  -0.03644,  -0.03889,  -0.05852,   0.05926,   0.06417,  -0.01435,   0.02000,  -0.10760,   0.00282,   0.00528,   0.00773,  -0.04625,   0.02491,   0.00773,  -0.03889,  -0.03889,   0.01264,  -0.04625,   0.04699,   0.06908,   0.02491,  -0.01190,  -0.00454,   0.00528,   0.00773,   0.03227,  -0.01681,   0.01019,  -0.04625,   0.10589,   0.09607,   0.02982,   0.07153,  -0.01926,  -0.00208,  -0.03398,  -0.03398,   0.06663,   0.06663,  -0.00208,  -0.16650,   0.01264,  -0.01681,  -0.08306,  -0.12723,   0.01019,   0.07399,  -0.04871,  -0.00208,   0.02000,   0.00773,   0.01264,   0.02245,  -0.04135,  -0.01190,   0.02982,   0.02245,   0.00037,   0.00282,   0.02982
  -0.03153,  -0.04380,   0.04699,  -0.01190,  -0.08306,  -0.00208,   0.00528,  -0.02662,  -0.01435,   0.00528,   0.01755,   0.01509,  -0.01190,  -0.12478,  -0.03644,  -0.02417,   0.18196,   0.05190,  -0.00454,  -0.06098,  -0.00945,  -0.06098,   0.01019,   0.04209,   0.01019,  -0.02172,  -0.03153,   0.00282,  -0.10269,   0.02982,  -0.03889,   0.01019,   0.05436,   0.03963,   0.01019,   0.00528,  -0.11742,  -0.05116,  -0.00208,  -0.04135,  -0.01926,   0.06417,   0.03963,  -0.08552,  -0.04135,   0.04454,   0.00282,   0.01019,  -0.09288,  -0.02172,   0.04209,  -0.00208,  -0.00699,   0.06908,  -0.02417,   0.01264,   0.02491,   0.00037,  -0.04625,   0.01264,   0.02245,   0.02491,   0.07153,  -0.00208
  -0.06834,   0.10098,   0.01755,   0.00037,  -0.05852,   0.13779,   0.11816,   0.05190,  -0.01190,  -0.01926,   0.01509,   0.08380,   0.01755,   0.02245,   0.05681,  -0.02417,   0.08380,   0.00773,   0.00037,   0.02245,  -0.04625,  -0.01681,   0.03472,   0.00282,  -0.00945,   0.01755,  -0.03889,  -0.03153,  -0.03644,   0.04209,  -0.04380,  -0.01190,   0.08380,   0.06172,   0.05681,  -0.04625,  -0.09533,   0.00528,   0.03963,   0.02245,   0.05436,   0.04454,   0.05681,  -0.05116,   0.19914,   0.05190,  -0.07079,  -0.00945,  -0.07325,  -0.00699,   0.02491,   0.01264,  -0.02908,  -0.06343,   0.04209,   0.01264,   0.08380,  -0.06589,  -0.03644,   0.00528,   0.03718,   0.02491,   0.03963,  -0.01190
   0.03227,  -0.04380,  -0.01190,   0.04699,  -0.00699,  -0.05362,   0.06663,   0.00037,   0.06172,  -0.00208,  -0.04871,  -0.09779,  -0.01926,   0.10589,  -0.03153,   0.00037,  -0.10024,  -0.00454,   0.01509,   0.07153,   0.02491,  -0.01435,   0.04209,   0.00773,   0.04699,   0.05926,   0.01264,   0.09607,   0.10589,   0.03472,  -0.05852,   0.05681,   0.01509,   0.08626,   0.09362,   0.10589,   0.08380,   0.09853,  -0.01435,  -0.00699,  -0.00454,   0.05926,   0.08135,   0.00037,  -0.06589,   0.04945,  -0.02417,  -0.02908,  -0.04135,   0.00773,   0.03718,   0.06663,   0.05190,   0.02491,  -0.09288,   0.02491,   0.04454,  -0.06098,  -0.00945,   0.02982,   0.09116,  -0.00208,  -0.03398,   0.09362
   0.02491,  -0.06834,   0.06663,   0.03963,   0.00282,  -0.00945,   0.10343,   0.00037,  -0.01681,  -0.03644,  -0.03398,   0.02982,  -0.02172,  -0.02908,  -0.04135,   0.04945,  -0.03644,   0.01755,   0.03472,   0.11816,  -0.00945,  -0.03153,   0.00773,   0.00037,   0.01509,   0.02245,  -0.00945,   0.11080,  -0.04135,   0.02982,  -0.06834,   0.05190,   0.00773,   0.04945,   0.04209,   0.14024,  -0.10515,  -0.00454,  -0.03398,  -0.03889,   0.04454,   0.05190,   0.04945,  -0.03398,  -0.01681,   0.05436,   0.01755,   0.01509,  -0.04135,   0.02000,   0.01019,   0.08626,   0.07153,   0.05681,  -0.14686,   0.01019,   0.01755,  -0.00945,  -0.02662,   0.07889,   0.09607,   0.04945,   0.04209,   0.05436
  -0.02172,  -0.02417,   0.02982,  -0.02662,  -0.02662,   0.04454,   0.11816,   0.01509,  -0.02662,  -0.01435,   0.00528,   0.08626,  -0.00454,  -0.00699,  -0.00208,   0.02000,  -0.01190,   0.01019,   0.01755,   0.08380,  -0.01926,  -0.00454,   0.04699,  -0.05852,  -0.01681,  -0.03398,  -0.02662,   0.00773,   0.04945,   0.01019,  -0.03889,   0.03718,   0.06172,   0.02491,  -0.00208,   0.03472,  -0.12233,   0.03718,   0.04945,  -0.00699,   0.03963,   0.07153,   0.06908,  -0.04871,   0.10343,   0.06663,  -0.06098,  -0.04380,  -0.06098,  -0.01190,  -0.01926,   0.02982,   0.02000,  -0.06343,  -0.04380,   0.00282,   0.06417,  -0.10269,  -0.04871,   0.05436,   0.05681,   0.02982,   0.00282,   0.07644
  -0.00208,  -0.04871,  -0.02908,   0.02491,   0.03718,   0.10343,   0.13043,  -0.00945,   0.02736,  -0.02417,  -0.00454,   0.03718,   0.02491,   0.00528,   0.01509,  -0.03398,  -0.08552,   0.02491,   0.00282,   0.02491,   0.04209,  -0.02908,   0.00037,  -0.01681,  -0.00945,  -0.08797,   0.01509,  -0.00208,   0.10589,   0.03718,  -0.03398,   0.01264,   0.02000,   0.01264,   0.03472,  -0.00454,   0.05436,   0.00528,   0.02736,  -0.01435,   0.02982,   0.01509,   0.05436,  -0.01435,  -0.03398,   0.01509,  -0.03644,   0.06663,  -0.05362,  -0.00208,   0.00528,  -0.02908,   0.07889,   0.06908,  -0.00945,   0.04454,   0.03472,  -0.00699,   0.00528,  -0.02908,   0.02982,   0.00037,  -0.08306,  -0.02908
   0.00773,  -0.03153,  -0.04135,  -0.01435,   0.01755,  -0.03398,   0.07644,  -0.07325,   0.02736,  -0.00454,   0.01019,   0.00528,   0.01019,  -0.05852,  -0.02417,  -0.00945,  -0.05362,   0.01509,   0.00282,  -0.00945,   0.05436,  -0.01190,  -0.02172,  -0.07570,  -0.02417,  -0.03889,   0.01509,  -0.04625,   0.03227,   0.01509,  -0.00945,   0.00773,  -0.02417,   0.01755,   0.01509,  -0.01435,   0.06172,   0.02000,   0.05681,  -0.03398,   0.01755,   0.01755,   0.08135,   0.01755,  -0.06098,  -0.02172,   0.02000,   0.05436,  -0.06589,  -0.02417,   0.02736,  -0.02417,   0.07644,   0.08135,  -0.08797,   0.03718,  -0.02172,  -0.03398,  -0.00454,   0.04699,   0.00037,  -0.00454,  -0.08797,  -0.00454
  -0.03398,   0.02982,  -0.04135,  -0.05852,  -0.01190,  -0.09533,   0.09362,  -0.00454,  -0.01435,  -0.03398,  -0.00208,   0.01019,   0.03227,   0.03472,   0.01264,  -0.04380,  -0.06343,   0.02736,  -0.01190,   0.01019,   0.00528,  -0.01190,   0.01019,  -0.10269,   0.00037,   0.02982,   0.01019,  -0.01435,   0.01264,  -0.00454,   0.00773,   0.00282,   0.00282,   0.07153,  -0.00945,   0.01509,   0.04699,   0.01509,   0.04209,   0.02245,  -0.02417,  -0.01190,   0.04209,  -0.01435,  -0.06098,  -0.01681,  -0.08306,   0.02736,  -0.07816,  -0.06343,  -0.01190,  -0.02662,   0.12307,   0.03227,  -0.00454,   0.03718,  -0.01190,  -0.05852,   0.04454,   0.01755,  -0.00699,   0.02245,  -0.11742,  -0.00208
  -0.05116,  -0.00454,  -0.01435,   0.03472,   0.06172,   0.10589,   0.09116,  -0.02417,   0.03227,   0.07399,   0.02000,  -0.01926,   0.00282,  -0.00454,   0.03227,  -0.00208,  -0.06589,   0.03472,  -0.05116,  -0.01681,  -0.02908,  -0.04625,   0.01755,  -0.02172,   0.01755,  -0.09533,  -0.06343,   0.00037,   0.02245,   0.01509,  -0.04871,  -0.01926,   0.02491,   0.03472,  -0.01926,  -0.05852,   0.05436,  -0.08552,   0.03227,  -0.03398,  -0.04625,   0.00773,   0.00528,   0.02982,  -0.11006,  -0.03153,   0.01264,  -0.03398,  -0.09533,  -0.03889,  -0.02417,  -0.04380,  -0.09042,   0.00773,   0.08135,   0.00037,  -0.01190,  -0.06098,  -0.02417,   0.03718,   0.03227,   0.00037,   0.06663,  -0.03889
  -0.02908,   0.00528,   0.00037,   0.05190,  -0.01681,  -0.04871,  -0.14441,  -0.03889,   0.03718,   0.07399,   0.00528,  -0.00699,   0.00037,  -0.11987,   0.00528,  -0.02417,   0.08871,   0.03718,  -0.05607,  -0.05116,  -0.00208,  -0.03644,  -0.01435,   0.00528,   0.03963,  -0.01926,  -0.06343,  -0.03398,  -0.02908,   0.03963,  -0.03644,   0.02491,   0.08380,   0.01264,  -0.00699,   0.01755,  -0.05607,  -0.07570,  -0.00208,  -0.02417,  -0.02417,  -0.00454,  -0.02662,   0.01019,   0.05436,  -0.01681,   0.11325,  -0.06834,  -0.09779,  -0.03889,   0.03227,  -0.01190,  -0.04135,   0.02736,   0.00037,  -0.00454,   0.00773,  -0.03889,  -0.03153,  -0.01681,   0.02982,   0.03227,   0.02736,  -0.02417
  -0.03398,   0.14760,  -0.00699,   0.00282,  -0.02172,  -0.10760,  -0.11006,  -0.02908,   0.00282,   0.02245,   0.00282,   0.09362,  -0.00208,   0.00037,   0.08626,  -0.03644,   0.02736,   0.05681,  -0.02908,  -0.02908,  -0.02908,   0.01019,  -0.00208,   0.02000,   0.04454,   0.03963,  -0.04380,  -0.04135,  -0.01435,   0.00528,  -0.01926,  -0.00699,   0.01755,   0.02000,  -0.00945,   0.02982,   0.02491,  -0.01681,   0.01755,  -0.04135,  -0.04135,  -0.00945,  -0.01190,  -0.03398,   0.20895,  -0.01435,   0.01509,  -0.03153,  -0.09288,  -0.02662,   0.02000,  -0.09288,  -0.01190,  -0.00945,   0.04945,  -0.02417,   0.02491,  -0.03398,   0.01019,  -0.00699,   0.02245,   0.02000,  -0.01926,  -0.03398
  -0.04135,  -0.03398,  -0.03153,   0.05926,   0.05190,   0.02000,   0.13288,   0.08626,   0.01019,   0.02736,  -0.02662,  -0.03398,   0.01509,   0.07399,   0.07889,  -0.02417,  -0.06834,   0.03472,  -0.04135,   0.12061,  -0.00454,  -0.00454,  -0.00699,  -0.03889,  -0.00945,  -0.03889,  -0.01681,   0.06663,  -0.01435,   0.01755,  -0.07816,  -0.01435,   0.00037,  -0.01926,  -0.01681,   0.01509,  -0.06834,  -0.01681,   0.03718,  -0.01681,  -0.04380,   0.02491,  -0.05116,   0.02491,  -0.14196,  -0.00699,  -0.02908,   0.01509,  -0.07816,  -0.05362,  -0.05362,   0.07889,  -0.06098,   0.05436,   0.09607,   0.02491,   0.02245,  -0.07325,   0.02736,  -0.01681,   0.00037,   0.00037,   0.02736,   0.05436
