  -0.02721,   0.00830,  -0.03842,   0.00830,  -0.03656,   0.00830,   0.07557,  -0.08328,   0.00643,  -0.03282,  -0.03842,  -0.03095,   0.02698,   0.02698,   0.02698,  -0.00105,  -0.03469,  -0.03095,   0.00269,  -0.08514,   0.01951,   0.05875,   0.04380,   0.07371,  -0.03282,  -0.06085,  -0.03656,   0.01764,   0.00643,   0.01390,  -0.05337,  -0.06646,  -0.10196,  -0.01974,   0.03820,  -0.04964,  -0.03095,  -0.05524,  -0.10383,   0.00643,  -0.04777,  -0.03095,  -0.03656,  -0.01039,   0.01203,  -0.06833,   0.01017,   0.02885,  -0.02534,  -0.03469,  -0.02347,  -0.05898,   0.06436,   0.07184,  -0.04590,  -0.04216,  -0.01787,  -0.03469,  -0.00852,  -0.05524,   0.02698,   0.01764,  -0.00105,  -0.01974,   0.00456,  -0.00105,  -0.02347,  -0.01413,  -0.00852,   0.04941,  -0.01413,  -0.00105,  -0.06459,   0.00082,   0.04007,  -0.01787,   0.03259,  -0.01600,  -0.08328,  -0.03469,   0.03072,  -0.08328,  -0.00292,  -0.04777,   0.01203,   0.01203,  -0.09636,   0.06436,  -0.01600,  -0.00852,   0.07184,   0.05315,  -0.07393,   0.01203,  -0.05898,  -0.01600,  -0.01413,  -0.04216,   0.02325,   0.06810,   0.05502,   0.02138,   0.04194,  -0.00479,   0.08118,   0.02698,   0.01577,  -0.09075,   0.02325,  -0.05898,   0.01764,  -0.03095,  -0.01039,  -0.04777,  -0.03842,   0.01951,  -0.00479,  -0.00852,   0.02698,   0.04380,  -0.01226,   0.11108,  -0.02721,  -0.05337,  -0.08514,  -0.01787,  -0.00479,   0.01951
  -0.01226,   0.08492,  -0.02160,   0.00082,   0.00456,   0.00082,   0.02325,  -0.01974,  -0.01413,   0.02698,   0.04941,  -0.02908,   0.00830,   0.00456,  -0.01226,  -0.07767,  -0.00665,  -0.04590,  -0.03095,   0.00082,  -0.00105,   0.02512,  -0.00292,  -0.06459,  -0.02908,  -0.01226,  -0.00665,   0.02138,  -0.00852,  -0.01787,  -0.01974,   0.02512,   0.03820,  -0.04777,  -0.03282,  -0.07580,  -0.05151,   0.00456,   0.03820,  -0.02534,   0.10361,  -0.02160,   0.01577,  -0.02160,  -0.04029,  -0.03469,  -0.00852,   0.03446,  -0.04403,  -0.01413,   0.02885,  -0.05524,   0.01764,   0.01577,  -0.00292,   0.01577,   0.00269,  -0.03282,  -0.00852,  -0.03842,  -0.01039,  -0.07767,   0.00269,   0.01577,  -0.02347,  -0.01974,  -0.03656,   0.05875,  -0.05711,   0.02138,   0.03259,  -0.01413,   0.01017,  -0.03656,   0.08118,   0.01951,   0.04567,  -0.06459,  -0.09823,  -0.02160,   0.03633,   0.01390,   0.08305,  -0.06085,  -0.02347,   0.03072,  -0.01226,  -0.02721,   0.01390,   0.02698,  -0.06646,  -0.00292,  -0.01787,   0.05689,   0.03820,  -0.01974,  -0.03469,   0.02138,  -0.03095,   0.03259,  -0.00852,  -0.00852,  -0.04964,  -0.03842,  -0.00852,  -0.04777,   0.00456,  -0.01974,   0.01017,  -0.07206,  -0.02160,   0.00269,  -0.06833,  -0.00852,   0.03259,  -0.02534,   0.03259,  -0.02721,  -0.06085,   0.02512,   0.02698,   0.04567,   0.04380,   0.01951,   0.00456,  -0.04590,  -0.00292,  -0.01974
   0.02325,  -0.05711,   0.06062,  -0.04964,  -0.04029,   0.06062,   0.03633,  -0.02160,   0.05502,   0.05502,   0.00643,   0.03072,  -0.00105,   0.00643,  -0.02908,  -0.04403,  -0.03095,  -0.04964,  -0.00105,   0.02885,   0.06810,   0.01951,  -0.02160,  -0.04403,   0.00643,  -0.04029,   0.00643,   0.01203,   0.04754,   0.04380,   0.02885,   0.06062,  -0.03282,   0.01764,  -0.03282,  -0.02160,  -0.05151,  -0.02908,   0.08118,   0.06436,   0.05502,  -0.02347,   0.02325,   0.01203,  -0.01413,   0.02325,  -0.00292,  -0.07393,   0.01390,  -0.00292,  -0.00105,   0.01390,  -0.07767,  -0.03282,   0.02885,  -0.00665,   0.01203,  -0.09075,   0.03446,   0.03633,  -0.01413,   0.02138,  -0.10383,   0.01951,   0.00269,  -0.04029,  -0.01600,   0.02512,  -0.04964,   0.03633,  -0.05337,   0.00830,   0.04007,   0.00830,  -0.04403,  -0.03842,  -0.01600,  -0.01974,   0.10547,   0.05128,  -0.06459,   0.04194,   0.07931,  -0.00292,  -0.05898,  -0.02721,  -0.12065,  -0.05524,   0.04194,  -0.00479,   0.03259,   0.00082,   0.07931,   0.06249,  -0.00665,   0.00082,   0.04941,   0.05502,   0.06623,  -0.04029,   0.07557,   0.05315,  -0.03095,  -0.01039,  -0.01413,  -0.11878,  -0.01974,  -0.03656,  -0.08514,  -0.06833,   0.01951,  -0.03842,  -0.02721,   0.01951,   0.02698,  -0.00292,  -0.00852,  -0.01413,  -0.05898,  -0.05524,  -0.01787,   0.04007,  -0.02160,  -0.01974,   0.00456,   0.00456,   0.00082,   0.03446
   0.06623,  -0.00105,   0.01577,   0.01390,  -0.07767,  -0.02347,  -0.01600,  -0.01413,   0.02138,   0.05502,  -0.06459,  -0.07393,  -0.05151,   0.00269,   0.07371,   0.03633,  -0.01600,   0.04194,  -0.00479,  -0.02908,   0.09987,  -0.02347,  -0.02908,  -0.01039,  -0.04777,  -0.04216,   0.03633,   0.01764,  -0.01039,   0.00830,  -0.01787,  -0.04403,   0.01577,  -0.03282,   0.00456,   0.00082,  -0.01039,   0.08492,   0.06810,  -0.03656,   0.03072,  -0.03282,   0.04380,  -0.09262,  -0.00665,   0.03820,  -0.02347,  -0.06085,  -0.02347,   0.00456,  -0.03656,  -0.05337,   0.03820,  -0.03095,  -0.02347,   0.04754,  -0.02908,  -0.00292,  -0.05151,  -0.02534,   0.03259,   0.05502,  -0.04029,  -0.00292,  -0.04590,  -0.02534,  -0.01974,   0.04567,   0.02885,   0.00082,   0.01017,   0.01951,   0.01390,  -0.01039,   0.01017,   0.04380,   0.02325,  -0.01226,   0.02512,   0.02698,  -0.05711,   0.01764,  -0.00852,   0.00830,  -0.10944,  -0.06085,  -0.08888,  -0.02908,  -0.03282,  -0.01413,  -0.00665,  -0.04590,  -0.00479,  -0.02160,   0.01577,  -0.04777,   0.02138,  -0.00852,   0.05875,  -0.04777,  -0.02534,  -0.03469,  -0.04403,   0.01577,   0.02698,  -0.00292,  -0.05524,   0.01951,  -0.03656,   0.00830,  -0.00105,   0.05128,  -0.02347,   0.01577,  -0.00852,  -0.08328,  -0.01226,   0.01390,  -0.01600,  -0.03095,   0.00830,  -0.01039,   0.00082,   0.04380,   0.04194,  -0.04029,  -0.07580,  -0.01413
   0.02325,  -0.02908,  -0.01226,   0.12416,  -0.00852,  -0.04029,  -0.00665,   0.06249,   0.04380,   0.00456,  -0.00479,   0.02512,  -0.05524,  -0.03842,   0.07371,   0.01764,   0.10921,   0.04941,   0.01017,   0.06249,   0.04380,  -0.04403,  -0.03282,  -0.05898,   0.03446,  -0.09449,   0.15406,   0.01577,   0.02325,   0.09800,   0.03072,   0.00830,   0.04380,  -0.00665,  -0.02347,   0.08492,   0.11669,   0.00643,   0.04194,   0.01390,   0.06249,  -0.02908,   0.01577,   0.01203,   0.11295,  -0.13560,  -0.04590,  -0.09823,  -0.03282,  -0.04964,  -0.03469,  -0.09449,   0.09800,  -0.01039,   0.04380,   0.07557,   0.01764,   0.02512,  -0.01974,   0.00830,  -0.03095,   0.06062,  -0.02721,  -0.03282,   0.05315,  -0.01413,  -0.03469,   0.06436,   0.03072,   0.04754,   0.09052,   0.06997,   0.02885,  -0.01787,   0.10734,   0.01203,   0.04380,  -0.03842,  -0.07206,  -0.00479,  -0.08514,   0.03072,   0.08492,   0.00082,   0.06249,   0.06623,   0.07557,  -0.04403,  -0.05337,   0.04380,   0.01577,   0.01017,  -0.13934,  -0.01600,  -0.02160,   0.00082,  -0.07206,   0.13724,   0.01951,   0.05502,  -0.04216,  -0.02908,  -0.08701,   0.01951,  -0.04964,   0.06810,  -0.01600,   0.07184,  -0.00292,   0.04941,  -0.01787,  -0.10757,   0.02512,   0.07184,  -0.00292,   0.01203,   0.08305,  -0.02160,   0.01203,  -0.03656,   0.03633,  -0.00852,  -0.00105,   0.03446,   0.09613,   0.00643,  -0.05524,   0.03072
  -0.01039,   0.00643,   0.02325,  -0.05151,  -0.07206,  -0.04029,  -0.02908,   0.02325,  -0.02721,   0.06249,   0.00830,   0.00082,   0.01951,   0.04194,  -0.00479,   0.03072,   0.02512,   0.01577,   0.00269,   0.00643,  -0.01974,  -0.02160,  -0.02721,   0.00082,   0.00269,  -0.07393,  -0.01413,  -0.02908,  -0.01974,   0.03633,  -0.06459,  -0.04216,   0.00269,  -0.01226,  -0.11878,   0.08492,   0.00082,   0.01951,  -0.01600,  -0.00852,   0.03633,  -0.01039,   0.06062,  -0.06085,   0.05315,   0.00830,  -0.01787,  -0.04964,   0.04007,  -0.01600,  -0.06085,   0.03446,  -0.00479,   0.00456,   0.03072,  -0.00852,  -0.01787,  -0.01413,   0.01203,   0.06436,  -0.00292,   0.05689,  -0.00105,   0.03633,  -0.03469,   0.02325,   0.04567,  -0.00479,   0.04007,   0.00269,  -0.01787,   0.01577,  -0.02347,  -0.05524,  -0.03656,  -0.03282,  -0.00105,  -0.01039,  -0.02160,   0.00269,  -0.02721,   0.00082,   0.02698,  -0.01600,   0.00456,   0.00643,  -0.01039,  -0.02908,  -0.01600,  -0.00479,  -0.02534,  -0.00852,  -0.01413,   0.04194,   0.00643,   0.01203,  -0.03282,  -0.06459,   0.02138,  -0.00292,  -0.02721,  -0.04777,  -0.02160,  -0.02908,   0.00643,  -0.03842,   0.01951,   0.03446,   0.03072,   0.01951,   0.03820,   0.01390,  -0.02160,  -0.00105,   0.00082,   0.04194,  -0.00665,  -0.01600,  -0.04216,   0.05689,  -0.05898,  -0.07019,   0.03259,  -0.03656,   0.01390,   0.02512,   0.07371,  -0.00105
   0.01577,   0.00830,   0.01577,   0.01764,   0.02325,   0.04567,   0.02138,  -0.08514,  -0.00105,   0.01203,  -0.08141,   0.08305,  -0.01600,   0.00082,   0.01203,  -0.04029,  -0.02908,   0.00082,   0.00456,   0.07371,  -0.09636,  -0.02534,   0.02698,  -0.01600,  -0.09636,  -0.06833,  -0.02534,   0.08305,  -0.03095,   0.02325,   0.00269,  -0.00105,  -0.03469,  -0.04590,  -0.01787,  -0.04403,  -0.01226,   0.07184,   0.00269,   0.10361,   0.00643,   0.01203,   0.01203,  -0.01039,   0.03820,  -0.06459,   0.00456,   0.12603,   0.00269,   0.08679,  -0.03842,   0.09426,  -0.00665,   0.04194,   0.03259,  -0.00105,   0.02698,  -0.01413,   0.01390,   0.04194,  -0.03656,   0.04194,  -0.06646,  -0.05711,  -0.03282,   0.01017,  -0.01974,   0.00456,   0.00830,   0.05502,  -0.02908,   0.00456,  -0.01226,   0.01390,  -0.05337,   0.04754,   0.01951,   0.04754,  -0.03095,   0.01390,  -0.04216,  -0.05337,  -0.04403,  -0.00105,   0.08118,  -0.03656,  -0.05524,   0.01764,   0.01390,  -0.00665,   0.02138,   0.05128,   0.01390,  -0.02534,  -0.08141,  -0.01039,   0.02698,   0.00830,  -0.01039,   0.08118,  -0.03842,   0.03446,  -0.01226,  -0.04590,   0.06436,   0.01577,  -0.04777,  -0.01787,   0.01390,  -0.05711,  -0.02908,  -0.01039,   0.05502,  -0.01600,  -0.07019,   0.02698,  -0.01787,   0.01577,  -0.02721,   0.04007,  -0.05898,   0.04380,   0.03072,  -0.02347,  -0.09636,   0.00643,  -0.02347,  -0.02908
   0.03446,   0.06810,   0.03820,  -0.01974,   0.01764,  -0.00665,   0.01951,   0.06997,   0.05315,  -0.01413,  -0.04029,  -0.01039,   0.02885,   0.03259,  -0.02160,   0.02698,   0.00269,  -0.00852,  -0.02721,  -0.08514,  -0.05151,  -0.00105,  -0.03282,   0.01764,   0.00082,  -0.02160,   0.00830,  -0.04590,   0.01764,  -0.03842,  -0.04590,  -0.03469,  -0.03282,  -0.05151,  -0.04777,   0.01017,  -0.01600,   0.00269,   0.05128,  -0.01974,   0.05128,   0.02885,   0.02885,  -0.03656,  -0.00105,   0.00269,  -0.05337,  -0.02347,  -0.01413,   0.01577,  -0.01974,  -0.04216,   0.02138,  -0.01226,   0.01764,  -0.03469,   0.00269,  -0.00105,   0.01017,   0.01017,  -0.01974,   0.02698,   0.01764,  -0.02160,  -0.06646,  -0.00105,  -0.04029,   0.01017,  -0.02347,  -0.01413,   0.09800,   0.04567,   0.00830,   0.04380,  -0.04029,   0.00269,  -0.08328,   0.00830,  -0.07767,   0.01764,   0.03820,   0.02698,  -0.02908,   0.01017,  -0.04216,   0.03820,  -0.02721,  -0.00852,  -0.08141,  -0.00665,  -0.01413,   0.05689,   0.05315,   0.04941,  -0.01039,   0.01764,  -0.02347,  -0.00292,   0.04754,  -0.03469,   0.02138,  -0.05898,   0.02138,  -0.00292,  -0.05151,  -0.01226,   0.07744,   0.01203,  -0.09075,   0.07744,  -0.00665,   0.05689,  -0.01413,  -0.05524,  -0.01787,  -0.02721,  -0.00665,  -0.02347,  -0.10383,   0.07184,   0.02698,   0.00643,  -0.05151,  -0.02908,   0.02512,  -0.00852,  -0.06085,   0.02512
   0.00082,  -0.01039,  -0.01787,  -0.02347,   0.08305,   0.04754,   0.00456,   0.00456,   0.02512,   0.01390,   0.03820,  -0.07954,  -0.04403,  -0.03469,   0.04007,   0.05128,  -0.00665,  -0.03469,  -0.02347,  -0.01413,  -0.01974,  -0.05337,   0.07557,  -0.00292,  -0.00479,  -0.02347,   0.02698,   0.01764,   0.05502,   0.04567,  -0.02534,   0.09426,   0.01951,  -0.04777,  -0.03469,  -0.04777,  -0.01600,   0.06623,  -0.01600,   0.01764,   0.04007,   0.01390,  -0.01039,  -0.03469,   0.04007,   0.11856,  -0.04216,   0.06997,   0.04567,  -0.02347,  -0.00852,   0.04567,   0.04754,  -0.00665,  -0.02160,   0.01390,   0.00643,  -0.02534,   0.01017,  -0.02908,  -0.00479,   0.03259,  -0.02721,   0.04194,  -0.01039,   0.06436,   0.01203,  -0.09823,  -0.00665,   0.02698,  -0.02347,   0.01017,   0.03072,   0.02138,  -0.01039,   0.01390,  -0.06085,  -0.00852,   0.02512,  -0.02721,  -0.01413,  -0.02160,  -0.04216,  -0.00852,  -0.07019,  -0.02534,  -0.02534,  -0.03095,   0.04380,   0.08492,   0.02512,  -0.02908,   0.03446,   0.02325,   0.00269,  -0.01039,  -0.07393,  -0.04403,  -0.00479,   0.06997,   0.03820,   0.03633,  -0.05711,   0.02698,  -0.04029,   0.03820,   0.03072,   0.00082,   0.02512,  -0.08514,  -0.07767,  -0.01600,   0.03633,  -0.07954,   0.06623,  -0.00292,  -0.00292,   0.01951,  -0.02160,   0.03820,   0.00269,  -0.06646,  -0.02721,  -0.02721,   0.01390,  -0.02534,  -0.03095,  -0.05898
   0.07184,  -0.04216,   0.01390,   0.03446,  -0.00665,   0.01577,  -0.03842,  -0.00665,   0.03446,   0.03446,   0.08118,  -0.06646,  -0.04590,  -0.00292,  -0.02347,   0.09613,  -0.02534,  -0.01413,   0.08492,   0.02138,  -0.04590,   0.01764,  -0.05524,   0.03633,   0.16528,  -0.12813,   0.08492,  -0.10944,  -0.04777,   0.00643,   0.01203,   0.01017,  -0.00852,  -0.03095,   0.00082,  -0.00105,   0.04754,   0.01951,   0.00456,   0.11856,   0.02885,  -0.01974,  -0.04029,  -0.10757,   0.04194,   0.00456,  -0.00292,  -0.03656,   0.04380,  -0.04029,   0.01390,   0.01577,   0.01951,   0.07744,   0.03820,   0.03633,   0.04194,  -0.03282,  -0.02160,  -0.00665,   0.01203,   0.04567,  -0.02534,   0.03446,   0.04754,   0.01951,  -0.00292,   0.04194,  -0.08328,   0.00082,   0.01577,   0.05128,  -0.01039,  -0.04029,   0.05128,  -0.00479,  -0.00665,   0.01764,  -0.01787,  -0.00665,  -0.06085,  -0.02160,  -0.01039,   0.02885,   0.06249,   0.13538,   0.00456,  -0.02721,  -0.03842,  -0.00292,  -0.01039,   0.03072,  -0.05711,   0.00643,   0.00830,  -0.03656,  -0.06085,   0.02885,   0.01577,   0.11108,   0.04567,   0.01764,   0.00269,  -0.01787,  -0.00105,   0.08866,   0.07557,   0.02512,  -0.08141,  -0.01226,  -0.03842,  -0.00665,   0.07744,   0.03446,   0.03259,  -0.00665,   0.00643,  -0.00105,   0.02512,  -0.06272,   0.01577,   0.00082,  -0.10944,  -0.01974,  -0.01413,   0.01764,  -0.00852,   0.00830
   0.02512,  -0.00105,  -0.02908,   0.00456,   0.05315,  -0.02721,  -0.04777,  -0.04590,   0.03820,   0.01390,   0.02512,   0.03633,  -0.02160,   0.01203,   0.01764,   0.05689,  -0.03656,   0.02138,  -0.00479,   0.01017,  -0.02908,  -0.04216,   0.01951,   0.02885,  -0.03842,  -0.00479,  -0.01600,  -0.08328,   0.00082,   0.03820,   0.01951,  -0.07767,   0.01203,  -0.05711,  -0.05337,   0.04007,   0.01390,  -0.03656,  -0.04964,  -0.01413,   0.03820,  -0.05337,   0.05689,  -0.00479,  -0.02534,  -0.05151,   0.01577,  -0.12252,   0.01390,  -0.04029,  -0.02721,  -0.02347,   0.01764,   0.01017,  -0.01039,   0.02885,  -0.01226,   0.01577,  -0.01413,  -0.02534,   0.01577,   0.00269,   0.02512,   0.00456,  -0.01226,   0.04567,   0.01203,  -0.04403,   0.00456,  -0.04777,  -0.03282,   0.06062,   0.04567,  -0.00292,   0.01390,   0.04007,   0.02512,   0.01577,  -0.03095,   0.06249,  -0.02908,   0.00643,   0.04754,  -0.01974,  -0.03656,   0.03446,  -0.02721,  -0.04403,  -0.02160,   0.01764,   0.02698,  -0.07580,   0.01390,   0.01017,  -0.02534,   0.00643,  -0.01226,  -0.01600,  -0.02908,   0.04567,  -0.02160,  -0.02721,  -0.00665,  -0.00852,  -0.00105,   0.02885,  -0.03469,  -0.01226,  -0.04964,   0.03446,  -0.02721,   0.01017,  -0.02347,  -0.05151,  -0.00105,   0.03072,   0.05502,  -0.00105,  -0.03095,  -0.00852,  -0.02160,  -0.02908,   0.00082,  -0.00665,   0.01764,   0.01577,   0.03820,  -0.01974
  -0.04029,  -0.06085,   0.04754,   0.03446,   0.05315,   0.04380,   0.01017,  -0.00292,   0.03259,   0.09052,   0.03820,  -0.05151,   0.07184,   0.01577,   0.01203,  -0.02347,   0.04007,  -0.01039,   0.03820,   0.06623,  -0.13186,  -0.00665,   0.00830,   0.11108,  -0.05337,  -0.07019,  -0.04029,   0.04380,   0.01764,  -0.01600,   0.00082,  -0.04590,  -0.02160,  -0.05898,   0.00269,  -0.01787,  -0.00105,   0.06436,  -0.02534,  -0.00852,   0.06436,  -0.09823,  -0.06272,  -0.06459,   0.01764,  -0.03469,   0.03446,  -0.05711,   0.01203,  -0.03656,   0.00643,   0.06436,   0.01390,  -0.09449,  -0.01039,  -0.04029,   0.02138,  -0.07580,   0.12977,  -0.00852,   0.00082,  -0.06459,  -0.06085,  -0.01974,  -0.03842,   0.02885,   0.00830,   0.00082,   0.02698,  -0.02721,   0.06249,   0.04194,  -0.00665,   0.03820,   0.06436,   0.06436,  -0.07206,   0.03633,   0.04380,   0.07184,  -0.02160,   0.02698,  -0.01039,   0.01390,  -0.08888,  -0.00665,   0.00456,  -0.00479,   0.05689,  -0.02160,   0.01390,   0.05689,  -0.00105,   0.04007,   0.05128,   0.02138,  -0.01974,   0.03633,   0.01203,  -0.03656,   0.05128,  -0.04964,   0.04007,  -0.07019,  -0.03469,   0.03820,   0.08305,   0.00456,  -0.01226,   0.03446,   0.01764,   0.02698,   0.05315,   0.01764,  -0.03282,   0.03259,   0.02325,  -0.01039,  -0.01413,  -0.07767,   0.09987,  -0.01974,  -0.07954,   0.03820,  -0.01039,  -0.01974,  -0.02160,   0.06623
   0.00830,   0.09239,  -0.01974,  -0.04216,   0.02325,  -0.01600,  -0.04777,  -0.01413,   0.00456,   0.01951,  -0.06085,  -0.02908,   0.06436,   0.01577,   0.03820,  -0.03095,  -0.04029,   0.02325,   0.00643,  -0.01039,  -0.04216,  -0.00479,  -0.04216,  -0.00852,   0.07744,  -0.08514,  -0.02721,   0.06436,  -0.02160,   0.02138,  -0.02347,   0.02325,  -0.02347,  -0.00105,   0.01017,   0.01390,   0.01203,   0.00456,  -0.03282,   0.09426,   0.03072,   0.08492,   0.09052,   0.05502,  -0.04216,  -0.02534,   0.03633,   0.08492,   0.09239,   0.07371,   0.02512,   0.03446,  -0.04964,  -0.09262,   0.00830,  -0.04590,   0.00082,   0.01017,  -0.05524,  -0.03656,   0.04007,  -0.02721,   0.04567,  -0.01787,   0.01390,   0.00269,   0.02138,   0.03446,  -0.04590,  -0.01787,   0.01390,   0.07931,  -0.02160,  -0.02160,  -0.05524,  -0.00665,   0.06810,  -0.03842,   0.00643,  -0.05151,   0.00830,  -0.09449,   0.01017,  -0.04964,   0.06062,   0.06436,  -0.04029,  -0.02908,  -0.02908,   0.05128,   0.05502,  -0.03469,  -0.00479,   0.02698,  -0.02534,  -0.03656,   0.08305,   0.00456,   0.05128,   0.08305,  -0.00852,   0.00830,  -0.01974,  -0.01226,   0.00269,   0.01390,  -0.05711,   0.00269,   0.00269,   0.06436,   0.06436,   0.03820,  -0.06459,  -0.05151,   0.02138,  -0.00292,   0.01951,  -0.00852,  -0.00105,  -0.00479,   0.08866,  -0.04403,  -0.05898,  -0.02160,  -0.01600,  -0.00852,   0.00456,  -0.02721
  -0.00105,   0.07931,   0.00082,   0.03633,   0.04194,  -0.01787,   0.01951,  -0.07206,   0.03446,  -0.04964,   0.04194,   0.02512,   0.02138,  -0.03282,   0.00082,  -0.05337,   0.00830,  -0.00852,  -0.01226,  -0.01787,  -0.01974,   0.05315,  -0.01974,  -0.07206,  -0.00105,  -0.08888,   0.01203,   0.05128,  -0.02347,   0.03259,   0.02138,  -0.01787,   0.01577,  -0.02721,   0.00269,  -0.03095,  -0.01226,  -0.03469,   0.04194,   0.00830,  -0.02534,  -0.02534,  -0.02347,  -0.02908,  -0.03282,  -0.04216,   0.03820,  -0.02908,   0.00643,   0.00830,   0.02325,  -0.08141,  -0.01974,   0.04194,  -0.04029,   0.04567,   0.03820,  -0.00479,  -0.01974,   0.02138,  -0.01974,   0.00456,   0.04754,  -0.02534,   0.00269,   0.01764,   0.00082,  -0.06085,  -0.04777,   0.00456,   0.03820,   0.02885,   0.05689,  -0.00292,  -0.03095,   0.06062,   0.03446,   0.01203,   0.03072,   0.03633,  -0.01600,   0.01951,  -0.02534,  -0.01039,   0.03072,  -0.02534,  -0.00105,  -0.01600,  -0.00105,   0.03072,  -0.00105,   0.01203,  -0.03095,   0.01764,   0.00269,  -0.00852,   0.08679,   0.03259,  -0.04777,  -0.01600,  -0.00292,  -0.00105,  -0.01413,  -0.00479,   0.03259,  -0.03469,  -0.06646,  -0.01974,  -0.06272,  -0.00665,  -0.05524,   0.04380,  -0.11691,  -0.05524,  -0.04590,  -0.05898,  -0.00479,   0.02325,   0.01390,   0.01390,   0.06436,  -0.07954,  -0.00852,   0.04380,  -0.00105,   0.01203,  -0.00665,   0.05502
   0.05502,   0.02885,   0.01017,  -0.03842,  -0.04403,  -0.02347,  -0.03095,   0.01017,  -0.02347,   0.01951,   0.04567,   0.04941,   0.06997,  -0.04590,   0.01203,   0.06249,  -0.01974,  -0.01413,  -0.03469,  -0.10196,   0.01577,  -0.00292,   0.00082,  -0.02160,   0.03259,  -0.04029,   0.03072,  -0.03842,  -0.02160,  -0.00479,  -0.05151,   0.01203,   0.05315,  -0.01226,  -0.00292,   0.03446,  -0.01600,  -0.03656,  -0.01974,  -0.03282,  -0.00665,   0.01764,   0.02325,  -0.06833,   0.01951,   0.09426,  -0.02908,  -0.03282,   0.02512,   0.06062,  -0.00665,   0.07184,   0.02885,  -0.01600,  -0.00852,   0.00830,   0.00269,   0.00082,   0.05502,  -0.02160,  -0.01600,  -0.04964,  -0.04029,   0.06062,   0.04007,   0.00082,   0.05315,   0.10361,   0.04941,   0.00830,  -0.02534,  -0.02721,  -0.00665,   0.02325,  -0.01787,   0.05689,  -0.04216,   0.04007,   0.03259,  -0.04029,   0.00269,  -0.00105,  -0.04029,  -0.00479,  -0.01974,  -0.03469,  -0.07019,  -0.05524,   0.01390,  -0.02534,  -0.00105,   0.02325,   0.02325,   0.00643,  -0.02908,   0.03633,  -0.05898,  -0.04403,   0.01203,  -0.01600,  -0.03656,   0.01017,  -0.01039,   0.06623,   0.01951,  -0.06085,  -0.03282,  -0.02347,  -0.02721,  -0.02721,   0.01577,  -0.00852,  -0.03842,   0.01390,  -0.01226,   0.01203,   0.00830,   0.01951,  -0.04590,   0.03633,  -0.03656,  -0.00852,   0.05502,  -0.00105,   0.03072,   0.01951,   0.02698,  -0.00665
  -0.00665,  -0.10757,  -0.04029,  -0.04590,  -0.03842,  -0.02347,   0.05875,   0.01764,   0.00269,   0.06436,   0.00643,   0.00082,   0.08866,  -0.02347,   0.07931,   0.02512,  -0.01974,  -0.00665,  -0.05711,  -0.10944,   0.11295,   0.01951,  -0.02908,  -0.04029,  -0.00105,  -0.05898,  -0.02160,  -0.00852,   0.04007,   0.03820,  -0.00105,   0.10734,   0.00643,  -0.02160,   0.04007,  -0.02721,   0.00082,  -0.06646,   0.04007,   0.04567,   0.01951,  -0.06646,   0.01390,   0.15220,  -0.11878,   0.04754,   0.01764,   0.05315,  -0.02347,  -0.06646,   0.06436,  -0.03656,  -0.02160,   0.01764,   0.04380,  -0.07019,   0.00830,  -0.01787,  -0.02721,  -0.03469,   0.01764,   0.02325,   0.02885,   0.04941,  -0.00105,   0.01577,  -0.00105,   0.00830,  -0.07393,   0.00269,   0.06062,   0.00082,  -0.05524,   0.03259,  -0.03842,  -0.01226,   0.06997,  -0.00665,   0.02138,  -0.02347,  -0.02908,   0.04194,  -0.01787,   0.01951,  -0.00105,  -0.05337,   0.04194,  -0.03095,  -0.02908,   0.01203,  -0.01226,  -0.00852,   0.09052,  -0.02160,  -0.01974,   0.00456,  -0.02160,  -0.02347,  -0.04964,  -0.02160,   0.01577,   0.04007,  -0.03656,   0.00643,  -0.06833,  -0.11878,  -0.05711,  -0.01039,  -0.05337,  -0.01787,   0.08118,   0.01203,  -0.09449,   0.01577,  -0.01600,   0.00830,   0.03259,  -0.03469,  -0.02721,  -0.07393,  -0.03095,   0.02512,   0.01951,  -0.01413,  -0.01600,   0.04567,  -0.03282,  -0.02721
   0.00082,  -0.03469,   0.01951,  -0.01974,  -0.05898,   0.03072,  -0.05337,  -0.05151,  -0.04590,   0.05128,  -0.00665,  -0.01039,  -0.03842,   0.02325,   0.02512,  -0.01600,  -0.02347,  -0.01787,   0.02512,   0.00269,   0.06249,   0.00082,   0.01577,   0.00269,  -0.10383,   0.00643,   0.07744,  -0.02721,   0.04754,  -0.05337,  -0.03656,   0.01203,   0.02698,   0.02512,   0.03633,   0.06062,   0.03820,  -0.08888,  -0.04029,   0.01390,   0.00456,   0.00643,  -0.01413,  -0.02534,   0.00830,  -0.03282,   0.00269,  -0.01787,   0.01390,  -0.01974,  -0.03842,   0.03446,  -0.06085,  -0.01226,  -0.01413,   0.01577,   0.03259,  -0.06085,  -0.02160,   0.00269,  -0.04777,   0.02512,  -0.00105,   0.03446,   0.06623,   0.06623,  -0.01787,  -0.04777,  -0.04216,  -0.01974,   0.02512,  -0.03095,   0.05689,   0.00082,  -0.05151,  -0.04590,  -0.00292,  -0.04216,  -0.09823,   0.02512,  -0.00105,   0.01951,  -0.02160,   0.04380,  -0.02347,  -0.04216,   0.02698,  -0.04964,  -0.00665,   0.01764,  -0.00665,   0.02885,   0.00456,   0.04754,  -0.00665,   0.02325,   0.03259,  -0.03095,  -0.04403,  -0.02347,  -0.03469,   0.03633,  -0.01787,   0.03820,   0.03633,  -0.04403,   0.01764,   0.02512,   0.02512,  -0.04964,  -0.02347,   0.02698,  -0.03656,   0.00269,   0.03072,   0.06623,   0.02885,   0.03259,   0.04380,  -0.03656,  -0.00665,   0.01764,   0.02138,   0.01951,  -0.07019,   0.00830,   0.05128,   0.04194
   0.01577,   0.00269,   0.08492,  -0.03282,  -0.04029,   0.01577,  -0.01039,  -0.00479,   0.00643,   0.06623,   0.01390,   0.00082,  -0.00665,   0.01764,  -0.01787,  -0.06272,  -0.03469,   0.04941,   0.01764,  -0.04590,  -0.03095,   0.01764,  -0.04216,  -0.00105,  -0.00665,   0.04941,   0.04194,  -0.00479,  -0.04403,   0.00830,  -0.05524,  -0.04590,   0.00269,   0.01017,   0.00456,   0.06810,  -0.03095,   0.06997,  -0.01787,  -0.02347,   0.02885,  -0.02347,  -0.02347,   0.03820,   0.01951,  -0.04777,  -0.01974,   0.01577,   0.01390,   0.02698,  -0.00105,   0.03446,   0.02885,  -0.04964,  -0.01226,   0.00269,   0.02138,   0.01017,  -0.02908,   0.01390,   0.02325,  -0.02721,   0.02138,   0.02325,  -0.02160,  -0.06459,   0.02512,   0.00830,   0.00643,   0.06810,  -0.00665,  -0.03282,   0.05315,   0.00643,  -0.00292,   0.02325,  -0.03282,  -0.02347,   0.02325,   0.04194,   0.02512,  -0.01413,   0.00269,   0.00830,   0.01203,   0.01951,  -0.05151,   0.01017,  -0.01974,   0.04007,   0.00269,  -0.01600,  -0.00292,   0.00269,   0.02512,  -0.03656,  -0.02160,  -0.03282,   0.01577,   0.02325,   0.02325,  -0.01039,   0.03259,   0.00456,   0.01203,  -0.00105,   0.00456,  -0.01600,   0.04194,   0.02698,  -0.01600,   0.03072,   0.05128,   0.04380,   0.01577,   0.04754,  -0.05898,  -0.01600,  -0.02347,   0.00643,  -0.02908,  -0.00479,  -0.04216,   0.01577,   0.01017,   0.03072,  -0.02908,  -0.01226
  -0.03282,   0.00830,  -0.04590,   0.01577,  -0.05151,   0.08679,  -0.00479,   0.04380,  -0.01226,  -0.00852,  -0.05898,  -0.03282,   0.04194,  -0.03842,   0.04567,  -0.00852,   0.05875,  -0.11131,   0.05502,  -0.02347,   0.18583,   0.00269,  -0.00665,  -0.11318,  -0.08701,   0.15220,   0.02138,  -0.03282,   0.05128,  -0.09262,  -0.08328,   0.05315,  -0.00665,   0.12043,   0.07371,   0.06623,   0.03072,  -0.10196,  -0.08328,  -0.05151,  -0.04029,   0.01390,   0.02698,  -0.00105,  -0.05524,   0.01203,  -0.03282,  -0.05711,   0.05315,  -0.10010,  -0.08141,  -0.12065,   0.02512,  -0.03842,   0.09987,   0.03633,  -0.02534,   0.00643,   0.01390,  -0.01413,  -0.04216,   0.00830,  -0.07206,   0.05128,  -0.03656,  -0.01600,   0.02512,  -0.07206,  -0.02160,  -0.04216,  -0.05524,  -0.05898,  -0.01039,  -0.04403,   0.00643,  -0.06459,  -0.06833,   0.03820,  -0.07393,   0.04380,   0.00643,   0.06436,   0.01577,  -0.04403,  -0.05711,  -0.03842,   0.08866,   0.02325,  -0.01600,  -0.01226,  -0.05151,  -0.04403,  -0.05151,   0.01951,  -0.00105,  -0.03469,   0.04380,  -0.05898,  -0.06833,  -0.07954,   0.00269,   0.11295,  -0.04403,   0.08118,   0.01577,  -0.08701,   0.01203,  -0.03469,   0.01951,  -0.09449,  -0.01226,   0.02512,  -0.05524,   0.01017,   0.13538,  -0.03469,  -0.06833,  -0.02908,  -0.01413,   0.04941,  -0.02160,   0.18770,   0.04380,   0.00269,  -0.07206,   0.06810,   0.03820,   0.08118
  -0.00479,  -0.03282,   0.05502,  -0.00479,  -0.06459,  -0.05524,  -0.04029,  -0.04403,  -0.01974,  -0.00105,  -0.00852,   0.05128,   0.01764,  -0.02160,  -0.06085,   0.00456,   0.04567,  -0.01226,   0.00830,   0.01764,  -0.05898,   0.05128,   0.01951,  -0.01413,  -0.01787,  -0.07767,   0.00456,   0.02512,  -0.04590,   0.01764,  -0.01039,  -0.01039,   0.01017,   0.01390,  -0.01787,   0.04380,   0.02885,  -0.00852,   0.01764,  -0.00479,  -0.00852,  -0.02721,  -0.01974,  -0.03469,  -0.06272,   0.02512,  -0.00292,   0.04007,  -0.01974,   0.02885,  -0.04216,   0.05128,  -0.00105,  -0.02347,  -0.07767,  -0.02534,  -0.04590,  -0.03842,  -0.01413,   0.03072,   0.00082,  -0.04216,   0.01203,   0.01390,  -0.04590,   0.00643,   0.02698,  -0.02160,   0.05875,   0.00830,  -0.03095,  -0.00665,  -0.00852,  -0.00105,   0.00830,  -0.02160,  -0.03656,  -0.00479,  -0.03469,  -0.01787,   0.02512,  -0.01039,  -0.08888,  -0.01600,   0.01017,  -0.01787,  -0.05151,  -0.01039,   0.03820,  -0.02534,   0.06623,   0.00456,  -0.01039,  -0.01039,   0.02512,  -0.01600,   0.02138,  -0.06646,   0.03820,  -0.03656,  -0.01413,  -0.04777,  -0.00852,  -0.06272,  -0.01413,   0.02698,   0.01951,  -0.00292,   0.05689,  -0.04216,   0.01951,   0.04380,   0.06436,   0.01577,  -0.00292,  -0.02347,  -0.01787,  -0.00479,   0.00269,  -0.08701,   0.00082,  -0.03095,   0.02325,   0.00830,   0.03072,  -0.00105,  -0.00479,   0.00269
  -0.04590,   0.00082,   0.00643,  -0.03469,   0.07557,  -0.04777,  -0.04964,  -0.00292,   0.10174,   0.02512,  -0.07019,  -0.03282,  -0.06459,   0.02138,  -0.00852,   0.01951,  -0.01974,   0.09800,  -0.08514,   0.03820,  -0.07206,   0.04194,   0.04194,   0.00082,   0.09987,   0.02512,  -0.08888,  -0.03656,  -0.03469,  -0.00665,   0.08679,   0.03820,   0.01390,  -0.05711,  -0.04216,   0.02325,  -0.04777,   0.01764,  -0.02721,  -0.06833,   0.07371,   0.05502,  -0.05711,   0.01203,   0.01203,   0.02885,   0.01951,  -0.04590,  -0.01600,  -0.04590,  -0.01226,  -0.07206,   0.04380,  -0.01600,   0.03446,  -0.02534,   0.03446,   0.01390,   0.08305,   0.01764,   0.00082,  -0.09636,  -0.07019,  -0.01226,  -0.02908,  -0.03842,   0.04007,  -0.10383,  -0.07767,  -0.07954,  -0.03842,  -0.03842,   0.06810,   0.02325,   0.00456,   0.06062,   0.05128,  -0.00292,   0.09052,   0.11856,  -0.05337,   0.06249,   0.03446,  -0.01974,  -0.06833,  -0.07019,   0.06997,  -0.02721,  -0.04216,  -0.08141,  -0.00479,  -0.07206,  -0.00479,  -0.00292,  -0.00292,  -0.02534,   0.00830,   0.07184,  -0.00105,  -0.02534,   0.01017,  -0.04216,  -0.00852,  -0.00852,  -0.00665,  -0.00852,   0.03259,  -0.03282,  -0.00292,   0.07744,  -0.05337,  -0.01226,   0.01764,  -0.03842,  -0.08701,   0.02325,   0.10547,  -0.01226,   0.02885,   0.04194,   0.05128,  -0.11131,   0.00269,   0.03633,  -0.01600,   0.01390,   0.06997,  -0.07580
   0.02885,   0.01390,  -0.04964,  -0.07767,  -0.03842,  -0.04403,  -0.05898,  -0.01600,  -0.01226,   0.03446,   0.01390,  -0.07393,   0.04941,   0.03446,  -0.00852,   0.02698,  -0.01413,  -0.02721,  -0.01600,  -0.07206,  -0.06646,  -0.01787,  -0.09262,   0.01390,  -0.01600,  -0.06272,   0.02512,  -0.04777,   0.01390,  -0.01413,   0.02138,  -0.06459,  -0.01039,  -0.03469,   0.01203,  -0.06459,  -0.01974,   0.01764,   0.00643,   0.02138,  -0.02160,  -0.00852,  -0.07019,  -0.03656,   0.01577,  -0.06459,   0.01390,  -0.05898,  -0.01413,  -0.01226,   0.01203,   0.00643,   0.01951,  -0.10010,   0.00456,   0.01017,  -0.02347,   0.06436,  -0.06272,  -0.02721,  -0.05337,  -0.00479,   0.04941,   0.01203,  -0.02160,  -0.02721,  -0.00665,   0.12229,   0.02512,   0.05875,  -0.05524,   0.06436,  -0.02721,   0.00456,   0.01577,   0.01203,  -0.07580,   0.03072,   0.01390,   0.01577,   0.01764,   0.02512,  -0.06646,   0.02325,  -0.04216,  -0.02534,  -0.04029,  -0.02908,   0.00456,  -0.06459,   0.01390,   0.02512,   0.02885,  -0.04029,   0.02138,   0.01764,   0.04007,  -0.02721,   0.08492,  -0.02347,   0.07184,  -0.02534,   0.08679,  -0.02721,   0.00456,   0.08679,   0.04941,   0.02512,  -0.01600,   0.11108,   0.01764,  -0.01039,  -0.04029,  -0.02160,   0.01203,  -0.02908,  -0.01974,   0.00456,  -0.04029,  -0.02908,   0.01764,  -0.06833,   0.06062,   0.01764,   0.01951,   0.01577,   0.05128,  -0.06833
  -0.01600,  -0.06459,  -0.02534,  -0.01413,   0.09987,  -0.01039,   0.04941,  -0.02534,   0.06623,   0.01764,   0.03072,   0.04941,  -0.05524,   0.00830,  -0.07393,  -0.04029,  -0.05337,  -0.02160,   0.01577,   0.15406,   0.10361,  -0.00105,   0.06062,   0.00830,  -0.03282,   0.04941,  -0.02160,  -0.08141,   0.07744,  -0.06085,   0.07744,   0.06249,  -0.01039,   0.03072,   0.03259,  -0.05151,  -0.03656,  -0.06459,  -0.08328,  -0.00479,  -0.00292,  -0.00292,  -0.00852,   0.05502,  -0.06833,   0.09987,  -0.01413,  -0.04777,  -0.00852,  -0.00105,  -0.02908,   0.02138,   0.01017,  -0.00852,   0.02512,  -0.02347,  -0.04029,   0.04007,   0.12603,   0.06810,   0.07184,   0.00456,  -0.00292,   0.05502,   0.00082,   0.03633,  -0.01039,  -0.01787,   0.02885,  -0.03095,   0.01764,   0.03259,  -0.02160,   0.03446,  -0.05151,  -0.00665,  -0.01039,  -0.05151,   0.07744,   0.04007,  -0.07580,   0.04754,  -0.04029,  -0.02908,  -0.01226,  -0.05337,   0.08492,   0.09800,  -0.01974,  -0.00105,   0.03259,  -0.05337,  -0.04403,  -0.06459,  -0.07206,   0.02325,  -0.07019,  -0.03842,  -0.03656,  -0.03469,  -0.05711,   0.06997,   0.00456,  -0.00852,  -0.02347,  -0.10570,  -0.00665,  -0.02347,   0.02698,   0.07371,  -0.04964,  -0.03842,  -0.03469,  -0.00105,   0.11669,  -0.06459,   0.05128,   0.04007,   0.02138,   0.01764,  -0.03656,   0.03259,  -0.00105,   0.01390,  -0.00665,  -0.04964,   0.05315,   0.04567
   0.01017,  -0.01039,   0.04941,  -0.01787,   0.03820,   0.00830,  -0.01600,  -0.00479,   0.02885,  -0.00665,  -0.01600,   0.03259,  -0.08701,   0.05315,  -0.04029,   0.04194,   0.02885,   0.02138,  -0.06272,  -0.05524,   0.01577,   0.00456,  -0.05151,  -0.02534,   0.00082,  -0.06272,   0.02512,  -0.00292,   0.00643,  -0.00292,  -0.02160,  -0.06085,  -0.01787,  -0.00479,  -0.03656,   0.07931,  -0.01787,   0.05875,   0.01203,  -0.01787,   0.00456,  -0.06646,   0.02885,  -0.03469,   0.04380,   0.06249,   0.00269,  -0.04590,   0.02325,   0.01951,  -0.05337,  -0.02908,   0.00269,  -0.04403,  -0.00479,   0.00643,   0.05875,   0.02325,   0.14659,   0.02138,   0.11669,   0.04194,  -0.01226,   0.00830,   0.01577,  -0.02721,   0.03259,   0.07931,   0.03633,  -0.00105,   0.00082,   0.00643,   0.02698,   0.04007,  -0.00665,   0.00643,  -0.10383,   0.01577,   0.05502,   0.00643,   0.06997,  -0.01974,  -0.01600,  -0.02721,  -0.04216,   0.00082,  -0.02534,  -0.04777,   0.00269,   0.00830,   0.02325,   0.02698,   0.00082,   0.02512,   0.02138,  -0.00852,   0.03446,  -0.02347,  -0.00105,  -0.00292,  -0.01039,   0.01017,  -0.01413,   0.00643,   0.01017,   0.01017,  -0.06085,   0.01577,  -0.00479,  -0.01600,   0.09239,  -0.01039,   0.00830,   0.04380,   0.02512,   0.01203,  -0.02160,   0.03820,   0.01017,  -0.02534,   0.01764,  -0.07580,   0.09052,   0.03072,   0.02885,  -0.02534,   0.02698,  -0.03095
   0.00643,  -0.08888,   0.05689,   0.05689,  -0.08514,   0.10547,   0.00830,   0.05875,   0.01390,   0.03072,   0.00830,  -0.04216,  -0.01974,   0.03446,  -0.02160,  -0.00292,   0.02885,   0.01951,  -0.01039,  -0.01600,   0.04941,  -0.05151,   0.02325,  -0.05337,   0.05128,  -0.01039,   0.05689,   0.00830,   0.08679,  -0.00852,  -0.00852,  -0.02160,  -0.01226,   0.05875,   0.02325,   0.09987,   0.13538,  -0.02534,  -0.04216,  -0.03095,  -0.00292,  -0.00852,  -0.00105,  -0.01413,   0.03072,  -0.01413,   0.02512,   0.00830,   0.09052,  -0.04590,  -0.11878,  -0.00852,   0.03820,   0.01951,   0.00082,   0.01951,   0.02698,  -0.00479,   0.08305,  -0.03095,  -0.01974,  -0.01226,   0.08492,   0.01203,   0.03446,  -0.08328,   0.02885,   0.01203,   0.06436,   0.02138,   0.04754,  -0.00292,   0.01951,  -0.01413,   0.02698,   0.03072,  -0.07019,  -0.01974,  -0.02721,  -0.01039,   0.06436,  -0.02908,  -0.04964,  -0.02721,  -0.13934,  -0.05151,   0.02698,  -0.02347,   0.01951,  -0.07393,   0.01951,   0.00456,  -0.02721,  -0.03842,  -0.01600,  -0.04590,  -0.03842,  -0.03469,  -0.10383,  -0.01413,  -0.03282,  -0.00665,  -0.00479,   0.09613,   0.05502,   0.04941,   0.12043,   0.03446,   0.06436,   0.01764,   0.07557,   0.00830,   0.12416,  -0.09449,   0.00830,   0.00456,  -0.00292,  -0.03842,   0.02698,   0.03820,   0.00830,   0.04941,  -0.01787,   0.07557,  -0.04403,  -0.03469,  -0.04403,   0.06436
   0.03259,  -0.00852,  -0.01039,   0.02512,  -0.05898,  -0.06085,  -0.09262,   0.04007,   0.03072,  -0.00105,  -0.00852,  -0.01413,  -0.00852,   0.06062,  -0.01974,   0.06810,   0.01764,  -0.00292,  -0.02347,  -0.02534,   0.00269,  -0.00105,  -0.03469,   0.04380,   0.13164,   0.00643,   0.00830,  -0.01974,   0.00269,   0.01951,   0.04941,   0.01390,   0.01390,  -0.00479,   0.01951,   0.04754,   0.01764,   0.08866,  -0.04590,   0.00269,   0.02885,  -0.01787,   0.00643,  -0.08701,   0.04380,  -0.02160,  -0.02347,  -0.02160,   0.04194,   0.00082,   0.04567,   0.04380,   0.03259,   0.05689,   0.04007,   0.02138,   0.02325,  -0.04964,  -0.05898,   0.03072,   0.02885,   0.07371,   0.03072,  -0.00292,   0.03446,   0.00643,   0.00643,   0.03446,  -0.00292,  -0.04403,   0.04194,   0.05875,   0.01017,  -0.04964,   0.01203,  -0.04216,   0.03072,   0.02325,  -0.02160,   0.07931,  -0.03095,   0.04380,  -0.10010,   0.04380,  -0.02160,   0.05502,  -0.00852,  -0.03469,   0.01764,   0.03072,   0.00643,  -0.01039,  -0.02534,   0.02885,  -0.01600,  -0.01039,  -0.03282,   0.06623,   0.08305,   0.04380,  -0.00292,  -0.02160,  -0.00105,  -0.02908,   0.00269,   0.01203,  -0.11505,   0.01764,   0.02325,   0.06997,  -0.01039,  -0.03656,   0.12043,  -0.06085,   0.03072,   0.03633,  -0.04216,   0.02698,   0.02512,  -0.01600,   0.04754,  -0.03095,  -0.06646,   0.00456,   0.08118,  -0.00292,   0.01203,   0.09800
  -0.00665,  -0.01413,   0.01390,  -0.06272,   0.04380,   0.00082,  -0.08328,   0.00643,  -0.01039,  -0.00105,   0.04567,  -0.01600,   0.01017,   0.00456,   0.07744,   0.01203,   0.02885,   0.02325,   0.02698,   0.04007,   0.01577,  -0.01039,   0.01017,   0.02325,   0.03072,  -0.05711,   0.02698,   0.00269,   0.01390,   0.00456,  -0.01974,  -0.01226,   0.03072,  -0.04216,  -0.06833,   0.05689,   0.02138,   0.03820,   0.00643,  -0.05337,   0.04567,  -0.05898,   0.03633,  -0.01787,   0.03072,  -0.00479,   0.00456,  -0.06833,   0.01017,  -0.00292,  -0.00665,   0.01577,   0.01577,  -0.04590,   0.00643,   0.03820,   0.04754,   0.01203,   0.06062,  -0.01787,  -0.06646,  -0.00479,  -0.04590,  -0.06085,  -0.00105,  -0.00292,  -0.02347,  -0.01226,  -0.05898,  -0.08514,   0.03820,   0.00830,  -0.02534,   0.06062,   0.02885,   0.08118,  -0.06459,   0.02698,   0.01203,   0.04007,   0.01017,  -0.02160,  -0.06459,  -0.01226,  -0.05337,   0.01577,   0.01764,  -0.02908,  -0.00665,  -0.00852,   0.00082,  -0.02160,   0.00456,  -0.01600,  -0.02534,   0.01951,   0.01577,   0.03446,   0.01577,  -0.06272,  -0.00105,   0.01203,   0.02138,   0.02325,  -0.00852,   0.01951,  -0.03282,   0.00082,  -0.00105,   0.01203,  -0.01039,  -0.00105,  -0.02534,   0.01017,  -0.01413,  -0.01787,  -0.00479,  -0.05337,   0.02512,  -0.03095,   0.00082,   0.01390,   0.00082,   0.02512,  -0.01787,   0.01951,  -0.01974,  -0.01787
  -0.00292,  -0.04216,   0.00082,  -0.00665,  -0.07767,   0.01017,   0.04380,  -0.03469,   0.04380,  -0.00665,   0.01203,  -0.03282,  -0.02160,  -0.04590,   0.05689,   0.08679,   0.03259,  -0.03469,   0.00082,  -0.01787,   0.00269,  -0.03842,   0.00269,   0.01764,  -0.01039,  -0.05151,  -0.01226,  -0.10196,   0.03633,   0.02885,   0.00456,   0.05315,   0.01764,   0.00456,   0.00269,  -0.07206,  -0.00852,   0.01577,  -0.00665,   0.05128,  -0.06085,   0.03820,   0.01203,   0.07371,   0.01390,  -0.01039,  -0.05711,   0.05502,  -0.00852,   0.03633,   0.03259,  -0.07019,  -0.01600,  -0.00852,  -0.00105,  -0.06646,   0.00082,  -0.00852,  -0.03282,   0.04380,   0.02698,   0.08679,  -0.01600,  -0.02347,  -0.02908,   0.09987,   0.01017,  -0.00852,   0.10734,   0.02138,  -0.00852,  -0.01226,   0.00643,   0.04567,  -0.00292,  -0.00665,  -0.02534,  -0.05337,   0.06997,   0.03633,   0.01951,  -0.03095,  -0.10196,  -0.03842,   0.04007,  -0.02534,  -0.01787,   0.04007,  -0.05898,   0.01017,  -0.00292,  -0.01226,  -0.03282,   0.02885,  -0.05524,   0.00456,  -0.07767,  -0.12813,   0.00082,  -0.02347,   0.09987,   0.02885,   0.04567,   0.05689,  -0.03656,  -0.06272,  -0.00105,  -0.02721,   0.02138,   0.02885,  -0.00665,  -0.02160,   0.03072,   0.00830,  -0.06833,  -0.01413,  -0.03095,   0.01951,  -0.02908,   0.00269,  -0.01039,  -0.00292,   0.05128,   0.00830,  -0.05898,   0.06249,   0.04941,  -0.06459
   0.01017,   0.02512,   0.02512,  -0.01974,   0.01017,   0.01017,  -0.07954,  -0.01787,  -0.05524,   0.03633,  -0.02908,  -0.00665,  -0.01226,   0.04380,  -0.02908,  -0.03842,  -0.03656,   0.00456,  -0.00292,   0.02698,  -0.02160,   0.03446,  -0.02721,  -0.03469,   0.07931,  -0.00292,   0.08492,  -0.01413,  -0.03469,  -0.01787,   0.01951,   0.01390,   0.01951,   0.00643,  -0.01226,   0.03820,   0.02698,  -0.00852,   0.10361,   0.01951,  -0.05898,  -0.02347,   0.00456,   0.00643,   0.02138,   0.07931,   0.01390,  -0.04029,   0.01764,   0.01203,  -0.02908,   0.02512,   0.00830,   0.03820,  -0.04029,  -0.03469,  -0.03469,   0.00830,   0.01203,  -0.02908,   0.02138,  -0.02347,  -0.05711,   0.09800,   0.02325,   0.05128,   0.02325,  -0.05151,  -0.04590,   0.04567,  -0.04777,  -0.01039,   0.01390,  -0.07580,   0.00456,   0.02698,   0.00082,  -0.01787,  -0.02721,   0.03072,  -0.02347,   0.04567,  -0.01787,   0.04754,  -0.06833,   0.05502,   0.01017,  -0.01787,   0.03259,  -0.03842,  -0.01039,  -0.00665,  -0.06646,   0.04380,  -0.02347,  -0.00292,   0.03820,   0.01951,   0.04380,   0.03446,   0.02138,   0.10921,  -0.00292,  -0.02721,  -0.01974,   0.06249,  -0.06459,  -0.01039,   0.00082,  -0.07767,  -0.01226,  -0.01600,  -0.04964,   0.00643,  -0.04216,   0.01390,   0.01764,  -0.03656,  -0.00852,   0.02512,   0.03633,  -0.05711,  -0.00665,  -0.02347,   0.01764,   0.04194,   0.05128,   0.00830
  -0.01600,  -0.03469,  -0.03095,  -0.07580,  -0.04403,  -0.00105,  -0.05151,   0.14098,   0.01017,  -0.01974,  -0.03469,   0.04194,   0.03072,  -0.00105,   0.00643,  -0.02534,   0.12790,  -0.01974,   0.00269,   0.04007,   0.07184,  -0.01413,  -0.02347,  -0.06085,  -0.01226,   0.03259,   0.03820,  -0.03842,   0.02512,  -0.02908,  -0.07206,   0.06997,  -0.02534,   0.01203,   0.04754,   0.08305,  -0.04216,  -0.06085,   0.04754,  -0.11131,  -0.00852,  -0.00852,  -0.05524,   0.07184,  -0.01974,   0.01017,   0.01203,   0.01390,   0.01951,   0.01203,  -0.03842,  -0.05711,  -0.00292,  -0.09636,  -0.00292,  -0.03469,   0.01577,   0.03259,  -0.03469,   0.01390,   0.03633,   0.00830,   0.01017,  -0.04029,   0.00269,  -0.04777,   0.04941,   0.02512,  -0.02160,   0.04194,   0.00269,  -0.08141,  -0.03656,  -0.01974,   0.05875,  -0.01226,  -0.03469,   0.07931,  -0.04777,   0.03072,  -0.03469,   0.10734,   0.00830,  -0.03656,  -0.00105,   0.02512,   0.01203,   0.00830,   0.02698,   0.06249,   0.00456,   0.00830,   0.04567,  -0.01413,   0.06810,  -0.03842,   0.06249,  -0.02534,  -0.01787,  -0.11318,  -0.03282,  -0.02908,  -0.10383,   0.07557,  -0.06646,  -0.00292,  -0.00852,  -0.09075,   0.04941,   0.00643,  -0.02347,   0.01017,   0.01577,   0.10547,   0.08679,  -0.02534,   0.04567,  -0.01974,  -0.02347,   0.00830,  -0.04777,   0.02512,  -0.02534,  -0.02721,   0.14285,   0.00643,   0.03633,   0.04754
  -0.04216,   0.03820,   0.02138,  -0.01787,   0.06249,   0.04380,  -0.03282,  -0.00852,  -0.05151,  -0.02721,  -0.01413,   0.03633,   0.03072,  -0.02347,  -0.01226,  -0.00852,  -0.03469,   0.00269,  -0.01413,  -0.02721,  -0.01413,  -0.07393,   0.01390,  -0.03656,   0.00830,   0.04007,  -0.02347,  -0.00479,  -0.00479,   0.05502,  -0.04964,   0.04941,  -0.00852,   0.01017,   0.02512,  -0.00665,  -0.03469,   0.00643,  -0.02160,  -0.00479,   0.03072,   0.02138,   0.04754,  -0.05524,  -0.11691,  -0.01413,   0.02325,   0.00082,   0.04754,   0.02138,  -0.00292,  -0.12813,  -0.01600,  -0.05524,  -0.00479,   0.03446,  -0.00479,  -0.01787,   0.12416,   0.02325,  -0.02721,   0.06062,  -0.04216,  -0.01787,   0.03259,   0.03446,   0.02512,   0.04754,  -0.03095,  -0.04590,   0.02698,   0.02698,   0.01390,   0.02325,  -0.04777,   0.04754,  -0.03469,   0.01577,   0.07371,  -0.01600,  -0.01600,  -0.03095,   0.03072,  -0.01413,   0.02325,  -0.00292,   0.08866,  -0.02908,  -0.02721,   0.00643,   0.01577,   0.01390,   0.06810,   0.03446,  -0.02534,   0.04567,   0.01017,   0.01203,   0.00830,  -0.10570,  -0.01974,  -0.01787,  -0.02908,   0.02138,   0.03259,  -0.06459,  -0.05524,   0.03820,  -0.06459,   0.12416,   0.01203,  -0.00852,  -0.05337,   0.00830,   0.05689,  -0.06272,  -0.01974,   0.08492,  -0.02721,   0.08118,  -0.01413,  -0.04029,   0.06249,   0.01203,  -0.00852,   0.06249,   0.00456,  -0.05151
   0.03446,   0.02698,  -0.02721,  -0.02160,   0.00830,  -0.01226,   0.04754,   0.03072,   0.04754,  -0.03095,  -0.03842,   0.00830,   0.04194,  -0.02908,  -0.06646,  -0.05524,  -0.05524,  -0.01974,  -0.01600,  -0.05337,   0.00269,  -0.01787,   0.02138,   0.01203,  -0.06459,  -0.02160,  -0.07393,   0.10361,  -0.01974,   0.03259,   0.06810,   0.03259,   0.04007,   0.02512,   0.00082,  -0.05711,  -0.05337,  -0.00479,  -0.01039,  -0.01600,  -0.05711,  -0.06646,   0.08118,   0.01764,   0.00830,  -0.04403,   0.00830,   0.04380,  -0.01974,  -0.03469,  -0.01039,  -0.05898,  -0.00665,  -0.02534,  -0.01600,  -0.01413,  -0.01600,  -0.00665,   0.00269,  -0.01974,  -0.04403,   0.02138,  -0.01226,   0.00082,   0.00269,  -0.00292,   0.06623,  -0.03095,   0.05689,   0.02325,  -0.00292,   0.01577,   0.04007,   0.00269,  -0.01226,   0.04567,   0.11295,  -0.00665,  -0.01600,   0.02885,  -0.05898,  -0.02534,   0.01390,  -0.02534,  -0.03469,  -0.09449,   0.04567,  -0.01974,  -0.04777,  -0.05711,   0.00830,   0.03446,   0.00082,  -0.04216,  -0.11691,   0.11669,   0.03633,  -0.05524,  -0.03095,  -0.05711,   0.02512,   0.01390,   0.03259,  -0.01600,  -0.02908,  -0.04403,   0.00082,  -0.03095,   0.00082,   0.03633,   0.00456,   0.03446,   0.01764,  -0.00292,  -0.00479,   0.05875,   0.02885,   0.00456,   0.03259,   0.00082,  -0.03469,  -0.05151,   0.07744,   0.01203,  -0.00665,   0.01017,   0.00269,  -0.10570
   0.06249,  -0.01413,   0.01764,   0.01017,  -0.00105,   0.01390,  -0.00852,  -0.05337,   0.05128,  -0.00292,  -0.04029,   0.00830,  -0.04964,  -0.01974,  -0.01039,  -0.02908,  -0.04029,  -0.01226,  -0.00852,   0.02138,  -0.00292,  -0.01787,   0.01390,  -0.04964,  -0.03656,  -0.03842,  -0.01039,  -0.00852,  -0.01039,  -0.03095,   0.01577,   0.05502,   0.03633,   0.01764,   0.05315,   0.03446,  -0.05337,  -0.00479,   0.06997,  -0.01413,  -0.02721,   0.02325,   0.04941,  -0.01974,  -0.04029,   0.05502,   0.01017,   0.06997,   0.01017,  -0.02160,   0.05689,  -0.01226,   0.05875,  -0.07767,   0.02698,  -0.00852,   0.01203,   0.02698,   0.05315,   0.02698,  -0.01413,   0.01390,   0.03072,   0.00830,  -0.01974,  -0.04590,   0.00269,  -0.02534,  -0.03656,  -0.02534,   0.05689,  -0.03095,   0.00643,  -0.00852,  -0.08888,   0.04567,  -0.02721,  -0.02721,   0.04380,   0.07371,   0.06810,   0.07184,   0.05875,   0.00082,   0.02885,  -0.03095,   0.02138,   0.01951,  -0.00105,   0.04941,   0.00830,   0.01764,   0.09613,   0.01390,  -0.01226,  -0.00852,   0.00830,  -0.07580,   0.00456,  -0.04964,  -0.00665,  -0.10383,  -0.02908,   0.01203,  -0.01226,   0.00830,  -0.01039,   0.00643,  -0.04590,  -0.03656,   0.00643,   0.02512,  -0.01039,   0.02885,  -0.04216,   0.01951,  -0.00292,  -0.00852,  -0.02534,   0.06062,  -0.00292,  -0.02160,  -0.02160,  -0.01787,   0.00269,  -0.02908,  -0.00479,   0.01951
   0.00269,  -0.09636,   0.05128,  -0.00479,  -0.01787,  -0.01974,   0.03259,   0.02138,  -0.01974,   0.00269,  -0.08888,   0.00269,   0.00830,  -0.05151,  -0.02721,   0.01764,  -0.02908,  -0.03656,  -0.01787,   0.01764,   0.01017,  -0.01413,  -0.02534,  -0.05524,  -0.00105,   0.01577,  -0.02160,  -0.06646,   0.04194,  -0.03282,  -0.08328,   0.00082,  -0.01787,   0.06436,   0.09052,   0.08305,  -0.04029,  -0.10757,   0.02138,  -0.04590,  -0.02908,  -0.01600,   0.00082,   0.07184,  -0.07580,   0.03259,  -0.01226,   0.03820,  -0.01600,  -0.01974,  -0.06085,   0.05502,  -0.03469,  -0.02534,  -0.01600,  -0.02908,   0.06623,  -0.03656,   0.04567,   0.09239,   0.00830,  -0.00479,  -0.01787,   0.00082,  -0.01413,   0.01017,   0.06062,  -0.01039,   0.01577,  -0.02534,  -0.02908,  -0.02534,   0.00269,   0.01017,  -0.04777,  -0.01787,  -0.05151,   0.00830,  -0.06646,   0.04754,  -0.00665,   0.01017,  -0.01226,  -0.04216,  -0.06085,  -0.03095,   0.02698,  -0.00292,   0.04007,   0.01764,  -0.06085,  -0.01413,   0.02138,  -0.04029,  -0.07019,  -0.05151,   0.03633,   0.01390,  -0.00665,  -0.09262,   0.00456,   0.04941,  -0.01600,   0.04567,   0.02138,  -0.16924,  -0.07393,  -0.11878,  -0.02908,  -0.10944,   0.03820,   0.02325,  -0.05524,   0.02138,   0.09613,  -0.00479,   0.00643,  -0.05151,  -0.05898,  -0.01787,  -0.06272,   0.08492,   0.04567,   0.00082,  -0.13373,   0.06249,   0.00082,   0.06810
   0.03633,  -0.00852,  -0.01226,   0.08305,   0.03259,   0.03820,   0.02885,   0.04380,  -0.04964,   0.02325,  -0.01226,  -0.02347,  -0.03095,  -0.04777,  -0.01974,   0.01951,  -0.02721,  -0.02534,   0.00082,  -0.03095,   0.04194,   0.00082,   0.06623,   0.04194,  -0.02534,   0.15033,   0.05128,  -0.01039,   0.06062,  -0.00665,  -0.08514,   0.02138,  -0.01413,   0.04754,   0.04941,  -0.01039,  -0.03282,  -0.08888,  -0.10570,  -0.07954,  -0.02534,   0.04941,  -0.02721,  -0.00479,   0.07371,   0.03259,   0.05128,  -0.01226,  -0.00292,  -0.03656,  -0.09075,   0.02325,   0.06997,   0.06997,  -0.03656,  -0.07767,   0.00269,   0.02698,  -0.03095,  -0.01413,  -0.03469,  -0.03469,  -0.08328,   0.03259,   0.01017,   0.03259,   0.01577,  -0.07954,   0.07557,  -0.01600,   0.02325,  -0.04777,  -0.00105,   0.04941,  -0.00105,  -0.00105,  -0.05151,   0.00830,  -0.03469,   0.02512,  -0.01226,  -0.00479,   0.01764,   0.00082,   0.01951,  -0.03282,   0.01951,   0.03633,  -0.01039,  -0.00105,  -0.08888,  -0.01974,  -0.06459,  -0.04964,   0.00643,  -0.03469,  -0.04029,  -0.03656,   0.09426,   0.00830,   0.02512,   0.06249,  -0.02908,  -0.00292,  -0.08888,  -0.04216,   0.08866,  -0.07767,  -0.00852,  -0.01974,  -0.04590,   0.03633,   0.07371,  -0.04590,   0.08118,   0.04194,  -0.03656,  -0.02347,   0.05128,  -0.02721,  -0.03842,   0.10921,   0.03446,  -0.04403,  -0.02160,  -0.01039,  -0.06085,  -0.00105
   0.02138,  -0.01226,   0.02138,   0.05689,  -0.00852,   0.01577,  -0.02721,  -0.01787,  -0.05711,  -0.04777,   0.00456,   0.03633,  -0.01974,   0.00082,  -0.03095,  -0.05711,  -0.10383,   0.03072,   0.02698,   0.03072,  -0.02908,  -0.00479,   0.02698,   0.00643,  -0.02721,  -0.09449,   0.04567,   0.05502,  -0.10383,   0.01764,  -0.03282,  -0.06272,   0.00082,   0.01764,  -0.03656,   0.17275,   0.05875,   0.06436,   0.05502,   0.01203,  -0.05711,  -0.04029,   0.04567,  -0.10944,   0.11108,  -0.02347,  -0.01039,  -0.03842,   0.02138,   0.01203,  -0.02534,   0.03446,   0.01577,  -0.04029,   0.00643,   0.04941,   0.03072,  -0.02160,   0.01390,   0.04380,  -0.00852,   0.09800,  -0.02721,  -0.00852,  -0.03282,   0.00643,  -0.03656,   0.08679,   0.04941,  -0.00852,  -0.02160,   0.08866,   0.09613,   0.04194,   0.05128,  -0.01600,  -0.04403,  -0.01413,  -0.03282,   0.00082,  -0.08141,  -0.07393,  -0.06272,   0.04754,  -0.12252,   0.01017,   0.06997,  -0.12065,  -0.02721,   0.03072,   0.03446,  -0.00105,  -0.06833,   0.03633,  -0.06272,  -0.04029,  -0.01039,  -0.03282,   0.00269,  -0.05151,  -0.06459,   0.04941,   0.03820,  -0.03656,   0.05502,   0.06997,  -0.01974,   0.04194,  -0.02160,   0.08118,  -0.04216,   0.01203,   0.08118,  -0.04590,  -0.02721,   0.02885,   0.01017,  -0.00479,   0.02698,   0.04380,   0.03259,  -0.04777,   0.08492,   0.03259,   0.01577,  -0.00665,  -0.02908,  -0.05337
  -0.02347,   0.03446,   0.02512,   0.01951,   0.06436,   0.01577,  -0.02347,   0.01577,   0.04194,  -0.01039,  -0.04590,  -0.00479,  -0.01974,   0.03446,  -0.02347,  -0.01226,  -0.02908,   0.07557,  -0.06459,   0.01390,   0.07371,   0.01577,  -0.01600,  -0.07954,  -0.01413,   0.12603,   0.01951,   0.01203,   0.02885,  -0.00852,  -0.07767,   0.03820,  -0.01226,  -0.01600,   0.08866,   0.13538,  -0.03469,  -0.03095,  -0.02908,  -0.10010,  -0.01974,  -0.00292,  -0.01039,  -0.00479,  -0.04777,   0.06249,  -0.08141,   0.05315,  -0.01974,   0.02885,  -0.02160,  -0.06272,   0.06810,   0.02138,  -0.00292,  -0.01226,   0.02512,   0.06997,   0.08492,   0.00456,   0.00082,   0.02138,  -0.04590,   0.00643,   0.01390,  -0.02908,   0.06810,   0.01764,   0.04567,  -0.01413,  -0.00105,  -0.06272,   0.00456,  -0.04964,   0.02698,  -0.07954,   0.02138,   0.03259,  -0.00292,   0.00830,  -0.04777,   0.09239,  -0.01974,  -0.00105,  -0.03282,  -0.02160,   0.06810,  -0.05337,   0.01577,   0.00643,  -0.01039,  -0.08141,   0.02885,  -0.06272,   0.04941,  -0.03282,  -0.04029,  -0.02347,  -0.02534,  -0.06272,   0.02325,  -0.04403,  -0.04964,  -0.00292,   0.02138,  -0.08888,  -0.04964,  -0.02908,  -0.00292,  -0.01226,  -0.02160,   0.06623,   0.01017,  -0.00292,   0.10174,  -0.03469,  -0.05898,   0.01951,  -0.02908,  -0.04216,  -0.01226,   0.06249,  -0.00665,   0.02885,   0.04754,  -0.04777,  -0.01039,  -0.05898
   0.10174,  -0.04216,   0.02885,  -0.02160,  -0.08514,   0.00643,  -0.07767,  -0.04216,  -0.01039,   0.02138,  -0.05151,  -0.02160,   0.06997,   0.03820,   0.06436,   0.07744,  -0.00665,   0.01017,   0.04194,   0.03259,   0.01017,  -0.05898,   0.00082,   0.00830,   0.05689,  -0.09823,   0.04941,  -0.01226,   0.00269,   0.01577,  -0.02160,   0.00269,   0.01203,   0.00269,  -0.02347,  -0.00292,   0.08118,  -0.04777,  -0.01039,  -0.00479,   0.04194,  -0.05337,   0.02885,   0.06062,  -0.02721,  -0.02908,  -0.00479,  -0.03656,  -0.00852,   0.03446,  -0.04403,   0.01764,  -0.03282,   0.04194,   0.01951,  -0.04777,  -0.01413,  -0.02908,  -0.06085,  -0.04029,   0.01203,  -0.07954,   0.05128,  -0.00665,  -0.01226,   0.06249,   0.01577,  -0.05898,   0.02885,  -0.02908,   0.01017,  -0.00479,  -0.01039,   0.05128,  -0.06646,   0.03259,  -0.04216,  -0.00479,  -0.06085,  -0.00105,   0.03072,  -0.01600,  -0.01974,  -0.01226,  -0.05524,   0.01764,  -0.00479,   0.04194,  -0.02347,  -0.02534,   0.02698,   0.04194,  -0.05337,  -0.04590,  -0.03469,  -0.03282,  -0.03842,  -0.03282,   0.02512,   0.02325,   0.01203,   0.03072,  -0.04029,   0.08305,   0.01577,  -0.01600,   0.04754,  -0.06272,   0.00082,   0.04567,   0.07744,  -0.02160,   0.05502,  -0.02534,   0.00830,  -0.00852,  -0.03656,  -0.05337,   0.00082,  -0.07206,  -0.02347,   0.01577,  -0.02534,   0.00269,  -0.05337,   0.01577,  -0.03656,  -0.01226
  -0.02160,   0.00456,  -0.01787,   0.01390,   0.04567,   0.03259,   0.06062,   0.00643,   0.02698,  -0.01600,  -0.04777,   0.00456,  -0.01974,   0.03633,  -0.01600,  -0.03095,   0.00269,  -0.00479,  -0.00852,   0.01764,  -0.07206,  -0.06272,   0.00830,   0.05315,  -0.02534,  -0.04216,  -0.02160,   0.02138,  -0.04029,   0.05689,   0.02512,  -0.03656,  -0.02347,  -0.01413,   0.01951,  -0.02908,   0.01017,  -0.05711,  -0.04403,  -0.02721,   0.06436,  -0.03469,  -0.03656,   0.01577,   0.03633,  -0.01039,  -0.00852,  -0.08141,  -0.02347,   0.03072,  -0.03656,   0.03259,   0.07931,   0.00643,   0.00269,  -0.04029,  -0.03282,  -0.00105,   0.01764,  -0.01787,   0.02138,  -0.02721,  -0.01039,  -0.01413,  -0.02721,   0.00643,   0.04941,  -0.11131,  -0.01226,   0.01764,   0.05315,  -0.05524,   0.01577,  -0.01974,   0.01017,  -0.01039,   0.02138,   0.03446,   0.01764,  -0.00105,   0.05502,   0.01577,  -0.01039,  -0.00852,   0.01951,   0.01764,  -0.05151,   0.12043,  -0.04216,   0.00643,   0.05502,  -0.02160,  -0.03656,   0.02885,   0.07557,  -0.04777,  -0.04029,   0.00830,   0.00643,   0.02885,  -0.00292,   0.01951,   0.06062,  -0.10944,  -0.05898,  -0.03095,   0.05315,   0.00830,   0.00830,   0.01577,  -0.03656,  -0.00105,   0.08866,  -0.08141,  -0.03656,   0.02138,   0.05502,   0.03820,  -0.02908,  -0.05524,   0.01203,  -0.00479,  -0.07580,   0.02698,   0.06810,   0.00830,  -0.02908,  -0.02908
   0.00082,  -0.07393,   0.00082,  -0.02347,  -0.00292,  -0.00292,   0.02512,   0.03633,  -0.01039,  -0.01974,  -0.01413,  -0.01600,   0.03259,  -0.01787,  -0.00292,   0.04007,   0.04380,   0.04567,  -0.00105,   0.03820,  -0.06085,  -0.05524,   0.05502,  -0.07393,   0.02138,  -0.01226,  -0.00852,  -0.02534,   0.03259,   0.01577,   0.00830,   0.04007,  -0.01226,   0.02512,  -0.01226,  -0.01226,  -0.02347,   0.02885,   0.02885,   0.03259,   0.02325,  -0.00105,   0.00643,   0.01017,  -0.02534,  -0.01226,   0.04380,   0.06997,   0.01764,   0.04754,  -0.06085,   0.03072,  -0.00292,   0.02698,  -0.03842,  -0.01787,   0.00269,   0.02325,   0.02698,   0.04007,  -0.04029,  -0.01974,  -0.00105,  -0.02534,  -0.01600,  -0.00105,  -0.01039,  -0.03282,  -0.03656,   0.03072,   0.00082,   0.00456,  -0.03656,  -0.07206,   0.01203,  -0.02534,   0.04380,  -0.02534,  -0.06459,   0.01577,   0.01577,   0.03259,   0.03446,  -0.00105,  -0.01413,  -0.02347,   0.02325,   0.06623,  -0.01974,  -0.02534,  -0.03842,  -0.08328,  -0.03656,  -0.04777,  -0.04403,  -0.00105,   0.00643,   0.05502,  -0.03842,  -0.02160,   0.01951,   0.03820,  -0.02347,   0.03446,  -0.05898,  -0.00479,  -0.02347,  -0.00292,   0.02885,  -0.01600,   0.02325,  -0.03095,  -0.07206,  -0.01413,  -0.04403,  -0.01226,  -0.01413,  -0.09449,   0.03259,   0.00269,  -0.05151,   0.04194,  -0.03282,   0.01203,  -0.00852,   0.01203,  -0.04777,   0.05128
  -0.02721,  -0.01600,   0.02138,  -0.00479,   0.00269,  -0.01787,   0.06810,  -0.02160,   0.00082,   0.00269,   0.05315,   0.01951,   0.01764,   0.00456,  -0.04777,  -0.01974,  -0.07954,  -0.04216,  -0.01039,  -0.02721,  -0.05151,  -0.05151,   0.03633,  -0.04964,   0.08305,  -0.03656,   0.01951,   0.01951,  -0.04777,  -0.01787,   0.04754,   0.00830,   0.02325,  -0.00292,   0.04380,   0.01577,   0.03820,  -0.00852,  -0.01413,  -0.01039,   0.05315,  -0.04029,  -0.01413,  -0.05711,   0.05128,   0.00456,  -0.01413,  -0.01413,   0.05502,  -0.00852,  -0.03469,   0.01577,   0.05689,  -0.02347,   0.00082,  -0.01413,   0.06810,   0.00643,   0.01390,   0.05502,  -0.00852,   0.08492,  -0.01974,   0.00830,  -0.04964,  -0.03282,  -0.02160,  -0.00479,  -0.02160,  -0.00105,  -0.00105,   0.02885,   0.04567,  -0.01787,  -0.09636,   0.04194,   0.09426,   0.04380,  -0.02160,   0.01951,  -0.00852,  -0.05898,  -0.04403,  -0.02908,  -0.00292,  -0.01600,   0.04380,  -0.04590,   0.04007,   0.02512,   0.03072,   0.00456,  -0.00105,  -0.02160,  -0.10010,  -0.00105,   0.02698,   0.02325,  -0.07580,  -0.01226,  -0.06459,   0.00830,   0.01577,  -0.00105,  -0.04029,   0.04007,  -0.00665,  -0.00292,   0.00082,   0.02138,   0.00643,  -0.00479,  -0.05898,  -0.01413,  -0.00852,   0.06062,  -0.00105,   0.01764,   0.06249,   0.04567,  -0.00852,   0.00456,   0.09239,   0.02698,  -0.06272,   0.03259,   0.01017,   0.00082
   0.01390,   0.05315,   0.04194,  -0.03656,  -0.10010,  -0.07019,  -0.10757,   0.07371,  -0.03656,   0.00643,   0.02512,   0.02138,  -0.04590,   0.05315,   0.01203,  -0.00479,   0.04194,   0.00830,  -0.00852,   0.06997,  -0.04216,  -0.02347,  -0.02534,  -0.00105,   0.07557,   0.04941,  -0.03469,   0.00456,  -0.00852,  -0.00665,   0.02138,   0.03633,  -0.02721,  -0.01974,  -0.00292,   0.03072,  -0.04964,  -0.07206,   0.02885,  -0.05151,   0.07744,   0.04941,  -0.00479,  -0.02908,   0.06810,   0.04007,   0.00456,  -0.10010,   0.07931,   0.09052,   0.04941,  -0.04403,  -0.02160,  -0.00105,   0.01203,  -0.05337,  -0.00105,   0.04567,   0.05875,  -0.03095,   0.01017,   0.01390,   0.02138,   0.02138,   0.01951,  -0.00852,   0.00830,  -0.05337,   0.02325,  -0.02721,  -0.06646,  -0.02534,  -0.01787,   0.03072,  -0.00292,  -0.01600,   0.01017,   0.03259,   0.09426,   0.02512,   0.00082,   0.06062,   0.01017,   0.04754,   0.00830,   0.03072,  -0.00292,   0.04007,  -0.00479,   0.03820,  -0.00665,  -0.05151,   0.02885,   0.02138,   0.01390,  -0.00292,   0.02325,  -0.01974,   0.04567,   0.07557,  -0.02160,  -0.05898,   0.04380,  -0.08141,  -0.01600,  -0.00292,   0.01203,  -0.07580,   0.02325,   0.03259,   0.00643,   0.03259,  -0.00105,  -0.05524,  -0.00105,   0.02698,   0.02138,   0.01764,   0.05689,  -0.02534,   0.00643,   0.01017,  -0.02347,   0.01577,   0.09239,   0.02138,  -0.02160,  -0.03095
   0.01764,   0.00269,  -0.06459,   0.05502,  -0.00292,   0.05689,  -0.08514,   0.00456,   0.05128,  -0.02160,   0.10547,   0.01203,  -0.08328,  -0.01039,  -0.07206,   0.05128,   0.00082,  -0.02721,   0.04007,   0.09613,   0.00456,  -0.04403,   0.02325,  -0.02347,  -0.08514,   0.01017,  -0.00105,  -0.03095,   0.02138,  -0.00665,  -0.00105,  -0.00292,  -0.04216,  -0.02721,   0.01764,  -0.01600,  -0.01600,   0.06062,   0.01203,  -0.00292,   0.02885,   0.02512,  -0.00665,  -0.02160,  -0.05711,   0.04380,   0.03446,  -0.06833,  -0.07580,   0.00456,  -0.01600,   0.02885,  -0.03842,  -0.00105,   0.04754,   0.05875,  -0.04029,   0.00269,   0.02698,  -0.00292,   0.05502,   0.02698,   0.01017,   0.01951,   0.02512,   0.01017,   0.01951,   0.06062,   0.00082,   0.02512,  -0.07580,   0.00643,  -0.01600,  -0.00105,   0.06249,   0.03633,  -0.05337,  -0.01787,   0.01951,  -0.02908,  -0.05711,   0.07557,   0.06436,  -0.08514,  -0.04964,  -0.07393,  -0.05151,   0.08679,  -0.01974,   0.05689,   0.01390,  -0.03656,  -0.04403,  -0.02347,   0.04194,  -0.02908,   0.03072,  -0.14682,  -0.06833,  -0.03656,  -0.00105,   0.00830,  -0.04964,  -0.06272,  -0.01600,   0.05689,   0.05875,   0.02138,  -0.02347,  -0.04403,   0.01203,  -0.06272,   0.04194,   0.10921,  -0.05524,  -0.03842,   0.10174,  -0.00479,   0.03072,  -0.01226,   0.00269,  -0.09636,  -0.07206,   0.01390,   0.14098,  -0.01226,   0.02325,   0.01017
   0.04754,  -0.01974,  -0.03469,   0.05128,  -0.02534,  -0.02534,  -0.01039,  -0.01974,   0.04754,  -0.00852,   0.00830,  -0.01974,  -0.01413,  -0.03282,  -0.04590,   0.01951,   0.04007,  -0.04403,  -0.02160,   0.01764,  -0.03095,  -0.04216,  -0.00852,   0.10174,  -0.00852,   0.00269,   0.03446,  -0.01413,   0.05128,   0.03820,   0.00082,  -0.02721,  -0.00292,   0.03446,   0.00082,   0.03633,  -0.01226,   0.00269,  -0.00665,   0.00082,   0.03259,   0.03446,  -0.01413,   0.02885,  -0.01039,  -0.07580,  -0.01039,  -0.03656,   0.01951,   0.00456,   0.04380,  -0.06272,  -0.04403,  -0.07019,  -0.04590,   0.00456,  -0.00292,   0.01390,  -0.05898,   0.02138,  -0.02721,  -0.01039,   0.00082,  -0.00479,  -0.01600,  -0.00479,   0.00082,   0.04567,   0.03259,   0.04380,  -0.05524,   0.04007,   0.01951,   0.06623,   0.06249,  -0.00479,   0.04194,   0.01017,  -0.05151,   0.01577,   0.01577,   0.00643,   0.00830,   0.00643,   0.00082,   0.04194,  -0.06272,  -0.04964,  -0.05524,   0.05875,   0.05128,   0.03633,  -0.00479,   0.06436,  -0.00292,  -0.00105,  -0.00105,  -0.04403,  -0.01974,  -0.04029,   0.00082,   0.06062,   0.01203,  -0.02721,  -0.04216,   0.04567,  -0.01039,   0.03633,  -0.04590,  -0.04216,   0.03259,  -0.02534,   0.03259,   0.02138,   0.02325,   0.00082,  -0.00479,   0.00643,  -0.01787,  -0.00479,   0.05502,   0.03446,   0.04754,   0.01951,  -0.02721,   0.06062,   0.01951,  -0.02721
  -0.02347,   0.01764,   0.06249,   0.02698,   0.04754,   0.01764,  -0.03095,   0.04380,   0.09239,  -0.01413,  -0.00292,  -0.00665,  -0.00665,   0.05128,   0.02325,   0.02138,   0.01951,   0.03633,  -0.03095,  -0.03656,  -0.01600,   0.02512,  -0.01974,   0.03259,   0.04380,  -0.06272,   0.01017,  -0.01226,  -0.01413,  -0.01226,  -0.00105,  -0.05151,  -0.03282,   0.04754,  -0.04029,   0.00643,  -0.03469,  -0.00105,   0.00269,  -0.04777,   0.01017,   0.01203,   0.01764,  -0.02908,   0.03259,   0.01577,   0.02885,   0.01951,   0.00456,  -0.00479,   0.08866,  -0.00852,   0.03820,   0.02512,   0.01017,   0.00269,   0.02698,   0.01017,   0.02325,   0.01390,  -0.04403,   0.00269,   0.06436,  -0.05337,   0.01951,  -0.03282,   0.03446,  -0.00665,  -0.04777,  -0.03469,   0.01951,  -0.01226,   0.03446,  -0.00665,  -0.00665,   0.04007,  -0.06272,  -0.04029,  -0.06085,   0.01764,   0.01390,   0.04567,   0.01203,   0.01390,   0.01390,   0.03633,   0.01203,  -0.03842,  -0.01226,  -0.03095,  -0.00105,  -0.01039,   0.02512,   0.03633,  -0.02534,   0.05502,  -0.00105,  -0.00105,  -0.06459,  -0.00479,   0.02885,  -0.05337,   0.03072,   0.00643,   0.00456,   0.01017,   0.07557,  -0.00292,  -0.03842,   0.10547,  -0.00852,  -0.02534,  -0.02347,  -0.07767,  -0.00852,  -0.00292,   0.01390,   0.00269,  -0.05151,  -0.04590,  -0.02721,  -0.04216,  -0.06646,  -0.02347,   0.00269,  -0.04590,   0.00269,   0.00830
  -0.02721,  -0.03842,   0.00830,   0.00830,  -0.02347,  -0.00292,   0.06623,  -0.03469,   0.01390,  -0.00852,  -0.05524,  -0.02908,  -0.04216,  -0.00479,   0.00830,   0.01390,  -0.07580,   0.02325,   0.01764,  -0.03469,   0.04380,   0.05315,   0.01203,  -0.00105,  -0.04777,   0.07184,   0.00456,   0.01577,   0.01017,  -0.02534,  -0.01974,  -0.01974,   0.00643,  -0.02160,   0.00269,  -0.01787,  -0.04964,  -0.03842,   0.01390,  -0.01039,  -0.00292,   0.06249,   0.01017,  -0.00852,  -0.05337,   0.00269,  -0.01039,   0.02698,  -0.02721,  -0.04777,   0.02325,  -0.01787,   0.02512,   0.01203,  -0.00479,  -0.02534,  -0.04029,  -0.05898,   0.03446,   0.04380,   0.02325,  -0.00292,  -0.00105,  -0.04216,  -0.00292,  -0.00852,   0.01017,  -0.10383,   0.00643,  -0.00479,   0.02885,   0.00456,  -0.05524,   0.05502,  -0.06459,  -0.03656,   0.01764,   0.03633,  -0.05524,   0.02885,   0.02325,  -0.00479,  -0.03282,  -0.04403,  -0.06833,   0.00269,   0.03446,  -0.01226,   0.03259,  -0.01787,   0.00643,   0.00830,  -0.05524,  -0.01226,  -0.02534,  -0.01039,   0.06436,   0.07371,  -0.05898,   0.00830,   0.03633,   0.04007,   0.01764,   0.04754,  -0.07767,  -0.04777,   0.02325,   0.00456,  -0.06833,  -0.01974,   0.00082,  -0.03469,   0.00456,  -0.04590,   0.06997,   0.00456,   0.02325,  -0.07393,   0.02138,   0.05128,  -0.02534,   0.08305,  -0.00665,   0.00643,  -0.04777,   0.01951,   0.02138,   0.05875
  -0.04216,  -0.06833,   0.01764,   0.00082,   0.01203,   0.04941,   0.04754,  -0.03469,   0.04194,  -0.01413,  -0.06833,  -0.01974,  -0.04403,   0.03820,   0.00082,  -0.02721,  -0.01787,  -0.10196,   0.01017,  -0.01413,   0.02512,  -0.01600,  -0.07954,  -0.05337,   0.01764,   0.00082,  -0.01039,  -0.04403,  -0.01787,  -0.06085,   0.02885,  -0.01039,  -0.00665,   0.01390,   0.03820,   0.02698,  -0.05337,  -0.05524,  -0.05337,   0.01390,   0.02885,  -0.04216,  -0.00665,   0.00082,  -0.01974,   0.05315,   0.00269,  -0.05524,  -0.07206,  -0.09075,  -0.04590,   0.00082,  -0.00292,   0.04194,   0.00082,   0.03446,  -0.01787,  -0.04590,   0.07184,  -0.02534,   0.02138,  -0.01787,   0.01017,   0.05689,  -0.00665,   0.00082,   0.00643,  -0.01413,   0.02885,   0.00830,  -0.01600,   0.05315,   0.01764,  -0.01974,  -0.01974,   0.03633,  -0.02534,  -0.03656,  -0.04964,  -0.06272,   0.04380,   0.02885,  -0.04964,   0.01017,  -0.09636,   0.01390,   0.05875,  -0.00292,  -0.02347,  -0.07206,   0.04941,  -0.01974,   0.02512,   0.03259,  -0.03282,  -0.00479,  -0.00105,   0.02325,  -0.05151,  -0.04777,   0.03259,   0.03820,   0.01577,   0.04007,   0.06997,  -0.02721,  -0.01039,   0.01764,   0.08305,  -0.01226,  -0.00479,   0.00830,  -0.07767,  -0.01600,   0.05502,  -0.02534,   0.02885,  -0.05898,   0.05128,  -0.06085,  -0.10383,   0.09426,   0.01764,  -0.01787,  -0.04590,   0.01017,  -0.00292,  -0.02908
  -0.04403,  -0.01039,   0.08492,  -0.05151,   0.01017,   0.04380,  -0.08701,   0.04380,  -0.06272,  -0.02347,   0.00643,   0.05689,  -0.03282,   0.03633,  -0.01413,   0.04007,   0.07744,  -0.00479,  -0.00665,   0.03446,  -0.01787,   0.00269,  -0.04216,  -0.00479,  -0.00105,  -0.00852,   0.06997,   0.00643,  -0.01600,   0.01764,  -0.00105,  -0.05711,   0.01951,  -0.05524,  -0.09449,   0.01203,   0.01390,   0.04380,  -0.05151,   0.00643,   0.03072,   0.02885,  -0.01600,   0.02325,   0.02512,  -0.02721,  -0.04029,  -0.00852,   0.01017,   0.05128,   0.00269,   0.09052,  -0.02534,   0.09052,   0.04380,  -0.02721,   0.04567,  -0.01974,  -0.14682,   0.01017,   0.00643,  -0.03469,   0.03633,  -0.00292,   0.04194,   0.02885,  -0.03095,  -0.03095,   0.00082,  -0.01039,  -0.04964,  -0.00292,   0.02512,  -0.01787,   0.00082,  -0.02534,  -0.01787,  -0.03656,  -0.05337,   0.04194,  -0.02534,  -0.00665,   0.01764,  -0.01600,   0.01390,  -0.07954,  -0.12439,   0.07931,   0.00456,   0.06623,  -0.00479,   0.04194,   0.01764,   0.01390,   0.00643,  -0.02347,  -0.01974,  -0.10757,   0.02325,   0.04380,   0.03259,   0.05315,  -0.06646,  -0.01039,  -0.01787,   0.03820,  -0.03095,   0.01203,   0.00643,  -0.06833,  -0.02347,  -0.00852,   0.05315,   0.01577,  -0.04590,   0.01577,   0.02885,   0.00456,   0.00456,   0.04007,  -0.00105,  -0.03656,  -0.00292,   0.00269,   0.01390,   0.00456,   0.02698,  -0.01600
   0.03259,  -0.02160,  -0.00852,   0.07557,   0.03446,   0.04941,   0.05875,  -0.07767,   0.02512,   0.04007,  -0.05711,  -0.06085,   0.00269,  -0.01226,   0.03072,   0.03633,   0.01577,  -0.01226,   0.01577,  -0.03469,   0.04941,  -0.01600,   0.04007,  -0.02347,  -0.03469,  -0.01413,   0.04007,   0.13164,   0.05502,  -0.00665,  -0.06085,  -0.03095,   0.00269,   0.02325,   0.01764,   0.05875,   0.06623,  -0.10196,  -0.04403,  -0.02908,  -0.03282,   0.06062,   0.00082,  -0.01787,  -0.07393,  -0.01413,   0.01764,   0.07184,   0.00643,  -0.01600,  -0.01039,  -0.05524,  -0.01039,  -0.02160,  -0.02908,   0.07744,  -0.04964,  -0.01413,   0.01577,  -0.00665,  -0.04964,  -0.02534,  -0.01039,   0.01577,   0.06997,  -0.05151,   0.02138,  -0.01600,  -0.00479,  -0.01600,  -0.07206,   0.02698,  -0.01413,  -0.02160,  -0.04403,  -0.02160,   0.03633,  -0.02534,  -0.05898,  -0.04590,   0.00269,   0.02512,   0.07184,  -0.05898,  -0.00665,  -0.08328,   0.03820,  -0.07019,  -0.01413,  -0.01413,   0.02512,   0.03633,   0.01017,   0.01764,   0.05315,   0.01577,   0.00456,  -0.02908,  -0.04964,  -0.06459,  -0.04403,  -0.01787,  -0.08888,   0.05875,   0.01017,  -0.05524,  -0.04029,  -0.01787,  -0.04590,   0.01577,   0.04380,  -0.05151,  -0.00479,   0.01203,   0.05315,  -0.00292,   0.03259,   0.00269,  -0.05711,   0.00456,   0.04194,   0.10361,   0.00456,   0.01203,  -0.06459,  -0.01787,   0.03259,  -0.03095
   0.03259,  -0.07393,  -0.04216,   0.04380,   0.03820,  -0.02908,   0.00082,   0.02885,  -0.00665,   0.01577,   0.00269,  -0.01600,   0.03446,  -0.02160,  -0.02347,   0.06062,  -0.04216,  -0.01974,  -0.00852,   0.07184,   0.00830,   0.00643,   0.04194,   0.02885,  -0.00852,   0.01764,   0.03259,   0.01577,  -0.02721,  -0.00292,   0.11482,  -0.06085,   0.02138,  -0.01974,  -0.01974,  -0.02160,   0.10174,   0.02698,   0.00269,   0.04941,  -0.03842,  -0.02160,  -0.01226,   0.07744,  -0.01600,  -0.00292,  -0.01600,  -0.09449,  -0.03469,   0.03072,   0.00643,   0.00643,  -0.06272,  -0.00852,   0.05128,  -0.01600,  -0.03469,  -0.07954,  -0.04029,  -0.01413,  -0.10196,  -0.00292,   0.02885,  -0.00852,  -0.02908,  -0.00105,   0.02138,  -0.02347,  -0.04777,  -0.00852,  -0.02908,   0.00082,  -0.04964,   0.09052,  -0.00292,   0.03072,  -0.04029,   0.00830,   0.04194,   0.00269,  -0.04029,  -0.05524,   0.04194,   0.00456,   0.03820,  -0.03095,  -0.03656,  -0.02347,   0.01017,   0.01951,   0.00082,  -0.00852,   0.04754,   0.00830,  -0.05151,   0.03820,  -0.04777,   0.01577,   0.01577,   0.04007,   0.07371,   0.06623,   0.05689,   0.12977,  -0.01226,   0.07931,   0.02325,   0.01764,   0.03446,  -0.03095,  -0.01226,   0.02138,   0.06623,   0.01951,   0.00643,   0.00456,   0.05128,  -0.06272,   0.00830,  -0.04403,   0.01764,  -0.04590,  -0.03842,   0.01390,  -0.01600,  -0.00852,   0.03820,  -0.04777
  -0.00105,  -0.02534,   0.00643,   0.01951,  -0.01600,  -0.01600,   0.04380,  -0.01600,  -0.01974,   0.00456,  -0.03095,   0.02698,   0.04194,   0.04007,  -0.02721,  -0.02160,   0.04007,  -0.05337,  -0.05711,   0.01203,   0.09239,   0.02885,  -0.03469,  -0.00665,  -0.04964,  -0.01600,  -0.01600,  -0.00479,   0.02325,   0.00830,  -0.02721,  -0.00105,   0.03072,  -0.00292,   0.10174,   0.03259,   0.01764,  -0.05898,  -0.00479,   0.01764,  -0.01600,  -0.02908,   0.04194,   0.05689,  -0.06459,  -0.03282,  -0.02347,  -0.04964,   0.02512,  -0.03469,   0.03633,  -0.04590,   0.03633,  -0.01600,  -0.00665,   0.06249,   0.01577,  -0.00105,  -0.00479,  -0.01039,  -0.02908,  -0.03282,  -0.04590,  -0.01787,  -0.00665,   0.01390,   0.04007,  -0.01787,  -0.00292,  -0.01787,   0.02512,  -0.04403,  -0.02908,   0.00269,  -0.00105,   0.00456,   0.04007,   0.03072,  -0.00852,  -0.02721,  -0.02721,   0.02885,   0.01017,  -0.02908,   0.06810,  -0.00292,   0.08492,  -0.02721,  -0.04590,  -0.02534,  -0.01974,   0.02698,   0.01017,  -0.01413,  -0.02908,  -0.01600,   0.02138,   0.00643,   0.02512,  -0.00105,  -0.07019,   0.00269,  -0.03282,   0.04941,  -0.03842,  -0.07206,  -0.05711,   0.01951,  -0.00479,  -0.07206,  -0.00292,  -0.00105,  -0.03469,   0.07744,   0.00830,   0.01390,  -0.02908,  -0.07206,   0.03446,  -0.04777,   0.03072,   0.07557,   0.06623,  -0.03095,  -0.02534,   0.03072,  -0.00292,  -0.01226
   0.01203,   0.01017,  -0.00292,   0.01764,  -0.09823,  -0.01600,   0.03446,   0.08305,   0.02512,   0.05689,   0.05502,   0.00643,   0.01951,  -0.00292,   0.04194,   0.02698,  -0.00479,   0.04194,  -0.00479,   0.06062,   0.02885,  -0.06085,   0.02698,  -0.06085,   0.02698,   0.01203,   0.07371,  -0.02160,  -0.02347,  -0.03095,   0.01017,   0.04380,   0.01577,  -0.07767,   0.02325,   0.03633,  -0.02908,   0.05128,   0.06062,   0.00082,   0.00269,  -0.01413,  -0.05524,  -0.02721,   0.03072,  -0.04216,   0.02325,  -0.08514,   0.02138,  -0.01226,   0.02512,   0.01577,  -0.01787,  -0.07393,   0.01764,   0.01577,   0.06062,   0.02138,  -0.00479,  -0.02160,  -0.01600,   0.01203,  -0.07019,   0.04754,  -0.01039,  -0.00479,   0.05128,   0.04941,  -0.03469,   0.01017,   0.03259,  -0.02160,   0.02138,   0.00643,   0.07371,  -0.00852,  -0.01039,   0.00830,   0.03259,   0.03259,   0.05128,   0.06623,   0.06062,   0.02325,  -0.01974,   0.04754,  -0.01039,   0.00269,   0.07184,  -0.00479,  -0.01039,  -0.00105,  -0.00479,   0.03259,   0.00643,   0.01017,   0.09052,  -0.04029,  -0.02908,  -0.02534,  -0.02347,   0.05128,   0.03072,  -0.01787,   0.00456,   0.04007,  -0.00105,   0.04754,   0.03072,  -0.07206,   0.06062,   0.03072,   0.00643,   0.05502,   0.01951,  -0.01974,   0.00830,   0.03446,   0.00456,   0.04194,  -0.00105,  -0.10010,   0.03259,   0.05875,   0.10174,   0.03072,   0.05875,  -0.04777
   0.00643,   0.10921,   0.03259,   0.02325,  -0.02347,  -0.01787,   0.03820,  -0.06833,  -0.04216,   0.01764,   0.02512,   0.03633,   0.01764,   0.00456,  -0.03095,  -0.02347,   0.00082,  -0.00105,  -0.05337,  -0.02534,  -0.07767,   0.05689,  -0.01039,   0.03820,   0.02325,  -0.11878,   0.06062,   0.07931,  -0.00105,  -0.01226,   0.00643,  -0.00292,  -0.00852,  -0.00292,   0.01577,  -0.10757,   0.02512,  -0.00479,  -0.01413,   0.07744,  -0.02347,   0.02885,   0.00269,  -0.01413,   0.04754,  -0.04216,  -0.05524,  -0.05337,   0.03446,  -0.02534,   0.04194,  -0.08514,   0.00643,   0.00082,  -0.00292,   0.05315,   0.01764,  -0.01413,   0.00082,  -0.04777,  -0.04777,  -0.07393,   0.02138,   0.02138,   0.04754,  -0.00852,  -0.06646,  -0.03656,  -0.09449,   0.02512,  -0.03842,  -0.02534,   0.04941,  -0.02908,   0.04380,   0.02885,   0.04567,   0.01017,  -0.04777,   0.03259,   0.04380,  -0.03282,   0.08305,  -0.09075,   0.04380,  -0.01600,  -0.07580,   0.02138,   0.03072,   0.01764,  -0.01600,   0.02138,  -0.00479,   0.00269,   0.02138,  -0.01974,   0.06062,   0.00643,  -0.00292,   0.00082,   0.00456,   0.04380,   0.04194,   0.04380,   0.03820,   0.01764,  -0.00479,  -0.01039,   0.02698,  -0.06646,   0.06436,   0.00456,  -0.08141,  -0.05898,  -0.02534,   0.03446,  -0.00665,  -0.04029,   0.00830,  -0.03842,   0.02138,   0.01203,  -0.01974,  -0.02160,  -0.09449,  -0.01787,  -0.03282,   0.06249
   0.02885,  -0.03095,   0.03072,   0.04194,  -0.02160,   0.00269,   0.03259,   0.02325,   0.01764,   0.03446,  -0.04964,   0.06062,  -0.05711,  -0.01413,   0.02698,   0.02512,  -0.01039,   0.00643,   0.01764,  -0.03282,   0.03633,   0.04380,  -0.01039,   0.04007,  -0.02908,  -0.02160,  -0.02721,  -0.06272,  -0.00665,   0.01017,   0.05875,   0.01577,   0.01203,  -0.00292,  -0.01226,  -0.11131,   0.00269,   0.00643,   0.02138,   0.05875,   0.01951,   0.00269,   0.02325,  -0.00479,   0.02698,  -0.09823,   0.01203,  -0.00292,   0.01017,   0.01577,   0.03633,   0.06436,   0.04380,  -0.08328,   0.01764,  -0.03282,   0.04941,  -0.11505,  -0.07767,   0.06436,   0.02512,   0.02512,  -0.05898,  -0.00665,   0.06997,  -0.07019,  -0.00479,   0.03259,  -0.00852,  -0.00105,  -0.06085,   0.04194,   0.00082,   0.01577,   0.06623,  -0.02347,   0.04194,   0.04567,   0.03820,   0.01764,  -0.01226,  -0.03469,  -0.03469,   0.03259,   0.02138,  -0.00292,  -0.00479,  -0.07206,  -0.00105,   0.03446,  -0.00665,   0.07744,   0.04007,   0.03259,  -0.03095,   0.00830,  -0.08701,   0.05128,   0.03072,   0.01577,   0.00643,   0.05875,  -0.04216,   0.00830,   0.02698,   0.03446,  -0.04590,   0.01577,  -0.05151,   0.05128,   0.01203,   0.01390,  -0.02534,  -0.01039,   0.09052,  -0.02347,  -0.01600,   0.04754,  -0.08514,  -0.04029,   0.01017,  -0.03282,  -0.00665,  -0.01413,  -0.04403,   0.00082,   0.09052,   0.01764
   0.01390,   0.00643,  -0.03095,  -0.02347,   0.01203,   0.00269,  -0.03282,   0.00082,   0.02512,  -0.00665,  -0.00479,   0.01951,  -0.06459,  -0.01600,   0.07744,   0.04194,  -0.04216,   0.02885,   0.01390,  -0.00665,   0.03259,   0.01951,  -0.05337,  -0.01600,   0.01577,   0.06997,   0.00456,  -0.00292,  -0.01974,  -0.01226,  -0.01974,   0.01577,  -0.04777,  -0.01413,   0.03633,  -0.01600,   0.00830,  -0.04216,  -0.01974,  -0.04777,   0.00643,   0.03820,   0.08118,  -0.01039,   0.01390,  -0.05337,  -0.01226,  -0.07393,  -0.00665,  -0.01413,   0.02698,  -0.08514,   0.10921,  -0.07580,  -0.00105,   0.01203,  -0.05151,  -0.01787,   0.01390,  -0.02721,  -0.01787,  -0.03656,   0.00456,   0.02885,  -0.01974,  -0.01413,  -0.00292,  -0.00105,  -0.03842,   0.00269,   0.01951,   0.03072,   0.01764,  -0.02721,   0.01390,   0.02885,   0.01203,   0.00456,  -0.00665,  -0.02347,  -0.03282,   0.01390,   0.06810,  -0.04590,  -0.04590,   0.01203,   0.00456,  -0.04777,  -0.05524,  -0.02160,  -0.00105,   0.00643,  -0.07019,  -0.03842,   0.02325,   0.00269,  -0.08328,   0.00082,  -0.02908,  -0.02721,  -0.03282,   0.00082,  -0.06459,   0.03259,  -0.02908,  -0.00665,  -0.04777,  -0.03282,  -0.05151,   0.03446,  -0.00479,   0.02512,  -0.02721,  -0.00852,   0.06436,   0.00643,  -0.02534,   0.02885,  -0.03842,   0.00830,  -0.01974,   0.04941,   0.02325,  -0.00479,   0.04380,   0.01390,  -0.03842,   0.00082
   0.00269,   0.04194,  -0.01226,   0.01203,   0.02512,  -0.03469,  -0.01974,   0.03446,   0.00082,  -0.04029,   0.01951,   0.02325,  -0.00292,   0.02698,   0.01390,   0.07371,  -0.01974,   0.00643,  -0.04403,  -0.13373,  -0.17298,   0.08492,  -0.00665,   0.09052,   0.06623,   0.04380,   0.02325,  -0.01600,  -0.03095,  -0.01226,   0.02512,  -0.04777,   0.00830,   0.01017,  -0.00852,   0.00830,   0.00830,  -0.10010,  -0.02160,  -0.05711,   0.00456,  -0.03282,  -0.03469,  -0.02721,   0.01577,  -0.09636,   0.01764,   0.00269,  -0.03469,  -0.07019,  -0.01226,  -0.09075,   0.03072,   0.00269,  -0.02721,   0.01390,  -0.01974,   0.06997,  -0.03469,   0.04380,  -0.01226,  -0.00105,   0.05128,  -0.04216,  -0.01226,   0.00456,   0.02885,   0.02325,  -0.04216,   0.03259,   0.03446,   0.02698,   0.07371,  -0.01787,   0.01764,  -0.02160,  -0.04403,   0.02885,  -0.09823,  -0.00479,   0.03820,   0.08305,  -0.03282,  -0.01974,  -0.09636,   0.02885,   0.00082,   0.01203,  -0.06459,   0.07184,  -0.02347,  -0.02347,  -0.07954,  -0.03656,   0.01390,   0.01764,   0.02325,   0.02325,  -0.01226,  -0.01226,   0.06810,  -0.05711,   0.01951,   0.01951,   0.01203,  -0.01787,   0.11482,  -0.07767,  -0.07393,   0.04941,   0.06810,   0.02325,  -0.01226,  -0.06833,  -0.05337,  -0.01787,   0.02325,   0.00643,  -0.03842,   0.00643,  -0.00852,  -0.08141,  -0.06833,  -0.05524,  -0.04590,   0.03820,   0.06810,  -0.04029
  -0.04964,  -0.00852,  -0.04777,   0.02512,   0.05502,   0.04194,  -0.04403,   0.01203,   0.01390,  -0.01039,   0.01390,   0.02138,   0.03633,  -0.02721,   0.05128,   0.02138,   0.00643,   0.00643,  -0.02347,  -0.05524,  -0.06272,  -0.01413,  -0.03095,  -0.06459,  -0.02721,   0.03072,   0.03072,   0.02512,  -0.02347,  -0.08514,  -0.04029,   0.03820,  -0.01413,   0.01017,  -0.03469,   0.01577,   0.10174,   0.01390,   0.06249,   0.00082,  -0.05337,  -0.01226,  -0.04964,  -0.01974,   0.03072,  -0.00665,   0.01764,  -0.06833,  -0.03095,  -0.05524,   0.00830,   0.01951,  -0.01974,   0.05689,   0.00830,  -0.01787,  -0.01039,  -0.00292,   0.08118,   0.01203,   0.06249,   0.05128,  -0.03469,   0.05689,   0.03446,   0.03633,   0.01390,   0.03446,   0.00830,  -0.01039,  -0.01413,  -0.01974,   0.01017,   0.03446,   0.04380,  -0.05524,  -0.00852,   0.00269,   0.03633,  -0.03282,   0.02325,   0.01764,  -0.08888,   0.05128,   0.03072,   0.00830,   0.05689,   0.02698,   0.01203,  -0.02908,  -0.00105,  -0.02721,  -0.06459,  -0.04590,   0.04007,   0.07557,   0.01577,  -0.03842,  -0.03095,   0.02138,  -0.01600,   0.04007,  -0.00665,  -0.00292,   0.02325,  -0.05524,   0.07184,   0.04194,   0.04567,  -0.04964,  -0.07019,   0.00643,  -0.04403,   0.07744,  -0.03469,  -0.00665,   0.01203,  -0.00479,  -0.00665,   0.01203,   0.02698,  -0.05151,   0.00830,   0.02138,   0.05875,   0.02698,   0.01764,   0.06436
   0.00269,   0.00269,  -0.00292,   0.00456,  -0.01413,  -0.01413,  -0.06833,  -0.01039,  -0.00852,   0.02885,   0.03259,   0.03633,  -0.00665,  -0.01226,   0.02698,  -0.02908,  -0.02721,  -0.00479,   0.04380,   0.04941,  -0.03282,  -0.02534,  -0.01226,   0.09426,  -0.00852,   0.06062,   0.01390,  -0.08141,  -0.04216,  -0.03282,  -0.02534,  -0.02347,   0.01017,  -0.01226,  -0.06459,   0.00082,  -0.03656,   0.00643,  -0.02347,   0.02325,   0.03820,  -0.01413,  -0.04964,   0.01951,  -0.04029,   0.03633,   0.00643,  -0.04029,   0.03072,  -0.00105,   0.01577,  -0.03656,  -0.00665,  -0.02721,   0.02512,  -0.05337,  -0.01787,  -0.00852,   0.00082,   0.03446,  -0.04590,  -0.00105,  -0.02534,  -0.01226,   0.04941,  -0.03656,   0.02138,  -0.03656,  -0.04403,   0.01577,   0.04754,   0.00643,  -0.01974,  -0.00292,   0.01390,   0.00269,  -0.00852,   0.02512,   0.00830,   0.06810,   0.04567,   0.02138,  -0.06272,   0.08118,  -0.03095,  -0.03095,  -0.00852,   0.01017,  -0.02534,  -0.00665,   0.05128,  -0.02908,  -0.04590,  -0.04777,  -0.00852,   0.00269,  -0.00852,  -0.00479,   0.04754,  -0.01039,   0.00643,   0.01764,  -0.02347,   0.03072,   0.06436,   0.01390,  -0.05151,   0.00456,   0.03259,   0.01951,   0.01390,   0.01203,   0.00830,  -0.04216,   0.00643,  -0.01787,  -0.01413,  -0.00105,  -0.01787,  -0.05151,  -0.03842,  -0.00665,  -0.01787,  -0.02347,  -0.01413,   0.00830,  -0.01413,   0.01390
  -0.01226,   0.01017,  -0.03095,   0.05315,  -0.13186,  -0.04403,   0.10361,  -0.01039,  -0.01974,  -0.03469,   0.01017,  -0.03469,   0.00082,  -0.02908,  -0.04777,  -0.04590,   0.04754,  -0.06459,   0.02512,  -0.00852,   0.08305,   0.01764,   0.03259,  -0.04964,   0.00456,  -0.07206,  -0.00852,   0.01203,   0.08305,   0.04194,  -0.02908,  -0.01974,   0.01951,   0.04941,   0.06623,  -0.00852,   0.02325,  -0.14121,  -0.05337,   0.03259,  -0.01413,   0.06436,   0.00830,   0.07184,  -0.06459,  -0.09075,  -0.06833,  -0.02160,  -0.01226,  -0.00852,  -0.01787,  -0.07580,   0.05128,   0.11108,  -0.00479,   0.01577,  -0.06833,  -0.03842,  -0.03095,   0.01390,  -0.00852,   0.02698,  -0.02908,  -0.01413,   0.06997,   0.04380,  -0.03656,  -0.03282,  -0.04590,   0.02698,  -0.00479,  -0.01787,  -0.02160,  -0.04216,  -0.00479,   0.00269,   0.06062,   0.00830,  -0.00479,  -0.02534,  -0.04403,  -0.05151,   0.04754,  -0.05151,   0.04007,   0.07184,   0.00830,  -0.02160,   0.03072,   0.01017,  -0.05337,   0.06062,  -0.05151,  -0.00665,  -0.04216,   0.01203,   0.04754,   0.01017,  -0.01413,  -0.03282,  -0.00479,   0.08866,   0.01951,   0.05128,  -0.07767,  -0.01787,   0.00082,  -0.00292,  -0.03095,  -0.02347,   0.01764,  -0.02534,  -0.06646,  -0.00479,   0.07931,  -0.00479,  -0.00665,   0.00456,  -0.03095,  -0.00105,  -0.04964,   0.14846,  -0.00852,  -0.01413,  -0.17485,   0.06436,  -0.00292,   0.02512
   0.01203,   0.00456,  -0.01226,   0.07931,  -0.01039,   0.00643,   0.00643,  -0.00292,  -0.00852,  -0.04216,  -0.01413,   0.04567,  -0.08141,  -0.02721,   0.04194,   0.02325,  -0.03469,  -0.02908,   0.04567,   0.01951,  -0.00479,   0.00643,  -0.04964,   0.00830,   0.02325,   0.02885,   0.01203,  -0.01413,  -0.02721,  -0.06459,   0.01017,  -0.06833,  -0.05524,  -0.00105,   0.00082,  -0.00852,   0.01951,   0.07744,  -0.01974,  -0.00479,   0.01577,   0.01951,   0.04941,  -0.02347,  -0.00665,  -0.03842,  -0.01600,  -0.06459,  -0.00105,  -0.02160,  -0.01974,   0.03259,   0.06249,   0.00830,   0.03072,  -0.03656,  -0.02908,   0.01951,   0.01577,   0.00269,   0.04007,  -0.00479,  -0.01974,  -0.00105,  -0.01600,  -0.05524,  -0.04590,  -0.01974,  -0.11131,   0.02325,  -0.02908,   0.00456,   0.01203,  -0.00665,  -0.02534,  -0.03842,   0.05502,   0.00643,  -0.00105,  -0.03282,   0.01203,  -0.04403,   0.05128,  -0.03469,  -0.06085,   0.02512,   0.00269,  -0.00665,   0.01017,   0.01390,  -0.01226,   0.03072,  -0.03282,  -0.01974,   0.00456,  -0.00105,   0.01577,   0.01390,   0.01951,  -0.00479,   0.02138,  -0.03469,   0.00082,   0.06249,   0.00082,  -0.00292,   0.01390,  -0.06085,   0.02698,  -0.01787,   0.04007,  -0.03656,   0.04007,  -0.03282,  -0.01413,  -0.02534,   0.00456,  -0.06833,   0.00643,  -0.02534,  -0.02347,  -0.01974,  -0.01787,  -0.03656,  -0.01413,   0.00082,   0.00082,   0.01390
   0.00082,   0.06062,  -0.05151,  -0.04216,   0.03259,  -0.03095,   0.04007,  -0.02347,   0.07184,  -0.02534,  -0.03842,  -0.04029,  -0.04216,   0.01017,   0.00269,  -0.01600,   0.00643,  -0.02160,   0.00082,   0.02698,   0.05502,  -0.01226,  -0.06085,  -0.04403,   0.01203,   0.03633,  -0.06272,  -0.00292,   0.04380,   0.00643,  -0.02908,   0.00643,  -0.03095,   0.04567,   0.00643,   0.02138,  -0.06085,  -0.08328,  -0.03469,  -0.03656,  -0.00479,   0.07931,   0.09426,   0.03633,  -0.13186,  -0.02347,   0.01390,  -0.04964,  -0.07019,  -0.05711,   0.01017,  -0.03842,   0.01203,  -0.02721,  -0.02160,   0.09987,  -0.00292,   0.04754,  -0.03469,  -0.06085,   0.00830,   0.03633,  -0.00105,  -0.05151,   0.01577,   0.00082,   0.06249,   0.04754,  -0.01600,   0.04007,  -0.00479,  -0.02347,   0.02138,  -0.05151,   0.00082,  -0.02534,   0.00456,  -0.04777,  -0.04029,   0.02325,   0.06062,   0.04567,   0.06997,  -0.05524,  -0.01787,  -0.00105,  -0.03095,  -0.06085,  -0.01787,  -0.08141,  -0.02721,  -0.08888,   0.02325,  -0.01974,   0.05689,   0.04194,   0.12229,  -0.00479,  -0.00479,  -0.04964,  -0.03656,   0.00643,  -0.05898,   0.06249,  -0.01226,  -0.06833,  -0.06085,  -0.02347,  -0.03469,  -0.03656,  -0.02721,  -0.02160,  -0.08888,   0.03072,   0.01017,  -0.00479,   0.07931,   0.00456,  -0.01039,   0.04007,  -0.06272,   0.03072,   0.00269,   0.01203,  -0.02347,   0.06249,   0.05875,  -0.01226
   0.12229,  -0.05711,   0.02885,   0.04941,  -0.08514,   0.02698,  -0.00479,   0.06062,   0.00456,   0.03633,  -0.02160,  -0.01039,   0.04007,   0.01764,   0.02885,   0.01390,  -0.01226,  -0.02347,   0.01764,   0.00643,   0.06062,   0.01390,  -0.06085,  -0.12626,  -0.05151,  -0.07580,  -0.02347,  -0.07019,   0.04754,  -0.00852,  -0.01413,   0.01390,   0.01203,   0.09052,   0.04007,  -0.01226,   0.03072,   0.02885,  -0.02534,   0.13351,   0.01951,  -0.03842,  -0.04964,   0.01390,  -0.12626,  -0.02347,   0.03446,   0.05128,   0.01951,  -0.01226,   0.02698,   0.04380,   0.02512,   0.02325,   0.02698,  -0.02534,  -0.00105,  -0.05337,  -0.09262,   0.09426,   0.01577,   0.03820,  -0.05151,   0.09613,  -0.05524,  -0.01600,  -0.06646,   0.06623,   0.03633,   0.04754,  -0.00479,  -0.04590,  -0.05337,   0.02325,   0.01764,  -0.01600,   0.04567,   0.00082,  -0.00665,   0.04194,  -0.00105,   0.03259,  -0.02534,  -0.06459,  -0.05711,  -0.03656,   0.07371,  -0.08514,   0.04194,  -0.03469,  -0.01413,  -0.02534,   0.00082,  -0.03095,  -0.07206,  -0.05524,  -0.08701,   0.04380,   0.02325,   0.01577,   0.00643,   0.02512,  -0.01413,   0.05315,  -0.03656,  -0.05711,  -0.07019,  -0.00292,   0.00082,  -0.02908,   0.05502,   0.04941,  -0.02347,  -0.01039,   0.04194,   0.03820,   0.05875,  -0.07206,  -0.03282,  -0.06833,  -0.01600,   0.09052,  -0.07954,  -0.01974,  -0.03095,   0.04194,  -0.05151,   0.04194
  -0.05898,  -0.04403,  -0.01226,   0.00830,  -0.03469,   0.04380,   0.03820,  -0.05337,   0.06623,   0.03072,   0.00643,  -0.07206,   0.01951,   0.02325,  -0.03282,  -0.08514,  -0.02534,  -0.03842,   0.06623,   0.00456,  -0.02908,  -0.05898,   0.01577,  -0.06085,   0.03259,  -0.02347,   0.00456,   0.03072,   0.03072,  -0.00852,  -0.04216,   0.04007,   0.00269,   0.01577,   0.06997,  -0.00292,   0.05875,   0.00082,  -0.07206,   0.10734,  -0.04964,   0.00269,  -0.01600,   0.06997,   0.00269,  -0.04029,   0.00830,   0.10174,   0.00082,  -0.02160,  -0.00292,  -0.00852,   0.01951,   0.03259,  -0.06272,  -0.07580,   0.00643,   0.02325,  -0.04403,   0.00830,  -0.02908,  -0.03282,   0.02512,   0.02885,  -0.01413,   0.05875,  -0.02534,   0.00082,  -0.09075,   0.02325,  -0.00292,  -0.02721,   0.00269,  -0.00105,  -0.02534,  -0.01413,   0.09800,   0.04194,   0.01577,   0.00269,  -0.04403,  -0.05337,   0.01017,  -0.04216,   0.05502,   0.02885,   0.05502,   0.05689,   0.00082,  -0.02160,  -0.00852,   0.04194,  -0.01039,  -0.07580,  -0.03842,  -0.00852,   0.01577,  -0.01974,  -0.01974,  -0.00852,   0.00082,  -0.00292,   0.00269,  -0.00292,   0.00082,   0.03072,  -0.03469,  -0.05524,   0.10174,  -0.01039,  -0.01039,  -0.00665,   0.00643,  -0.02721,   0.08866,   0.01951,  -0.04777,  -0.05337,   0.05502,   0.04380,   0.00456,   0.08305,  -0.03095,  -0.03282,  -0.07954,   0.03633,  -0.03656,   0.01951
  -0.04590,  -0.03656,   0.01577,   0.03072,  -0.05524,   0.00269,   0.02512,  -0.02534,   0.01577,  -0.06085,   0.00456,  -0.01787,   0.04941,   0.00082,   0.02512,   0.04754,  -0.04403,  -0.01226,  -0.03095,  -0.02347,   0.12229,  -0.00292,   0.05128,  -0.06085,  -0.05898,   0.09987,  -0.01974,   0.00456,   0.11108,   0.05875,  -0.08701,   0.05128,   0.03446,   0.03446,   0.07931,   0.01390,  -0.04403,  -0.06459,  -0.10383,  -0.04216,  -0.05524,   0.04754,  -0.00665,   0.02885,  -0.01974,   0.01203,   0.02325,   0.00643,  -0.00665,  -0.01787,  -0.03842,   0.06436,   0.01017,  -0.00105,  -0.00105,  -0.10944,  -0.01226,  -0.01600,  -0.06459,   0.01017,  -0.01413,  -0.00292,  -0.01600,   0.01390,  -0.07954,   0.02325,   0.01764,  -0.11505,  -0.01787,   0.01203,  -0.03842,   0.00456,  -0.04777,   0.00456,  -0.03469,  -0.07393,   0.03633,   0.06810,   0.00269,   0.02325,  -0.02347,  -0.06085,  -0.10383,  -0.01039,  -0.00852,  -0.01226,   0.09239,   0.04194,   0.08866,  -0.07019,   0.00269,   0.04194,  -0.00479,  -0.04590,   0.00643,   0.04194,  -0.01600,  -0.03656,  -0.02534,   0.01951,   0.05315,   0.04754,   0.07184,  -0.01039,   0.02138,  -0.07580,  -0.04964,  -0.08141,   0.04380,   0.00269,   0.02138,   0.03072,  -0.00105,  -0.05524,   0.09052,  -0.00479,  -0.00292,  -0.01787,  -0.02721,   0.02885,  -0.02721,   0.17088,   0.01390,   0.01951,  -0.07206,   0.08866,  -0.03282,  -0.00852
  -0.04029,  -0.07393,   0.04007,  -0.05337,  -0.05151,   0.03259,   0.01577,   0.02512,   0.01017,  -0.02534,   0.01203,   0.05128,   0.07744,  -0.01600,   0.01764,   0.00643,  -0.06833,  -0.03282,  -0.04403,  -0.03842,   0.09052,  -0.00292,   0.01577,  -0.03842,  -0.00852,   0.04380,  -0.06833,  -0.02534,   0.09613,   0.01203,  -0.05524,  -0.02347,   0.01017,   0.04754,   0.01017,   0.17088,  -0.02347,  -0.10010,  -0.16737,  -0.08328,  -0.01787,  -0.01039,   0.04380,  -0.02347,   0.06997,   0.01764,   0.03072,   0.05128,  -0.00479,  -0.00292,  -0.02908,   0.06810,  -0.01413,   0.03820,  -0.03469,  -0.05711,  -0.00292,  -0.01226,  -0.01413,  -0.00479,   0.00830,  -0.00105,  -0.05151,  -0.03469,  -0.03095,  -0.02160,  -0.01974,  -0.00852,   0.06623,   0.01764,  -0.06833,   0.00830,  -0.04777,   0.04007,  -0.01413,  -0.08514,  -0.02160,  -0.00852,   0.07931,   0.03633,  -0.00852,   0.05128,  -0.06085,   0.01951,  -0.07580,  -0.02160,   0.05689,   0.04007,  -0.00105,  -0.04777,   0.00830,  -0.01600,   0.01577,   0.00830,  -0.01413,   0.03072,   0.01017,   0.02138,   0.02138,  -0.06459,   0.03633,   0.02698,   0.12043,   0.07184,  -0.07206,  -0.12439,   0.02885,  -0.09449,  -0.05337,   0.07184,   0.01577,   0.03259,   0.02512,  -0.07954,   0.08305,   0.00456,   0.01764,   0.01203,  -0.00105,   0.02512,  -0.01413,   0.04754,   0.13164,  -0.00852,  -0.12252,   0.07931,   0.03259,   0.01390
   0.02325,   0.10361,   0.01390,  -0.00665,  -0.03656,  -0.05151,   0.08118,  -0.08888,  -0.01039,   0.01390,  -0.05151,   0.02325,   0.03633,  -0.03656,   0.06249,  -0.05337,  -0.07954,   0.01951,  -0.03282,   0.00269,  -0.03095,  -0.04216,  -0.03095,  -0.03095,  -0.04964,  -0.06646,  -0.04590,   0.02512,  -0.01039,   0.05875,  -0.00852,  -0.00665,   0.04194,  -0.00665,  -0.02534,  -0.05711,   0.01203,  -0.03842,  -0.00292,  -0.01039,  -0.02347,  -0.01039,   0.00830,  -0.05898,  -0.00292,  -0.05337,   0.00643,  -0.00479,  -0.01413,   0.03259,   0.06436,  -0.05898,   0.03072,  -0.04590,  -0.00852,   0.03072,   0.00456,  -0.01600,  -0.02160,  -0.03842,  -0.04403,   0.00643,  -0.14868,  -0.00105,  -0.01226,   0.01017,  -0.04029,   0.05502,   0.13724,   0.01577,  -0.03469,  -0.00105,  -0.02721,  -0.01600,  -0.01413,   0.02325,   0.04754,   0.00082,  -0.02908,  -0.02908,  -0.02534,  -0.04777,  -0.03282,  -0.02534,   0.02512,  -0.04029,  -0.07767,  -0.11318,   0.03820,  -0.09075,   0.03446,  -0.00479,   0.00643,  -0.01039,  -0.03842,   0.04754,   0.06997,  -0.00852,  -0.02347,  -0.02347,   0.01951,   0.02325,   0.07371,   0.01951,  -0.01974,  -0.04029,  -0.02721,  -0.04964,  -0.11505,   0.06623,  -0.03469,   0.00643,  -0.08328,  -0.05151,   0.01203,  -0.02347,  -0.03095,  -0.02347,  -0.00105,   0.08118,  -0.03095,  -0.05151,   0.07184,  -0.03469,  -0.01039,   0.04007,  -0.03469,  -0.05524
  -0.05898,  -0.00105,  -0.01039,   0.03633,  -0.04403,   0.03259,  -0.01974,  -0.01600,  -0.01600,  -0.03469,  -0.09262,  -0.01787,  -0.04777,  -0.00292,  -0.00105,   0.01951,  -0.03282,  -0.03282,  -0.01974,  -0.04590,  -0.01600,  -0.01787,  -0.00852,  -0.05151,   0.02698,   0.04380,  -0.06459,  -0.04029,  -0.00105,  -0.01974,  -0.02908,  -0.07393,   0.00269,   0.03446,   0.05128,   0.06997,   0.01764,  -0.04964,  -0.04403,   0.02885,  -0.02347,   0.00082,   0.00082,  -0.01600,  -0.02160,  -0.00479,  -0.01226,  -0.02534,  -0.00479,  -0.02347,  -0.00665,  -0.07954,   0.02885,  -0.01600,   0.04941,   0.00456,  -0.01226,   0.00456,  -0.06646,   0.04194,  -0.04403,  -0.03095,   0.00456,  -0.00852,  -0.03469,   0.05875,   0.00456,  -0.04029,  -0.02160,  -0.03282,   0.04380,  -0.03095,  -0.01226,   0.02512,  -0.01413,   0.00082,  -0.00665,   0.02325,  -0.04403,   0.04567,   0.02512,  -0.01974,  -0.02160,  -0.01413,  -0.05151,   0.04567,  -0.01787,   0.01390,  -0.02908,  -0.01413,   0.00456,   0.03820,  -0.01974,   0.02698,  -0.00479,   0.04380,   0.02698,   0.04194,   0.06810,   0.00082,   0.05502,   0.07557,   0.04194,   0.02512,   0.00269,  -0.01226,  -0.02721,  -0.01600,  -0.04964,  -0.00105,  -0.02347,  -0.01787,  -0.01600,  -0.02721,   0.02325,   0.02698,   0.03259,  -0.04216,   0.01017,  -0.02534,  -0.02160,  -0.01413,   0.01577,  -0.02721,   0.04380,   0.02698,   0.04007,  -0.00105
   0.04007,   0.02325,  -0.00852,   0.05502,  -0.03469,   0.05315,   0.02138,   0.07557,   0.05875,  -0.01787,  -0.00852,  -0.01974,   0.07371,  -0.01226,   0.07184,   0.11108,   0.04754,   0.02138,   0.02512,   0.01390,  -0.00479,  -0.03656,  -0.05151,   0.04380,  -0.07580,   0.04007,   0.06062,   0.04380,   0.07184,   0.06249,  -0.04216,  -0.01413,  -0.00852,   0.06810,  -0.01787,   0.02698,  -0.00479,  -0.00665,   0.01017,  -0.06646,   0.04567,  -0.02160,  -0.04216,   0.04007,  -0.03842,   0.05689,  -0.03656,   0.01764,  -0.00665,   0.03259,   0.02698,   0.07931,   0.01951,   0.05689,  -0.02160,  -0.01039,   0.02138,   0.07184,  -0.04590,  -0.01226,  -0.02721,   0.01951,   0.02138,  -0.05524,  -0.04403,   0.05128,  -0.01787,   0.04941,  -0.01974,   0.06997,  -0.02160,   0.03820,   0.00643,  -0.04777,   0.03259,   0.02138,  -0.00852,   0.00456,  -0.05151,  -0.00292,   0.00830,   0.02698,  -0.00479,  -0.04590,  -0.03469,  -0.03469,  -0.00479,  -0.10383,  -0.02160,  -0.03095,   0.03259,  -0.03469,   0.01577,  -0.04590,   0.03633,  -0.04403,  -0.06459,   0.00830,   0.06249,   0.05128,   0.03633,  -0.04964,  -0.02534,  -0.04403,   0.03259,   0.01203,   0.01764,  -0.00105,   0.02885,   0.12043,   0.05128,   0.06436,   0.00269,  -0.09449,   0.03820,  -0.00292,  -0.06085,   0.01764,   0.02698,   0.08679,  -0.00105,   0.02138,  -0.04964,   0.03446,  -0.02160,   0.00082,  -0.01226,   0.12416
   0.04567,  -0.01039,   0.04941,  -0.03842,  -0.01787,  -0.01226,  -0.04777,  -0.03282,   0.05315,   0.00643,  -0.02908,  -0.00479,  -0.01600,   0.01951,   0.00456,   0.02138,   0.00643,  -0.04029,  -0.04029,   0.09987,  -0.03842,   0.01951,  -0.02534,  -0.01413,   0.08118,   0.00269,  -0.04403,  -0.05898,   0.08118,  -0.02534,  -0.01413,  -0.04590,  -0.01413,   0.04380,   0.00456,  -0.02160,  -0.02160,   0.02512,  -0.04777,  -0.02908,  -0.01226,   0.02325,  -0.00665,   0.07557,  -0.04777,  -0.09823,  -0.00665,  -0.08514,   0.05128,  -0.03282,  -0.00105,  -0.04403,  -0.02721,   0.02325,  -0.02534,  -0.04029,   0.03446,  -0.02160,   0.01577,  -0.04964,   0.01203,  -0.03095,  -0.04590,   0.00456,  -0.01413,   0.07557,  -0.00852,  -0.05337,   0.04941,  -0.04403,  -0.02347,   0.02325,   0.03633,  -0.00105,  -0.01600,  -0.00292,  -0.03282,   0.02885,  -0.03469,   0.04380,   0.03072,  -0.00479,  -0.06646,   0.00643,  -0.06646,  -0.00479,   0.05128,   0.01951,  -0.04216,  -0.03469,   0.00643,  -0.01974,  -0.04964,  -0.05524,  -0.04777,  -0.00105,   0.00269,   0.05689,  -0.01039,   0.01017,   0.06436,   0.02138,   0.05502,   0.01764,  -0.05524,   0.01951,  -0.02160,  -0.04964,  -0.02160,   0.04007,   0.04754,   0.02698,  -0.03095,   0.00082,  -0.01974,  -0.03282,   0.04754,  -0.00479,   0.01390,   0.02512,  -0.01039,   0.05502,   0.06249,   0.01203,  -0.05898,   0.02698,   0.00082,  -0.00665
  -0.11505,  -0.09636,  -0.05711,  -0.02160,   0.19144,  -0.13186,  -0.11131,   0.08305,  -0.01600,  -0.06646,   0.04941,  -0.00292,   0.04754,  -0.06459,   0.03820,   0.00269,  -0.08701,   0.01764,  -0.05337,  -0.04590,  -0.01974,   0.09239,  -0.05151,   0.06623,   0.02138,  -0.01226,  -0.08141,  -0.11505,  -0.06646,  -0.05898,   0.12043,   0.12229,   0.01764,  -0.00852,  -0.01600,   0.04567,  -0.00852,   0.04941,  -0.04029,   0.06062,   0.03259,  -0.01600,  -0.00665,   0.11669,  -0.07206,  -0.00665,  -0.01787,  -0.09449,  -0.02908,  -0.00292,   0.04380,  -0.01600,   0.00269,   0.11482,   0.04380,  -0.10570,  -0.00292,  -0.00105,   0.04380,   0.01951,  -0.02908,  -0.02721,   0.05315,   0.00643,  -0.02347,   0.01017,   0.01764,  -0.05711,  -0.10570,  -0.11878,  -0.00852,  -0.02347,  -0.01039,   0.07744,   0.02698,   0.02138,   0.02885,   0.11856,   0.04194,   0.00269,  -0.01600,   0.02885,  -0.00479,  -0.00292,  -0.05337,   0.00830,   0.17462,   0.10174,   0.05875,  -0.03095,   0.04567,  -0.11318,  -0.03656,  -0.01974,  -0.02347,   0.01951,  -0.02721,   0.05689,   0.04380,   0.09613,  -0.01226,   0.03446,  -0.05337,  -0.05337,  -0.00852,  -0.00665,  -0.04777,  -0.02347,   0.00269,  -0.05151,  -0.07767,   0.00269,   0.03259,  -0.04777,  -0.01413,  -0.02534,   0.00830,   0.00830,   0.11295,  -0.03842,  -0.01226,  -0.02347,  -0.03282,   0.01017,   0.02138,  -0.01974,  -0.01787,   0.05689
   0.00456,   0.05502,  -0.00105,   0.02512,   0.01203,  -0.01600,  -0.04403,  -0.02347,   0.01017,  -0.00665,   0.01764,  -0.02347,   0.00269,  -0.00479,  -0.00665,  -0.00292,  -0.06085,   0.07744,   0.00269,  -0.01600,  -0.00479,   0.01577,  -0.06272,   0.05128,  -0.01974,   0.01017,  -0.02347,   0.04567,  -0.00292,   0.01577,  -0.04029,   0.00269,  -0.00292,   0.04567,   0.01764,   0.05502,  -0.06833,   0.06062,  -0.04216,  -0.09823,   0.00082,   0.02512,  -0.02534,   0.01951,   0.07557,  -0.04777,   0.02325,   0.00643,   0.06436,   0.06062,  -0.05151,   0.01951,   0.05875,  -0.00292,  -0.02160,  -0.03656,  -0.05151,   0.01390,  -0.00105,   0.00456,   0.02698,   0.02138,  -0.03469,   0.04941,  -0.01974,  -0.00665,   0.03633,  -0.00479,  -0.03282,  -0.06085,   0.01203,   0.09239,   0.02512,  -0.01600,   0.03259,   0.00456,   0.03072,   0.03446,  -0.00292,   0.02885,  -0.03095,   0.03259,  -0.00665,   0.02698,  -0.00665,  -0.02347,   0.02138,  -0.04403,   0.00830,  -0.00105,   0.02698,  -0.05524,   0.01764,   0.01017,   0.04194,  -0.03469,  -0.01413,  -0.03842,   0.03259,  -0.03095,   0.00269,  -0.07767,  -0.04964,  -0.07580,   0.04194,  -0.02721,  -0.14868,   0.01577,  -0.01600,   0.05128,   0.06810,   0.03820,  -0.01787,  -0.02721,   0.00082,   0.06810,   0.01390,   0.05875,  -0.05898,  -0.03469,  -0.03095,   0.00830,  -0.00105,  -0.00479,   0.04941,  -0.03095,  -0.00479,  -0.04964
