  -0.01136,   0.02201,   0.02922,  -0.00054,  -0.02218,  -0.01316,   0.03373,  -0.00865,   0.01028,  -0.03571,   0.02020,  -0.01046,  -0.01046,   0.00668,   0.00397,   0.00938,  -0.02488,   0.04004,   0.00758,   0.00668,   0.00578,  -0.02579,   0.02381,   0.04275,   0.02922,  -0.00955,   0.01660,   0.00578,  -0.00144,   0.02742,   0.01299,  -0.02398,   0.00938,   0.02742,  -0.00144,  -0.01316,  -0.03841,  -0.02038,  -0.00775,  -0.01406,   0.01570,  -0.01406,  -0.00955,  -0.00054,  -0.00685,   0.00307,  -0.04472,  -0.01767,  -0.02398,   0.02652,   0.02291,   0.00307,   0.05177,   0.00397,   0.00307,   0.04545,  -0.01587,   0.01389,  -0.00234,  -0.01767,  -0.02759,  -0.05825,   0.02381,  -0.00685,  -0.00865,   0.04275,  -0.06727,  -0.02128,  -0.00775,   0.03463,  -0.01767,  -0.00685,  -0.00595,  -0.01406,   0.03553,   0.01119,  -0.03120,   0.00307,  -0.02939,   0.03283,   0.00307,   0.01570,   0.02201,  -0.00595,  -0.00324,   0.01479,  -0.03841,  -0.00324,  -0.01316,   0.00127,   0.01119,  -0.00955,   0.05357,  -0.01226,  -0.00955,  -0.02038,  -0.02038,  -0.01857,   0.02291,   0.00938,  -0.00505,  -0.00955,  -0.00324,   0.01389,  -0.03480,  -0.01226,   0.04095,   0.04365,  -0.06546,  -0.01136,  -0.00144,   0.00037,  -0.02669,  -0.03661,  -0.01226,   0.00037,   0.01389,   0.03012,  -0.01406,   0.02291,  -0.02308,   0.01389,  -0.02038,   0.00217,   0.01299,   0.00397,  -0.03661,   0.02922,  -0.02128,   0.01028,  -0.02398,   0.02562,  -0.02488,   0.04455,  -0.00595,  -0.00775,   0.01028,  -0.00324,   0.00848,   0.04185,  -0.02308,   0.01389,   0.00668,  -0.02398,   0.02020,  -0.00685,   0.01660,  -0.01587,  -0.00144,  -0.00595,   0.01389,  -0.00144,   0.00938,  -0.00054,   0.00668,  -0.01496,   0.00307,  -0.01587,   0.01209,   0.01389,   0.00127,  -0.01947,   0.00397,   0.02020,  -0.04202,   0.00758,   0.01119,   0.03914,   0.00758,  -0.01046,  -0.02579,   0.01209,  -0.01496,  -0.00505,   0.01479,  -0.00054,  -0.00865,  -0.02128,  -0.01046,   0.03373,   0.00758,   0.00127,  -0.02038,  -0.01947,   0.01119,   0.00938,  -0.00505,  -0.01136,   0.02562,   0.03914,   0.02291,  -0.00775,  -0.00324,  -0.04382,  -0.00865,  -0.01947,  -0.01587,  -0.01046,   0.01840,  -0.00234,  -0.00865,  -0.03390,   0.04004,  -0.01406,   0.01930,  -0.00595,  -0.01046,  -0.02038,  -0.00054,  -0.02579,   0.00127,  -0.01136,  -0.01046,  -0.01226,  -0.00144,  -0.03300,  -0.02038,   0.02562,  -0.01587,  -0.03480,   0.01389,  -0.01136,  -0.01767,   0.02562,  -0.00324,   0.03463,   0.02562,  -0.00685,   0.01209,  -0.00865,  -0.03300,   0.00127,  -0.01316,   0.02020,  -0.02579,   0.01028,  -0.03390,  -0.00505,   0.02291,  -0.02128,  -0.02398,   0.02832,   0.01389,  -0.00414,   0.05898,  -0.01226,   0.02201,  -0.00685,  -0.00775,   0.03012,  -0.01767,   0.01930,  -0.03300,   0.02922,   0.00578,  -0.00054
   0.03373,  -0.00505,  -0.00955,   0.02922,   0.02111,   0.00938,  -0.05825,  -0.00414,   0.01028,  -0.00054,  -0.01587,  -0.02308,   0.01209,  -0.02759,   0.00397,  -0.01226,  -0.01857,   0.01119,   0.01570,  -0.01947,   0.02652,   0.02652,   0.02652,   0.00848,  -0.00234,  -0.00685,  -0.03120,   0.00758,  -0.01947,  -0.03480,   0.00758,  -0.02669,  -0.00324,   0.01840,  -0.01136,   0.00668,   0.03373,  -0.02579,  -0.07719,   0.03193,  -0.01226,   0.01840,   0.00668,  -0.00865,   0.00938,   0.00848,  -0.02849,   0.01119,   0.01750,  -0.02759,   0.04095,   0.03463,  -0.04743,  -0.00685,   0.03103,  -0.03030,   0.03012,  -0.01496,  -0.01226,   0.01570,  -0.03210,   0.02291,  -0.03120,   0.00127,  -0.02308,  -0.01316,   0.00578,  -0.00054,   0.01299,   0.02201,  -0.00414,   0.00668,   0.03103,  -0.04563,   0.04365,   0.00578,   0.00307,   0.02111,   0.01028,   0.00487,  -0.02579,  -0.00685,   0.00578,   0.01479,  -0.04382,   0.00217,   0.01660,  -0.00595,   0.00578,   0.01389,  -0.02398,   0.01840,  -0.02218,  -0.01947,  -0.02759,  -0.00144,   0.02201,  -0.00054,  -0.04923,   0.01840,   0.02020,  -0.00234,   0.01570,   0.00127,  -0.00144,   0.01750,   0.00938,  -0.02669,   0.02742,  -0.01406,   0.01209,   0.00848,   0.00037,   0.00487,  -0.03030,  -0.03300,  -0.01406,  -0.01767,   0.00668,  -0.01587,   0.04545,   0.00397,   0.00217,  -0.01677,  -0.00505,   0.00758,  -0.00955,  -0.00234,   0.03644,  -0.03210,  -0.03751,   0.02922,   0.01389,  -0.02218,   0.00758,  -0.00685,  -0.00595,   0.02562,   0.00668,  -0.00685,  -0.02398,   0.01750,   0.01119,   0.02381,  -0.01587,   0.01479,   0.00938,  -0.02849,  -0.01136,  -0.01136,   0.00758,  -0.04112,  -0.02128,  -0.01587,  -0.01496,  -0.01226,  -0.06907,  -0.01767,   0.02201,  -0.00595,  -0.00955,  -0.01767,   0.00127,  -0.03751,  -0.00144,  -0.01406,  -0.02488,  -0.00595,  -0.02939,  -0.01226,  -0.00685,   0.03012,  -0.03480,  -0.04563,  -0.02488,   0.01750,   0.01570,  -0.02488,   0.02562,  -0.01947,   0.01570,   0.01209,   0.00938,  -0.01046,  -0.00865,   0.02562,  -0.00144,   0.02111,  -0.01947,  -0.02128,   0.02922,  -0.00685,  -0.03210,  -0.04112,   0.01660,   0.03824,  -0.02669,  -0.04202,  -0.01857,  -0.00414,   0.03193,   0.02742,   0.02471,   0.04004,   0.00217,  -0.01587,  -0.00144,   0.02922,   0.00397,  -0.00865,   0.01479,  -0.01316,  -0.00414,  -0.00775,  -0.03210,   0.03914,  -0.02579,  -0.04292,  -0.01857,  -0.00414,   0.00127,  -0.03120,  -0.00955,  -0.04743,  -0.02038,   0.00938,  -0.02488,   0.03103,  -0.02849,  -0.04021,   0.01389,  -0.00054,  -0.03210,  -0.03120,  -0.00144,   0.00127,   0.02562,  -0.00324,  -0.01136,   0.02381,  -0.01496,   0.01299,  -0.03751,   0.01209,  -0.02398,   0.00037,  -0.00144,  -0.00054,   0.01299,   0.00307,   0.02111,   0.02111,  -0.03390,  -0.00865,   0.03553,   0.01570
  -0.01767,  -0.00775,  -0.00775,   0.03103,   0.00037,  -0.00054,   0.00848,   0.01840,  -0.02218,  -0.02128,   0.02381,   0.00848,   0.00487,   0.02111,   0.01660,   0.00037,  -0.02488,   0.02111,  -0.01496,  -0.01136,   0.00037,  -0.01136,  -0.01316,  -0.00234,  -0.00414,   0.02020,   0.00938,  -0.01587,   0.02471,  -0.02579,   0.01660,  -0.02128,   0.01479,  -0.01136,   0.02652,   0.04095,  -0.01767,   0.00578,  -0.02308,   0.02291,   0.01570,  -0.02579,   0.00217,   0.00848,  -0.02038,   0.01570,  -0.02488,  -0.00775,   0.00217,   0.01299,  -0.00775,   0.00848,  -0.02038,  -0.00775,   0.03373,   0.01209,   0.01660,   0.00487,  -0.03120,   0.01389,  -0.03661,   0.00487,   0.02291,  -0.01226,  -0.00685,   0.01750,  -0.02308,  -0.00775,  -0.00324,   0.02652,  -0.01316,  -0.04021,  -0.02759,   0.00037,   0.01930,  -0.01587,  -0.00955,  -0.00324,  -0.01316,   0.01028,  -0.02308,   0.02201,  -0.03030,  -0.01857,  -0.02128,  -0.01767,  -0.01226,  -0.02128,   0.00307,  -0.00505,  -0.00595,  -0.02128,  -0.02308,   0.00127,  -0.02669,   0.00037,  -0.01226,   0.00037,   0.01930,  -0.00865,  -0.00775,  -0.00955,  -0.00865,  -0.00595,  -0.01587,   0.00037,   0.02020,  -0.02488,   0.00848,  -0.01136,  -0.03390,   0.01479,   0.01930,  -0.00324,  -0.01046,  -0.01136,   0.00487,   0.02922,  -0.01316,  -0.00865,  -0.01857,  -0.01496,   0.00487,   0.00127,   0.00848,  -0.01046,  -0.01046,  -0.00324,   0.00127,  -0.02849,  -0.02308,  -0.02488,  -0.00685,  -0.01857,   0.02832,   0.01209,  -0.00234,   0.00397,  -0.02849,   0.00938,   0.02471,  -0.02759,   0.01479,  -0.02849,  -0.02759,  -0.03390,   0.00848,  -0.00595,   0.01299,   0.00578,  -0.00234,  -0.02038,  -0.04292,   0.02291,   0.01028,   0.00397,  -0.01136,  -0.03931,   0.00127,   0.01840,  -0.03480,   0.01479,  -0.03480,   0.03012,   0.00668,   0.01840,  -0.02488,  -0.00054,   0.01479,  -0.01947,   0.00668,  -0.00955,   0.02742,  -0.01677,  -0.03030,   0.03283,  -0.00595,   0.01570,   0.02201,  -0.02759,   0.01209,   0.01479,   0.01750,  -0.00955,  -0.01136,  -0.00865,   0.01119,  -0.00324,  -0.01767,   0.00307,   0.00307,   0.00578,   0.02652,   0.01840,  -0.02038,  -0.01857,  -0.01677,   0.00217,  -0.01406,   0.01389,  -0.01136,   0.00758,   0.01119,  -0.02579,   0.00217,   0.02562,  -0.01406,  -0.01947,   0.00397,  -0.00775,   0.01389,  -0.01857,   0.00127,  -0.02218,   0.02291,  -0.02038,  -0.01587,  -0.00775,   0.02111,  -0.01226,   0.00037,  -0.00595,  -0.00685,   0.00127,  -0.01046,   0.00037,  -0.01587,  -0.00775,   0.01750,  -0.00505,   0.00037,  -0.02579,   0.01479,   0.00758,   0.02471,  -0.00775,  -0.00505,   0.02020,   0.02291,   0.01209,  -0.00414,  -0.02308,  -0.02038,   0.02381,   0.01930,  -0.01046,  -0.03480,  -0.03120,   0.01570,  -0.02128,   0.01660,   0.02832,   0.02562,   0.00487,   0.00217,  -0.02128
   0.03103,  -0.00414,   0.02020,   0.01840,   0.02381,   0.02111,   0.00578,  -0.01406,   0.00578,   0.03012,   0.04095,   0.04545,   0.00307,   0.02471,  -0.01136,  -0.02218,  -0.00324,  -0.01136,  -0.00054,   0.00127,   0.02922,   0.00578,   0.03373,   0.08513,   0.00037,  -0.00955,   0.04095,  -0.01226,  -0.04833,  -0.00685,   0.01028,  -0.00414,   0.01660,  -0.02218,  -0.00144,   0.01750,   0.00938,  -0.02308,  -0.03300,  -0.01046,   0.00578,  -0.00685,  -0.02128,   0.02652,  -0.00234,  -0.02398,  -0.07268,   0.00668,  -0.02939,   0.03012,   0.01028,   0.02922,   0.00127,   0.00037,   0.01028,  -0.00324,  -0.06997,   0.01209,  -0.00505,   0.00037,   0.03914,   0.04275,   0.03914,  -0.01947,  -0.00865,   0.03012,   0.01660,  -0.00505,   0.04816,  -0.02038,   0.01479,   0.00397,  -0.02218,   0.01840,  -0.02308,   0.00578,  -0.00144,  -0.01677,   0.00578,   0.03103,  -0.04021,   0.00758,   0.00668,   0.01028,   0.03553,  -0.01496,  -0.05284,   0.01119,   0.00938,  -0.01406,  -0.00144,  -0.03931,  -0.00144,  -0.01316,  -0.01587,  -0.01857,  -0.00595,  -0.01226,   0.01570,  -0.01226,   0.00037,  -0.01046,  -0.00955,  -0.03931,  -0.00054,   0.01660,  -0.01947,   0.00938,   0.00758,  -0.02488,   0.00578,   0.00307,  -0.00775,  -0.03841,   0.01479,   0.01209,   0.00487,   0.00217,   0.02020,  -0.01677,   0.04004,   0.01119,  -0.00685,  -0.01947,   0.02020,  -0.02849,   0.02832,  -0.01406,   0.03012,  -0.03480,  -0.03210,   0.03463,  -0.00865,   0.00938,  -0.01947,   0.00307,   0.01840,   0.00668,   0.00307,   0.02471,   0.01840,   0.02020,   0.02471,   0.04095,   0.00217,   0.03012,   0.00848,   0.03644,   0.02652,  -0.00414,  -0.01316,  -0.01767,  -0.01316,   0.04636,   0.01840,  -0.01226,  -0.02218,  -0.01136,  -0.03480,   0.05177,   0.01119,  -0.01857,   0.03012,  -0.00685,   0.00668,   0.03012,   0.01479,  -0.00595,  -0.00324,  -0.01136,   0.04816,  -0.02759,   0.02471,  -0.00324,   0.00758,  -0.03751,  -0.00865,  -0.00595,  -0.04202,   0.01389,   0.03373,  -0.01587,   0.00758,   0.00127,  -0.02849,  -0.01406,  -0.05554,   0.02291,   0.00217,   0.00127,   0.07972,   0.00037,  -0.02128,  -0.00955,  -0.01947,  -0.02939,   0.04004,   0.00758,  -0.01767,   0.03283,  -0.03751,   0.03012,   0.00848,  -0.03480,  -0.00324,   0.00397,  -0.00414,   0.00938,  -0.00595,   0.03103,   0.03103,  -0.03210,  -0.01587,   0.01930,   0.01299,   0.01570,   0.03914,  -0.00595,  -0.00324,   0.03283,   0.00758,  -0.03661,  -0.00234,  -0.01136,   0.00217,   0.03914,  -0.03210,   0.01119,  -0.03120,   0.02922,  -0.00685,  -0.00865,  -0.02849,  -0.03751,  -0.01677,   0.02291,  -0.03120,  -0.01496,   0.01389,   0.01119,   0.03103,  -0.02218,   0.02832,   0.02471,   0.00307,  -0.01136,   0.00938,  -0.01046,  -0.04472,   0.01028,   0.04004,  -0.00234,  -0.01587,   0.03012,   0.01840,   0.06349
  -0.02939,   0.00127,  -0.00414,  -0.01947,  -0.00234,  -0.01136,  -0.06456,  -0.00054,   0.02291,   0.01660,  -0.02308,  -0.01046,   0.00758,   0.03644,  -0.02488,   0.03012,  -0.04112,  -0.02398,   0.00217,  -0.01406,   0.02381,  -0.06817,   0.04636,   0.01389,  -0.00775,  -0.05013,   0.01570,   0.03283,  -0.03751,  -0.01316,   0.00127,   0.02201,  -0.03841,  -0.02488,  -0.00595,  -0.02218,  -0.02128,  -0.01136,   0.01028,   0.00127,   0.02381,   0.00217,   0.02832,   0.00578,  -0.03751,  -0.00775,   0.02111,  -0.02849,  -0.01046,   0.03644,  -0.00144,   0.02201,  -0.01587,  -0.00414,   0.02111,   0.01660,   0.01479,  -0.00595,  -0.01226,   0.03463,  -0.01496,   0.04996,   0.03283,  -0.00775,   0.01299,  -0.01496,   0.06980,  -0.02939,  -0.01767,  -0.00955,  -0.01767,   0.01930,   0.00578,  -0.00144,   0.01028,   0.01750,   0.03283,  -0.01496,   0.00397,   0.00668,  -0.00144,  -0.02218,  -0.01496,   0.03373,  -0.02488,  -0.01496,  -0.02038,   0.01028,   0.01479,   0.01389,  -0.04382,   0.00037,  -0.00324,   0.02832,   0.00397,  -0.03931,  -0.02849,  -0.00505,   0.02562,  -0.00865,   0.00668,   0.00487,   0.00848,  -0.04833,  -0.04021,   0.02111,  -0.01587,  -0.00865,   0.00938,   0.02291,   0.00487,  -0.02218,  -0.01947,  -0.02038,   0.02020,   0.01570,  -0.00595,   0.00578,   0.00848,   0.01840,   0.01840,   0.01389,  -0.00685,   0.02201,  -0.00955,  -0.01587,   0.02562,   0.02652,   0.01028,   0.01389,   0.01028,   0.03553,   0.03103,  -0.00414,   0.00307,   0.01299,  -0.02669,  -0.00505,  -0.05374,   0.01570,   0.01299,   0.00307,   0.01389,  -0.00054,   0.00127,   0.03193,  -0.00775,   0.01930,   0.02922,  -0.03300,   0.01570,  -0.04382,  -0.02939,   0.01119,   0.00938,  -0.03841,  -0.00595,  -0.03390,   0.01209,  -0.02038,  -0.02849,   0.00848,  -0.00595,   0.00938,   0.00848,   0.03644,  -0.00054,  -0.03300,   0.00487,   0.02832,   0.01750,  -0.03120,   0.00037,  -0.00685,   0.01209,   0.00578,  -0.00505,   0.00037,   0.03283,  -0.00595,  -0.00054,  -0.00865,  -0.01677,   0.03914,  -0.01677,   0.01389,  -0.03390,  -0.02759,  -0.01767,   0.00758,   0.02020,  -0.00324,  -0.05374,  -0.01136,   0.03283,  -0.02579,  -0.03571,   0.01570,  -0.02218,   0.01299,   0.01479,   0.00127,   0.03193,  -0.03300,  -0.00414,   0.00668,  -0.01316,   0.02471,   0.02111,   0.02020,   0.00938,   0.00037,   0.04545,   0.02652,   0.03373,  -0.02308,  -0.00054,   0.03734,  -0.02218,  -0.00955,   0.01119,   0.01119,  -0.01947,  -0.03841,   0.02201,  -0.01046,  -0.00595,  -0.01677,  -0.00144,  -0.01316,  -0.00505,  -0.03751,  -0.01767,   0.00578,  -0.03931,   0.02111,   0.02020,  -0.01857,   0.01299,   0.00668,  -0.00955,  -0.01136,   0.01570,  -0.02308,   0.01389,   0.01389,   0.01209,   0.01389,   0.02291,   0.02832,   0.00307,   0.01299,  -0.00775,   0.02471,   0.03012,  -0.03571
   0.00217,   0.03644,   0.00127,   0.02020,  -0.00775,  -0.00054,  -0.01947,   0.01119,  -0.00324,   0.00668,   0.04095,  -0.02939,   0.02471,   0.03103,  -0.00414,  -0.00595,   0.00397,  -0.02128,   0.02562,   0.02381,  -0.00955,  -0.01316,  -0.03030,  -0.00324,  -0.00414,   0.02471,   0.02381,  -0.02218,   0.01119,  -0.05013,   0.00758,  -0.02759,  -0.03210,   0.04365,   0.00307,   0.00848,  -0.02128,   0.02471,   0.00307,   0.02020,  -0.01046,   0.01299,  -0.02398,  -0.02849,   0.00938,   0.04545,   0.02111,  -0.02308,   0.00578,   0.00307,  -0.00775,  -0.01046,   0.00217,   0.01570,   0.03012,   0.00127,  -0.01947,  -0.01316,   0.01299,   0.01660,   0.00848,   0.01299,  -0.02308,   0.00487,   0.00938,  -0.00324,  -0.04563,   0.03553,   0.02562,   0.02562,  -0.00234,   0.01119,  -0.02759,  -0.01226,   0.00037,   0.01660,   0.01119,   0.03193,   0.00397,  -0.01496,   0.02291,   0.00127,   0.03734,   0.01119,  -0.00324,  -0.00775,   0.01028,   0.01479,  -0.00414,  -0.01947,  -0.02308,   0.00487,  -0.00054,  -0.01677,  -0.00144,  -0.00595,   0.01570,   0.02111,  -0.01496,  -0.01316,   0.02201,   0.03193,  -0.01587,  -0.02128,  -0.00955,  -0.02488,  -0.03300,   0.02652,  -0.03300,  -0.04292,   0.02291,  -0.01496,   0.02381,  -0.00144,  -0.01587,  -0.01226,   0.01119,   0.03012,  -0.01136,   0.01119,  -0.01226,  -0.00505,  -0.00144,   0.00397,   0.02201,  -0.00234,  -0.05915,   0.00578,  -0.04923,  -0.01136,  -0.00685,   0.00217,  -0.01406,  -0.03210,  -0.02759,  -0.00234,   0.00037,  -0.00234,  -0.00234,   0.03644,  -0.04021,  -0.00955,  -0.02759,   0.01299,  -0.02939,   0.01028,  -0.04021,  -0.02218,  -0.00144,   0.01209,   0.02562,  -0.00595,   0.03644,  -0.00685,  -0.00414,  -0.00685,  -0.00234,   0.05086,   0.00217,   0.00938,  -0.01767,   0.00487,   0.01209,   0.01570,  -0.01587,   0.00938,   0.01570,   0.03463,  -0.02579,  -0.01136,   0.04365,  -0.01136,   0.04185,  -0.01226,  -0.01587,  -0.00144,   0.00127,   0.01750,  -0.00775,  -0.00775,   0.01479,  -0.00595,  -0.01406,  -0.01947,   0.03103,  -0.05464,  -0.00685,  -0.00324,   0.02201,   0.01389,  -0.02579,   0.04455,  -0.00144,  -0.01947,  -0.00505,  -0.00595,  -0.02218,   0.00848,  -0.01767,   0.00938,   0.02020,   0.01479,   0.02111,  -0.01406,   0.01840,   0.00217,   0.00758,  -0.01587,  -0.01136,   0.02742,  -0.00505,  -0.03210,   0.00668,   0.02832,  -0.03661,   0.00307,   0.00938,   0.02652,   0.01570,   0.00848,   0.00127,  -0.01767,   0.00397,  -0.02398,  -0.02038,   0.00668,  -0.03120,  -0.01947,   0.04365,   0.00938,   0.01028,  -0.04382,  -0.01587,   0.00578,   0.00037,  -0.02308,  -0.00775,  -0.00054,   0.01660,  -0.02038,  -0.02939,   0.01750,  -0.02579,   0.02291,  -0.04021,  -0.03120,  -0.01587,   0.00217,  -0.00234,  -0.02669,  -0.00324,   0.02922,   0.03103,  -0.00054,   0.03734,   0.00217
  -0.02218,  -0.00414,  -0.01316,   0.01570,   0.00487,   0.00307,   0.02742,  -0.04472,   0.00127,  -0.02488,  -0.01226,   0.00397,  -0.00054,   0.04095,  -0.02128,  -0.01587,  -0.01316,  -0.01316,  -0.00775,  -0.00144,   0.00578,  -0.02038,   0.02291,  -0.00685,  -0.00505,   0.00848,   0.01660,   0.01028,   0.02291,  -0.00685,   0.00397,   0.03553,  -0.00054,   0.00127,  -0.02398,  -0.00685,   0.01750,  -0.02939,   0.05086,  -0.06907,  -0.02669,  -0.02849,   0.04365,  -0.02038,  -0.03931,  -0.03931,  -0.01587,   0.01479,   0.02381,   0.01209,   0.00307,   0.00127,   0.00307,   0.00037,  -0.03480,   0.01119,  -0.04112,   0.00848,  -0.00505,  -0.03300,  -0.00234,  -0.02488,  -0.02308,  -0.01226,   0.03914,   0.00848,  -0.00414,   0.01840,  -0.02128,   0.01479,  -0.00414,  -0.00324,   0.00487,   0.00217,   0.00217,   0.01119,   0.01119,  -0.02128,   0.02652,  -0.01316,   0.01479,   0.00848,  -0.01136,   0.00127,  -0.00414,  -0.01677,  -0.04112,  -0.01226,   0.02020,   0.05177,  -0.00595,  -0.00955,  -0.02128,  -0.00505,  -0.03751,  -0.00414,   0.02922,  -0.01767,   0.00578,   0.01028,   0.01028,   0.01028,  -0.00234,  -0.02308,  -0.00685,  -0.01046,  -0.00595,  -0.00505,  -0.02038,  -0.03390,  -0.01046,  -0.00595,  -0.01316,  -0.02488,  -0.04202,  -0.01857,  -0.00234,  -0.05013,   0.00217,   0.03373,  -0.02849,  -0.02669,  -0.02849,   0.01119,   0.03463,   0.00668,  -0.01587,   0.01389,   0.02832,   0.00668,  -0.02849,  -0.01677,   0.03012,   0.00127,  -0.03841,   0.01570,  -0.02669,  -0.03120,   0.00487,   0.01119,   0.00938,   0.00938,   0.05537,  -0.02939,   0.00578,   0.02471,  -0.01046,  -0.02398,   0.01389,   0.02652,   0.02832,  -0.02849,   0.00037,   0.00397,  -0.00595,   0.00397,   0.03103,  -0.01406,   0.01119,   0.00127,   0.00938,   0.02020,  -0.00234,  -0.01857,  -0.03210,   0.01299,   0.01479,   0.02291,   0.04365,  -0.00595,  -0.01226,  -0.04202,   0.02832,   0.01570,   0.02111,  -0.02218,   0.00397,   0.01028,   0.02471,  -0.00685,   0.02201,   0.00848,   0.00758,   0.01660,  -0.01767,  -0.01857,   0.01660,   0.02020,  -0.00414,   0.00217,  -0.00144,  -0.02579,  -0.00324,   0.01209,  -0.02759,   0.00487,  -0.00955,  -0.03210,   0.00848,  -0.01136,   0.05537,   0.00127,   0.03914,  -0.03210,   0.02562,   0.00217,   0.04004,  -0.02398,   0.03103,  -0.02849,  -0.00505,  -0.02488,   0.01119,  -0.02488,  -0.04112,  -0.00775,  -0.02308,   0.01660,   0.00938,   0.00938,  -0.01136,   0.01570,  -0.00054,  -0.02128,  -0.00054,  -0.00144,  -0.01136,  -0.00234,  -0.03030,   0.02471,   0.07792,   0.02020,  -0.02579,  -0.03931,  -0.02128,  -0.02308,   0.01750,   0.02291,   0.01119,  -0.02669,   0.00938,  -0.04653,  -0.01857,  -0.01767,   0.02742,   0.00487,   0.01570,   0.01028,  -0.01046,  -0.00144,   0.01570,   0.03283,  -0.01316,  -0.02038,   0.03373,  -0.00775
  -0.00234,   0.04726,  -0.01677,   0.01660,  -0.02398,   0.00578,  -0.00324,  -0.00685,   0.01930,  -0.04021,   0.00037,  -0.03030,   0.00217,   0.04004,  -0.03390,   0.01840,   0.00578,   0.01028,  -0.00144,  -0.01136,   0.03463,   0.00037,   0.01570,   0.02291,   0.01750,   0.03914,   0.02832,  -0.00955,  -0.02669,   0.01479,  -0.01496,  -0.03480,  -0.03390,  -0.00685,  -0.00054,  -0.01046,   0.04545,   0.03734,  -0.01046,   0.04185,  -0.01587,  -0.01046,  -0.02939,   0.00938,   0.00848,   0.01389,   0.00397,   0.03283,  -0.01947,   0.07972,  -0.00054,  -0.01046,   0.02020,   0.03734,  -0.02488,  -0.03120,  -0.03300,  -0.01406,  -0.00234,   0.01750,  -0.02398,   0.00758,  -0.00955,   0.00578,  -0.02398,  -0.03931,  -0.06637,   0.01209,  -0.04202,  -0.01046,  -0.01046,  -0.00685,  -0.02308,  -0.01046,   0.00848,   0.03914,  -0.00595,  -0.00955,   0.01389,   0.04816,   0.01930,   0.00938,   0.00668,  -0.04653,   0.00758,  -0.01587,  -0.02038,   0.01028,  -0.01046,  -0.03751,   0.00668,  -0.03210,  -0.00324,   0.03463,  -0.00685,  -0.00414,  -0.00414,   0.02652,  -0.00324,  -0.07809,  -0.00775,  -0.03300,   0.00307,  -0.04743,  -0.00234,   0.01570,  -0.02398,  -0.02308,   0.02020,   0.01209,   0.00397,  -0.00955,  -0.02398,  -0.03300,   0.00127,  -0.00324,  -0.00685,   0.00758,   0.00578,  -0.03480,   0.01750,  -0.01046,   0.02291,   0.03463,   0.00578,  -0.01046,  -0.02669,  -0.02308,   0.01660,  -0.00505,   0.03012,   0.01660,   0.01840,  -0.01046,   0.00758,   0.01750,  -0.01947,   0.00217,  -0.00144,  -0.00234,  -0.02669,  -0.01046,   0.01028,  -0.00595,   0.01750,   0.02111,  -0.00144,  -0.04112,  -0.02849,   0.00397,   0.00848,  -0.02669,   0.03012,  -0.02488,   0.00307,  -0.02579,  -0.00595,  -0.00505,  -0.00054,  -0.02398,  -0.03120,  -0.03300,   0.01119,  -0.02939,  -0.01767,   0.01840,   0.01119,  -0.00234,   0.04906,  -0.00505,   0.05086,   0.00127,  -0.01316,   0.01389,  -0.00595,  -0.02218,   0.00397,   0.01660,  -0.02398,  -0.01496,   0.01119,   0.04275,   0.01209,  -0.00234,   0.00668,  -0.01587,   0.03103,  -0.03480,  -0.00505,  -0.02128,   0.01119,  -0.02038,   0.01209,  -0.01226,  -0.00505,   0.01479,  -0.00054,  -0.02849,   0.01209,   0.00578,  -0.04563,   0.01479,  -0.01136,   0.00127,  -0.00414,  -0.00505,   0.06259,  -0.04021,  -0.01857,  -0.01677,   0.03103,   0.02201,   0.00668,  -0.01767,  -0.00324,  -0.03030,   0.02471,   0.00217,   0.00217,   0.02291,   0.02832,  -0.01316,   0.01660,  -0.02939,   0.05086,  -0.00595,  -0.01947,   0.03012,  -0.00144,  -0.00054,   0.02201,  -0.02579,  -0.01406,  -0.01406,   0.02201,  -0.01496,   0.01028,  -0.03300,   0.01389,   0.02832,   0.02471,  -0.00144,   0.02471,  -0.00595,  -0.01587,  -0.01677,   0.00397,   0.02471,  -0.01316,  -0.00054,  -0.00865,   0.00758,   0.01299,  -0.01677,   0.01660,  -0.00685
   0.02111,  -0.01677,  -0.00865,  -0.06727,  -0.04202,  -0.00685,   0.00578,  -0.01587,  -0.00775,  -0.02038,  -0.02488,   0.01299,  -0.00595,   0.06169,  -0.00865,  -0.01767,   0.04185,  -0.00234,   0.02201,   0.00217,  -0.00144,  -0.05645,   0.02832,  -0.00955,   0.04095,  -0.02398,  -0.00324,   0.00397,  -0.00865,   0.04004,  -0.00505,  -0.00685,  -0.03661,   0.04365,  -0.00144,  -0.01767,   0.00307,   0.00127,   0.00758,  -0.00685,   0.01840,  -0.04112,  -0.00775,  -0.03210,   0.01930,   0.01209,   0.04636,   0.02020,   0.02652,   0.01660,   0.01119,  -0.01136,   0.01930,  -0.00505,  -0.01136,   0.02922,   0.03463,   0.02922,   0.02922,   0.05628,  -0.03030,   0.03193,  -0.01046,  -0.03841,   0.02201,   0.00397,   0.02652,   0.01119,   0.04455,   0.00668,   0.03103,  -0.03931,   0.00037,   0.03824,   0.01930,   0.04004,  -0.01046,   0.00487,   0.01660,  -0.00865,   0.02020,   0.01570,   0.06439,  -0.03210,   0.01750,   0.00938,   0.04455,  -0.01857,  -0.02218,   0.04816,  -0.02398,   0.03012,  -0.00775,  -0.02038,  -0.03120,  -0.01046,  -0.04472,  -0.01496,  -0.00234,  -0.00414,  -0.01316,  -0.00955,   0.00758,  -0.03120,   0.00217,  -0.00324,   0.01119,   0.00848,   0.00578,   0.01570,  -0.00234,   0.00307,   0.02381,   0.01028,  -0.04021,   0.02471,   0.00487,   0.04275,   0.01840,  -0.01136,  -0.01046,   0.00848,  -0.00144,  -0.01046,   0.00397,   0.02832,  -0.04472,  -0.00414,   0.00037,   0.00938,  -0.01947,  -0.02579,   0.02832,  -0.01587,   0.01028,   0.00307,   0.00307,   0.03012,  -0.03210,   0.04095,  -0.02218,  -0.04833,   0.03824,  -0.00414,   0.00037,   0.01930,   0.01479,   0.02471,   0.01389,  -0.05735,   0.03373,  -0.02398,  -0.00865,  -0.00414,  -0.05374,  -0.00414,  -0.01406,   0.03553,   0.01028,  -0.00144,  -0.01226,   0.00758,   0.00938,  -0.00955,   0.01660,   0.04455,  -0.00414,  -0.00054,  -0.02669,   0.01840,   0.00487,  -0.02128,   0.02201,   0.01028,   0.02652,   0.00758,  -0.01406,  -0.01587,  -0.00414,   0.05177,   0.01209,  -0.01046,  -0.02038,   0.04906,  -0.00414,   0.00938,  -0.01316,   0.02111,  -0.02488,  -0.01316,   0.02471,   0.02652,   0.00938,  -0.00685,   0.02471,  -0.04382,   0.01389,   0.00217,  -0.04202,   0.01750,   0.04095,   0.04365,  -0.02488,   0.01209,   0.03103,  -0.00685,  -0.02759,   0.01209,  -0.00234,  -0.02669,  -0.00775,  -0.04472,  -0.02849,  -0.01587,   0.01209,   0.00758,  -0.01587,  -0.02218,   0.02111,   0.03824,   0.01389,   0.00037,   0.01028,  -0.02849,   0.00037,  -0.06096,  -0.01046,  -0.00505,  -0.01947,  -0.04653,   0.00938,   0.08423,  -0.01677,  -0.06727,   0.00487,   0.00758,  -0.00324,  -0.00865,  -0.00595,  -0.08801,   0.02291,   0.00848,  -0.01046,   0.00487,   0.02742,   0.00578,   0.01570,  -0.00144,   0.02020,  -0.00054,  -0.00414,  -0.02218,  -0.00054,  -0.00955,   0.00487,  -0.02128
  -0.01947,   0.05628,   0.00938,   0.01028,  -0.02308,  -0.00054,  -0.01767,  -0.06637,   0.01570,  -0.00865,   0.01930,   0.03644,   0.01479,  -0.03751,  -0.00955,  -0.00144,   0.03553,   0.00037,  -0.03030,   0.02291,   0.02922,   0.00848,  -0.01587,  -0.02308,   0.04004,   0.01840,   0.00217,   0.00487,  -0.01136,   0.00037,  -0.00144,  -0.01316,  -0.04833,  -0.02308,  -0.02849,   0.01209,   0.00127,   0.01479,   0.02020,  -0.01136,  -0.01136,   0.02742,  -0.02669,   0.00668,   0.00487,   0.02291,  -0.00595,   0.02652,   0.01660,  -0.02398,   0.02111,   0.01028,  -0.01677,   0.01028,  -0.00144,   0.02020,  -0.03841,   0.01389,  -0.03480,   0.05628,   0.03553,  -0.00414,   0.02562,   0.03734,  -0.01136,   0.00848,  -0.03390,  -0.00595,  -0.03841,   0.01750,  -0.01677,  -0.03210,   0.02742,   0.01479,   0.01209,   0.02111,  -0.01226,   0.00037,  -0.00324,   0.03193,  -0.02759,  -0.01226,   0.02652,   0.00487,  -0.02849,   0.01119,   0.00127,  -0.02488,  -0.00234,   0.01660,  -0.00414,   0.02291,  -0.01587,   0.03103,  -0.00414,  -0.01316,   0.00127,   0.00848,   0.02922,  -0.03120,  -0.02038,  -0.01857,  -0.01496,   0.03283,   0.02291,   0.01119,   0.01119,   0.01570,   0.00217,  -0.00595,   0.00397,   0.01660,  -0.00144,  -0.01677,   0.05177,   0.00487,   0.02291,   0.01750,  -0.02669,   0.02652,   0.00758,  -0.01587,  -0.00775,   0.04365,   0.02652,   0.00938,   0.03283,   0.07070,   0.00938,  -0.00595,  -0.02579,   0.00848,  -0.00234,   0.02562,  -0.01406,  -0.01316,   0.00487,  -0.00505,  -0.05104,  -0.00234,   0.02832,   0.03373,   0.00397,   0.01479,  -0.00324,  -0.00775,  -0.00955,   0.00307,  -0.00505,  -0.01767,   0.00487,   0.04275,   0.00217,  -0.01226,  -0.00414,  -0.00685,   0.01660,   0.01209,   0.01750,   0.01479,   0.00848,  -0.02849,   0.02742,   0.01930,   0.05267,  -0.01767,  -0.04202,   0.01299,   0.03463,   0.04545,  -0.02038,  -0.01677,  -0.05104,   0.03012,   0.01750,  -0.04743,  -0.01677,  -0.00955,   0.04365,  -0.00775,   0.03734,  -0.04382,  -0.00234,  -0.00144,  -0.01947,   0.01660,  -0.01496,   0.01299,   0.03283,   0.04004,  -0.00144,   0.00668,   0.00848,  -0.00595,   0.00578,   0.02922,  -0.00595,   0.01299,  -0.02488,  -0.04653,  -0.03751,  -0.04743,   0.00938,  -0.02218,   0.01660,  -0.02218,   0.04545,  -0.03030,   0.01479,  -0.05104,   0.03193,   0.03283,  -0.02488,   0.01479,  -0.01136,  -0.04292,  -0.01767,  -0.00865,  -0.01496,   0.01750,   0.05898,  -0.02579,   0.04095,   0.03914,   0.03644,   0.03012,  -0.02759,   0.00668,  -0.00595,  -0.01496,  -0.01226,  -0.04923,   0.03734,  -0.00414,  -0.00324,  -0.01046,   0.00668,   0.01389,  -0.00054,  -0.00955,   0.04004,  -0.01136,  -0.01406,  -0.00685,   0.00848,   0.00037,  -0.00955,  -0.01857,   0.04636,   0.00938,  -0.01046,  -0.00414,   0.00758,  -0.01406,  -0.02218,  -0.01947
   0.03463,   0.03193,  -0.02038,  -0.00955,   0.02471,  -0.01857,   0.06529,  -0.00505,   0.01028,  -0.03571,   0.00037,  -0.02669,   0.03283,   0.00668,   0.03373,  -0.00234,   0.01930,   0.01028,  -0.00324,   0.00487,  -0.00324,  -0.01406,   0.01119,   0.00578,  -0.01316,  -0.02308,   0.00487,  -0.03300,   0.01299,   0.04455,  -0.00955,   0.00938,  -0.00775,  -0.03120,   0.02201,  -0.02849,  -0.02488,   0.00307,   0.05177,   0.02652,  -0.03390,   0.00307,   0.04275,  -0.02759,  -0.02579,   0.01750,   0.02291,   0.01930,   0.00578,  -0.06456,  -0.01406,  -0.03841,   0.01930,  -0.03030,   0.01389,  -0.00775,  -0.03120,   0.00848,   0.02471,   0.01299,   0.00037,  -0.01677,  -0.01046,   0.00758,   0.00487,   0.00037,  -0.01316,  -0.06997,   0.02381,  -0.02128,  -0.01316,  -0.00955,  -0.04382,  -0.01947,   0.00848,  -0.01136,   0.05718,   0.00307,  -0.00685,  -0.01226,  -0.01947,  -0.01587,  -0.06366,  -0.01767,  -0.02038,  -0.00775,  -0.02218,  -0.02218,   0.00307,  -0.03030,  -0.02849,  -0.04653,  -0.02488,  -0.00955,   0.00127,   0.01209,   0.04095,  -0.01226,   0.02381,  -0.01767,  -0.02759,  -0.00685,  -0.03210,  -0.01947,   0.02381,   0.02111,  -0.00234,  -0.00324,   0.01119,  -0.00775,  -0.02398,  -0.02218,  -0.03210,   0.00938,   0.02020,   0.01299,  -0.01406,   0.00397,  -0.01316,   0.01119,  -0.04653,  -0.01587,  -0.00234,   0.02922,  -0.01677,  -0.00414,   0.01570,  -0.01406,   0.01299,  -0.01496,   0.04545,   0.02291,  -0.00685,  -0.01406,   0.01209,   0.00037,  -0.00505,   0.01479,  -0.00955,  -0.00324,  -0.00955,  -0.01947,   0.01389,  -0.01677,   0.00307,  -0.01496,   0.00938,   0.00668,   0.00668,   0.03824,  -0.02218,  -0.03841,   0.00307,   0.00938,   0.03193,   0.00127,   0.00127,  -0.01226,  -0.00054,  -0.02398,  -0.00414,  -0.05284,   0.03373,   0.02652,   0.04095,  -0.00324,  -0.00775,   0.04816,   0.00668,  -0.01406,  -0.00234,   0.00217,  -0.02218,   0.00307,   0.00758,   0.01389,  -0.01767,   0.03734,  -0.02218,   0.00307,   0.01209,   0.00758,   0.01119,   0.00578,   0.00487,   0.02471,  -0.00595,  -0.00595,   0.03373,  -0.00685,  -0.00234,   0.00397,  -0.00505,  -0.04563,  -0.02038,   0.00578,  -0.00865,  -0.02218,  -0.00865,  -0.03841,   0.01389,   0.00848,  -0.00054,  -0.01316,  -0.01226,   0.00487,  -0.02218,  -0.00685,  -0.03571,  -0.00324,  -0.00234,  -0.02128,  -0.01947,  -0.02939,  -0.03841,  -0.03030,   0.03012,  -0.00505,   0.02922,  -0.01767,  -0.00775,   0.04726,  -0.00324,  -0.01587,  -0.00505,   0.02652,  -0.00324,   0.00217,  -0.00505,   0.00938,   0.03463,   0.03373,   0.02742,  -0.03030,   0.02111,   0.02471,   0.02381,  -0.04112,   0.00938,  -0.02128,   0.02742,   0.02652,  -0.03120,  -0.05284,   0.00938,  -0.01587,  -0.02849,   0.00668,  -0.00955,   0.00307,  -0.00414,   0.00397,  -0.02218,  -0.00324,   0.02111,  -0.00414
  -0.00595,  -0.01226,   0.01299,  -0.03480,   0.00397,   0.01660,   0.02832,   0.03734,   0.03463,   0.02201,  -0.01496,  -0.05825,  -0.03300,  -0.03120,  -0.00054,  -0.03661,   0.00487,  -0.03210,   0.01389,   0.01479,  -0.02849,   0.02922,   0.03103,  -0.00505,   0.00217,   0.01570,  -0.00955,   0.01028,   0.06078,   0.03193,   0.00668,  -0.03841,  -0.00234,  -0.00144,  -0.01136,  -0.02398,  -0.01496,  -0.00775,  -0.05104,  -0.03210,   0.01570,  -0.02669,   0.00037,  -0.00144,   0.02562,   0.03012,  -0.02939,  -0.00054,  -0.02669,  -0.02398,   0.00578,   0.00397,  -0.02038,  -0.03030,  -0.01406,  -0.02038,  -0.02308,   0.02562,  -0.01406,  -0.00685,  -0.00685,   0.01299,  -0.00955,   0.00307,  -0.01316,   0.01750,  -0.01947,   0.02381,  -0.03210,   0.06078,   0.01299,   0.00037,  -0.01226,   0.00938,   0.03463,   0.01840,   0.00578,   0.00397,   0.02291,   0.01930,  -0.03210,  -0.02308,   0.02471,  -0.00955,  -0.01406,  -0.00414,  -0.00414,  -0.00234,  -0.00234,   0.02832,  -0.01587,   0.03553,   0.02832,  -0.00955,   0.02020,   0.03824,   0.05537,  -0.00685,  -0.01406,  -0.01767,   0.02111,  -0.00505,   0.00397,   0.04275,  -0.01587,   0.00217,  -0.01136,   0.01299,  -0.01496,  -0.00144,   0.02201,   0.03012,  -0.02669,   0.00487,  -0.01226,  -0.00685,  -0.01406,   0.05808,  -0.00505,  -0.00414,   0.00578,   0.01209,  -0.03571,  -0.02398,  -0.01587,   0.00668,   0.01028,  -0.00865,  -0.00505,  -0.01136,   0.00578,   0.05086,   0.02832,   0.00217,  -0.00595,  -0.01046,  -0.00955,   0.06078,   0.01479,   0.02201,   0.01750,   0.04545,  -0.01136,   0.05898,   0.03012,   0.00848,  -0.00414,  -0.01677,  -0.01226,   0.09956,   0.00578,   0.04095,   0.01660,   0.03193,  -0.02398,  -0.00324,  -0.03210,  -0.00505,  -0.00865,  -0.03751,   0.00758,   0.01389,   0.02020,   0.01209,   0.03193,   0.04816,  -0.01406,   0.02111,  -0.01316,   0.01209,  -0.00144,   0.00037,   0.01389,  -0.03120,  -0.02939,  -0.01857,   0.00217,   0.01119,  -0.04382,  -0.02759,   0.04095,   0.01840,   0.01028,  -0.02579,  -0.00054,  -0.00324,  -0.02849,  -0.00234,   0.05447,   0.02291,   0.03373,  -0.02038,  -0.03390,  -0.00685,   0.00578,  -0.04021,  -0.00234,   0.00487,   0.03373,  -0.03120,  -0.02038,   0.01570,   0.01299,   0.01930,   0.04726,   0.00037,   0.00758,  -0.02759,   0.01389,  -0.01226,   0.03914,  -0.01046,  -0.00595,   0.03734,   0.01209,   0.00217,   0.03103,   0.03463,  -0.02038,  -0.01316,   0.00037,   0.00487,  -0.04923,  -0.03030,   0.02922,   0.01119,   0.01119,  -0.01496,  -0.00775,   0.02562,  -0.00595,  -0.00144,  -0.02669,  -0.00685,   0.00307,   0.05988,  -0.01226,   0.01840,   0.01930,  -0.00775,  -0.01767,  -0.01496,   0.00307,   0.03734,  -0.00324,  -0.00234,   0.00848,   0.01660,  -0.02128,   0.05628,  -0.00144,   0.00758,   0.01299,   0.01840,  -0.00324,   0.00127
  -0.00054,  -0.02128,   0.02471,  -0.01046,   0.03734,  -0.01316,  -0.02308,  -0.00054,  -0.00505,   0.00487,  -0.02038,  -0.01046,  -0.04743,  -0.02128,  -0.01677,  -0.00685,   0.03553,   0.01299,   0.01389,  -0.02128,   0.02111,   0.00487,  -0.03300,  -0.01046,  -0.00144,  -0.00144,   0.01930,  -0.00775,   0.02201,   0.00037,   0.00758,   0.04545,  -0.03480,  -0.00955,   0.03644,  -0.02308,   0.04365,   0.00307,   0.04004,  -0.01226,   0.00397,  -0.02128,  -0.00775,   0.01209,   0.02562,   0.00127,   0.04275,  -0.02849,  -0.01226,   0.03824,  -0.01947,  -0.00054,  -0.01947,  -0.02128,   0.03193,   0.00037,  -0.01226,  -0.02218,  -0.01857,   0.03463,  -0.01587,  -0.04743,   0.00758,   0.00668,   0.03373,   0.01028,  -0.03480,   0.02020,  -0.00775,   0.02111,  -0.03931,  -0.02849,   0.03373,  -0.00054,   0.00037,   0.01028,   0.00127,   0.05086,   0.03012,  -0.01587,  -0.01677,   0.00217,  -0.00234,   0.02111,   0.00758,  -0.02759,  -0.02308,  -0.01587,   0.04636,   0.04185,   0.00127,   0.00127,  -0.02398,  -0.00505,  -0.01316,  -0.00144,  -0.01677,  -0.02308,  -0.04472,  -0.00685,  -0.01677,   0.01028,  -0.00955,   0.00938,   0.00668,   0.05357,  -0.00775,   0.00217,   0.03373,   0.00848,   0.01570,  -0.01406,   0.00127,   0.00848,   0.02201,   0.01209,  -0.04382,   0.00307,   0.00037,   0.03734,  -0.01496,  -0.01226,   0.01570,   0.00578,   0.02381,   0.03734,   0.04545,  -0.03390,  -0.01857,  -0.02038,  -0.02038,  -0.00234,  -0.01767,  -0.00324,  -0.00595,  -0.00505,  -0.01587,   0.01389,  -0.03661,  -0.01316,  -0.00775,  -0.00685,  -0.02218,  -0.01857,  -0.00685,   0.00037,   0.01479,   0.01119,  -0.03030,  -0.01947,  -0.03210,   0.00487,  -0.03300,  -0.03390,  -0.01587,  -0.00324,  -0.02038,  -0.01677,   0.02381,   0.01299,  -0.01226,  -0.00414,  -0.01496,   0.01930,   0.00578,  -0.01767,  -0.02579,   0.05447,  -0.00324,  -0.03931,   0.00938,  -0.02038,  -0.01496,  -0.00595,   0.02111,   0.01840,  -0.01947,   0.00307,  -0.00324,  -0.01046,   0.00217,   0.02201,   0.00848,   0.01028,  -0.02398,   0.02832,  -0.02308,  -0.01947,  -0.01316,  -0.01677,   0.00938,   0.02020,   0.03734,  -0.03751,   0.02471,  -0.03030,   0.01119,  -0.00955,  -0.03210,  -0.01316,   0.02652,   0.00758,   0.01840,  -0.00144,   0.00848,   0.00397,   0.01930,   0.00217,  -0.03120,   0.04185,   0.01299,   0.01479,  -0.02939,  -0.01496,   0.00938,   0.00487,   0.00217,   0.00938,  -0.04563,   0.00848,  -0.01226,  -0.01136,   0.05988,  -0.01226,   0.04004,  -0.03751,   0.01750,  -0.01496,   0.03193,   0.00307,   0.00397,   0.00938,  -0.00324,   0.03103,  -0.02849,  -0.02218,   0.02201,  -0.00324,   0.00487,  -0.00324,   0.02471,  -0.03120,   0.00938,  -0.02759,   0.04455,   0.01479,  -0.00955,   0.02201,  -0.01406,  -0.01136,   0.00397,  -0.00054,   0.00668,  -0.00054,   0.00127,  -0.01136
  -0.00685,   0.01389,   0.01750,   0.01930,   0.00037,  -0.01767,  -0.01046,   0.00938,  -0.00775,  -0.00414,   0.02291,  -0.01406,   0.03734,  -0.00685,   0.01209,   0.00307,  -0.01226,   0.04365,   0.00307,   0.00668,   0.01840,   0.00668,   0.00668,   0.03644,   0.01570,  -0.03480,  -0.00144,   0.04906,  -0.02759,   0.02111,  -0.00144,   0.00668,   0.01119,   0.01479,   0.01570,   0.01660,   0.00758,  -0.01857,  -0.00324,   0.01840,  -0.00054,   0.03103,  -0.01316,   0.02652,   0.00397,   0.01570,  -0.01587,  -0.02308,  -0.01316,   0.01840,   0.02291,   0.02922,  -0.02308,   0.01479,  -0.00505,  -0.00324,   0.00307,   0.02832,   0.03914,  -0.00234,   0.00668,  -0.01136,  -0.00414,   0.00397,  -0.02308,   0.00217,   0.00668,  -0.03480,   0.01750,   0.01660,   0.02471,   0.02381,   0.02201,   0.01389,   0.00037,   0.00037,   0.03824,  -0.01046,   0.04095,  -0.02939,   0.02562,  -0.00324,  -0.03390,   0.01479,  -0.04112,  -0.01406,   0.00848,   0.02020,   0.00127,  -0.00324,   0.00307,   0.03373,  -0.02579,   0.00578,  -0.01857,  -0.00685,   0.03283,   0.00668,  -0.00414,  -0.00324,   0.04185,   0.03103,  -0.01496,   0.00307,  -0.00414,  -0.00505,  -0.02849,  -0.03030,   0.01119,  -0.04472,  -0.04743,   0.00668,   0.01750,   0.03463,  -0.01046,   0.00217,  -0.00054,  -0.01046,   0.01389,   0.00668,  -0.03030,  -0.01496,  -0.04653,  -0.05464,   0.02201,   0.01930,  -0.04021,   0.01299,   0.01389,  -0.04021,   0.03553,  -0.00595,   0.01028,   0.00938,   0.00217,  -0.01046,   0.02381,   0.01209,   0.00037,  -0.02488,   0.03012,   0.01209,   0.01299,   0.00307,  -0.00595,   0.00217,  -0.00414,   0.01570,   0.00127,   0.01299,   0.04185,   0.02020,  -0.01587,  -0.00324,  -0.05104,   0.03824,   0.00758,   0.00668,  -0.03841,  -0.03390,  -0.00595,   0.00758,  -0.02218,  -0.02308,  -0.00955,  -0.01046,   0.00758,  -0.06276,  -0.01677,   0.01840,  -0.01226,  -0.03480,   0.03463,   0.01209,  -0.03120,  -0.01136,  -0.01406,   0.00668,   0.01479,   0.00127,  -0.01947,   0.03283,   0.00127,  -0.02038,  -0.03571,  -0.04382,   0.01660,   0.00758,  -0.01136,   0.02291,  -0.00685,   0.00668,   0.00217,  -0.00685,   0.03103,   0.02652,  -0.02218,  -0.01226,   0.05537,   0.00127,  -0.03931,   0.01840,   0.02381,  -0.00414,   0.02832,  -0.02308,   0.00397,  -0.01226,   0.00127,  -0.00414,   0.01119,  -0.04112,  -0.02128,   0.00668,  -0.02128,  -0.03120,  -0.01496,  -0.02038,  -0.00324,  -0.05194,   0.02742,  -0.00775,  -0.00144,   0.01840,   0.04816,   0.02832,  -0.02579,  -0.01226,  -0.01947,   0.00127,   0.01119,   0.00848,  -0.02038,  -0.02579,   0.01930,   0.03914,   0.05267,  -0.02579,  -0.00865,  -0.00324,  -0.04472,   0.00397,   0.02652,  -0.03390,  -0.01677,   0.01389,   0.03463,  -0.01677,   0.02652,   0.02020,  -0.04021,  -0.00865,   0.02471,  -0.01857,   0.01028,  -0.01857
  -0.00865,  -0.01046,  -0.01677,   0.00037,   0.01840,  -0.01226,   0.00127,  -0.00505,  -0.00955,   0.02922,  -0.01857,  -0.00054,   0.03463,  -0.00324,   0.00848,  -0.04382,   0.00578,   0.01479,   0.00487,  -0.01136,  -0.01226,   0.01119,  -0.01226,  -0.00054,   0.01750,   0.05086,   0.00758,   0.00758,  -0.00324,   0.00848,   0.01299,  -0.01857,   0.02201,  -0.02939,   0.01930,   0.00758,   0.00487,   0.02471,   0.03824,  -0.02128,   0.00397,   0.00848,   0.03373,   0.02471,  -0.01226,  -0.02308,   0.00217,   0.01930,  -0.04472,   0.00037,   0.01479,  -0.00324,   0.02201,   0.00127,  -0.00505,   0.02111,  -0.02038,  -0.01587,  -0.03210,  -0.00685,  -0.00054,  -0.00324,  -0.01226,   0.00217,  -0.00865,   0.00578,  -0.01496,   0.01660,   0.01840,   0.00037,   0.00668,  -0.00234,   0.01660,  -0.01046,   0.00217,   0.01389,  -0.00324,   0.01028,  -0.00865,   0.00217,   0.01119,   0.02652,  -0.03661,  -0.02488,  -0.01496,   0.01119,  -0.01046,   0.04275,  -0.01226,  -0.01496,  -0.01046,  -0.04112,  -0.03661,   0.00307,  -0.02398,   0.02832,  -0.01857,  -0.02579,   0.00848,  -0.05645,  -0.01316,   0.01840,  -0.00955,  -0.02308,   0.01028,  -0.03571,  -0.02398,  -0.00505,  -0.03210,  -0.01406,   0.02652,   0.03463,  -0.02128,  -0.01136,  -0.00144,   0.00217,   0.00217,  -0.00324,  -0.02939,   0.03193,  -0.02128,  -0.04021,   0.02742,  -0.02939,  -0.03120,  -0.00414,  -0.00324,   0.00487,  -0.00865,   0.02201,  -0.00414,   0.06078,  -0.04202,  -0.02038,   0.00578,   0.00307,  -0.01767,   0.02742,  -0.02488,   0.00938,   0.00397,  -0.01046,   0.03373,   0.02742,   0.01119,   0.00127,  -0.01136,  -0.00054,  -0.02308,  -0.01947,   0.02111,  -0.00054,   0.00487,   0.01028,  -0.00054,  -0.04472,  -0.05013,  -0.00595,  -0.01947,  -0.01136,  -0.00505,   0.01570,  -0.03751,   0.00938,   0.02832,  -0.00505,  -0.01677,   0.00217,  -0.01316,  -0.02488,  -0.00144,  -0.00775,   0.04545,  -0.01857,   0.03193,   0.01209,   0.00758,  -0.00054,   0.03644,  -0.03030,   0.01750,  -0.01226,  -0.02398,   0.02652,  -0.00595,  -0.00234,   0.00487,   0.01930,  -0.01496,   0.01660,  -0.00505,   0.01299,   0.01299,   0.04095,  -0.00234,   0.00487,  -0.00685,  -0.01136,   0.04275,   0.00217,  -0.00685,   0.00848,  -0.00955,  -0.00595,   0.01930,   0.00848,  -0.01857,   0.01479,   0.02111,  -0.00865,  -0.02488,  -0.00144,   0.00127,  -0.00685,  -0.02488,  -0.00685,   0.01389,   0.01119,  -0.01587,  -0.02038,  -0.01406,  -0.01947,  -0.02849,  -0.01226,   0.01750,  -0.02579,  -0.01316,  -0.00595,  -0.05645,  -0.02038,   0.00037,  -0.01947,   0.00487,  -0.03480,   0.01750,  -0.02759,   0.02471,   0.01299,  -0.01406,  -0.02218,  -0.02849,  -0.01046,   0.01299,   0.02471,   0.00487,  -0.01316,  -0.03480,  -0.00324,  -0.02759,  -0.02128,  -0.01767,  -0.02038,  -0.02488,   0.00397,   0.00758,  -0.00324
  -0.00144,  -0.02669,  -0.00505,  -0.00054,  -0.02488,   0.00758,   0.01028,  -0.02939,   0.00487,   0.02742,  -0.00414,   0.04455,  -0.00505,  -0.00234,  -0.01677,  -0.01677,  -0.02128,   0.03193,  -0.01406,  -0.00414,   0.00578,   0.00397,   0.01299,  -0.02488,   0.00758,  -0.01136,   0.01930,  -0.01857,   0.02742,  -0.00324,  -0.00324,   0.01299,  -0.01226,   0.01660,   0.01750,   0.00578,  -0.00144,   0.01119,   0.01479,  -0.00955,  -0.00054,   0.02471,   0.00668,   0.01930,  -0.01316,  -0.00595,   0.01840,   0.04726,  -0.01406,   0.02201,   0.00397,  -0.00955,  -0.01947,   0.00758,  -0.02579,   0.02922,  -0.04653,   0.03734,  -0.01947,   0.00217,  -0.02128,   0.01930,   0.03463,  -0.00775,   0.02201,   0.01840,   0.00668,  -0.01587,   0.00037,  -0.00505,   0.04365,   0.00578,   0.04004,  -0.03120,  -0.00775,   0.02742,   0.00217,  -0.00865,   0.01930,  -0.02308,   0.00397,   0.01389,   0.02111,   0.01209,   0.00668,   0.03463,   0.00217,  -0.00234,   0.03734,  -0.01767,   0.00127,   0.01479,  -0.01316,  -0.01947,   0.03914,   0.01028,  -0.01496,  -0.00324,   0.01389,   0.02291,  -0.01496,  -0.00234,   0.03103,   0.00758,   0.02652,  -0.01587,   0.00037,  -0.01226,   0.02381,  -0.00865,  -0.01496,  -0.00685,   0.03103,  -0.00054,   0.00668,   0.01209,   0.03463,   0.01209,   0.00758,   0.03012,   0.02742,  -0.02038,   0.01479,  -0.02128,  -0.03390,   0.00307,   0.02471,   0.01930,   0.00397,   0.00848,   0.00668,   0.03914,  -0.01496,  -0.00685,   0.01930,  -0.01767,  -0.00685,   0.00217,  -0.05104,   0.01389,   0.02291,  -0.01677,  -0.00595,   0.00668,   0.03824,  -0.01046,   0.03824,   0.00758,   0.01119,   0.00037,  -0.01316,   0.00487,   0.01930,   0.01209,  -0.01677,  -0.01046,  -0.01587,   0.02201,  -0.00955,  -0.00775,   0.03734,   0.00217,   0.00668,  -0.01136,   0.02922,   0.00217,   0.03283,   0.01660,   0.06710,   0.02020,  -0.05464,   0.00848,  -0.00234,  -0.02669,   0.01209,   0.00848,   0.02652,   0.02742,   0.05267,   0.01209,   0.03012,   0.01479,  -0.01857,  -0.01046,  -0.01496,  -0.02579,  -0.02669,   0.01479,  -0.02669,   0.01479,  -0.01406,  -0.00685,  -0.03571,   0.00307,   0.00668,  -0.00505,  -0.01496,   0.03553,   0.02652,  -0.03030,   0.01660,  -0.02218,  -0.01677,   0.02381,  -0.00955,   0.00217,  -0.01496,   0.00037,  -0.03480,   0.00668,   0.00668,   0.02471,  -0.02218,  -0.01587,   0.00758,   0.02832,   0.02652,  -0.01947,   0.05177,  -0.01496,   0.03824,   0.02832,   0.03644,   0.01389,   0.00307,   0.02111,   0.01389,  -0.00775,   0.00397,   0.01840,   0.00037,  -0.01947,   0.04185,   0.00938,   0.00758,   0.03373,   0.01479,  -0.00144,  -0.00054,   0.00487,  -0.02579,   0.01119,   0.00938,  -0.00234,   0.01930,  -0.03931,  -0.00414,   0.02020,   0.01840,  -0.02128,   0.00487,  -0.01677,   0.01209,   0.00127,   0.05447,   0.01028
  -0.01046,  -0.02308,   0.00487,   0.02291,   0.00848,  -0.00595,  -0.04112,   0.00848,   0.00848,  -0.02669,   0.00037,  -0.01587,   0.00487,  -0.00595,  -0.03120,  -0.01587,  -0.00144,   0.00397,  -0.00505,  -0.00234,   0.01299,  -0.00144,   0.01119,  -0.03300,  -0.02939,   0.01389,   0.02111,   0.03103,  -0.00595,   0.00397,  -0.03571,   0.02201,  -0.00865,   0.01299,   0.00307,  -0.00775,   0.01119,   0.04004,  -0.00955,  -0.00955,  -0.02579,   0.01389,   0.00037,   0.00397,   0.01028,   0.01119,   0.03734,  -0.02669,  -0.00685,   0.00397,   0.01479,  -0.01136,  -0.02579,  -0.02759,   0.00487,   0.01299,   0.01209,  -0.03390,  -0.00595,  -0.03120,   0.01028,  -0.04743,   0.01389,   0.01570,   0.02111,   0.00397,   0.08784,  -0.05284,   0.01840,  -0.00144,   0.02562,   0.01209,   0.00397,   0.00578,   0.02471,  -0.01677,   0.02381,   0.00127,  -0.00054,   0.01570,   0.01209,   0.02922,   0.00848,  -0.01226,   0.01028,   0.04545,   0.05808,   0.03193,   0.02652,  -0.01857,   0.01299,  -0.02308,  -0.00414,   0.01660,  -0.00505,  -0.02669,   0.01209,   0.02562,  -0.02488,  -0.00595,   0.03193,  -0.01857,  -0.00505,  -0.00414,   0.01570,   0.01389,  -0.00144,   0.00397,   0.04816,  -0.00234,   0.00397,   0.01840,  -0.01767,   0.03103,   0.03103,   0.01389,  -0.00685,   0.04816,  -0.01406,   0.01570,  -0.03300,   0.03283,  -0.01587,  -0.01046,  -0.03390,   0.00217,  -0.00685,  -0.02038,   0.01750,   0.01209,  -0.00865,   0.01660,   0.02562,   0.02111,   0.02381,   0.01930,   0.01840,   0.01660,  -0.02939,   0.00487,  -0.01406,   0.02832,  -0.04923,  -0.01316,   0.00397,   0.02471,  -0.00144,   0.00037,  -0.00685,  -0.01947,   0.04636,   0.01750,  -0.00505,  -0.00054,   0.02471,  -0.00505,  -0.01136,   0.03463,   0.00037,   0.04185,  -0.00595,  -0.00595,   0.01209,   0.01660,  -0.00685,  -0.01496,   0.01840,  -0.00054,   0.01299,  -0.00595,  -0.04292,   0.03373,  -0.01226,  -0.00595,   0.01930,  -0.00685,   0.03734,  -0.02759,   0.01119,  -0.01857,  -0.01496,   0.00578,   0.03193,   0.03103,   0.00848,  -0.02128,  -0.02038,  -0.01406,  -0.01947,   0.00127,   0.01028,   0.00487,  -0.00505,  -0.00865,   0.00938,   0.00938,   0.00307,   0.03734,   0.01299,   0.01028,  -0.01947,   0.00127,   0.01479,  -0.01767,   0.02832,  -0.00865,  -0.00324,   0.01660,  -0.00685,  -0.01046,   0.00938,   0.01209,   0.03012,  -0.01767,   0.00758,  -0.00775,  -0.00775,  -0.00234,  -0.02579,   0.00487,   0.03193,   0.01119,  -0.01046,   0.01660,  -0.02218,   0.00668,  -0.00865,   0.02111,   0.01389,   0.00037,   0.02381,   0.03734,   0.02111,   0.03103,  -0.01316,   0.04185,   0.03553,   0.00307,   0.00217,  -0.01677,  -0.00414,   0.00217,  -0.01587,   0.02291,  -0.01857,   0.00217,   0.02922,   0.00037,  -0.00144,   0.03283,  -0.01496,  -0.02038,  -0.01496,  -0.03300,   0.02922,   0.00487
   0.01570,  -0.00414,  -0.02669,   0.01479,  -0.00054,   0.01479,   0.03103,   0.00668,   0.01750,  -0.00775,  -0.01226,   0.00127,   0.02832,   0.03463,   0.00668,   0.00037,   0.00938,   0.03914,  -0.01136,   0.00758,   0.02201,  -0.02849,  -0.01947,  -0.01677,  -0.02939,   0.02562,  -0.01947,  -0.01857,   0.00037,  -0.00685,  -0.02849,  -0.00234,  -0.04833,  -0.02308,  -0.01677,   0.03283,   0.04185,   0.00217,   0.00938,   0.01479,   0.02652,   0.00848,   0.01299,   0.00127,  -0.00054,  -0.01496,   0.02111,   0.01750,  -0.01046,   0.02742,  -0.00144,   0.01660,  -0.01677,   0.00307,   0.00848,   0.02111,   0.03463,   0.02201,  -0.01136,   0.05718,   0.00037,  -0.00775,   0.00848,   0.00127,   0.01028,   0.01028,   0.02201,  -0.03030,   0.03644,  -0.02218,   0.01299,   0.00397,  -0.03390,  -0.00595,  -0.01136,  -0.01947,  -0.01406,  -0.04382,  -0.00144,  -0.01496,  -0.01496,  -0.00324,   0.00487,   0.01750,   0.01209,   0.00848,  -0.03841,   0.00578,  -0.02849,   0.03734,   0.00487,  -0.01947,  -0.01587,  -0.00054,   0.03012,   0.01570,  -0.00324,   0.02291,  -0.02128,  -0.02218,  -0.00775,   0.00938,   0.01209,  -0.01046,   0.01299,  -0.02038,  -0.01496,   0.02471,  -0.00414,  -0.00144,   0.02832,   0.02742,  -0.01496,  -0.03480,   0.02471,  -0.03480,   0.00487,   0.01840,  -0.00595,   0.01930,  -0.04743,   0.04365,   0.00938,  -0.03030,   0.00758,   0.00848,   0.02922,  -0.00054,  -0.00685,   0.00217,   0.00307,   0.01750,   0.01750,  -0.01136,   0.00217,  -0.00324,   0.05086,  -0.01226,  -0.02038,   0.00217,  -0.00505,  -0.00054,   0.02291,   0.01299,  -0.01046,   0.01750,   0.03193,   0.00127,  -0.00865,  -0.02218,  -0.00595,   0.02381,   0.03644,   0.02832,   0.00938,   0.04455,  -0.00505,   0.02652,   0.00668,   0.05898,   0.01660,  -0.01316,  -0.00775,  -0.02128,  -0.02849,  -0.00054,  -0.02579,   0.01750,  -0.02579,   0.01930,   0.00307,   0.00397,  -0.00685,   0.00938,  -0.01496,  -0.00144,  -0.01857,  -0.00414,  -0.00505,   0.04455,  -0.00505,  -0.02488,   0.04004,  -0.00595,   0.04996,  -0.02488,   0.00397,  -0.00324,  -0.01136,   0.01479,  -0.03751,   0.01479,   0.03824,  -0.02939,   0.00758,  -0.05554,  -0.03030,   0.00037,   0.00668,  -0.00505,  -0.03030,  -0.02398,   0.04185,  -0.04472,  -0.00865,   0.00487,  -0.00324,  -0.02759,   0.00217,   0.00487,   0.00127,  -0.02759,   0.03193,  -0.01406,  -0.01767,   0.00127,  -0.02759,   0.01570,  -0.00685,   0.00487,   0.02832,  -0.01406,  -0.01496,   0.03193,   0.01299,  -0.00414,  -0.01587,  -0.04382,  -0.02308,  -0.00865,   0.03824,  -0.01947,  -0.00595,   0.04185,   0.02111,  -0.00234,   0.00578,  -0.00775,   0.00668,   0.05086,   0.02020,   0.00938,   0.00307,   0.00397,  -0.00054,  -0.03120,  -0.01587,  -0.05013,  -0.01046,   0.01750,  -0.00324,   0.00307,  -0.00595,   0.02381,  -0.03661,  -0.00505
   0.01930,  -0.01767,  -0.01587,   0.02201,  -0.00414,  -0.00054,  -0.01136,  -0.01677,  -0.01857,   0.00397,  -0.00685,   0.02020,   0.01479,   0.03644,   0.01570,  -0.01496,  -0.00865,  -0.01406,   0.01750,  -0.01226,  -0.00775,   0.03824,  -0.01587,  -0.00054,   0.02291,   0.00578,  -0.01496,   0.02291,   0.00668,   0.01119,  -0.01406,  -0.01947,  -0.01767,   0.00578,   0.04275,  -0.00324,  -0.03390,   0.00848,  -0.03571,   0.02652,  -0.00324,   0.00487,   0.02471,  -0.03300,   0.01119,   0.04636,   0.00487,  -0.00054,   0.03463,  -0.02218,   0.00217,  -0.00144,  -0.02308,   0.01028,  -0.00775,  -0.02939,  -0.00144,   0.00037,   0.00487,  -0.00234,   0.02381,   0.00307,  -0.01136,  -0.01226,  -0.00414,   0.02381,  -0.03030,  -0.01496,  -0.01496,  -0.00775,  -0.00955,   0.04726,  -0.00414,   0.03373,  -0.02939,   0.06259,   0.03103,  -0.00865,  -0.02759,  -0.04202,   0.01028,  -0.00595,  -0.02038,   0.00397,   0.02201,  -0.00775,  -0.00955,   0.02291,   0.03553,   0.06259,   0.03193,  -0.05825,   0.01570,  -0.04653,   0.01209,   0.00758,   0.01389,  -0.00775,  -0.00144,  -0.00685,   0.02111,   0.00668,   0.01389,  -0.00775,  -0.03751,  -0.01226,  -0.02308,  -0.01046,  -0.02308,   0.01750,  -0.02579,   0.01930,   0.02020,  -0.01496,  -0.03841,  -0.00324,   0.01930,   0.02201,   0.00758,  -0.04923,   0.04185,  -0.01857,   0.02111,   0.04004,  -0.05013,  -0.00144,  -0.01136,  -0.00144,  -0.02669,   0.01570,  -0.04563,   0.00848,  -0.02398,   0.01028,   0.02562,  -0.06727,   0.03193,   0.01119,   0.02201,  -0.03210,   0.01119,  -0.04021,   0.01570,   0.00037,  -0.02669,   0.01750,  -0.00685,  -0.00865,  -0.02759,   0.03644,  -0.01677,   0.02201,  -0.00505,  -0.01857,   0.02111,  -0.06907,  -0.03030,   0.02111,  -0.01046,   0.05537,   0.00397,  -0.01587,   0.04816,  -0.00324,  -0.01226,  -0.00144,  -0.00865,   0.02291,   0.02652,  -0.02038,  -0.00595,   0.01119,  -0.02849,  -0.00685,  -0.01857,   0.03103,   0.00578,  -0.02308,  -0.01046,   0.01840,  -0.00144,   0.01299,   0.02381,  -0.01136,  -0.03300,  -0.00505,  -0.00234,  -0.00144,   0.01209,   0.01750,   0.05357,   0.00938,  -0.02128,  -0.01947,  -0.02128,   0.03193,   0.02652,   0.01299,   0.01479,   0.04726,   0.00668,  -0.00685,   0.02471,   0.00848,   0.01299,   0.01209,   0.02742,   0.00397,  -0.00324,   0.00578,   0.00578,  -0.01406,   0.01028,   0.01028,   0.02381,  -0.03480,   0.05177,   0.02291,   0.01028,  -0.01857,  -0.01857,   0.00848,  -0.02939,  -0.00865,   0.00127,   0.00307,   0.02471,  -0.00144,   0.05086,  -0.01496,  -0.03751,  -0.02849,  -0.00144,  -0.01767,   0.01299,   0.02381,   0.00848,  -0.01857,  -0.01496,   0.01479,   0.01389,  -0.04472,  -0.03931,   0.01119,   0.05177,  -0.01406,  -0.01136,   0.02111,  -0.01767,  -0.03210,   0.00307,   0.03824,   0.00578,  -0.03030,   0.01389,   0.02562
   0.00127,   0.00938,  -0.02128,  -0.01226,   0.02291,  -0.01767,   0.02020,  -0.00505,   0.01119,   0.01209,  -0.06456,   0.02471,   0.02020,  -0.01226,  -0.05013,   0.02922,   0.02832,  -0.00234,  -0.02218,  -0.01226,  -0.00595,  -0.01136,   0.00578,   0.01840,  -0.00144,   0.03644,  -0.01316,  -0.03571,  -0.02759,   0.02922,  -0.00414,  -0.03571,  -0.02218,   0.01209,   0.03012,   0.01299,  -0.00414,  -0.00505,   0.01840,   0.00127,   0.00668,  -0.02038,   0.01299,  -0.02849,   0.02922,  -0.01496,   0.02201,   0.03553,  -0.00685,   0.03283,  -0.01406,  -0.01136,   0.03283,   0.00668,   0.01119,  -0.00144,   0.00217,  -0.00865,   0.00487,   0.01479,   0.04095,  -0.01587,   0.02471,   0.02111,  -0.01947,   0.02832,   0.03193,   0.00487,   0.00397,   0.00397,  -0.02939,   0.01930,  -0.00595,   0.01119,   0.00037,   0.01660,  -0.02759,  -0.00505,  -0.00234,   0.02652,   0.00397,  -0.00144,  -0.01767,  -0.02488,  -0.01046,  -0.00324,  -0.03390,   0.03283,   0.03193,   0.01840,  -0.02398,  -0.00505,  -0.02308,   0.02111,  -0.00054,  -0.01587,  -0.00144,  -0.02488,  -0.00505,  -0.00054,   0.00668,  -0.00505,  -0.00595,   0.03553,  -0.01857,  -0.00955,   0.01299,   0.00668,   0.01660,  -0.02488,   0.03553,  -0.02398,   0.00487,   0.02201,   0.01930,   0.01930,  -0.04202,   0.01119,  -0.00234,   0.05447,   0.00037,  -0.00865,   0.05898,   0.04185,   0.02832,   0.00217,   0.02562,  -0.00955,  -0.03841,  -0.00595,  -0.01677,  -0.01136,  -0.02669,   0.01479,  -0.00234,   0.00578,   0.00578,  -0.03931,   0.01750,  -0.02308,  -0.01136,  -0.02308,   0.01660,   0.02742,   0.01930,   0.01389,  -0.01406,   0.01119,   0.00037,  -0.00324,   0.01299,   0.00217,  -0.03841,  -0.01406,   0.00217,  -0.00955,   0.02832,  -0.01316,  -0.00234,   0.00037,  -0.01406,   0.00578,  -0.00324,   0.00668,   0.02652,   0.04275,  -0.00144,   0.00848,  -0.02939,   0.00758,  -0.00414,  -0.05104,  -0.02128,  -0.01046,  -0.02038,  -0.00054,  -0.02579,   0.00578,   0.01209,  -0.01316,  -0.00324,   0.01299,   0.01299,   0.04004,  -0.01406,  -0.01587,  -0.00865,   0.02381,   0.04004,  -0.02398,  -0.02669,   0.03373,   0.00578,   0.03644,   0.00938,   0.01660,  -0.01046,   0.03103,  -0.00414,  -0.04202,   0.02562,   0.00217,  -0.02308,   0.02291,  -0.00505,  -0.02218,   0.01750,  -0.02398,   0.04185,   0.00307,  -0.01857,  -0.00865,  -0.01767,   0.00578,   0.02562,   0.00217,  -0.00595,  -0.00324,   0.00668,   0.02381,   0.01389,  -0.00414,   0.00307,   0.01028,  -0.01316,   0.00938,  -0.04653,  -0.02308,  -0.01496,   0.01660,   0.00127,   0.03283,  -0.03390,   0.01930,   0.00127,   0.00848,   0.03283,  -0.00955,   0.00127,  -0.01947,   0.03553,  -0.03210,  -0.00054,   0.02111,   0.00217,   0.01389,   0.00307,   0.03553,   0.02922,   0.00307,   0.03824,  -0.01677,  -0.03390,   0.01660,  -0.00505,  -0.01316
  -0.03571,  -0.00414,   0.00217,  -0.00054,  -0.01406,  -0.03300,   0.01299,   0.01930,  -0.01587,   0.01299,  -0.01046,  -0.02759,   0.01750,  -0.01316,  -0.03390,  -0.03210,  -0.00685,   0.02922,   0.02291,   0.00127,   0.00217,  -0.03480,  -0.00144,   0.00217,  -0.01046,  -0.01406,  -0.02308,  -0.00414,  -0.00955,  -0.01587,   0.00397,   0.04906,  -0.00324,  -0.02488,   0.01028,  -0.00414,  -0.01316,  -0.05735,   0.02742,  -0.02849,  -0.01136,   0.01299,  -0.02038,   0.01840,  -0.03030,  -0.00324,  -0.02218,  -0.00505,   0.03373,  -0.03931,   0.01299,  -0.04833,   0.01389,   0.01299,  -0.02218,  -0.00234,  -0.04833,  -0.01046,   0.00668,  -0.02218,   0.00938,  -0.03661,  -0.03120,   0.00758,  -0.00505,  -0.02128,   0.01209,  -0.04743,  -0.01406,  -0.01226,  -0.00144,   0.00127,   0.03373,   0.00397,   0.00307,   0.00397,  -0.00144,  -0.02669,   0.01299,   0.02111,   0.00758,  -0.02669,  -0.03390,  -0.00234,  -0.00234,   0.00397,   0.00127,  -0.01316,  -0.02579,  -0.02218,  -0.00955,  -0.01226,  -0.01587,  -0.04202,  -0.05194,   0.02201,   0.06800,  -0.00955,  -0.00685,   0.03283,  -0.03480,  -0.03661,  -0.05013,  -0.01677,   0.03373,  -0.01316,  -0.00144,  -0.02218,   0.00938,  -0.01767,  -0.00234,   0.02291,   0.00127,  -0.00775,  -0.02218,   0.02020,   0.02562,  -0.00685,  -0.00595,   0.01389,  -0.00955,   0.02652,  -0.00414,  -0.00054,   0.02381,  -0.00234,   0.03644,   0.05267,   0.00217,  -0.00685,  -0.02579,   0.00578,   0.00848,   0.01660,   0.01299,  -0.02488,  -0.00505,  -0.00505,   0.02381,  -0.04292,  -0.00685,   0.02742,   0.01389,   0.00668,   0.01930,   0.03553,   0.01299,  -0.05915,   0.02922,  -0.00595,   0.01840,  -0.03390,   0.00668,   0.02201,   0.01930,   0.02562,   0.04185,  -0.00234,   0.00037,   0.01209,   0.01479,  -0.02398,  -0.00054,   0.00397,   0.01119,  -0.00414,  -0.01587,   0.03193,   0.00037,   0.01119,   0.01840,  -0.00144,   0.01570,   0.00938,  -0.01767,   0.00578,   0.00397,   0.03373,   0.01389,  -0.03661,  -0.00054,  -0.03480,  -0.06546,  -0.00414,   0.03644,   0.00758,  -0.03120,   0.02201,  -0.00505,  -0.02038,   0.00217,  -0.01046,  -0.03030,  -0.02759,   0.01299,   0.03103,   0.02020,   0.01840,   0.00487,  -0.00054,  -0.04292,   0.02742,   0.01028,  -0.02398,   0.02652,  -0.01947,   0.03103,   0.01930,  -0.02759,  -0.02038,   0.02020,   0.02471,  -0.00144,  -0.00505,   0.01750,  -0.03571,  -0.01046,   0.01840,  -0.00324,   0.03373,  -0.00775,  -0.02038,   0.02381,   0.01570,  -0.00054,   0.00848,  -0.00685,   0.01028,  -0.02759,  -0.00685,   0.03734,  -0.01587,   0.01750,  -0.00144,  -0.02939,  -0.00054,  -0.01767,   0.01119,   0.02201,   0.02742,  -0.01587,   0.00307,  -0.02759,  -0.05825,   0.01570,  -0.01136,  -0.00144,   0.01299,  -0.00234,   0.01479,   0.00217,   0.03193,  -0.01226,  -0.00144,  -0.02218,  -0.00685
   0.03373,  -0.05194,  -0.00054,  -0.00144,   0.02562,  -0.01316,   0.01660,   0.00848,  -0.02218,  -0.02849,  -0.01677,   0.02111,  -0.01677,  -0.00054,  -0.00414,   0.01119,  -0.01316,   0.00127,  -0.03120,  -0.01046,   0.01750,   0.01028,   0.00217,  -0.00324,   0.03283,   0.00307,  -0.00865,   0.01840,   0.02742,  -0.01226,  -0.00685,   0.01119,  -0.00234,   0.00758,  -0.04833,   0.02742,  -0.02939,   0.02111,   0.05086,   0.01209,  -0.00144,  -0.01587,  -0.00234,  -0.01496,  -0.01587,  -0.00685,   0.01840,  -0.00595,  -0.03661,  -0.01496,  -0.00054,  -0.02939,  -0.00144,   0.00127,   0.01209,  -0.05194,  -0.00414,  -0.02669,   0.00578,   0.01570,  -0.02488,  -0.04112,  -0.00955,  -0.00144,  -0.01406,   0.01570,  -0.01767,   0.00848,  -0.00595,  -0.01767,  -0.01767,   0.02742,  -0.00505,  -0.02669,  -0.00414,   0.01570,   0.00397,  -0.05013,  -0.01136,  -0.00775,   0.01028,   0.00848,  -0.04112,  -0.00234,   0.00307,   0.00938,  -0.01496,  -0.00414,  -0.02488,   0.00848,  -0.01857,   0.00578,   0.01389,  -0.00775,   0.04365,   0.02652,  -0.02669,   0.02020,  -0.03751,  -0.02488,   0.00938,  -0.01677,  -0.02128,   0.03824,   0.03553,   0.00578,  -0.02308,   0.02201,  -0.02488,   0.02291,  -0.01496,   0.00037,   0.00217,   0.03644,  -0.01316,   0.01299,  -0.02669,   0.04906,  -0.02038,   0.00217,   0.01209,   0.00487,   0.00037,  -0.01496,   0.04365,   0.01209,  -0.00234,   0.02471,   0.02471,   0.02111,   0.01299,   0.00397,  -0.00144,  -0.00144,   0.05086,   0.01930,   0.02742,   0.00668,  -0.03751,  -0.03571,  -0.01406,   0.02291,  -0.04202,  -0.00595,  -0.00505,   0.00848,  -0.00054,  -0.01496,   0.00127,   0.00848,  -0.02488,   0.01660,   0.00037,  -0.02308,   0.00487,  -0.02579,   0.03103,  -0.03120,  -0.02128,   0.01840,  -0.02669,   0.00307,  -0.00414,  -0.03120,  -0.00414,   0.00668,  -0.00414,   0.01389,  -0.00234,  -0.02759,  -0.00144,  -0.00505,  -0.04112,  -0.00955,  -0.02759,  -0.04923,  -0.01587,   0.01119,   0.01660,   0.04275,   0.02652,  -0.01136,   0.01119,   0.00037,   0.00938,   0.01750,   0.00758,   0.02832,  -0.00865,   0.00397,   0.01840,   0.01930,   0.02471,  -0.02939,  -0.00955,  -0.02398,  -0.01226,  -0.01496,   0.00938,   0.00127,  -0.01677,   0.01028,  -0.01046,  -0.02038,   0.03463,   0.02652,   0.00307,  -0.01947,   0.03914,   0.02471,   0.01750,  -0.01316,   0.01570,   0.01028,   0.00848,  -0.00775,  -0.01316,  -0.00865,  -0.00505,   0.02020,   0.00307,  -0.03931,  -0.00775,   0.01570,   0.01299,  -0.00775,  -0.00775,   0.00938,  -0.01046,  -0.02849,  -0.00324,  -0.00685,   0.05357,  -0.00234,   0.00127,  -0.00865,   0.04275,   0.00037,  -0.03300,   0.04365,   0.03103,  -0.04563,   0.01299,  -0.02579,  -0.00685,   0.00668,   0.01299,   0.00938,  -0.01767,   0.03373,   0.03193,  -0.00685,  -0.02038,   0.00397,  -0.00144,   0.02562
  -0.01226,  -0.01226,   0.00578,   0.02471,   0.00037,  -0.02308,   0.01119,   0.00307,   0.01930,   0.05447,   0.03103,  -0.01136,   0.01840,  -0.04112,  -0.02128,  -0.02759,   0.00848,   0.01119,  -0.00054,   0.01570,   0.00487,  -0.00414,  -0.00054,   0.01570,  -0.01857,  -0.00595,   0.00217,   0.01660,  -0.00865,   0.01840,  -0.00414,   0.01299,   0.02471,   0.00848,   0.03734,  -0.04472,  -0.02398,  -0.01947,   0.04906,  -0.01226,   0.00127,  -0.03030,   0.01840,   0.00397,  -0.01677,   0.00487,  -0.00144,  -0.02939,  -0.00324,  -0.02579,  -0.00414,  -0.00505,  -0.01046,  -0.01316,  -0.01496,   0.01299,  -0.04112,  -0.03661,   0.01028,   0.00307,  -0.00144,   0.00307,  -0.03480,   0.00487,  -0.01136,   0.01570,  -0.04382,   0.01750,  -0.00324,   0.00668,  -0.03030,  -0.01857,  -0.02849,  -0.00685,   0.01209,  -0.00595,   0.04095,   0.00487,  -0.05645,   0.00848,  -0.00054,  -0.04743,  -0.05735,  -0.01677,   0.00938,  -0.01316,  -0.01496,   0.02652,  -0.03030,  -0.02939,  -0.00414,  -0.00234,   0.01570,  -0.01406,  -0.02579,  -0.01496,   0.03914,  -0.00144,   0.00127,   0.02471,  -0.00324,   0.01389,  -0.01947,  -0.00775,  -0.01226,   0.02020,  -0.00414,   0.00578,  -0.00144,   0.00578,  -0.04202,   0.01299,   0.02562,   0.00848,  -0.00775,  -0.00144,   0.02832,   0.02111,  -0.00234,   0.00668,  -0.01587,  -0.01767,   0.00127,  -0.02759,  -0.03841,  -0.00234,   0.00487,  -0.00324,   0.01840,   0.00938,   0.00578,   0.00578,   0.00217,  -0.03390,  -0.03210,   0.00758,  -0.00775,  -0.01947,   0.03734,   0.03283,  -0.01406,  -0.01587,  -0.02218,   0.00758,  -0.00324,   0.01840,   0.01389,  -0.02579,  -0.01406,  -0.00865,  -0.01947,  -0.02218,   0.00307,   0.03824,  -0.02939,   0.00397,  -0.01136,   0.00307,  -0.02669,  -0.03120,  -0.02308,  -0.00595,   0.00668,   0.02832,  -0.00505,   0.00938,   0.01479,   0.05808,   0.00127,  -0.00414,  -0.02308,   0.00487,  -0.02128,   0.00217,  -0.03210,  -0.01947,   0.02111,  -0.02759,  -0.00414,   0.02471,  -0.00414,   0.01299,  -0.02579,   0.01389,  -0.04743,  -0.02038,  -0.00414,  -0.00955,   0.01840,  -0.04292,  -0.02308,  -0.00865,   0.01570,   0.01119,  -0.01046,  -0.01677,   0.06078,  -0.01046,  -0.00054,  -0.01136,  -0.00234,  -0.01226,   0.02291,   0.01750,  -0.00595,  -0.01136,  -0.06005,  -0.00414,  -0.03480,  -0.00324,  -0.01046,  -0.03300,  -0.03841,  -0.00955,  -0.01046,  -0.02579,  -0.06096,  -0.02398,  -0.02849,   0.00127,   0.01840,   0.02201,  -0.02759,   0.01028,   0.02111,  -0.00054,   0.00758,   0.02652,   0.01209,   0.00758,   0.02471,  -0.01587,  -0.00775,  -0.02759,  -0.03480,  -0.00324,   0.01479,   0.00938,   0.03103,  -0.01767,   0.02020,   0.01750,   0.00397,  -0.00324,   0.00758,  -0.01316,   0.00848,  -0.01136,  -0.01677,   0.00217,   0.01660,  -0.03661,  -0.00955,  -0.04653,   0.04636,  -0.00775
  -0.02218,   0.02291,  -0.01677,  -0.01406,  -0.00414,   0.01299,   0.01750,   0.00938,   0.00758,  -0.01947,   0.04095,   0.01299,  -0.01677,   0.00217,  -0.00324,  -0.02038,  -0.00865,  -0.03751,   0.01660,   0.00578,  -0.01496,   0.03553,  -0.01316,  -0.03480,   0.00668,   0.00938,  -0.02939,   0.01209,   0.04275,  -0.01677,  -0.01046,  -0.01316,   0.01570,  -0.02759,   0.00848,  -0.02308,  -0.00234,   0.03914,  -0.02038,   0.00578,   0.01299,  -0.03300,   0.01119,   0.00848,  -0.02128,   0.02111,   0.01299,   0.01028,   0.01660,  -0.03480,  -0.00324,   0.00668,  -0.01947,   0.02381,   0.00578,  -0.00054,  -0.03300,  -0.00324,   0.05267,   0.00037,   0.02922,   0.04004,   0.01930,  -0.02579,   0.00758,  -0.00414,  -0.02849,  -0.03390,   0.00127,   0.00127,   0.02111,  -0.00414,   0.01389,  -0.02579,   0.00578,   0.02471,   0.01479,  -0.03480,   0.01209,   0.01840,  -0.00505,   0.00758,   0.01930,   0.02562,   0.00848,  -0.01316,   0.00487,  -0.01226,   0.01479,   0.00037,  -0.04112,   0.00487,  -0.00955,  -0.00054,   0.02742,   0.03373,   0.02020,   0.04816,   0.00487,   0.00848,   0.03824,  -0.03210,  -0.00054,  -0.01947,  -0.01767,   0.00758,   0.02111,  -0.03841,   0.06620,  -0.00324,   0.02832,   0.02111,  -0.00054,  -0.04653,   0.00127,  -0.01136,  -0.02218,  -0.02398,  -0.00144,  -0.00505,  -0.01587,  -0.00505,  -0.01947,  -0.00414,  -0.01767,  -0.03751,   0.00037,   0.03103,  -0.00414,  -0.00775,  -0.01406,  -0.00054,  -0.02308,   0.00397,   0.00487,  -0.00595,  -0.03210,   0.01660,   0.03463,  -0.00234,  -0.04923,   0.02922,   0.01479,  -0.00414,  -0.01677,   0.00938,   0.02020,  -0.00955,   0.00037,   0.03193,  -0.02759,  -0.04021,   0.00397,  -0.04563,   0.01209,   0.00307,  -0.00414,   0.02471,   0.02291,   0.00848,   0.02742,   0.00668,  -0.01136,   0.00037,   0.05898,  -0.00685,  -0.03390,   0.01119,   0.02471,   0.00127,   0.01930,   0.00758,  -0.01046,   0.02111,  -0.00685,  -0.01767,  -0.03030,  -0.01136,  -0.00414,   0.01209,   0.02832,   0.00217,  -0.00505,  -0.00234,   0.00307,   0.03193,   0.01570,   0.01750,   0.01028,  -0.01226,  -0.03030,  -0.02759,  -0.00865,  -0.03480,  -0.00324,   0.01299,  -0.02038,   0.05086,   0.01570,  -0.01947,  -0.03210,   0.02471,  -0.01857,  -0.00054,  -0.01947,   0.03553,   0.02562,  -0.04833,  -0.03661,  -0.01496,   0.03283,   0.00397,   0.03103,   0.01209,  -0.02579,   0.00578,   0.00848,   0.00758,  -0.03931,  -0.00144,  -0.04563,  -0.04833,   0.00487,   0.01570,   0.00037,  -0.01767,   0.00487,  -0.03841,   0.01930,   0.02922,  -0.03030,  -0.03571,   0.00848,  -0.01226,  -0.01587,   0.00668,  -0.01767,  -0.00685,   0.00037,  -0.05194,  -0.00505,  -0.02579,  -0.02308,   0.01389,   0.02201,  -0.00685,   0.00578,  -0.01767,  -0.03210,  -0.01406,  -0.02128,  -0.00414,  -0.04743,  -0.02218,  -0.02218,  -0.00595
   0.04365,   0.00487,   0.00938,   0.00217,   0.01479,  -0.04382,   0.05718,   0.05988,  -0.01316,  -0.01587,   0.00758,   0.02652,  -0.00054,   0.02381,  -0.00595,   0.01299,   0.02652,   0.00848,   0.01479,   0.01209,   0.04636,  -0.00775,   0.00307,  -0.03480,   0.00578,  -0.00685,  -0.02398,   0.01028,   0.02562,  -0.00324,  -0.02579,  -0.03841,  -0.00775,   0.01389,  -0.04472,   0.01299,   0.04275,   0.01028,  -0.05554,   0.02201,  -0.00505,  -0.01496,   0.02471,  -0.00685,  -0.01496,  -0.01767,   0.00217,   0.00217,   0.03463,  -0.04112,   0.05718,  -0.00234,  -0.03841,  -0.01226,  -0.01677,   0.00307,   0.03012,   0.00938,   0.04636,  -0.02218,   0.02562,  -0.00955,   0.00487,  -0.02308,  -0.00324,  -0.05645,  -0.02669,  -0.03751,   0.00307,   0.02381,  -0.00414,   0.00938,   0.01119,  -0.01587,   0.00578,   0.00848,  -0.01136,   0.00668,   0.00848,  -0.02488,  -0.00414,   0.03193,   0.02652,  -0.00054,   0.00578,   0.02020,  -0.02038,  -0.00234,   0.02201,  -0.00505,   0.02562,  -0.01587,  -0.01136,  -0.01406,   0.02471,  -0.03480,  -0.01316,  -0.02218,  -0.00865,  -0.00685,   0.00848,  -0.03751,  -0.01406,   0.01209,  -0.02128,  -0.02398,  -0.01767,  -0.00505,  -0.04112,   0.00307,   0.00397,   0.00217,   0.03463,  -0.01767,   0.04365,   0.02381,  -0.04833,   0.01930,   0.03283,  -0.00144,  -0.00685,  -0.00054,  -0.03661,  -0.04563,  -0.02669,   0.01750,  -0.02308,  -0.01046,  -0.00144,   0.01209,   0.03103,   0.01660,  -0.00685,   0.03644,   0.01570,   0.02291,   0.00758,  -0.01857,   0.00127,   0.02562,   0.02111,  -0.00144,  -0.01226,   0.00938,   0.01570,   0.00127,   0.03373,  -0.00595,  -0.02939,  -0.05915,   0.00758,   0.03824,   0.03012,  -0.01857,  -0.01046,  -0.02849,  -0.00685,  -0.01046,  -0.00144,   0.01209,   0.01479,   0.00938,  -0.00144,  -0.01587,   0.00487,  -0.01136,   0.04545,   0.01570,  -0.03120,   0.03463,  -0.01046,   0.01028,  -0.02038,   0.00487,  -0.00595,   0.01479,   0.01840,   0.00037,  -0.03480,  -0.01136,   0.02742,   0.03193,  -0.00324,  -0.04112,  -0.03390,  -0.04021,   0.00037,   0.02832,  -0.01587,   0.04275,   0.02020,  -0.00775,  -0.00505,  -0.01226,  -0.00234,   0.00848,   0.02471,   0.00668,   0.00578,  -0.00054,   0.02291,   0.00938,  -0.01406,   0.02652,  -0.00595,   0.01389,  -0.03120,  -0.03120,   0.03914,  -0.02308,   0.01119,   0.01209,  -0.02759,  -0.00324,   0.01209,   0.02832,   0.03193,  -0.00144,  -0.02488,   0.01299,  -0.01767,   0.01028,   0.01660,   0.00938,   0.00307,  -0.00054,   0.00037,   0.02922,   0.02381,   0.00758,  -0.01046,   0.01570,   0.01028,  -0.01857,   0.01299,   0.00127,  -0.01496,   0.03103,   0.01299,   0.01209,  -0.02308,   0.02020,  -0.01677,   0.02111,   0.01570,  -0.00414,   0.05357,  -0.02579,  -0.01496,  -0.02939,   0.02201,   0.02201,  -0.00775,   0.02922,   0.01028,  -0.00685
  -0.01406,   0.03824,   0.01028,  -0.04292,   0.01660,  -0.00144,   0.03373,   0.02111,  -0.01857,  -0.01947,   0.01479,  -0.02308,  -0.01677,  -0.00685,   0.03012,   0.01570,   0.02562,   0.04095,   0.00758,   0.01209,   0.02381,   0.03553,   0.02020,   0.03553,   0.03644,   0.03283,   0.00217,  -0.00234,   0.01209,   0.06800,   0.01570,  -0.04653,  -0.01677,  -0.00234,  -0.02308,  -0.00685,   0.01028,   0.05267,  -0.00775,  -0.01316,   0.03103,   0.03373,   0.02020,  -0.03751,   0.02832,  -0.00955,   0.04455,  -0.00865,   0.00397,   0.01119,  -0.00144,  -0.05735,   0.00578,   0.00037,  -0.00414,  -0.01226,  -0.03030,  -0.00685,  -0.03390,  -0.01767,  -0.00505,  -0.00505,  -0.02669,  -0.00234,   0.02922,  -0.03931,  -0.00595,   0.01028,   0.01209,   0.00487,  -0.01046,  -0.03390,   0.03824,  -0.03661,   0.03103,  -0.00685,   0.01660,   0.01570,   0.01119,   0.00037,   0.02201,  -0.00505,  -0.03661,   0.01299,  -0.02669,  -0.01226,   0.01299,   0.01209,  -0.00414,   0.03644,   0.00397,  -0.00595,  -0.01857,   0.01119,  -0.00955,  -0.01677,   0.00307,  -0.03390,  -0.02488,  -0.04743,   0.00127,  -0.02218,  -0.04653,   0.01119,   0.02381,   0.00758,  -0.00505,  -0.03931,  -0.03751,   0.01028,  -0.03210,   0.00307,  -0.01496,   0.01570,  -0.00775,  -0.01046,  -0.02308,  -0.00054,   0.00217,   0.02111,  -0.00054,  -0.00775,   0.01930,  -0.00144,  -0.00865,  -0.00234,  -0.00054,   0.02381,   0.03012,   0.00487,   0.02291,  -0.03751,   0.01299,  -0.02849,   0.00037,   0.03012,   0.04365,  -0.00234,  -0.01857,  -0.00505,   0.01119,  -0.01947,   0.00307,   0.00578,   0.02562,   0.00037,  -0.03030,  -0.00505,   0.00758,  -0.02218,  -0.01947,  -0.01406,  -0.00144,  -0.00414,  -0.02849,   0.02562,   0.01389,  -0.00234,   0.00397,  -0.01406,  -0.03661,  -0.02939,   0.01299,   0.00668,  -0.02218,   0.00487,  -0.00595,   0.00668,   0.00668,   0.01028,  -0.01316,   0.03373,  -0.02398,  -0.00324,   0.00848,   0.01028,   0.03012,  -0.02849,  -0.00234,   0.03463,  -0.00505,  -0.03480,   0.00487,   0.01930,  -0.00505,  -0.00324,  -0.00595,  -0.02488,   0.01479,   0.04365,   0.00578,  -0.00144,   0.00307,  -0.02128,  -0.05013,   0.01209,  -0.03751,   0.00307,  -0.01857,   0.02742,   0.03914,  -0.00054,   0.00758,   0.03824,  -0.00685,   0.01299,  -0.03571,  -0.01857,  -0.00505,   0.01119,   0.01389,  -0.01226,  -0.00414,   0.00848,  -0.00414,   0.04004,   0.00758,   0.04545,   0.00397,   0.00307,  -0.00505,  -0.00505,  -0.02308,  -0.01136,  -0.00865,   0.01840,   0.01570,   0.03553,   0.03373,   0.00848,   0.01119,  -0.02849,  -0.03300,  -0.02849,   0.03824,   0.00127,  -0.00865,   0.00487,   0.02832,  -0.04382,   0.03644,  -0.01677,  -0.01496,  -0.00414,  -0.01136,   0.00217,   0.00487,  -0.01587,   0.00848,   0.02381,   0.00037,  -0.02939,  -0.03030,  -0.02488,   0.01299,   0.00487
  -0.03841,   0.01119,  -0.01136,  -0.03751,   0.02020,  -0.04833,   0.02471,   0.00668,   0.02020,   0.00037,  -0.00144,  -0.01226,  -0.01046,  -0.00054,  -0.00324,  -0.00595,   0.00217,   0.00578,  -0.02669,   0.02111,  -0.02669,   0.01028,   0.00668,   0.01028,  -0.00955,   0.01389,  -0.00865,  -0.00234,   0.03553,  -0.01226,  -0.04202,   0.01119,   0.01750,   0.00397,   0.01119,  -0.00144,   0.02201,   0.00217,  -0.04112,  -0.01046,   0.00938,   0.01209,  -0.05645,   0.01930,   0.00848,  -0.03841,   0.00487,   0.01660,   0.04455,   0.02111,   0.02742,   0.00397,  -0.01136,  -0.02308,  -0.01857,   0.00668,   0.00578,   0.01119,  -0.00595,  -0.01406,  -0.01226,  -0.02849,  -0.00414,  -0.03661,   0.03734,  -0.00414,   0.04275,   0.03463,  -0.02579,   0.05808,   0.02201,  -0.02939,  -0.00324,   0.00397,   0.02111,   0.00127,  -0.01857,  -0.02218,  -0.00955,   0.03373,   0.02471,  -0.01496,  -0.04021,  -0.02759,   0.01570,  -0.01406,   0.03193,   0.00487,  -0.00865,  -0.04112,   0.02291,  -0.00414,  -0.00324,  -0.01587,   0.02922,  -0.00505,  -0.01226,  -0.03931,  -0.01316,  -0.01136,   0.00578,   0.00397,   0.03553,  -0.02488,  -0.04021,   0.00217,   0.00217,  -0.03210,   0.00758,   0.00307,  -0.00234,   0.01119,   0.03553,   0.02832,   0.02381,  -0.00414,  -0.00234,   0.00848,   0.02020,  -0.01947,  -0.01587,  -0.01046,   0.02652,  -0.02128,   0.01750,  -0.01677,  -0.04112,  -0.02308,   0.00938,  -0.02218,  -0.01587,   0.00217,   0.05086,  -0.01046,  -0.00775,  -0.04472,   0.01209,   0.01479,  -0.02128,   0.02562,  -0.07087,   0.02020,  -0.04743,  -0.00054,  -0.01226,  -0.00054,  -0.03300,   0.01209,   0.03463,  -0.04112,   0.01479,  -0.02218,  -0.01226,   0.00848,   0.00397,  -0.04923,  -0.03120,  -0.01857,   0.04095,  -0.02218,  -0.00685,   0.00127,   0.01479,   0.00487,  -0.03661,   0.03193,   0.03644,  -0.00505,   0.02291,  -0.03120,  -0.00955,   0.04004,   0.01028,  -0.01947,   0.03012,   0.00307,   0.00487,   0.00037,  -0.01316,   0.04095,   0.00217,  -0.02398,  -0.03571,  -0.01857,   0.03373,  -0.04021,   0.02381,   0.02201,  -0.03030,  -0.00865,   0.00037,  -0.00685,  -0.00595,   0.02111,  -0.01677,  -0.06546,   0.01840,   0.00217,  -0.03210,   0.00397,  -0.00865,  -0.01136,   0.00127,  -0.00324,  -0.01947,   0.02381,  -0.01677,   0.00668,   0.00938,   0.00487,  -0.00234,  -0.03210,   0.01209,   0.01479,   0.00307,   0.07070,  -0.02218,   0.00848,  -0.01046,  -0.01046,  -0.01677,  -0.03661,   0.02832,   0.00668,  -0.02038,  -0.02038,  -0.00505,   0.02111,  -0.03120,  -0.02488,   0.00037,  -0.02398,   0.01750,  -0.01226,  -0.00865,   0.01299,   0.00307,   0.01750,   0.00037,  -0.00144,  -0.02488,  -0.02038,   0.01930,  -0.02218,   0.00848,   0.00487,   0.01209,  -0.00234,  -0.00324,  -0.05645,  -0.01857,  -0.02849,   0.01119,   0.02652,  -0.01316,   0.01570
   0.05086,  -0.02849,   0.01840,   0.00758,  -0.02759,  -0.03390,   0.02291,  -0.00054,   0.01750,   0.01119,   0.02291,  -0.00054,  -0.00685,  -0.00234,   0.01840,   0.01299,  -0.02849,   0.00487,  -0.00505,   0.04996,  -0.00595,  -0.00324,  -0.01496,  -0.03120,  -0.01677,   0.03553,   0.02291,   0.02291,   0.03103,  -0.00685,   0.02111,  -0.00685,  -0.01947,  -0.04112,  -0.04382,  -0.03480,   0.03373,   0.00037,   0.02201,  -0.00775,   0.01299,  -0.02398,   0.04816,   0.00397,  -0.00414,  -0.01316,  -0.01677,  -0.01947,   0.02922,  -0.05284,  -0.00054,   0.00397,   0.00758,   0.01119,  -0.02488,  -0.03480,  -0.03030,   0.00848,   0.03734,  -0.00234,  -0.02849,   0.00578,  -0.00414,  -0.01767,  -0.02398,  -0.00775,   0.00307,  -0.00505,  -0.00054,  -0.00775,   0.00487,  -0.01587,  -0.01226,  -0.04923,  -0.01767,   0.02652,  -0.00505,   0.00487,   0.00037,  -0.01136,   0.02471,  -0.02218,   0.02832,  -0.02669,   0.01389,  -0.01046,   0.02291,  -0.02849,  -0.02759,   0.03553,  -0.02488,   0.02471,  -0.00505,  -0.01406,  -0.02939,   0.02742,   0.02562,  -0.01406,  -0.01767,  -0.02669,   0.02111,   0.00397,   0.05177,   0.02562,  -0.01226,  -0.00955,   0.01750,  -0.01947,  -0.03571,   0.01479,   0.00848,   0.01570,  -0.02759,  -0.02308,  -0.01226,  -0.05013,  -0.02218,  -0.04382,  -0.02308,  -0.01767,   0.01840,  -0.00324,  -0.04021,  -0.05645,  -0.00955,  -0.01496,  -0.01767,  -0.02579,  -0.00775,   0.00487,  -0.00505,   0.03103,  -0.01406,  -0.00234,  -0.02038,  -0.03300,   0.04365,   0.02020,   0.01299,  -0.01136,  -0.02398,   0.03644,  -0.03751,  -0.02218,  -0.02398,  -0.02669,   0.04996,  -0.05104,  -0.02308,   0.01209,   0.00848,  -0.01947,   0.01660,   0.01840,   0.01389,  -0.02488,  -0.01136,  -0.00685,  -0.00505,   0.02742,   0.00668,  -0.05464,   0.01299,   0.00578,   0.02832,   0.00668,   0.03193,   0.01840,  -0.00054,  -0.02398,   0.01750,  -0.02218,   0.00307,   0.01389,   0.02562,   0.01479,  -0.02669,  -0.01046,  -0.00414,  -0.03390,  -0.02038,  -0.02669,  -0.00144,   0.01750,  -0.01496,  -0.01226,  -0.02669,  -0.00505,  -0.01226,   0.00758,  -0.02038,  -0.00685,   0.02291,   0.03463,  -0.00324,   0.01299,  -0.00505,   0.01119,  -0.04202,   0.00127,   0.00307,  -0.04653,   0.00307,  -0.04112,   0.00307,   0.00217,  -0.01046,   0.01660,   0.02020,  -0.01857,   0.02381,  -0.02669,   0.00307,  -0.00234,  -0.03120,  -0.00505,  -0.00775,   0.03103,   0.00578,   0.01750,  -0.00955,   0.02742,  -0.02488,  -0.01947,   0.00037,  -0.00955,  -0.05825,  -0.03751,   0.03553,  -0.00685,   0.02471,   0.01119,  -0.00144,  -0.03931,  -0.01226,  -0.02759,   0.03193,  -0.00324,   0.02471,  -0.01947,  -0.03300,  -0.04563,   0.02922,   0.02471,  -0.01136,  -0.05104,   0.02832,  -0.00324,  -0.01677,  -0.02579,  -0.02308,  -0.01226,  -0.04021,  -0.02038,  -0.01226,  -0.01587
   0.00578,  -0.01496,  -0.03030,  -0.01046,   0.04365,   0.03103,  -0.01496,  -0.01406,   0.01750,  -0.00505,  -0.03931,  -0.02849,   0.03373,  -0.00324,  -0.01136,  -0.01767,  -0.00955,   0.04726,   0.00487,  -0.03030,   0.00758,  -0.00144,   0.00668,   0.04816,   0.01479,   0.00848,   0.01840,   0.06078,   0.00668,   0.00037,  -0.06276,  -0.02669,   0.00848,   0.03463,  -0.00234,   0.02381,   0.02111,  -0.00595,  -0.00414,  -0.00324,  -0.00324,   0.03373,  -0.01226,  -0.01677,   0.01028,  -0.01767,   0.00037,  -0.03300,   0.01930,   0.00578,   0.03914,   0.00668,  -0.03480,   0.00758,  -0.04021,  -0.02579,   0.05177,  -0.01587,  -0.01496,  -0.01406,  -0.02488,   0.01750,   0.00487,  -0.01587,  -0.01677,  -0.00505,   0.02742,   0.01389,  -0.01677,   0.01299,  -0.03120,  -0.03120,  -0.01677,  -0.01406,  -0.00414,   0.00578,  -0.00865,   0.00487,  -0.01406,   0.04816,   0.01750,  -0.01587,  -0.00595,   0.04455,  -0.02759,   0.01389,   0.02832,  -0.03571,   0.01028,  -0.01316,   0.00487,  -0.01677,  -0.01046,   0.05718,   0.01389,  -0.00505,   0.04636,   0.01660,  -0.00685,  -0.00234,  -0.01857,   0.02832,  -0.01677,   0.00037,  -0.00144,  -0.01316,   0.01209,  -0.01496,  -0.02579,   0.01570,  -0.00685,  -0.02849,   0.01479,   0.00307,   0.02381,  -0.03210,   0.00397,  -0.00144,   0.00938,  -0.01677,  -0.05825,   0.01930,   0.00487,   0.00397,  -0.02398,   0.03463,   0.01299,  -0.01046,  -0.01316,   0.03012,   0.02652,  -0.02398,  -0.03300,  -0.00775,   0.04004,   0.02562,  -0.01857,   0.00217,  -0.01046,  -0.00595,   0.01930,  -0.00054,  -0.00144,   0.01209,   0.04906,  -0.02308,  -0.01947,  -0.00505,  -0.02759,   0.02111,  -0.01857,  -0.00324,   0.02291,  -0.02308,   0.00487,  -0.00414,  -0.02398,   0.02471,   0.02201,   0.00217,   0.02291,   0.00127,  -0.00054,   0.00217,   0.00578,   0.01209,  -0.00865,   0.01930,  -0.00234,  -0.00595,  -0.02579,   0.00848,  -0.04472,   0.02020,   0.01660,   0.01299,   0.04004,  -0.01226,   0.01389,  -0.00054,   0.01660,  -0.02488,   0.04095,  -0.03661,   0.01209,  -0.02849,  -0.01046,  -0.01496,  -0.01226,  -0.01947,  -0.00955,  -0.00414,   0.01209,   0.02201,   0.03283,  -0.00955,  -0.02038,  -0.00865,  -0.03300,   0.03193,   0.01660,  -0.00324,  -0.02218,  -0.02218,   0.02922,  -0.02579,  -0.01226,   0.00938,   0.00217,   0.00487,  -0.02218,   0.00397,  -0.00955,   0.00848,  -0.00144,   0.00758,  -0.02398,   0.01570,   0.00848,   0.00668,   0.03193,   0.02111,   0.00668,  -0.01226,  -0.01046,  -0.02759,   0.01389,  -0.00685,  -0.01947,  -0.02579,   0.00758,   0.04004,   0.03103,   0.03463,  -0.01046,  -0.02939,  -0.01496,  -0.00775,   0.01479,  -0.01226,   0.00848,  -0.00955,  -0.02939,  -0.00595,   0.03103,  -0.00955,  -0.00775,  -0.00054,  -0.00865,  -0.02128,  -0.02218,  -0.01767,   0.00938,   0.01840,  -0.02038,  -0.00865
   0.01840,   0.00758,   0.00217,   0.02020,   0.02291,   0.03824,   0.04365,   0.01119,   0.01930,  -0.01857,  -0.00685,  -0.00775,  -0.01587,  -0.03300,  -0.00865,  -0.01136,  -0.00414,  -0.00144,   0.02742,   0.01389,  -0.03030,  -0.04292,  -0.02669,   0.03012,  -0.02038,   0.00307,   0.00938,   0.06078,   0.04996,  -0.00865,   0.01479,   0.05447,   0.00487,  -0.01947,  -0.00775,   0.01660,   0.02742,   0.03644,   0.00938,  -0.04472,  -0.03751,   0.07161,   0.02652,   0.00307,  -0.01316,  -0.02939,   0.00397,  -0.00955,  -0.04833,  -0.01947,  -0.00054,   0.02562,   0.02111,   0.00217,   0.01209,  -0.02488,   0.01299,  -0.01046,  -0.00324,  -0.01496,   0.01119,   0.02381,   0.02922,   0.03193,  -0.02398,   0.01479,  -0.01406,  -0.00234,   0.03103,   0.01660,   0.00037,   0.06800,   0.00397,  -0.00234,   0.02020,   0.02742,  -0.00234,  -0.01767,   0.04275,  -0.02218,   0.03103,  -0.03390,   0.03914,   0.01119,  -0.01136,  -0.00505,   0.01840,  -0.00414,   0.00578,  -0.03841,   0.01209,  -0.00865,   0.01209,   0.06800,  -0.00865,   0.01479,   0.01930,  -0.02939,   0.02020,   0.04455,  -0.01406,  -0.04833,   0.00397,   0.01930,   0.04455,  -0.02579,  -0.02128,  -0.03661,  -0.03390,  -0.00685,   0.01570,   0.02111,   0.02020,   0.07341,   0.00217,   0.00668,  -0.02939,   0.02111,   0.01028,  -0.01046,   0.00938,  -0.01046,   0.05898,  -0.01767,   0.02922,   0.05177,  -0.04112,   0.00127,  -0.00054,  -0.02669,   0.00578,  -0.02759,   0.00037,  -0.01136,  -0.00865,  -0.02398,  -0.00955,   0.00578,  -0.02038,   0.04816,   0.04185,   0.03283,  -0.02759,  -0.00595,  -0.00775,   0.03644,   0.01119,  -0.00505,  -0.00865,   0.01570,   0.01028,  -0.00505,   0.05177,   0.01299,   0.02471,   0.02922,   0.01299,   0.03193,   0.00127,  -0.00234,  -0.01136,   0.01570,  -0.00324,   0.01209,   0.01028,   0.01299,   0.01028,   0.00037,  -0.02939,  -0.00955,   0.01119,  -0.00595,  -0.01677,  -0.01677,   0.01028,   0.00397,  -0.02398,  -0.01046,   0.01479,  -0.00775,   0.00487,   0.01479,   0.00217,   0.00668,   0.01209,  -0.01046,   0.00397,   0.01570,  -0.02849,   0.01209,   0.04004,  -0.03390,  -0.01496,   0.01930,   0.01750,   0.01930,   0.02381,  -0.01496,  -0.03751,  -0.02128,   0.00578,  -0.00144,   0.00397,  -0.01496,   0.01930,   0.01840,  -0.02759,   0.01750,   0.00487,   0.01028,  -0.01947,   0.00217,  -0.01226,   0.03373,   0.00938,   0.02742,  -0.00234,  -0.02218,  -0.03661,   0.00127,  -0.00685,  -0.02398,  -0.00144,   0.02562,  -0.01136,  -0.01406,   0.01209,   0.01119,  -0.00054,   0.00848,   0.00938,  -0.00685,  -0.01046,  -0.00775,   0.01930,  -0.01406,  -0.01767,   0.01119,   0.00037,  -0.00144,  -0.03571,   0.03734,  -0.02038,   0.00668,   0.00397,   0.02742,  -0.00144,  -0.00505,   0.03463,  -0.00234,   0.02471,  -0.01947,   0.00758,   0.00938,   0.00397,   0.02381
   0.00217,  -0.01767,   0.00307,   0.02201,  -0.01767,   0.00127,  -0.08079,   0.00487,   0.03734,  -0.00505,   0.00668,   0.03193,   0.03193,  -0.01046,  -0.01226,  -0.00685,   0.01660,   0.02020,  -0.00054,   0.04095,  -0.01046,  -0.02669,   0.01119,   0.01209,  -0.00144,   0.00037,  -0.00414,   0.01119,  -0.00054,   0.01028,   0.04004,   0.02832,   0.00037,   0.02020,  -0.00234,  -0.01587,  -0.01046,   0.00037,  -0.04923,   0.01209,  -0.03751,   0.02201,   0.00758,   0.02652,  -0.05104,  -0.00685,  -0.01226,   0.05537,   0.00487,   0.03193,   0.00397,  -0.03120,  -0.02128,  -0.00595,   0.00127,   0.01660,   0.02381,   0.00127,  -0.00505,  -0.00955,  -0.00144,  -0.02579,  -0.02849,  -0.01857,  -0.03480,   0.01840,   0.00487,   0.02742,   0.04185,  -0.02128,  -0.01857,   0.04095,   0.04275,  -0.04021,   0.01299,   0.00307,  -0.01406,   0.02111,   0.00127,  -0.03120,   0.03644,  -0.01677,  -0.02218,   0.00578,   0.00307,  -0.00144,  -0.01677,  -0.01316,  -0.05374,   0.00758,  -0.00685,   0.00217,   0.00578,   0.01840,   0.00938,  -0.00775,  -0.02759,  -0.00324,  -0.01677,   0.01840,   0.02742,   0.00758,  -0.01046,   0.05357,  -0.01226,   0.01479,  -0.03661,   0.00397,   0.00668,   0.02652,   0.03824,   0.02020,  -0.04021,  -0.01767,   0.00487,   0.01570,   0.03463,  -0.02759,   0.01389,  -0.00865,  -0.01857,   0.02381,   0.05808,  -0.01677,  -0.02128,   0.01930,   0.00938,  -0.00595,   0.04004,  -0.00775,   0.01209,   0.02742,   0.03463,   0.00037,   0.00397,  -0.00505,  -0.04292,   0.02742,   0.01570,  -0.00595,  -0.00775,   0.02832,  -0.01316,   0.02111,  -0.01496,  -0.00865,   0.01750,  -0.02038,   0.01209,  -0.02579,  -0.03480,   0.01930,   0.01119,  -0.00505,   0.02291,   0.00938,   0.01660,  -0.02398,   0.01930,  -0.02849,  -0.02759,  -0.02398,   0.02201,   0.03914,   0.00307,   0.00037,   0.04545,   0.01299,  -0.00595,  -0.00324,   0.04275,  -0.02038,  -0.02759,  -0.03030,  -0.03480,  -0.00775,   0.01479,   0.03012,   0.03463,   0.01750,   0.00307,  -0.01767,  -0.00775,   0.00397,   0.03644,   0.02111,  -0.03390,  -0.00685,  -0.02218,  -0.00595,   0.03012,  -0.03300,  -0.01496,   0.00758,   0.03463,  -0.02488,  -0.01587,   0.00487,   0.00217,   0.01840,  -0.00685,  -0.00414,   0.00217,   0.00848,   0.01209,  -0.01316,  -0.02939,   0.02020,   0.03373,  -0.02218,   0.00127,   0.03103,   0.00307,  -0.00595,   0.00307,  -0.00054,  -0.00595,   0.00758,  -0.00505,   0.04095,  -0.02398,   0.02201,   0.01389,   0.00938,   0.00397,   0.00668,  -0.03931,  -0.00595,   0.00487,   0.01119,  -0.00685,  -0.04833,   0.03103,   0.00487,   0.03103,   0.03734,  -0.00685,   0.05447,  -0.02308,  -0.01316,   0.03463,   0.02020,  -0.01406,   0.01209,  -0.01677,  -0.00414,  -0.01046,   0.03103,   0.03283,   0.02742,   0.01660,  -0.02939,   0.00938,  -0.00595,   0.00578,  -0.00775
   0.02291,   0.01840,  -0.00775,   0.00307,  -0.01046,  -0.01767,  -0.03661,   0.00217,  -0.01046,  -0.00775,  -0.00414,   0.00938,   0.03103,   0.00487,   0.00848,   0.00758,  -0.00414,  -0.02759,   0.04185,  -0.02849,   0.00217,  -0.02939,  -0.00685,  -0.01947,  -0.04382,   0.01750,  -0.00324,  -0.03751,   0.01930,   0.00578,  -0.02849,  -0.06366,   0.01119,   0.04455,   0.01299,   0.00668,  -0.04112,   0.01119,  -0.02669,  -0.06276,  -0.00685,  -0.03120,  -0.02218,  -0.03751,   0.02201,   0.03103,  -0.01496,  -0.02038,  -0.00144,   0.00668,   0.00217,   0.00487,   0.03824,  -0.00144,   0.00397,  -0.01046,   0.00127,   0.01930,  -0.00955,  -0.00505,   0.01389,   0.00217,  -0.01767,   0.00307,   0.02742,   0.00037,  -0.01406,   0.01209,  -0.00685,  -0.01226,  -0.01677,  -0.00865,  -0.00324,   0.01479,  -0.00595,  -0.01226,  -0.04382,  -0.01677,  -0.01226,  -0.00685,  -0.02488,   0.00307,   0.05086,   0.00487,  -0.03210,   0.01750,   0.00938,   0.02562,  -0.01046,  -0.00775,  -0.02218,   0.02111,  -0.00054,  -0.02308,  -0.02579,  -0.01947,   0.01750,  -0.02759,   0.00307,  -0.05013,   0.02652,   0.00578,   0.00397,  -0.02218,  -0.00054,  -0.02038,  -0.03931,  -0.00955,   0.00037,  -0.01947,  -0.03480,  -0.00144,  -0.00775,   0.00668,   0.01479,  -0.00955,   0.00848,  -0.01316,   0.02020,   0.00668,   0.01119,  -0.01947,   0.01570,   0.04185,  -0.00234,   0.02471,  -0.00775,   0.03373,  -0.02759,  -0.00324,   0.00668,  -0.01136,   0.04004,   0.03283,   0.00938,   0.02201,   0.01479,  -0.03480,   0.00758,   0.00848,   0.00397,  -0.05735,  -0.02488,  -0.02218,  -0.00685,  -0.02488,   0.01299,   0.00938,  -0.01587,   0.00127,   0.02020,   0.01209,  -0.01316,  -0.03210,  -0.02759,   0.02471,  -0.00685,   0.00037,   0.00397,   0.03463,  -0.00234,   0.01299,  -0.00505,   0.02201,  -0.00775,   0.02652,  -0.01316,  -0.00234,   0.03283,   0.00938,   0.00487,   0.00217,  -0.01316,  -0.02579,   0.00758,  -0.01226,  -0.02128,   0.03914,  -0.00685,  -0.00414,  -0.01857,   0.02922,   0.00127,  -0.04202,   0.01209,   0.01209,  -0.00234,   0.00938,  -0.00865,   0.01750,  -0.03751,  -0.01226,  -0.03390,   0.00487,   0.03012,   0.02652,   0.01389,   0.03463,  -0.02669,   0.00217,  -0.00775,  -0.01947,  -0.00144,   0.02471,  -0.01046,  -0.00685,   0.00487,   0.02471,   0.01479,  -0.00414,   0.02020,   0.02742,   0.00758,   0.02471,  -0.02669,   0.02471,   0.04365,   0.01209,  -0.00775,   0.01930,  -0.03390,   0.01299,   0.01209,   0.01930,   0.00938,  -0.02218,  -0.01857,   0.01299,  -0.01677,  -0.02579,   0.02381,   0.03553,   0.05357,   0.01028,   0.02111,  -0.02759,  -0.01046,  -0.01316,   0.04996,  -0.02038,  -0.03480,  -0.02759,   0.03914,  -0.01136,   0.02652,   0.02291,   0.03283,   0.00578,  -0.00054,  -0.00054,   0.00037,  -0.01226,  -0.01857,  -0.01496,   0.03734,   0.01750
  -0.02669,   0.01750,  -0.00414,   0.01840,  -0.00144,   0.04004,   0.01299,  -0.03300,  -0.00234,   0.00668,   0.02020,   0.00938,  -0.00595,   0.05177,  -0.00685,  -0.00054,  -0.00865,  -0.02849,   0.02111,  -0.01947,  -0.01316,   0.03463,  -0.02849,   0.03283,  -0.02669,  -0.00234,   0.01750,  -0.03661,  -0.00595,   0.01209,   0.00037,  -0.02038,   0.01570,   0.01930,  -0.01677,   0.01479,  -0.04923,   0.02111,  -0.01406,   0.00217,  -0.00324,  -0.02218,   0.02020,  -0.01046,   0.01209,   0.06078,   0.00668,   0.01299,  -0.02038,  -0.00414,  -0.00144,   0.02922,   0.00668,  -0.01587,  -0.02218,   0.00578,   0.05808,  -0.00414,   0.02652,  -0.01857,  -0.02398,   0.06349,  -0.00054,   0.04545,   0.00397,   0.01209,   0.00307,   0.03373,   0.02922,  -0.03751,   0.02201,  -0.01226,  -0.01677,   0.02020,  -0.00324,  -0.00414,   0.02291,  -0.01136,   0.01660,   0.02922,   0.03824,   0.02111,   0.03012,  -0.01226,   0.02742,   0.03012,   0.05898,   0.00037,  -0.01406,  -0.01767,  -0.01947,   0.01660,   0.04545,   0.00397,   0.04095,   0.02922,  -0.07178,  -0.02038,  -0.00505,   0.04996,   0.01479,   0.03193,  -0.01947,   0.02020,  -0.01587,  -0.04653,  -0.00685,   0.01840,   0.02742,   0.00668,   0.02922,   0.00758,  -0.02308,  -0.03571,  -0.01496,   0.03734,   0.02111,  -0.07178,   0.01119,  -0.01677,   0.02111,  -0.02759,   0.01028,   0.02020,  -0.01406,  -0.00144,   0.00487,  -0.03661,  -0.00685,  -0.02218,   0.01389,  -0.01947,  -0.01947,  -0.00324,   0.00037,   0.00037,   0.01209,  -0.01406,   0.01479,  -0.03751,  -0.00775,  -0.01587,  -0.04923,  -0.01496,   0.00307,  -0.03390,  -0.00234,   0.01660,   0.00397,  -0.02759,   0.01570,   0.00758,  -0.00054,  -0.02128,   0.00127,   0.05898,  -0.02218,  -0.02579,   0.01750,   0.04275,  -0.04472,  -0.05374,   0.00127,  -0.01677,   0.03463,   0.00668,  -0.02308,  -0.01587,   0.00668,   0.01750,  -0.01226,  -0.00865,  -0.00414,  -0.00324,  -0.00414,  -0.03571,  -0.01226,  -0.02849,   0.01750,  -0.00505,   0.00217,   0.02020,  -0.04472,   0.00578,  -0.01947,  -0.01767,   0.01660,  -0.00595,  -0.02038,  -0.05104,   0.05808,   0.03012,  -0.01136,  -0.02038,  -0.02488,   0.00217,   0.02291,  -0.00955,  -0.01767,  -0.01677,   0.04726,   0.01840,   0.00127,  -0.04743,  -0.02759,   0.00397,  -0.00595,  -0.02308,   0.02020,  -0.01496,  -0.00234,  -0.00865,   0.01840,   0.00217,   0.00037,  -0.00234,  -0.00955,   0.03103,   0.00397,  -0.01406,   0.03103,   0.04455,  -0.01046,   0.01209,   0.00938,  -0.00234,  -0.00865,  -0.02128,   0.00848,  -0.01226,   0.00578,   0.01479,  -0.05013,   0.00217,  -0.00955,   0.00578,   0.02111,  -0.02939,  -0.01046,  -0.00505,  -0.00505,  -0.01136,  -0.01677,   0.00938,   0.00307,  -0.01857,  -0.02669,   0.01660,   0.02020,  -0.00234,  -0.01136,   0.01570,   0.00668,   0.00848,   0.02291,   0.04365
   0.00848,  -0.01046,   0.01119,  -0.00865,   0.00668,  -0.04923,   0.05718,   0.00037,  -0.00865,  -0.01316,   0.03103,  -0.04292,   0.00578,  -0.00955,   0.00938,  -0.01046,  -0.01587,   0.01119,   0.00217,   0.02562,  -0.02939,   0.03012,  -0.02218,   0.04545,  -0.02308,   0.03193,  -0.00054,  -0.04563,  -0.00595,   0.02832,   0.01479,   0.02471,   0.02020,  -0.00414,  -0.00775,  -0.04833,  -0.02939,   0.00397,  -0.03751,  -0.01316,  -0.00595,  -0.01677,   0.02562,  -0.05825,   0.01840,   0.01028,  -0.00775,   0.00938,  -0.00595,   0.02471,  -0.01046,   0.03553,   0.00397,  -0.01316,   0.03373,  -0.01226,  -0.00054,  -0.01046,   0.03283,   0.01570,  -0.00414,   0.00217,  -0.00144,   0.03644,   0.01389,  -0.01767,  -0.02849,  -0.02218,  -0.01316,  -0.02038,   0.01028,   0.01660,  -0.00595,   0.02742,  -0.00595,  -0.00865,  -0.02579,   0.02922,  -0.02669,  -0.03751,  -0.00595,   0.00127,   0.06439,   0.02020,   0.04545,   0.00397,  -0.01046,  -0.00595,  -0.04743,  -0.02849,  -0.00775,  -0.00144,  -0.01587,   0.04816,  -0.01587,   0.02381,  -0.01406,   0.00758,  -0.01136,  -0.03571,   0.02291,   0.00217,  -0.03030,  -0.01857,   0.00217,  -0.03300,   0.00397,  -0.00685,  -0.02669,  -0.02128,  -0.02849,  -0.05104,  -0.03120,   0.00487,   0.01660,  -0.01767,  -0.03661,   0.01660,  -0.00775,  -0.00234,   0.00127,  -0.00324,  -0.04112,  -0.00054,  -0.01406,  -0.01226,  -0.01316,  -0.02398,   0.00037,  -0.00144,  -0.04112,   0.00758,  -0.02849,   0.00848,  -0.00775,   0.00758,  -0.00324,  -0.01136,  -0.00685,   0.00668,  -0.01767,   0.00487,  -0.05464,   0.02201,   0.01930,   0.00668,   0.00938,  -0.00685,   0.01299,   0.02111,  -0.02038,  -0.00865,   0.03193,  -0.00505,   0.01028,   0.01660,   0.03283,   0.01660,   0.01299,   0.02471,   0.02111,  -0.01406,   0.01389,  -0.00685,  -0.02038,   0.00397,  -0.00865,   0.05537,   0.00217,   0.00487,  -0.00324,  -0.02038,   0.00578,   0.01119,  -0.01046,  -0.00775,   0.02201,  -0.00324,  -0.00685,  -0.02038,   0.02922,  -0.03210,   0.02201,  -0.01857,   0.05086,   0.00217,  -0.02218,  -0.00685,  -0.00234,   0.01750,  -0.01496,  -0.02128,   0.00037,   0.00217,  -0.02398,   0.00758,  -0.00595,  -0.00054,  -0.02488,   0.01299,   0.02020,   0.00578,   0.00037,   0.01209,   0.00668,   0.00668,  -0.02398,  -0.02218,  -0.01406,   0.00487,   0.00307,  -0.00685,   0.00037,  -0.01316,   0.03373,   0.00578,   0.01209,   0.00848,  -0.04923,  -0.01496,   0.01750,   0.01028,  -0.01677,  -0.03931,  -0.01677,  -0.05554,   0.02381,  -0.06276,  -0.00234,   0.00217,   0.01840,   0.02562,  -0.01136,   0.02201,  -0.01136,   0.01840,  -0.00234,   0.00668,   0.03914,  -0.00775,  -0.02038,  -0.00144,   0.01299,  -0.02398,  -0.01136,  -0.04653,  -0.02759,  -0.01587,   0.02471,   0.03193,   0.04095,  -0.01046,   0.02201,   0.01389,  -0.01316,   0.05718
  -0.02218,  -0.00595,   0.02020,   0.00578,   0.02111,   0.02291,  -0.02759,  -0.00144,  -0.00775,   0.02922,  -0.06366,   0.02201,   0.01479,  -0.02038,  -0.01316,   0.01389,  -0.00775,  -0.02759,   0.01299,   0.00307,   0.00307,  -0.00955,   0.00668,  -0.01767,   0.00307,  -0.02128,  -0.00414,   0.00578,  -0.00414,  -0.00595,   0.01750,  -0.01316,  -0.00685,  -0.00414,  -0.02398,  -0.01767,   0.01930,   0.04726,   0.01479,   0.00217,  -0.00685,   0.00487,  -0.00505,   0.01840,  -0.00595,  -0.01587,  -0.00955,  -0.00144,   0.00848,   0.00758,  -0.01226,  -0.00054,   0.01660,   0.02562,  -0.01767,  -0.03480,  -0.00955,  -0.00505,   0.01299,   0.02832,  -0.01046,   0.01570,   0.00848,   0.00668,  -0.00505,  -0.01496,  -0.00775,   0.00487,  -0.00865,   0.01389,   0.03734,  -0.02128,   0.00037,   0.02742,   0.00848,  -0.00865,  -0.04112,   0.00578,   0.02832,  -0.02759,   0.03012,  -0.02939,   0.04185,   0.01119,  -0.03210,  -0.02038,   0.00578,   0.02742,   0.02381,  -0.00595,   0.03463,   0.01389,   0.02201,   0.01750,   0.01479,  -0.02308,   0.00487,   0.02020,  -0.01587,   0.01119,   0.00217,  -0.00505,   0.03283,  -0.01496,   0.03193,   0.00487,   0.00127,  -0.02579,   0.00938,  -0.01226,  -0.00054,  -0.00775,   0.02832,  -0.01136,  -0.03571,  -0.00505,  -0.01857,   0.01209,  -0.00685,  -0.00324,   0.01479,   0.01570,   0.01930,  -0.01136,  -0.02218,   0.00307,   0.01660,  -0.05104,   0.02201,  -0.03120,  -0.00505,  -0.00414,   0.00217,  -0.04292,  -0.00234,  -0.01316,  -0.00324,   0.01119,   0.01209,   0.05177,   0.03012,  -0.00414,  -0.00054,  -0.00955,   0.00307,   0.06890,  -0.01316,  -0.01677,  -0.00685,   0.03463,   0.02381,   0.03193,   0.01389,  -0.00054,  -0.03030,   0.00217,   0.02652,   0.02020,  -0.02398,  -0.02488,  -0.00505,  -0.00505,   0.00758,  -0.00505,  -0.02579,   0.01840,   0.00217,  -0.01947,   0.07882,   0.01209,  -0.00775,   0.03283,   0.01660,   0.00938,  -0.03931,   0.01930,  -0.00955,   0.02291,  -0.02669,  -0.03480,   0.00307,   0.01479,   0.01750,   0.02111,   0.00127,   0.00578,  -0.01677,   0.00487,   0.01930,   0.00307,   0.00938,  -0.02128,   0.03373,   0.03463,  -0.00865,  -0.03661,   0.00848,   0.02381,  -0.02038,  -0.00234,   0.04275,  -0.06637,   0.00668,  -0.01136,  -0.00324,   0.01209,  -0.00595,  -0.00144,  -0.00685,  -0.02308,   0.00217,  -0.00054,  -0.01496,   0.00758,  -0.04743,  -0.03841,   0.01389,  -0.02849,   0.00307,   0.00127,  -0.00144,   0.03644,   0.01570,  -0.00775,   0.00217,  -0.02218,  -0.01857,   0.00848,   0.00487,   0.01479,  -0.00324,   0.00037,  -0.02488,   0.04545,   0.01389,  -0.01496,  -0.03571,  -0.03390,  -0.00595,   0.01750,   0.00397,  -0.00775,  -0.03751,   0.01299,   0.03193,   0.01840,  -0.02669,   0.00307,   0.02020,  -0.02759,   0.01119,   0.02471,  -0.00234,   0.00037,  -0.03030,   0.01028
