   0.05309,  -0.01391,  -0.05451,  -0.05857,   0.06731,   0.07949,   0.02670,  -0.03218,  -0.00172,  -0.00985,  -0.01594,  -0.07685,  -0.01391,  -0.12760,  -0.11948,   0.00843,  -0.04233,   0.12009,  -0.04233,  -0.02609,  -0.03015,  -0.12557,   0.01046,   0.09979,   0.00234,   0.01249,  -0.01188,  -0.01391,  -0.04842,   0.07949,   0.15055,   0.07949,   0.05715,   0.07543,   0.11603,   0.01046,   0.01046,   0.02264,  -0.08903,   0.02061,  -0.01188,  -0.03827,   0.06122,   0.00234,   0.01249,  -0.00375,  -0.01391,  -0.06872,   0.08558,  -0.00782,  -0.06263,  -0.06060,  -0.00782,   0.06528,  -0.08091,  -0.03624,  -0.04639,  -0.10527,   0.01655,   0.01249,   0.03482,   0.05715,  -0.01188,  -0.04233,  -0.02000,  -0.02203,  -0.01594,  -0.04436,   0.02467,  -0.01391,  -0.10324,   0.00234,  -0.08497,   0.02264,  -0.12557,  -0.12354,   0.11197,  -0.01188,   0.02670,   0.00437,  -0.09512,   0.02264,   0.03279,   0.04903,  -0.01797,   0.06325,   0.00640,   0.00031,   0.06934,  -0.00782,  -0.02203,  -0.07279,  -0.05045,   0.02873,  -0.03015,  -0.03827,   0.03279,   0.00234,   0.04700,  -0.05045,   0.00843,   0.02467,  -0.00782,  -0.02609,   0.00640,  -0.04030,   0.06325,  -0.03421,   0.02873,  -0.02406,  -0.03624,   0.02467,   0.00640,  -0.00985,   0.07949,  -0.06466,   0.06325,   0.00031,  -0.08294,  -0.00375,  -0.03421,   0.05106,  -0.06060,   0.06325,   0.02264,   0.03888,  -0.01188,  -0.00172,   0.01858,   0.06934,  -0.04639,  -0.01797,   0.00234,  -0.03421,  -0.06466,  -0.04233,  -0.01797,  -0.01594,  -0.00782,  -0.05654,  -0.00782,   0.06325,   0.05715,   0.07949,  -0.01391,   0.06731,  -0.04030,  -0.02000,   0.05106,   0.06731,   0.01046,   0.02264,   0.12009,   0.17897,   0.07746,  -0.06060,   0.00234,   0.01452,   0.02670,  -0.07888,   0.00640,  -0.03015,   0.00843,  -0.01797,  -0.02406,  -0.04233,  -0.17227,  -0.07888,   0.01249,   0.05715,  -0.00172,   0.12822,   0.07137,   0.06731,   0.00234,   0.17085,   0.03279,  -0.11948,  -0.01188,  -0.03421,   0.02264,   0.02061,   0.10385,   0.05715,  -0.03421,  -0.06466,   0.04903,  -0.07075,   0.04700,   0.20334,   0.06934,   0.04497,   0.01858,  -0.00375,  -0.09106,   0.05106,   0.04091,  -0.00172,   0.01655,  -0.01797,   0.10994,  -0.03015,   0.00640,   0.03076,  -0.08294,  -0.00578,  -0.06263,   0.02873,   0.01249,  -0.01594,   0.00031,  -0.01594,   0.01046,  -0.03624,   0.03482,  -0.00172,   0.04091,  -0.02203,  -0.04436,   0.01655,  -0.09106,   0.09370,  -0.03624,  -0.09309,   0.03482,  -0.03015,   0.05309,  -0.05045,  -0.05451,   0.02061,  -0.04842,  -0.03624,   0.04700,   0.02670,   0.03888,  -0.04030,   0.01249,  -0.06263,  -0.05451,  -0.00375,  -0.02000,   0.06731,  -0.06872,  -0.17430,   0.00843,   0.00843,   0.04294,  -0.08700,   0.04903,   0.03888,  -0.01391,  -0.07075,   0.01249,  -0.03015,  -0.11136,  -0.01594
   0.01452,   0.08355,  -0.01188,  -0.04436,   0.01249,   0.01655,  -0.01188,  -0.10324,   0.02264,   0.05512,  -0.02812,  -0.01391,   0.04700,   0.04903,   0.03279,  -0.07075,   0.04497,   0.04700,   0.01858,   0.06325,  -0.00375,   0.03888,  -0.09106,   0.05309,   0.05106,  -0.02812,   0.02264,  -0.07482,  -0.02406,  -0.01188,  -0.01188,  -0.02609,  -0.06263,  -0.02609,  -0.00172,  -0.00172,   0.02264,   0.09167,   0.07340,  -0.06466,  -0.05857,  -0.03218,   0.04497,  -0.03015,   0.01858,  -0.04436,   0.01452,   0.00437,   0.04497,  -0.03624,  -0.02203,  -0.02609,  -0.05654,   0.07543,   0.00437,   0.02670,  -0.00985,  -0.09918,   0.01858,   0.02467,  -0.00782,  -0.01391,   0.01046,   0.06325,  -0.00985,   0.04294,  -0.00782,   0.03076,   0.09573,   0.05106,   0.03076,   0.00843,   0.08964,  -0.00375,  -0.03218,   0.01655,   0.06934,   0.03685,   0.02467,  -0.02812,   0.03888,   0.06528,  -0.02812,  -0.01391,   0.00437,   0.00234,   0.00234,   0.10182,  -0.04233,   0.00234,  -0.04233,   0.01249,   0.00234,   0.01249,   0.03888,  -0.00172,   0.04091,   0.04903,   0.01655,  -0.05451,   0.07543,  -0.00782,  -0.04030,   0.02061,   0.00437,   0.01858,  -0.03218,   0.02467,   0.00640,  -0.05451,   0.00843,  -0.03827,   0.04700,   0.05309,  -0.00172,  -0.00172,   0.08964,  -0.00578,  -0.00172,  -0.00782,   0.07949,   0.01655,  -0.05045,   0.01046,   0.03685,   0.03279,  -0.00172,   0.03888,  -0.02000,   0.08558,  -0.04030,   0.01046,   0.01249,  -0.03015,   0.03076,  -0.03827,   0.04091,   0.04091,  -0.01797,   0.04700,  -0.05654,  -0.00172,   0.08152,   0.03685,   0.01249,   0.05918,  -0.00578,   0.04294,  -0.00782,  -0.04436,   0.02873,   0.04294,   0.06325,  -0.02812,  -0.01797,  -0.05451,   0.00234,   0.01655,  -0.00782,   0.04700,   0.04497,  -0.07075,  -0.01391,   0.05106,   0.01858,   0.02061,  -0.02000,  -0.00172,   0.00843,   0.03482,  -0.06263,   0.02467,   0.04700,  -0.01797,  -0.00578,   0.08761,   0.02873,  -0.00985,  -0.05654,  -0.00375,   0.00843,  -0.04639,   0.06325,  -0.00172,   0.02264,  -0.05451,  -0.05857,   0.00843,   0.03279,   0.03279,   0.07137,   0.00234,   0.02061,   0.02061,  -0.03827,  -0.03421,   0.07340,  -0.01797,  -0.00375,   0.01858,   0.06731,   0.02467,  -0.02609,   0.01655,  -0.04436,  -0.00172,  -0.00782,  -0.03015,   0.00031,  -0.01391,   0.00437,  -0.06263,   0.02264,   0.02670,  -0.00172,   0.04497,   0.04700,   0.08152,   0.04091,  -0.02203,   0.00031,   0.02467,   0.07543,  -0.02406,   0.01655,  -0.01594,   0.02467,  -0.02000,  -0.01797,  -0.00578,   0.03888,   0.06122,   0.06528,  -0.00578,  -0.00782,  -0.01391,  -0.01188,   0.02264,  -0.01391,   0.02873,   0.00234,   0.00234,  -0.03827,  -0.00375,  -0.02000,   0.02264,   0.01046,   0.02264,  -0.05857,  -0.02203,   0.01452,   0.09167,  -0.00578,   0.01452,  -0.01188,   0.08964
  -0.02812,   0.06731,   0.00031,   0.06325,   0.20943,  -0.02812,  -0.01188,  -0.00172,   0.04497,   0.02873,  -0.03421,   0.09979,  -0.06060,  -0.00375,   0.04903,  -0.00172,  -0.05045,   0.02061,   0.01249,   0.03685,  -0.03624,  -0.04030,  -0.05654,   0.04091,  -0.04639,  -0.00985,   0.04497,   0.02873,   0.07340,   0.05715,  -0.04639,  -0.07075,  -0.02203,   0.04294,  -0.04842,  -0.01188,   0.09370,   0.08355,   0.05918,   0.04294,  -0.01594,  -0.05451,  -0.01188,  -0.03421,  -0.04030,  -0.00782,  -0.02609,  -0.00375,   0.00437,  -0.10933,   0.06528,  -0.07888,   0.04294,  -0.03218,  -0.04233,  -0.02000,  -0.02203,  -0.08294,  -0.04639,  -0.03421,   0.02467,   0.04700,   0.03685,   0.02264,  -0.03421,   0.03685,  -0.06669,  -0.04030,   0.00843,   0.07949,   0.08761,  -0.06466,   0.05106,  -0.06263,   0.07137,   0.01452,  -0.08091,  -0.01391,  -0.00375,   0.01249,   0.04700,  -0.01797,  -0.01594,   0.05309,   0.01452,  -0.01594,  -0.02203,  -0.01797,  -0.04233,   0.00031,  -0.00985,   0.00640,   0.00234,   0.00234,   0.00031,   0.00234,  -0.01391,  -0.02812,  -0.03827,   0.00640,   0.00640,   0.01046,   0.02873,   0.01046,  -0.04233,   0.03076,  -0.02812,   0.05715,   0.00031,   0.04497,   0.07137,   0.01046,  -0.00578,   0.00031,  -0.01594,   0.01858,  -0.07075,   0.05918,  -0.10121,  -0.01797,   0.01452,  -0.04030,   0.00843,   0.01249,   0.00843,  -0.05857,  -0.05654,   0.02873,  -0.02406,  -0.01391,  -0.02609,   0.01858,  -0.11136,   0.01046,   0.00640,  -0.01594,   0.03076,  -0.04030,   0.05106,  -0.00578,  -0.04436,   0.01249,   0.07949,   0.08964,  -0.01188,  -0.04030,   0.04903,   0.00031,  -0.05248,  -0.02000,  -0.01797,   0.03685,  -0.05248,   0.02264,  -0.07279,   0.00843,  -0.02812,   0.10182,  -0.07482,  -0.01594,   0.00640,  -0.00578,  -0.04233,   0.00640,  -0.07075,   0.02061,   0.06325,  -0.11948,   0.04903,  -0.06263,  -0.03827,  -0.00375,  -0.03421,   0.01858,  -0.01594,  -0.04233,  -0.01188,  -0.03421,  -0.00375,   0.02873,  -0.06060,  -0.04233,  -0.01188,  -0.00578,  -0.02609,  -0.06060,  -0.05654,   0.14852,   0.05512,  -0.00375,  -0.06466,  -0.04233,  -0.00375,   0.03685,  -0.02812,   0.02264,   0.04903,  -0.02203,  -0.00578,  -0.03218,   0.01046,  -0.02203,  -0.02000,   0.06528,  -0.03218,   0.01655,   0.02670,  -0.02609,   0.03279,   0.03279,   0.05512,  -0.02406,  -0.01391,  -0.03218,   0.03279,   0.00640,  -0.01797,  -0.06872,   0.04294,   0.09167,   0.01858,   0.03279,   0.06731,   0.01858,   0.06122,  -0.05654,   0.00843,  -0.00782,  -0.03421,  -0.01391,   0.05512,   0.02061,  -0.03015,  -0.04842,   0.03685,  -0.03015,  -0.06060,  -0.00985,   0.03076,  -0.04436,  -0.02000,  -0.03624,  -0.06669,  -0.05248,  -0.05045,   0.06122,  -0.05451,   0.12618,  -0.03218,  -0.07888,   0.00031,  -0.06872,  -0.01594,  -0.03218,   0.02670,   0.06122
   0.00031,   0.07340,   0.08964,   0.06325,   0.05106,  -0.04436,   0.01655,   0.04091,  -0.02609,  -0.06263,  -0.00172,   0.00640,   0.04091,  -0.01797,  -0.01797,  -0.03015,  -0.00578,  -0.00172,   0.01858,   0.05309,   0.02264,   0.01655,   0.02061,   0.01249,  -0.03421,   0.00234,   0.04294,   0.00234,  -0.02203,  -0.02203,   0.00640,  -0.03015,  -0.06466,  -0.04639,   0.04700,   0.04700,  -0.03624,  -0.04639,  -0.02000,   0.02061,   0.00234,   0.03279,   0.04091,   0.01655,   0.02061,  -0.01188,   0.01046,   0.03888,  -0.07075,  -0.02812,   0.01858,   0.01858,  -0.00578,  -0.04436,   0.02264,   0.05309,   0.03888,   0.04091,  -0.00578,   0.02467,   0.00640,   0.01249,   0.01046,   0.11806,   0.02873,   0.01858,   0.01046,   0.03279,  -0.10730,  -0.00985,  -0.01797,  -0.07482,   0.04091,  -0.04639,  -0.02609,  -0.02000,   0.00234,  -0.02406,   0.05512,   0.00640,   0.04497,  -0.04233,   0.03076,   0.07137,  -0.06466,  -0.02000,   0.03888,   0.03076,   0.02061,   0.06122,  -0.01594,   0.01046,  -0.02406,  -0.02812,   0.04903,  -0.02406,   0.02467,  -0.02203,  -0.00172,  -0.05654,   0.02061,  -0.02203,   0.01452,   0.12618,   0.00640,  -0.02812,  -0.01594,  -0.01391,  -0.04639,   0.04700,   0.05918,  -0.00985,  -0.05654,   0.01046,   0.00640,  -0.07685,  -0.06669,  -0.05045,   0.07137,  -0.05451,   0.08964,  -0.02812,   0.01249,  -0.00782,   0.02467,   0.01858,   0.03685,   0.08761,  -0.00578,   0.00843,   0.04497,  -0.00782,  -0.03624,   0.02061,  -0.05654,   0.02873,  -0.03827,   0.00437,  -0.02609,  -0.04842,   0.04903,   0.00031,  -0.01391,  -0.00172,  -0.02000,  -0.01391,   0.00843,  -0.00985,   0.00234,   0.00640,   0.00437,  -0.01391,   0.08355,  -0.06466,   0.09167,   0.01858,  -0.05248,   0.00031,   0.01046,   0.02264,   0.06934,  -0.02609,   0.03076,   0.06731,  -0.01188,   0.03279,   0.00640,   0.02467,  -0.00375,  -0.04233,   0.00640,  -0.01797,  -0.05654,   0.04294,  -0.01797,   0.02670,   0.00640,   0.02873,  -0.00578,  -0.00985,   0.02061,   0.02670,  -0.06872,  -0.05248,  -0.00375,   0.07746,  -0.00172,   0.02264,  -0.02812,  -0.03827,   0.01452,  -0.03218,  -0.00578,   0.04903,  -0.01188,  -0.01594,   0.00031,  -0.03421,  -0.00375,  -0.02406,  -0.03218,   0.02264,   0.01046,  -0.06466,   0.02873,  -0.04842,  -0.03624,   0.06325,  -0.02203,  -0.05451,   0.01452,  -0.02000,   0.02264,  -0.00172,   0.00843,  -0.03421,  -0.07279,   0.01046,   0.00640,   0.00234,  -0.03218,  -0.03218,   0.02670,   0.04497,   0.00843,   0.00031,  -0.02000,  -0.00375,  -0.04030,  -0.03827,  -0.00375,   0.00031,  -0.00985,  -0.07888,   0.02264,   0.03685,  -0.06060,  -0.01797,  -0.01391,   0.00843,   0.08355,  -0.06669,   0.06731,   0.00031,   0.01452,   0.01046,  -0.01594,   0.01046,   0.02873,   0.03279,  -0.03218,   0.09573,   0.03076,  -0.03827,   0.06934,  -0.00985
   0.04903,   0.11400,   0.10385,   0.07543,  -0.06263,   0.06528,   0.04091,   0.03888,   0.02873,  -0.03421,   0.09167,   0.00437,   0.03685,   0.08558,   0.03888,  -0.13572,   0.08355,   0.04091,  -0.02406,   0.08152,   0.02061,   0.11603,  -0.08497,   0.07340,  -0.02000,   0.02061,  -0.05045,  -0.02000,  -0.08700,  -0.09106,   0.06122,  -0.09918,  -0.03218,  -0.09715,   0.03685,  -0.06872,  -0.06669,   0.14852,   0.09370,   0.19522,  -0.00578,   0.02873,  -0.05248,   0.05918,  -0.04842,   0.06122,   0.03482,   0.03685,  -0.21694,   0.05918,  -0.02609,   0.26628,   0.05918,  -0.03624,   0.07137,  -0.01391,   0.17085,   0.03076,   0.02467,   0.03482,  -0.06466,   0.01858,   0.01452,   0.04700,   0.02467,   0.02873,   0.05512,   0.02061,   0.00031,   0.10182,   0.00234,  -0.08903,  -0.05451,   0.03482,   0.07746,  -0.03624,  -0.03015,   0.08355,   0.03888,   0.05715,  -0.14385,  -0.02812,  -0.05248,   0.08761,  -0.08497,   0.07340,   0.01452,   0.07340,  -0.00578,   0.04700,   0.04091,  -0.00782,  -0.02406,   0.05715,   0.11197,  -0.00172,  -0.03421,   0.05309,   0.00437,  -0.04436,  -0.04030,  -0.03015,  -0.02000,   0.04294,  -0.01797,  -0.13572,   0.02061,   0.12212,   0.15055,   0.02264,   0.03888,   0.03076,  -0.09106,  -0.00985,   0.07340,   0.03076,   0.09167,   0.03888,  -0.10121,  -0.02609,   0.01655,   0.03888,   0.10588,  -0.11136,  -0.04030,  -0.09106,  -0.00375,   0.01655,  -0.14182,  -0.10730,  -0.03421,  -0.00782,  -0.08091,  -0.01391,   0.11603,  -0.04639,  -0.00578,   0.10385,  -0.09512,  -0.01188,   0.07746,  -0.02203,  -0.02406,  -0.20069,   0.14040,  -0.03827,   0.03076,  -0.06060,   0.02467,   0.04091,  -0.00985,   0.00640,  -0.00782,   0.02061,   0.06731,   0.05512,  -0.00782,   0.08152,   0.04903,  -0.03015,   0.04294,  -0.05857,   0.10182,  -0.02812,  -0.11948,  -0.00985,   0.09776,   0.02467,  -0.04030,  -0.00578,   0.05715,  -0.03827,  -0.02609,   0.03279,  -0.02406,  -0.15806,  -0.01797,   0.23582,   0.10182,   0.00234,   0.04497,  -0.06060,  -0.09106,  -0.16618,   0.01858,   0.01452,  -0.01188,  -0.09512,  -0.00375,  -0.06872,  -0.07075,   0.00437,   0.03888,   0.06528,   0.00640,  -0.09106,  -0.09918,  -0.05857,  -0.02812,  -0.08091,  -0.00782,   0.05715,   0.01858,  -0.07685,   0.03888,   0.01858,   0.03482,   0.03685,  -0.00985,  -0.08294,  -0.03421,   0.00031,  -0.04639,   0.14243,  -0.02000,  -0.05857,  -0.10527,   0.19725,  -0.11542,   0.00234,  -0.03421,  -0.05654,   0.01452,  -0.03218,   0.11603,  -0.12760,  -0.01188,   0.05715,  -0.00782,   0.01452,   0.01452,   0.00031,   0.07543,  -0.05045,  -0.14182,   0.02061,  -0.13572,   0.11806,  -0.05654,   0.06731,  -0.01594,   0.06528,   0.04497,  -0.02000,   0.07340,   0.02264,   0.13837,   0.02873,   0.04091,   0.03482,  -0.04030,   0.10588,   0.07543,   0.03482,   0.00640,  -0.09715
   0.03685,  -0.04639,   0.03482,   0.01655,   0.01858,   0.02061,  -0.03015,   0.02670,  -0.05451,  -0.04436,   0.00437,   0.03076,  -0.03218,  -0.06263,   0.01655,   0.00234,   0.07340,  -0.00172,  -0.02000,  -0.02609,  -0.00782,   0.03482,  -0.03421,  -0.04030,   0.00031,  -0.03015,  -0.01797,   0.00843,  -0.05045,   0.00640,   0.03685,  -0.00782,  -0.02406,   0.00843,   0.07949,   0.00031,  -0.00985,  -0.00375,  -0.01797,   0.01046,  -0.02609,   0.02873,  -0.05248,   0.00234,  -0.03015,   0.04700,   0.00031,  -0.06263,  -0.06669,  -0.01188,  -0.02406,  -0.00782,  -0.01391,  -0.04436,   0.01046,   0.00843,   0.01858,  -0.03218,  -0.06263,  -0.03827,  -0.00985,  -0.02812,  -0.00578,   0.00437,  -0.04436,   0.02670,   0.02061,   0.01046,  -0.02203,  -0.05045,  -0.02812,   0.00640,  -0.02406,   0.01655,  -0.02609,   0.01655,  -0.08091,  -0.01391,  -0.01391,  -0.02406,   0.00234,  -0.01188,  -0.00985,  -0.02000,   0.02264,  -0.05451,   0.02670,   0.03279,  -0.03421,  -0.03421,   0.02264,  -0.04030,  -0.01594,  -0.00782,   0.02264,  -0.01594,   0.00843,  -0.02609,   0.00234,  -0.04639,  -0.03624,  -0.03015,  -0.02203,  -0.01797,  -0.00782,  -0.01188,   0.02061,   0.04700,   0.01655,  -0.02609,   0.02873,  -0.06466,  -0.07888,  -0.00375,   0.01249,  -0.00375,  -0.01594,  -0.02203,  -0.01797,  -0.04842,  -0.04639,   0.01858,  -0.06872,  -0.03624,  -0.03624,  -0.04639,  -0.00985,  -0.02812,   0.03482,  -0.03218,   0.07340,  -0.01594,   0.02670,   0.04294,  -0.03624,  -0.03015,   0.00234,  -0.02406,   0.02873,   0.01655,  -0.04233,  -0.00782,   0.02061,   0.01046,   0.05715,   0.02264,  -0.00782,   0.04700,   0.01452,   0.03482,  -0.01188,   0.00437,  -0.03421,  -0.00985,  -0.00782,   0.00843,  -0.00782,   0.00437,   0.05106,   0.01452,   0.02467,  -0.04436,   0.02467,  -0.03218,  -0.02609,   0.02670,  -0.06060,   0.05309,  -0.05248,   0.01046,  -0.00172,   0.00843,   0.00437,   0.00843,  -0.01391,   0.00843,   0.04700,   0.00640,  -0.04842,   0.01452,  -0.02000,   0.01249,   0.01858,  -0.05654,  -0.01594,   0.00437,  -0.00782,   0.01858,   0.02873,   0.00843,   0.05106,   0.01046,   0.05715,  -0.03218,  -0.02406,  -0.02203,   0.01249,  -0.03218,  -0.02203,  -0.00782,  -0.01797,  -0.00985,   0.00640,  -0.04436,   0.03279,  -0.00782,  -0.01391,   0.03279,  -0.06872,   0.05512,   0.00640,   0.01249,  -0.01391,  -0.00985,   0.02061,  -0.06060,  -0.01594,  -0.03624,  -0.04639,  -0.02000,   0.03076,  -0.00578,   0.05106,   0.03076,   0.02873,  -0.06060,  -0.06263,  -0.00985,   0.02264,  -0.04639,   0.03279,   0.07949,  -0.03015,  -0.04436,   0.02873,   0.00234,   0.04294,  -0.00578,   0.00031,   0.01655,  -0.02609,  -0.01188,   0.00031,  -0.03827,   0.01452,   0.00843,   0.03076,   0.01858,  -0.02406,   0.00437,   0.02670,  -0.03015,   0.00437,   0.00843,  -0.02406,  -0.01594
   0.02467,   0.01452,  -0.05248,  -0.03624,  -0.02000,   0.03482,   0.00843,  -0.11745,   0.05309,  -0.00985,   0.02670,  -0.06060,   0.07949,   0.02467,  -0.10527,   0.03076,   0.04497,  -0.01391,  -0.00172,   0.02467,  -0.07075,  -0.06263,  -0.00782,  -0.02609,   0.00234,  -0.05451,   0.06934,  -0.01594,  -0.04436,   0.08558,   0.08355,  -0.05654,  -0.01391,   0.01452,   0.01046,  -0.03624,  -0.08700,   0.08964,  -0.01391,   0.00640,   0.01858,  -0.01594,  -0.01797,  -0.06263,  -0.06060,  -0.06060,   0.02264,  -0.00172,  -0.06872,  -0.00375,  -0.07482,  -0.00172,  -0.04436,  -0.00375,   0.01655,  -0.00782,  -0.01188,  -0.07888,  -0.02000,  -0.00782,   0.02061,   0.03279,  -0.08294,   0.00234,  -0.03624,  -0.00782,  -0.03015,  -0.03624,  -0.05857,   0.04091,  -0.04233,  -0.02000,   0.02264,  -0.10527,   0.05715,   0.01655,  -0.03015,   0.01249,  -0.04436,  -0.08091,   0.04294,  -0.05248,   0.04497,  -0.06060,   0.08761,  -0.06872,   0.01655,   0.09370,  -0.06466,  -0.05045,   0.02467,  -0.03827,  -0.00172,  -0.03421,  -0.01797,  -0.00985,  -0.02406,   0.03076,  -0.00578,  -0.05451,  -0.05654,  -0.04030,  -0.03827,  -0.02406,   0.00437,  -0.03218,  -0.01188,  -0.02609,   0.01046,  -0.01188,   0.00843,  -0.05654,  -0.02203,  -0.04639,   0.09776,   0.01249,   0.07543,  -0.07075,  -0.06060,   0.01046,   0.03076,   0.02873,  -0.00782,  -0.03015,  -0.01391,   0.01452,  -0.06263,   0.05106,  -0.05451,  -0.05248,  -0.06466,   0.00031,  -0.07279,  -0.05857,   0.01452,  -0.05857,  -0.04436,   0.06122,  -0.02812,  -0.00985,  -0.12354,   0.05309,   0.06934,  -0.13166,   0.00843,  -0.03421,  -0.04030,  -0.02609,  -0.04030,   0.03076,  -0.05857,   0.06325,   0.06325,   0.03888,  -0.03421,  -0.00578,   0.02670,  -0.04436,  -0.02609,   0.07746,   0.03482,  -0.10933,  -0.03015,   0.00640,  -0.03015,  -0.00782,  -0.06669,  -0.08497,   0.04294,   0.04497,  -0.06466,   0.01452,  -0.02000,   0.01452,  -0.06466,   0.09776,   0.05106,  -0.09106,  -0.05248,   0.02467,   0.06122,   0.01858,   0.00437,  -0.09918,  -0.07279,  -0.02203,   0.01249,  -0.04030,  -0.01797,  -0.03421,  -0.00172,   0.02061,   0.12009,  -0.05045,  -0.02203,  -0.02609,  -0.05654,  -0.02000,  -0.09715,  -0.02812,   0.00031,   0.06325,   0.08152,  -0.01188,  -0.01797,   0.03279,  -0.03827,   0.05715,   0.01858,   0.08558,  -0.00782,  -0.02812,  -0.03827,  -0.02406,   0.00843,  -0.07279,   0.01249,  -0.10933,  -0.06466,  -0.00172,  -0.04233,   0.07543,  -0.00375,   0.00640,   0.10994,   0.00234,  -0.07279,  -0.02812,   0.02873,  -0.03218,   0.05309,   0.04700,   0.00640,   0.02061,  -0.02609,  -0.01797,   0.04700,  -0.05045,  -0.10121,   0.01452,  -0.03015,  -0.04842,   0.00437,   0.04294,  -0.09106,  -0.04842,  -0.00375,   0.02264,  -0.06263,  -0.09106,   0.05512,   0.01452,   0.05309,   0.12009,   0.00640,   0.06731
   0.08558,  -0.01188,   0.05715,  -0.02406,  -0.01188,   0.00031,  -0.02609,   0.00437,   0.00234,  -0.02203,  -0.00985,   0.07949,   0.07137,  -0.02812,  -0.00375,   0.02873,   0.01858,   0.01046,   0.00437,  -0.00375,   0.00437,  -0.00985,  -0.06466,  -0.02609,  -0.02203,   0.02264,   0.03888,  -0.04639,  -0.02609,  -0.01594,  -0.02406,   0.00437,  -0.03015,  -0.01594,  -0.01391,  -0.00782,  -0.01594,  -0.01391,  -0.00375,  -0.00375,  -0.07482,  -0.01188,   0.05512,  -0.04842,  -0.04436,   0.01046,   0.04091,  -0.02812,   0.05106,   0.01452,  -0.01391,   0.01046,   0.01655,   0.00640,  -0.02812,   0.03076,  -0.01391,   0.03685,   0.00640,  -0.01797,  -0.09106,  -0.02203,  -0.00172,  -0.02812,   0.06731,   0.03076,  -0.03218,  -0.01797,   0.04294,   0.01452,  -0.09309,  -0.03624,  -0.07482,  -0.02812,  -0.13572,   0.02873,  -0.10527,  -0.01188,   0.00640,  -0.04842,  -0.08700,   0.04294,  -0.00172,   0.03482,   0.03076,   0.01858,  -0.02609,   0.01046,   0.00437,   0.04497,  -0.02406,  -0.04842,   0.00437,   0.00234,  -0.01594,   0.00843,  -0.00172,   0.00640,  -0.02812,  -0.01188,  -0.01391,   0.03482,  -0.00375,   0.05512,   0.02670,   0.00234,  -0.00782,   0.01249,  -0.04842,  -0.00172,  -0.02609,   0.10385,  -0.00172,  -0.03421,   0.03685,   0.00640,  -0.02812,   0.08355,  -0.03827,  -0.07279,  -0.04639,  -0.02812,   0.01452,  -0.02000,  -0.04233,   0.06934,   0.04497,   0.05918,  -0.06669,   0.10182,  -0.05248,   0.00031,   0.03279,  -0.05654,  -0.09512,  -0.05248,  -0.01391,   0.03076,   0.03279,  -0.02406,   0.04091,   0.01452,  -0.08091,   0.01249,  -0.09106,  -0.01188,   0.03279,   0.04497,  -0.01797,  -0.03624,  -0.05857,   0.00234,  -0.00782,   0.01858,  -0.01391,  -0.03218,  -0.00375,  -0.02609,   0.00437,  -0.03624,   0.00640,  -0.01391,  -0.01797,   0.02264,   0.00843,   0.01046,  -0.04842,  -0.06669,  -0.02609,   0.09370,  -0.06669,   0.00843,  -0.01797,   0.01452,  -0.04436,   0.01655,  -0.05857,  -0.02609,  -0.00985,  -0.03827,   0.07746,  -0.03624,   0.00437,  -0.00172,   0.01249,   0.04700,   0.01046,  -0.01391,   0.00843,   0.02264,   0.02061,  -0.00172,   0.00031,  -0.10121,   0.04903,  -0.00782,  -0.04030,   0.00234,   0.04700,  -0.06263,  -0.00578,   0.01858,  -0.03624,   0.03279,  -0.04639,  -0.06669,  -0.05451,   0.01249,   0.01655,   0.01655,   0.01046,  -0.02203,  -0.01594,   0.03482,   0.05918,   0.04294,   0.03685,   0.05918,  -0.08497,  -0.00782,  -0.04233,   0.01249,   0.07543,  -0.02000,  -0.02812,  -0.03421,   0.01249,  -0.00782,   0.06325,  -0.00985,   0.03888,  -0.04436,  -0.04842,  -0.06263,  -0.03015,   0.05309,  -0.04639,  -0.01594,  -0.05451,  -0.04639,  -0.00782,  -0.02609,  -0.01391,  -0.04842,  -0.06466,   0.01046,   0.10791,  -0.02609,  -0.02203,   0.03076,   0.01452,  -0.09106,   0.03076,  -0.02000,  -0.03421,  -0.01391
  -0.00375,  -0.09715,   0.00031,  -0.04233,   0.01655,  -0.02406,   0.01858,   0.01655,  -0.03015,   0.07949,  -0.02000,   0.09979,  -0.00985,   0.00437,   0.05715,   0.09776,   0.03888,  -0.04233,  -0.07075,   0.04903,  -0.00782,  -0.08497,   0.02264,  -0.05857,  -0.00782,   0.00843,  -0.07685,   0.05918,  -0.04639,  -0.01391,   0.12822,   0.06122,  -0.04233,   0.02264,  -0.04030,   0.01452,   0.10182,  -0.03624,  -0.05045,  -0.02203,   0.11400,   0.02670,   0.01046,   0.06731,  -0.02203,  -0.01391,   0.02467,   0.03888,   0.12618,  -0.01188,  -0.04639,  -0.02406,  -0.01594,  -0.04436,  -0.06669,  -0.01797,  -0.00172,   0.01655,   0.00234,   0.07949,   0.11400,   0.07137,  -0.00782,  -0.01391,  -0.00782,   0.07949,   0.00031,  -0.01188,  -0.00172,   0.01046,  -0.01797,  -0.05248,  -0.00375,   0.05512,  -0.05248,   0.04497,  -0.01797,  -0.01797,  -0.03624,   0.01249,  -0.09918,  -0.02812,  -0.02406,  -0.04436,  -0.00375,   0.04903,  -0.04639,   0.05309,   0.02873,  -0.01594,  -0.01391,  -0.06872,   0.02061,   0.03482,  -0.01594,   0.04497,  -0.06872,  -0.04233,  -0.02406,  -0.07075,   0.05512,   0.00234,  -0.03015,   0.03888,   0.02061,   0.09370,  -0.04436,  -0.06669,  -0.03827,  -0.00985,  -0.00782,   0.05309,   0.00437,   0.04091,   0.00031,   0.06731,  -0.05045,  -0.06466,  -0.07075,   0.03279,   0.08761,  -0.04639,   0.03076,  -0.01188,  -0.00578,   0.02264,  -0.00985,   0.02061,   0.07746,  -0.07075,  -0.11542,  -0.03624,   0.00437,  -0.15197,   0.03076,   0.13025,  -0.00578,  -0.00782,  -0.01391,  -0.03015,  -0.00985,  -0.06263,  -0.02203,   0.01452,   0.00640,  -0.03827,   0.03888,   0.00031,  -0.02812,   0.06528,  -0.02203,   0.00640,  -0.03421,  -0.02812,  -0.01594,   0.00437,   0.00031,  -0.02406,   0.05106,   0.01655,   0.02670,   0.01452,   0.01249,   0.01046,   0.06528,   0.00437,  -0.09309,  -0.05654,  -0.11339,   0.14040,   0.04294,   0.00437,  -0.03421,  -0.02406,   0.02670,   0.05715,   0.05106,  -0.11339,  -0.01594,   0.02061,   0.01655,   0.03279,   0.04497,   0.03076,   0.00031,   0.04091,   0.04091,  -0.01594,  -0.03827,   0.04700,   0.04497,   0.00234,   0.00234,   0.00843,  -0.00375,  -0.00782,   0.00437,   0.02467,  -0.04030,   0.11400,  -0.05857,  -0.07482,  -0.01594,   0.07543,   0.00843,  -0.05451,  -0.02406,   0.00031,   0.08152,   0.01249,   0.02467,   0.11197,  -0.06872,   0.02264,  -0.00375,   0.07949,   0.01655,   0.01452,  -0.00578,   0.03076,   0.00437,  -0.02000,   0.02873,  -0.02406,   0.13228,  -0.02406,  -0.04436,   0.01858,   0.01452,   0.00640,  -0.00985,  -0.00578,  -0.00985,  -0.02406,  -0.07279,  -0.00782,  -0.01391,  -0.00578,  -0.07279,  -0.00578,   0.01249,   0.03482,  -0.07075,   0.00640,  -0.03624,  -0.04436,   0.04700,  -0.01188,   0.00031,   0.03076,  -0.01188,   0.01046,   0.00437,  -0.03421,  -0.02406,  -0.05654
  -0.01188,  -0.00985,   0.03279,   0.01046,  -0.12151,  -0.01391,   0.00031,   0.08355,  -0.03421,  -0.02203,   0.01249,  -0.00578,  -0.02000,  -0.01594,   0.05106,   0.02264,  -0.01188,  -0.03827,   0.02467,  -0.09715,   0.03279,  -0.03624,   0.09370,  -0.04233,  -0.03015,  -0.03827,  -0.01391,  -0.00172,  -0.02000,  -0.02812,  -0.02406,  -0.02000,   0.04700,  -0.05045,  -0.02406,   0.05309,  -0.03421,  -0.04436,  -0.05451,  -0.02812,   0.04903,   0.03279,   0.07137,  -0.00782,  -0.00375,  -0.08497,  -0.01188,  -0.06669,  -0.10730,  -0.02406,   0.08355,   0.00843,  -0.03624,  -0.01188,   0.09573,  -0.00172,   0.03076,   0.06934,  -0.01797,  -0.02406,  -0.01797,   0.02467,   0.00640,   0.00843,  -0.00985,  -0.05045,  -0.01188,   0.06528,   0.00640,  -0.01797,  -0.08497,  -0.01391,   0.17085,  -0.01391,  -0.02203,   0.06934,  -0.03827,   0.05106,   0.03888,  -0.03624,  -0.05857,   0.00843,   0.04903,  -0.08497,   0.02264,  -0.04842,  -0.02203,   0.02467,   0.05512,   0.02873,   0.02670,  -0.03015,  -0.01594,  -0.00375,  -0.04233,  -0.00375,   0.05918,  -0.04639,  -0.01594,  -0.03827,   0.00437,   0.06934,  -0.03624,   0.08964,   0.02873,   0.02873,   0.11197,  -0.05045,   0.01046,  -0.02203,   0.06528,   0.00843,  -0.00985,   0.06122,  -0.00578,  -0.02609,  -0.05654,  -0.09715,   0.00031,   0.03685,  -0.10730,  -0.02609,   0.00843,  -0.02000,   0.01858,   0.05715,  -0.02812,   0.01452,  -0.04436,  -0.00985,  -0.06669,   0.00640,  -0.06263,  -0.06872,   0.02670,  -0.03827,  -0.02812,  -0.03624,  -0.02406,  -0.03421,   0.01452,  -0.04030,  -0.08700,  -0.06669,   0.02873,  -0.06263,   0.01452,  -0.01797,   0.00640,  -0.02609,   0.08152,  -0.04233,  -0.03827,  -0.05248,  -0.06669,   0.02670,   0.00437,  -0.04436,   0.03482,  -0.11339,   0.02467,  -0.01797,   0.06731,   0.00234,  -0.04639,   0.00031,  -0.09512,   0.09370,  -0.02203,  -0.02609,  -0.02406,  -0.00578,  -0.03624,   0.10791,  -0.07888,   0.08761,  -0.09918,   0.03888,   0.03482,   0.02873,  -0.04842,  -0.06466,   0.02467,   0.09979,  -0.04030,   0.00234,   0.10182,  -0.10730,   0.03888,   0.01046,  -0.06466,   0.01249,   0.01046,  -0.01188,  -0.04233,  -0.08294,  -0.03218,   0.03076,  -0.03624,  -0.04842,  -0.07685,   0.07340,  -0.03827,   0.01655,  -0.01594,  -0.07279,   0.03482,  -0.07482,  -0.02406,  -0.02812,   0.02264,   0.04700,  -0.01391,   0.02670,   0.04903,   0.10182,  -0.03015,  -0.05857,  -0.16618,  -0.01391,  -0.05451,   0.02264,  -0.06872,  -0.04436,  -0.06263,   0.01046,  -0.04030,   0.13431,  -0.02812,   0.02873,  -0.00172,  -0.05451,   0.01655,  -0.03421,   0.12415,   0.00843,   0.06122,   0.00437,  -0.10121,  -0.02000,   0.00843,  -0.04639,  -0.03624,  -0.07279,   0.00843,   0.02467,  -0.04233,   0.00640,   0.01249,   0.04700,  -0.07685,  -0.07888,   0.04700,   0.00437,   0.00437,  -0.04842
  -0.00375,   0.03685,  -0.00578,   0.02467,  -0.02000,   0.02467,   0.01046,   0.03685,   0.01655,   0.01655,   0.01452,  -0.03218,   0.03888,   0.02061,  -0.07075,   0.05309,  -0.05045,   0.08152,   0.01655,   0.07543,   0.06731,   0.00640,  -0.03015,  -0.06466,   0.01452,  -0.00782,   0.06731,  -0.01797,  -0.00172,   0.04091,  -0.00578,  -0.07279,  -0.05248,  -0.04233,   0.03888,  -0.05857,  -0.06466,  -0.07075,   0.10182,   0.02670,  -0.02406,   0.06731,  -0.02203,  -0.02812,   0.03888,   0.02061,   0.03888,  -0.00172,   0.00234,   0.00234,  -0.00782,   0.00234,   0.02670,  -0.01594,  -0.01594,   0.01858,   0.03076,   0.07543,  -0.04030,  -0.01391,   0.00234,   0.00234,   0.01046,   0.00437,   0.01249,   0.04294,   0.00437,   0.01249,   0.05106,  -0.05248,  -0.02609,   0.01655,   0.01249,   0.03482,  -0.03015,  -0.00578,  -0.00375,  -0.02000,   0.03076,   0.06731,  -0.00985,  -0.03015,   0.00234,   0.05106,  -0.01797,  -0.05451,   0.01655,   0.01249,   0.01046,  -0.00578,   0.01249,  -0.06060,  -0.01594,  -0.05248,   0.03279,  -0.01594,   0.05106,  -0.05045,   0.00640,   0.02061,   0.02873,  -0.04030,   0.01249,   0.00640,   0.02061,  -0.00985,   0.03685,  -0.00172,   0.04091,   0.02061,   0.00843,   0.00843,   0.01858,   0.00843,  -0.02609,  -0.03624,   0.00031,  -0.01188,  -0.07482,   0.00031,   0.03279,  -0.00985,  -0.00985,   0.00234,  -0.01188,  -0.06669,  -0.03218,   0.00234,  -0.05248,   0.07340,   0.03482,   0.01249,  -0.02000,  -0.00375,  -0.06872,  -0.00172,  -0.04639,   0.01046,  -0.00782,  -0.01391,   0.02670,   0.00031,   0.01655,  -0.04030,   0.02061,   0.00031,   0.04903,  -0.03624,   0.01046,   0.04700,  -0.01797,   0.01452,  -0.03827,   0.01858,  -0.01188,   0.03279,   0.00234,  -0.04639,   0.00234,  -0.02000,  -0.00985,  -0.03015,   0.00640,  -0.05248,  -0.04639,  -0.01797,  -0.00172,   0.03685,  -0.04030,   0.02873,  -0.02406,   0.03482,   0.03279,   0.01858,   0.04294,  -0.05654,   0.02873,  -0.03624,  -0.02609,   0.01046,  -0.02203,  -0.03421,  -0.01391,  -0.06263,  -0.01594,   0.03279,  -0.00375,  -0.05654,  -0.02203,   0.04497,  -0.00782,   0.01858,   0.06325,   0.02264,  -0.02000,  -0.06669,   0.00640,   0.02467,  -0.02609,  -0.03421,  -0.02000,   0.06934,  -0.03421,  -0.02406,   0.03076,   0.01046,  -0.01188,   0.00234,  -0.09106,  -0.03015,   0.02467,  -0.04233,   0.01046,   0.02873,  -0.03827,  -0.02812,  -0.00985,  -0.01797,  -0.00578,   0.00234,   0.02264,  -0.00375,   0.02061,  -0.05045,   0.00843,  -0.09918,   0.01858,   0.00437,  -0.01797,  -0.02812,  -0.07685,   0.03482,  -0.04436,  -0.01594,  -0.00782,  -0.01797,  -0.02203,   0.02467,  -0.00782,   0.02061,  -0.01797,  -0.02609,  -0.08294,  -0.05451,   0.02873,   0.04497,  -0.03624,  -0.02203,  -0.03624,   0.01046,  -0.07075,  -0.11948,   0.00437,   0.07543,  -0.00375,  -0.09715
  -0.04639,  -0.01391,  -0.09918,   0.02670,  -0.07279,  -0.01797,  -0.06263,   0.01452,   0.00437,   0.02264,  -0.00578,  -0.04639,  -0.06466,  -0.04436,  -0.04030,  -0.00985,   0.10791,  -0.04842,  -0.02406,  -0.04233,  -0.00375,  -0.13775,  -0.03015,   0.04497,  -0.03421,  -0.05857,   0.07340,   0.00234,   0.01452,  -0.00375,  -0.05857,  -0.06872,  -0.05451,   0.03279,   0.00843,   0.01655,   0.04700,   0.04700,   0.02061,   0.01249,  -0.10933,  -0.01391,   0.03685,  -0.15400,  -0.06263,  -0.07279,   0.00640,  -0.01391,  -0.02812,  -0.00985,  -0.00172,  -0.08091,   0.01452,  -0.06263,   0.03076,  -0.00985,   0.01452,   0.02061,   0.02264,  -0.04030,   0.01249,   0.01046,   0.00031,  -0.06060,  -0.01188,  -0.03421,  -0.02812,   0.00437,   0.13228,   0.00843,  -0.05654,   0.00437,  -0.12557,   0.06325,  -0.07075,  -0.06060,  -0.04436,  -0.07888,   0.02670,   0.01249,   0.01249,  -0.09309,  -0.07075,   0.12822,   0.01249,  -0.00578,   0.02873,   0.01046,  -0.05045,   0.01858,   0.08152,  -0.03827,  -0.00578,  -0.03827,  -0.02406,  -0.01594,   0.02467,  -0.07279,  -0.02000,   0.03279,   0.06731,   0.00437,  -0.07482,  -0.02406,  -0.04436,  -0.00172,   0.03888,  -0.01797,   0.02467,  -0.05248,   0.04091,  -0.09106,  -0.02812,  -0.03421,  -0.02812,  -0.08294,  -0.02812,   0.02467,  -0.11542,   0.04294,  -0.08700,   0.04294,   0.01452,   0.02670,  -0.01391,  -0.04436,  -0.02812,   0.01452,   0.05715,   0.03482,  -0.03827,   0.01655,  -0.09715,  -0.02203,   0.12822,  -0.00578,  -0.02609,   0.00437,  -0.03218,  -0.07685,  -0.03218,   0.00031,   0.08964,  -0.04233,   0.00437,  -0.03624,  -0.03015,   0.07137,  -0.02609,  -0.00172,  -0.00375,   0.03482,  -0.10324,  -0.05045,  -0.08294,   0.01046,   0.00640,  -0.01391,  -0.08294,  -0.08091,  -0.08091,  -0.09106,  -0.01594,  -0.12760,   0.00437,  -0.07888,  -0.01594,  -0.08091,  -0.07482,  -0.07482,  -0.07888,   0.02873,  -0.03827,   0.03076,   0.03685,  -0.04842,   0.10588,  -0.06466,  -0.07279,   0.02467,   0.06528,  -0.01391,  -0.03218,  -0.10121,  -0.03015,   0.02873,  -0.08903,   0.02467,   0.03482,  -0.09309,   0.07746,   0.02670,   0.05715,   0.00640,   0.00640,   0.06528,  -0.07888,   0.08558,  -0.03015,  -0.04639,  -0.02812,   0.03279,  -0.01594,  -0.03827,   0.00234,  -0.06060,  -0.01391,   0.00843,  -0.05045,   0.05715,   0.00437,   0.02873,   0.01858,   0.00640,  -0.07279,   0.04700,   0.07137,  -0.09918,  -0.02203,  -0.02812,   0.02873,  -0.00172,  -0.03218,   0.04700,  -0.11745,  -0.01188,  -0.03421,   0.02670,  -0.07482,   0.04497,   0.05309,  -0.01188,  -0.05857,  -0.10121,  -0.05045,  -0.05857,   0.02873,  -0.01594,  -0.09309,  -0.03421,  -0.03015,  -0.08294,  -0.00375,   0.00031,  -0.02203,  -0.00578,  -0.07888,   0.07543,  -0.00375,  -0.04436,  -0.01797,  -0.06669,  -0.04436,  -0.02203,  -0.06669,  -0.05857
  -0.08091,  -0.05248,  -0.03624,  -0.02000,   0.14446,   0.00640,  -0.01594,  -0.06466,  -0.05045,   0.04497,   0.03076,  -0.08091,   0.00234,  -0.01594,   0.03279,   0.00031,   0.03076,   0.00031,  -0.00985,  -0.07888,  -0.04842,   0.07746,   0.00437,   0.03076,   0.03888,   0.08761,   0.05918,  -0.05451,  -0.06263,  -0.08497,   0.06325,   0.07340,   0.03888,  -0.05451,   0.05106,   0.03076,  -0.06466,  -0.03827,   0.01249,  -0.04842,   0.09167,  -0.00782,   0.00437,  -0.04639,   0.03888,  -0.02203,  -0.03827,   0.01249,   0.12822,   0.02264,  -0.03827,  -0.00172,  -0.04842,   0.03685,  -0.01594,   0.02670,  -0.03218,  -0.07685,   0.00437,  -0.00578,  -0.00782,   0.05918,  -0.02609,  -0.06263,  -0.07279,  -0.03624,  -0.06466,   0.08558,  -0.01797,  -0.05248,   0.00031,   0.00640,   0.13228,   0.05715,  -0.04639,   0.00843,  -0.02406,  -0.00172,  -0.02812,  -0.04233,   0.01452,  -0.02812,  -0.06263,  -0.04842,  -0.05451,   0.04903,  -0.03827,  -0.09918,  -0.06669,   0.02873,  -0.01797,   0.00640,  -0.02000,  -0.04030,   0.02264,   0.05512,  -0.03015,   0.02061,  -0.02203,   0.05715,  -0.08497,   0.06528,   0.07949,   0.06731,   0.00437,   0.04294,   0.01046,   0.07746,  -0.06872,   0.00234,   0.02264,  -0.01797,  -0.02406,   0.00640,   0.02670,   0.01452,   0.06528,   0.04091,   0.00640,   0.00437,   0.04497,   0.00640,  -0.03827,  -0.01391,   0.00640,   0.02873,  -0.04030,   0.01452,  -0.10527,  -0.01188,  -0.05045,   0.01655,  -0.03827,  -0.01797,  -0.06263,   0.03279,  -0.00375,  -0.02609,  -0.03218,   0.00640,   0.00640,  -0.00172,   0.04700,   0.07949,   0.00437,   0.04497,  -0.03015,   0.02061,   0.03279,   0.02264,   0.01249,   0.00031,   0.01046,  -0.04233,  -0.06060,  -0.04436,   0.00640,   0.00234,  -0.00375,   0.06325,   0.02264,  -0.04436,   0.04294,   0.03482,   0.03888,   0.01249,  -0.05045,  -0.12557,  -0.03421,  -0.03218,  -0.01594,   0.01249,  -0.00375,   0.05715,  -0.01594,   0.08964,   0.09370,   0.01655,   0.05918,  -0.00375,   0.03888,  -0.05451,   0.04497,   0.05918,   0.03076,  -0.05654,  -0.01391,  -0.03624,   0.09167,   0.06934,  -0.01188,   0.00031,  -0.00375,   0.04091,  -0.07685,   0.01249,   0.05715,   0.01655,  -0.03827,   0.00640,   0.01858,  -0.00985,  -0.02203,  -0.02000,  -0.01391,   0.03076,  -0.04233,   0.04294,  -0.01594,   0.00234,   0.00843,  -0.05045,  -0.00172,   0.02873,   0.02873,  -0.01188,   0.05309,   0.06325,   0.09776,  -0.04639,  -0.06669,   0.07137,  -0.05857,  -0.02000,  -0.03624,  -0.00782,  -0.00985,  -0.00782,   0.00843,   0.00640,   0.02061,   0.04294,   0.04497,   0.04700,  -0.00172,  -0.04233,  -0.05045,   0.00031,   0.04497,   0.03279,  -0.05248,   0.18303,  -0.02812,   0.02061,   0.01452,   0.00437,  -0.03218,  -0.10324,   0.04903,  -0.02609,  -0.04639,   0.05512,   0.07340,   0.00640,  -0.01594,   0.00437
  -0.00985,  -0.00985,  -0.04639,  -0.02203,  -0.05045,  -0.02406,   0.04700,  -0.07279,   0.01655,  -0.07279,  -0.06466,   0.02670,   0.00437,   0.04903,  -0.02000,  -0.02812,   0.04294,   0.03685,   0.04091,  -0.02406,  -0.00172,   0.00640,  -0.03421,  -0.00375,  -0.01797,   0.02670,  -0.01797,  -0.04842,  -0.04233,   0.03076,  -0.08903,   0.01858,  -0.02609,  -0.02812,  -0.02000,  -0.04233,  -0.01797,   0.03279,  -0.00782,  -0.01797,  -0.03624,  -0.05451,  -0.00375,   0.00843,   0.05309,   0.01452,  -0.03015,  -0.02812,  -0.00782,  -0.01391,   0.01655,  -0.04436,  -0.00375,   0.05309,  -0.04436,   0.02264,   0.01249,   0.00437,   0.00437,  -0.03624,   0.00234,  -0.03827,  -0.00375,  -0.00578,  -0.00578,  -0.01797,   0.00843,   0.04497,   0.02670,  -0.05451,  -0.09106,  -0.00578,  -0.01797,   0.02264,   0.06528,  -0.03624,   0.03076,   0.00031,  -0.04842,   0.00843,   0.02873,   0.01655,  -0.01391,  -0.04436,  -0.02812,   0.01249,   0.04294,  -0.02000,  -0.04639,   0.02061,   0.00843,   0.05512,  -0.00172,   0.00843,  -0.02812,  -0.02609,   0.01655,  -0.01797,   0.02061,  -0.03218,   0.03685,  -0.01594,   0.08558,  -0.04233,  -0.03218,   0.00234,   0.07543,  -0.04639,   0.08355,  -0.03624,  -0.03015,   0.06528,   0.03482,   0.01452,   0.01249,   0.03888,  -0.04030,  -0.01391,  -0.06466,  -0.06263,  -0.06872,  -0.04030,  -0.00578,  -0.03827,   0.02467,  -0.00985,  -0.03827,   0.06528,  -0.03421,   0.10182,   0.01452,   0.02264,  -0.03624,  -0.00782,  -0.12963,  -0.04842,   0.02670,  -0.05045,  -0.04842,  -0.02000,  -0.01797,   0.00234,  -0.04842,   0.00843,  -0.02609,  -0.02812,   0.01249,  -0.07482,   0.01046,   0.03279,  -0.01594,   0.00031,   0.05918,   0.00640,  -0.05857,  -0.04030,   0.01858,   0.01655,   0.07543,   0.00437,  -0.02406,   0.09167,  -0.02812,  -0.03421,  -0.02812,   0.02264,   0.00843,  -0.08294,  -0.04842,   0.05106,  -0.03624,   0.02873,   0.00640,  -0.03218,   0.00031,  -0.03218,   0.01249,  -0.06872,  -0.01188,  -0.00782,   0.06731,   0.02467,   0.00234,  -0.05654,   0.02670,  -0.04436,  -0.00172,  -0.08294,   0.05106,  -0.03421,  -0.05248,  -0.00172,   0.01655,  -0.04030,  -0.02000,   0.00031,  -0.00375,  -0.05045,  -0.00375,   0.02670,   0.05512,   0.03279,  -0.03827,   0.03482,   0.03685,  -0.06872,  -0.03421,  -0.00578,   0.01046,   0.05309,  -0.01391,   0.02670,  -0.00782,  -0.01391,  -0.05248,  -0.06669,   0.01249,   0.07137,   0.08355,   0.03482,   0.02670,   0.04700,   0.01046,  -0.00782,   0.02061,   0.04700,   0.00843,  -0.04030,  -0.02203,  -0.00782,  -0.01391,  -0.07279,   0.07746,   0.02264,   0.00234,  -0.00985,   0.01452,  -0.02812,   0.01046,  -0.04436,  -0.01797,  -0.00782,  -0.01391,   0.03685,   0.09167,   0.08558,   0.11603,  -0.01594,  -0.03015,  -0.06872,   0.07949,   0.00843,  -0.00782,  -0.00578,  -0.02406,   0.04700
   0.04091,  -0.01594,   0.03076,   0.02264,   0.01655,   0.01249,  -0.05451,   0.10182,   0.00031,   0.04700,  -0.02609,   0.07137,  -0.04436,  -0.02406,   0.06528,  -0.03421,   0.04903,   0.02264,   0.00843,   0.04700,   0.00234,   0.10791,  -0.03218,  -0.08091,   0.00031,   0.04294,   0.05309,  -0.02812,   0.08558,  -0.04436,  -0.01797,  -0.05045,  -0.02203,   0.02264,   0.01452,  -0.01594,  -0.05045,  -0.11339,  -0.00578,   0.04294,  -0.01797,  -0.01797,   0.03076,  -0.04233,   0.03685,  -0.00578,   0.03076,   0.01046,  -0.03827,   0.03685,  -0.04030,   0.00640,   0.00031,  -0.04030,  -0.03827,   0.02670,   0.00640,   0.03279,  -0.04436,  -0.01391,  -0.04233,  -0.04639,   0.00640,  -0.09106,   0.01655,   0.07137,   0.01046,   0.02061,  -0.04842,   0.06934,  -0.03015,   0.00031,  -0.06872,  -0.07279,   0.02061,   0.09776,   0.00640,   0.01046,   0.04091,   0.12618,  -0.04030,   0.01452,   0.01249,  -0.00375,   0.01452,  -0.00985,  -0.04233,  -0.02406,  -0.03015,   0.00234,   0.00437,  -0.05248,  -0.04436,  -0.07482,   0.03888,   0.00640,   0.01046,   0.02670,   0.06122,   0.01858,   0.00437,  -0.00985,  -0.01594,   0.01046,  -0.01188,   0.01858,   0.04091,  -0.00578,  -0.08091,  -0.02406,   0.00843,   0.06325,   0.00640,   0.00437,  -0.04436,  -0.03015,   0.01655,   0.05106,   0.06934,  -0.00172,   0.10588,  -0.05045,  -0.03421,  -0.03015,   0.02873,  -0.04436,  -0.01594,  -0.01797,  -0.05654,   0.00843,   0.04903,  -0.07888,   0.03076,   0.05918,  -0.01188,   0.03279,  -0.00172,  -0.02203,  -0.01594,   0.00234,  -0.00578,   0.00640,  -0.03624,   0.00234,   0.04700,   0.00437,   0.03482,   0.02873,   0.04091,  -0.04233,   0.01655,  -0.02000,  -0.02812,  -0.01797,  -0.02000,   0.04497,  -0.06872,  -0.03015,   0.02873,  -0.02000,  -0.06872,   0.04294,   0.06122,   0.04091,   0.00843,   0.01249,  -0.05654,  -0.02812,   0.00031,   0.01655,   0.06122,  -0.04436,  -0.00782,  -0.00375,   0.02873,  -0.14791,  -0.01594,   0.05918,   0.04294,  -0.02609,   0.04497,   0.06325,  -0.00375,   0.04700,  -0.04233,   0.03279,  -0.00782,   0.03482,  -0.06263,  -0.05857,   0.00031,   0.02873,  -0.04639,  -0.02812,  -0.04436,   0.00843,   0.05106,   0.05918,  -0.00985,  -0.08294,   0.02061,   0.02061,  -0.00172,  -0.05451,   0.01452,  -0.03218,   0.01249,   0.00031,  -0.01391,  -0.00782,  -0.01797,   0.07746,  -0.00578,   0.00640,   0.03685,  -0.03624,  -0.02406,  -0.12151,   0.00031,  -0.02406,   0.00234,  -0.03218,  -0.06263,   0.01452,   0.02061,  -0.08700,  -0.00782,  -0.03015,  -0.00985,   0.00640,   0.04091,  -0.03421,  -0.02406,   0.00640,   0.05918,   0.06731,   0.03685,   0.01046,  -0.00782,  -0.04030,  -0.03015,   0.01452,  -0.02406,  -0.05654,  -0.04436,   0.02873,   0.04700,  -0.02203,   0.01249,  -0.04030,   0.00031,  -0.03218,  -0.01391,   0.05512,  -0.02203,  -0.00375
  -0.01797,  -0.05248,  -0.01188,   0.05715,   0.06325,  -0.03827,   0.00437,  -0.04639,   0.05309,  -0.03421,  -0.04233,   0.01858,  -0.09106,   0.00640,   0.01858,   0.01452,  -0.01594,   0.02264,   0.05512,   0.06528,  -0.02406,  -0.06466,  -0.02812,  -0.02812,   0.02264,   0.02670,   0.03076,  -0.00172,   0.02670,  -0.05248,  -0.01594,   0.09167,  -0.01391,   0.03482,  -0.05654,  -0.03827,  -0.05451,   0.00031,   0.01655,  -0.02406,   0.10182,  -0.01391,  -0.06466,   0.00031,   0.02264,   0.09167,   0.01452,   0.05715,   0.08355,  -0.08497,  -0.02000,   0.00437,   0.04497,  -0.02203,  -0.05248,   0.00640,  -0.01797,  -0.05045,  -0.03218,   0.06528,   0.00031,   0.01046,   0.01858,  -0.02000,   0.00234,   0.05309,   0.02061,  -0.02203,  -0.00782,  -0.03827,   0.04903,  -0.03015,   0.09979,  -0.01188,  -0.04842,  -0.12151,   0.02670,  -0.04436,  -0.02609,  -0.02406,  -0.11339,  -0.06263,  -0.03624,   0.03888,  -0.00782,   0.02873,   0.02670,  -0.07075,  -0.01594,  -0.00782,  -0.03827,   0.00437,   0.06122,  -0.06669,   0.03076,  -0.06669,   0.02264,  -0.09512,   0.03888,   0.03888,   0.05309,  -0.01391,   0.09167,   0.01452,   0.04903,   0.02670,  -0.02000,  -0.03015,  -0.08091,  -0.04842,  -0.00782,  -0.02203,   0.04294,  -0.04842,  -0.00985,  -0.10324,   0.04497,   0.03482,  -0.04030,  -0.04842,   0.16679,   0.00843,   0.05106,   0.00437,   0.00843,  -0.08091,  -0.03218,   0.01046,   0.00640,  -0.02812,  -0.02203,  -0.05248,   0.01858,   0.11400,  -0.01594,   0.03888,  -0.04436,  -0.00782,  -0.00375,   0.04497,   0.00437,   0.02670,  -0.01391,   0.02873,  -0.02406,  -0.07482,   0.01452,   0.05309,  -0.01188,  -0.06263,  -0.01594,  -0.00375,   0.01249,   0.04700,   0.05106,  -0.05451,   0.01046,   0.21146,   0.02873,   0.02873,   0.05309,  -0.00782,  -0.04436,   0.00640,  -0.02000,   0.06934,   0.03076,   0.03279,   0.07543,  -0.04030,   0.02873,  -0.00172,  -0.02203,  -0.00782,   0.07746,   0.02264,   0.00234,  -0.07482,  -0.00985,  -0.01188,  -0.14182,  -0.05045,  -0.04030,   0.02467,   0.01249,  -0.06466,   0.00843,  -0.04842,   0.04497,  -0.03015,  -0.05248,   0.00437,   0.02467,   0.07340,  -0.00782,  -0.00172,  -0.04233,  -0.06263,   0.01858,   0.00843,   0.06325,  -0.03827,   0.01858,   0.07340,  -0.01188,   0.00640,  -0.03218,   0.01452,   0.03888,  -0.01188,   0.02670,   0.04294,  -0.03218,   0.00031,  -0.00578,  -0.02203,  -0.07888,   0.00640,   0.01249,   0.00234,  -0.02406,  -0.03015,   0.01858,  -0.05654,   0.07137,  -0.03624,   0.13431,   0.01046,   0.04700,   0.04091,  -0.09918,   0.04497,  -0.01391,  -0.00375,  -0.04639,   0.04903,  -0.00375,  -0.02203,   0.08355,  -0.02812,  -0.06669,   0.05106,   0.00843,   0.00437,  -0.00172,  -0.02812,   0.02873,  -0.00375,  -0.02203,   0.00031,   0.04700,   0.09573,  -0.00172,  -0.06872,  -0.00782,   0.06528
  -0.03624,   0.05918,  -0.00578,  -0.00172,  -0.03624,  -0.01797,  -0.00375,  -0.04233,  -0.00375,  -0.03421,  -0.04233,  -0.05451,   0.00031,   0.03482,   0.01858,  -0.00782,   0.05309,   0.01046,   0.01655,  -0.05857,  -0.02203,  -0.05248,   0.04294,  -0.05654,  -0.00578,   0.02061,   0.00843,  -0.02609,  -0.03421,   0.04091,  -0.04436,  -0.02000,   0.05309,   0.02670,   0.04497,   0.01046,   0.05512,   0.11197,   0.01046,  -0.09309,   0.07543,  -0.01391,   0.02873,   0.00031,   0.05512,  -0.02406,  -0.02609,   0.03685,   0.02467,  -0.01594,  -0.02812,   0.01046,  -0.03015,   0.02061,   0.01655,  -0.01797,   0.03076,  -0.06669,  -0.04436,   0.01249,  -0.09106,  -0.03218,   0.00843,   0.01858,   0.02061,  -0.05248,   0.03482,   0.01655,  -0.02203,   0.10182,  -0.07075,   0.01858,  -0.04842,   0.00843,  -0.03421,  -0.02812,   0.07137,   0.00234,  -0.04842,  -0.01594,  -0.01797,   0.07949,   0.03076,  -0.04639,   0.03888,  -0.00782,  -0.02406,   0.11806,  -0.01594,  -0.00578,  -0.02812,  -0.01594,  -0.00375,  -0.00578,  -0.07075,  -0.01797,   0.00437,   0.06528,   0.05715,  -0.04639,   0.00843,  -0.00578,   0.01452,  -0.08091,  -0.00985,   0.02670,   0.03685,   0.03279,   0.06325,   0.00031,   0.05512,  -0.02203,   0.00843,  -0.05654,  -0.00578,  -0.02406,  -0.00985,   0.03482,   0.05309,   0.02061,   0.06325,   0.03076,  -0.01188,   0.01452,  -0.01391,   0.02670,   0.03076,   0.00640,  -0.00578,   0.04903,   0.07543,  -0.02406,  -0.05654,  -0.08700,  -0.00578,  -0.05045,  -0.02812,  -0.01188,   0.00437,   0.00843,   0.07340,  -0.01391,  -0.03421,  -0.00782,  -0.07482,   0.02670,   0.01452,  -0.03015,  -0.03624,  -0.01594,   0.00234,  -0.00578,   0.01858,  -0.04639,  -0.01188,   0.03482,   0.03685,   0.01249,   0.00640,   0.02670,  -0.06669,  -0.03015,  -0.04233,   0.04091,  -0.01391,   0.03279,   0.01046,  -0.05248,   0.05309,  -0.06872,  -0.06466,   0.04700,  -0.00782,  -0.03624,   0.01858,  -0.02609,  -0.02812,  -0.05045,  -0.01797,   0.01452,  -0.00985,  -0.04233,   0.01452,  -0.05045,  -0.02609,  -0.04233,  -0.04639,  -0.05045,   0.04091,  -0.05654,   0.05106,   0.03685,  -0.01391,  -0.00782,  -0.03218,  -0.03218,  -0.01391,  -0.01594,   0.02873,  -0.00578,   0.04903,   0.01858,   0.05715,  -0.06060,   0.02670,  -0.01391,   0.00437,  -0.04233,   0.02873,   0.02264,  -0.05451,   0.10385,   0.02264,   0.03076,   0.03482,   0.03076,   0.00437,  -0.04436,  -0.03015,   0.01249,   0.00843,   0.04497,  -0.01188,  -0.05045,   0.03888,  -0.03015,   0.06325,  -0.02609,   0.11400,  -0.04030,   0.03482,  -0.05248,   0.04903,   0.00031,   0.01655,   0.00843,  -0.04639,  -0.01188,  -0.07279,  -0.03218,  -0.01188,  -0.01188,   0.01858,   0.03482,  -0.00375,  -0.03218,  -0.05045,  -0.03624,  -0.00375,  -0.02609,   0.03482,   0.04091,  -0.01188,  -0.02812,   0.03888,   0.03076
  -0.00985,   0.01249,  -0.00375,   0.01249,   0.06934,  -0.01188,  -0.05045,  -0.02203,  -0.00985,   0.01858,   0.00031,   0.02873,   0.00640,  -0.02406,   0.02264,  -0.00172,   0.03076,   0.00234,   0.01249,   0.02873,   0.05106,  -0.00375,  -0.01391,   0.00234,  -0.01391,   0.05918,  -0.07279,  -0.04436,  -0.00578,   0.03482,  -0.06466,   0.03888,   0.01452,  -0.01391,   0.02670,   0.04294,  -0.03624,  -0.06872,   0.01655,  -0.05857,  -0.02406,  -0.01594,   0.05512,  -0.00172,   0.03482,  -0.01797,  -0.00375,  -0.02000,   0.02467,   0.02061,   0.02061,  -0.02000,   0.03482,  -0.00172,   0.07137,   0.03076,   0.03482,  -0.00578,   0.02873,  -0.00375,   0.05106,   0.02264,  -0.00172,   0.00437,  -0.00172,   0.01655,  -0.00985,   0.01046,  -0.00578,   0.01046,   0.00234,  -0.01594,   0.00234,  -0.02609,  -0.06263,  -0.04436,   0.01858,   0.07137,  -0.01391,   0.03482,  -0.03827,   0.08761,  -0.03624,  -0.01797,   0.01452,   0.02670,   0.01046,   0.02670,  -0.00782,   0.02467,   0.02061,  -0.03624,  -0.03827,  -0.00782,  -0.00375,  -0.04030,  -0.02406,   0.01452,  -0.01594,   0.02264,   0.06731,   0.04294,   0.07340,  -0.01797,   0.03076,  -0.03827,  -0.01391,  -0.03015,  -0.02203,   0.00640,   0.05918,  -0.00985,   0.02061,  -0.01797,  -0.03015,  -0.04233,  -0.06060,   0.05106,   0.05715,   0.00437,   0.03482,  -0.00375,  -0.02406,  -0.00985,   0.00031,   0.01046,  -0.00782,   0.00031,  -0.02203,   0.05106,  -0.02000,   0.05918,  -0.01391,   0.06731,   0.03482,   0.01858,  -0.03624,   0.02873,   0.01858,  -0.00172,   0.03482,  -0.02406,  -0.01188,   0.04091,  -0.06263,   0.11806,   0.00843,  -0.04639,  -0.04030,   0.07949,   0.00031,  -0.04233,   0.01858,   0.04700,   0.01046,   0.03685,  -0.03624,   0.00234,   0.03685,  -0.01188,  -0.02812,   0.01249,   0.03888,   0.01452,  -0.03218,   0.00640,   0.03888,  -0.01797,  -0.03827,   0.01046,   0.03888,   0.00437,  -0.00375,  -0.01391,  -0.02406,  -0.04233,  -0.04639,  -0.01188,   0.07746,   0.03482,  -0.04030,  -0.02000,  -0.01594,   0.04700,  -0.01391,   0.04497,   0.00640,   0.00843,   0.01046,   0.03482,  -0.01188,   0.00234,  -0.00985,   0.03076,  -0.03218,  -0.01391,  -0.02812,  -0.05045,  -0.00375,  -0.08294,  -0.02812,  -0.00782,  -0.06060,  -0.04233,  -0.02609,  -0.00985,   0.05106,  -0.02812,  -0.00375,   0.01655,  -0.04030,   0.01249,   0.00640,  -0.03015,   0.01046,   0.02264,  -0.01391,  -0.01594,   0.02264,  -0.00172,   0.04294,  -0.00782,   0.05106,  -0.04233,   0.00031,  -0.03015,   0.03076,   0.03685,  -0.04030,  -0.01391,   0.00031,  -0.01797,   0.00031,  -0.03015,   0.07137,   0.01858,  -0.01797,   0.00031,   0.02264,   0.05512,   0.00437,   0.02467,  -0.05045,  -0.00578,   0.00640,  -0.00985,  -0.01188,  -0.01594,  -0.00985,  -0.01188,   0.01046,   0.02873,   0.00031,   0.00234,   0.03279,  -0.03218
  -0.03218,   0.01046,   0.00640,  -0.02812,  -0.02203,   0.00031,   0.03888,  -0.10527,  -0.05857,   0.04700,   0.02061,   0.12822,  -0.08091,   0.02061,  -0.06263,   0.05309,   0.10791,   0.02467,   0.00437,   0.06122,  -0.06872,  -0.13979,   0.01249,   0.00640,  -0.02000,   0.00031,   0.00031,  -0.02000,  -0.04233,   0.06325,  -0.04842,  -0.07279,   0.03888,   0.04294,   0.13634,  -0.07482,   0.04497,   0.14040,   0.01452,   0.04700,   0.03685,  -0.10933,  -0.01391,   0.02264,  -0.08294,   0.05715,  -0.04233,   0.02264,  -0.01188,  -0.07075,  -0.07482,   0.02467,  -0.03015,   0.00031,   0.00640,  -0.09512,   0.08558,  -0.08700,   0.02670,  -0.03218,   0.01046,   0.05715,  -0.04842,   0.01452,  -0.05857,  -0.03218,   0.04091,  -0.02406,   0.07543,  -0.02000,   0.02061,  -0.04030,  -0.09512,   0.10182,   0.01452,   0.03482,   0.01452,   0.04903,   0.04294,   0.02061,   0.07949,   0.06122,   0.06528,   0.17085,   0.06731,  -0.07075,  -0.03015,   0.13431,  -0.02406,  -0.04436,   0.00640,  -0.07075,   0.04497,  -0.04842,   0.04091,   0.02061,   0.00031,  -0.02406,   0.06528,  -0.06669,   0.04294,  -0.06466,   0.02467,  -0.02812,   0.04903,  -0.05654,  -0.02000,   0.08964,   0.04700,  -0.00782,   0.07746,  -0.03624,  -0.01797,  -0.09106,   0.05715,   0.01858,   0.08558,  -0.01188,  -0.07685,  -0.01797,  -0.01391,   0.07543,  -0.04233,   0.03076,  -0.04639,   0.00234,   0.10791,  -0.03421,  -0.00985,  -0.02203,  -0.00985,  -0.06872,  -0.02609,  -0.00782,  -0.11745,  -0.00172,  -0.07279,   0.04091,   0.03482,  -0.00782,   0.01046,   0.02670,   0.00234,   0.03888,  -0.02406,  -0.02609,  -0.06263,   0.04294,  -0.04233,  -0.01594,  -0.00172,   0.00843,   0.06325,  -0.02203,  -0.04030,  -0.01188,   0.02061,  -0.02609,   0.04294,  -0.04030,  -0.01594,  -0.00375,  -0.08294,  -0.02812,  -0.08091,   0.05715,  -0.06060,   0.07137,   0.03076,  -0.03624,  -0.01594,  -0.00782,   0.04700,  -0.06060,  -0.02406,  -0.15197,  -0.02000,   0.02061,   0.03685,  -0.02812,  -0.13979,  -0.04030,  -0.01391,  -0.12963,  -0.15197,  -0.09715,   0.02061,   0.05512,   0.00843,   0.00843,   0.03685,   0.00234,   0.00031,   0.01046,  -0.01188,  -0.00578,  -0.05045,  -0.07279,   0.02873,   0.02467,  -0.04030,  -0.02406,  -0.01188,   0.07137,   0.11806,  -0.03218,  -0.04842,   0.01452,  -0.04639,  -0.02203,  -0.03015,   0.05715,  -0.00578,   0.00640,   0.04091,  -0.05451,  -0.03218,  -0.06466,   0.01249,  -0.04233,   0.07543,  -0.02203,  -0.02203,  -0.09309,   0.20537,  -0.04639,   0.00843,  -0.07279,   0.11197,  -0.01188,  -0.02812,  -0.00578,  -0.00375,  -0.00985,  -0.00375,  -0.01797,   0.06731,  -0.02609,  -0.04233,  -0.05045,   0.01452,  -0.05451,  -0.06263,  -0.03421,   0.00437,  -0.10933,  -0.07482,   0.08964,  -0.08091,  -0.02203,  -0.04030,  -0.05248,  -0.00375,  -0.03827,   0.00437,   0.00031
   0.02264,   0.01452,   0.02061,  -0.00782,   0.00640,  -0.00172,  -0.02000,   0.02264,  -0.01594,  -0.03421,  -0.00578,  -0.04842,   0.01858,  -0.02203,  -0.05654,  -0.05045,  -0.00782,  -0.03015,   0.03685,   0.05918,   0.04091,   0.02467,  -0.01797,  -0.03218,   0.00843,  -0.00375,  -0.01594,  -0.02000,  -0.01594,  -0.03218,  -0.00375,   0.05106,   0.06731,   0.02670,   0.01046,  -0.06060,   0.00234,  -0.05045,   0.00640,   0.07949,  -0.04436,   0.01858,   0.00031,   0.03482,   0.03279,   0.07137,  -0.03218,   0.04700,  -0.05248,   0.01046,   0.01655,   0.01452,   0.01655,   0.04091,   0.01655,   0.00031,   0.04497,   0.04700,   0.01858,  -0.00578,  -0.03015,  -0.06060,  -0.02609,   0.01858,   0.08152,   0.03888,   0.05512,   0.02264,  -0.00985,   0.02061,  -0.07279,   0.06934,  -0.06060,   0.01249,  -0.03827,   0.01249,   0.09573,  -0.00172,  -0.03624,   0.05106,   0.00843,  -0.03827,   0.07949,   0.02264,  -0.05248,   0.03279,   0.02264,  -0.00172,  -0.01797,  -0.01391,   0.03279,  -0.00985,  -0.03218,   0.02264,  -0.02609,  -0.01188,   0.02467,  -0.00985,   0.04903,   0.01655,  -0.00782,  -0.00578,   0.06528,  -0.02812,   0.02670,   0.02061,   0.01655,  -0.05857,   0.02061,  -0.02000,   0.02873,   0.00640,   0.00843,  -0.00578,  -0.00782,  -0.02203,  -0.01391,   0.00437,  -0.06872,   0.03076,   0.02061,   0.00437,   0.03279,  -0.02000,   0.03888,  -0.04436,   0.02467,  -0.00782,  -0.05857,  -0.03015,   0.02670,   0.00031,  -0.06669,  -0.05857,  -0.04233,  -0.07279,   0.04700,   0.02061,   0.00843,  -0.02609,   0.05309,  -0.06060,  -0.02000,  -0.08294,  -0.03421,  -0.00782,   0.06528,  -0.02609,  -0.11136,   0.01858,  -0.02203,   0.02467,   0.01655,   0.02467,  -0.07075,   0.03888,  -0.00172,  -0.00985,   0.03888,  -0.04233,  -0.09715,  -0.03827,   0.01452,  -0.00578,   0.00843,  -0.00782,  -0.03827,  -0.03624,   0.04294,  -0.05045,   0.00031,   0.06528,   0.01249,   0.04294,   0.02873,   0.04091,   0.01858,   0.02873,  -0.00172,  -0.02812,  -0.07888,   0.03685,  -0.02000,  -0.04030,  -0.04233,   0.04497,  -0.02406,   0.01249,  -0.06466,   0.00234,  -0.02203,   0.01249,   0.01858,  -0.01188,  -0.00782,  -0.01797,  -0.01391,   0.01249,  -0.02609,   0.00031,   0.04700,   0.03279,   0.02873,  -0.00578,  -0.01391,  -0.00172,   0.01452,  -0.04233,   0.02873,  -0.01188,  -0.02000,  -0.01797,   0.03279,   0.00031,   0.03279,  -0.01797,   0.01249,  -0.06060,   0.02264,   0.05309,   0.00031,  -0.11136,  -0.03624,   0.00640,  -0.07279,  -0.05451,   0.06122,  -0.02406,   0.02670,  -0.02609,   0.01858,  -0.02203,  -0.01594,  -0.02000,  -0.02203,   0.00234,  -0.00375,  -0.02000,  -0.08294,   0.02264,   0.01452,  -0.02000,  -0.01391,  -0.07279,   0.00437,  -0.01188,  -0.02812,  -0.03421,   0.05106,   0.05715,  -0.04639,  -0.00375,  -0.00172,  -0.00375,  -0.01391,  -0.01594
  -0.03624,   0.04700,  -0.04842,   0.00234,  -0.06872,   0.01046,  -0.00985,   0.08355,   0.07543,  -0.03827,   0.02873,  -0.02000,   0.00234,  -0.04842,  -0.00172,  -0.08294,   0.03888,  -0.02000,  -0.02000,  -0.09715,   0.05918,   0.03685,   0.05309,   0.02264,   0.03279,  -0.02609,  -0.00985,   0.00234,   0.00437,   0.00234,  -0.05451,  -0.10324,  -0.07888,  -0.00375,   0.03279,  -0.00375,  -0.00782,  -0.00375,  -0.03421,  -0.07888,   0.00640,   0.02061,   0.05512,  -0.04436,  -0.00578,  -0.07482,  -0.02609,  -0.04233,  -0.03218,   0.09573,  -0.00172,   0.04700,  -0.01391,   0.01655,   0.03279,   0.08558,  -0.01797,   0.08558,  -0.07888,  -0.02609,  -0.07685,  -0.02203,  -0.00578,   0.01046,  -0.01391,  -0.07075,  -0.03827,  -0.02203,  -0.07075,   0.15461,   0.03888,  -0.06466,   0.04903,  -0.02203,  -0.10324,   0.15055,  -0.13979,  -0.05654,  -0.03421,  -0.02406,  -0.09106,  -0.02812,  -0.08294,  -0.07482,  -0.03218,   0.04700,  -0.06466,  -0.04030,   0.04294,  -0.00782,   0.04497,  -0.03015,  -0.01188,   0.03076,   0.02873,   0.03685,  -0.05248,   0.06528,   0.00031,  -0.03015,  -0.06060,   0.02467,  -0.01391,   0.01858,  -0.02000,  -0.04233,   0.05918,   0.03888,   0.00843,   0.03279,  -0.02203,  -0.02203,  -0.01188,   0.01655,  -0.05451,  -0.00375,  -0.02000,   0.00031,  -0.07482,   0.01046,  -0.03421,  -0.08497,  -0.08091,  -0.00172,  -0.00172,   0.05106,  -0.00985,  -0.06060,  -0.06466,  -0.02203,   0.01655,   0.03888,   0.04497,  -0.04030,   0.01655,  -0.05857,   0.02061,   0.05106,  -0.03218,  -0.07482,   0.03888,  -0.01594,   0.01249,  -0.08294,   0.07543,  -0.00782,   0.03076,  -0.08903,   0.01858,  -0.01188,  -0.01188,   0.05106,   0.03888,  -0.06872,  -0.06669,   0.03076,  -0.04842,  -0.11542,   0.04294,   0.04091,  -0.00782,   0.02264,   0.10385,  -0.05248,  -0.00578,  -0.01594,   0.02873,  -0.09106,  -0.04030,  -0.04639,   0.00843,  -0.05654,  -0.04030,   0.07137,  -0.04639,  -0.12963,  -0.02000,   0.02061,  -0.00172,   0.05309,  -0.08700,  -0.00375,  -0.04436,  -0.04639,  -0.01797,   0.09776,  -0.04233,   0.01452,  -0.06060,  -0.10527,   0.02061,   0.00031,  -0.03624,   0.00031,  -0.00985,  -0.01188,  -0.01391,  -0.00172,   0.00234,   0.01655,  -0.03624,   0.00640,   0.04700,   0.00031,   0.03076,   0.01249,  -0.01188,  -0.00578,   0.04497,  -0.04436,   0.03482,   0.00437,  -0.01188,  -0.00578,   0.05715,   0.04294,   0.02264,  -0.02406,   0.01858,  -0.04030,  -0.03421,  -0.07888,  -0.04030,  -0.02000,   0.01452,  -0.12557,   0.02670,   0.02264,   0.04294,  -0.07075,   0.04294,  -0.01188,  -0.00782,  -0.03827,  -0.02609,   0.01249,   0.00640,   0.06528,  -0.08700,   0.06731,  -0.00375,  -0.06466,  -0.00172,  -0.09106,   0.02670,   0.03482,  -0.02406,  -0.04030,   0.04497,  -0.01594,  -0.03827,  -0.07279,  -0.03624,  -0.04030,  -0.00782,  -0.05248
   0.05918,  -0.03218,   0.06934,   0.03279,   0.15664,   0.04294,  -0.02812,   0.04497,   0.00437,  -0.03421,  -0.03421,   0.06122,  -0.04842,  -0.01797,   0.00843,  -0.06669,  -0.04436,   0.00234,  -0.01391,  -0.03015,  -0.00985,   0.08964,   0.02467,  -0.00985,  -0.04436,  -0.02203,  -0.00782,  -0.00172,  -0.01188,   0.05512,   0.03482,   0.01858,  -0.00375,  -0.03624,   0.01655,   0.03279,   0.00843,  -0.00375,  -0.00375,   0.12618,   0.00640,   0.03076,   0.03888,  -0.03421,  -0.04639,  -0.03624,   0.05918,  -0.03624,  -0.01188,   0.03279,  -0.00172,   0.01452,   0.06325,   0.02061,   0.06122,   0.02467,   0.05512,   0.05918,  -0.03421,  -0.05045,  -0.01188,  -0.03015,   0.08964,  -0.02609,   0.05715,   0.02467,   0.00234,   0.02467,  -0.03827,   0.04497,  -0.03421,  -0.04842,  -0.06263,  -0.04639,   0.03279,   0.03482,  -0.03624,   0.00640,  -0.04436,  -0.02203,  -0.02406,  -0.11948,  -0.04842,  -0.05451,  -0.03624,   0.00843,  -0.02203,   0.02061,  -0.00375,   0.01655,  -0.01188,  -0.06669,  -0.01391,  -0.01594,  -0.01188,   0.04091,   0.04294,  -0.00782,   0.02670,   0.01655,   0.02061,  -0.02000,  -0.01188,  -0.02609,  -0.00172,   0.01249,  -0.03015,  -0.05654,  -0.03015,  -0.02406,   0.03279,  -0.01797,  -0.01391,   0.02670,  -0.01797,  -0.00172,   0.02061,   0.00234,  -0.03421,   0.01452,  -0.03421,  -0.05451,  -0.00985,   0.02467,  -0.05045,  -0.05248,   0.02264,  -0.05045,  -0.04436,  -0.03624,  -0.00985,   0.05918,  -0.06669,   0.02264,   0.03888,   0.08152,  -0.01391,  -0.01391,   0.01858,  -0.00782,  -0.04436,  -0.06669,   0.00437,  -0.00578,   0.02061,   0.01858,  -0.01391,  -0.10121,   0.04294,  -0.09918,  -0.00375,   0.01046,  -0.03218,  -0.00985,  -0.03015,   0.00031,   0.00843,  -0.04436,  -0.08903,  -0.06263,   0.00640,   0.02264,   0.02061,  -0.04842,  -0.03015,  -0.05451,  -0.02000,  -0.04436,   0.00234,  -0.04842,  -0.01188,  -0.02609,  -0.03015,   0.02061,  -0.00578,  -0.04233,   0.12009,   0.06528,  -0.01391,   0.01249,  -0.01188,   0.01046,  -0.01188,  -0.00578,   0.00843,   0.00437,   0.02873,  -0.03421,  -0.01594,   0.00640,  -0.03624,   0.00640,   0.01452,   0.01655,  -0.00172,   0.06122,  -0.00985,   0.12415,  -0.04842,  -0.02812,  -0.00985,   0.05106,   0.00640,  -0.02609,  -0.02812,   0.00640,   0.01046,   0.00843,   0.00437,  -0.00985,   0.05309,   0.05715,  -0.00375,   0.06934,   0.01858,   0.04903,   0.00031,  -0.02406,  -0.04639,  -0.00375,   0.00640,   0.00843,  -0.01594,   0.00640,   0.01452,  -0.07685,   0.10385,  -0.01594,  -0.00985,  -0.03624,   0.04903,   0.04091,  -0.02000,   0.00843,   0.06731,   0.03685,   0.00843,   0.01655,  -0.07075,  -0.01797,  -0.00578,  -0.02812,  -0.04030,  -0.07482,   0.01046,   0.03685,   0.01858,  -0.04436,   0.07340,  -0.00172,  -0.03421,  -0.00578,   0.05512,  -0.01391,   0.02264,   0.01452
  -0.05654,   0.01452,  -0.09918,  -0.00172,  -0.02406,   0.06325,   0.02061,  -0.03218,   0.01046,  -0.04030,  -0.05045,  -0.03015,  -0.08700,  -0.04639,  -0.07279,   0.08355,   0.02467,   0.09167,  -0.04639,   0.02264,  -0.06263,  -0.03421,  -0.03624,  -0.08497,  -0.00578,  -0.06872,   0.13634,   0.00843,   0.07746,  -0.04842,  -0.00578,  -0.04639,   0.02061,   0.00843,   0.03279,  -0.02406,   0.06325,  -0.00172,  -0.01188,   0.02061,   0.03685,  -0.08700,  -0.05857,   0.04903,   0.00437,  -0.04842,   0.00843,   0.01655,  -0.11948,  -0.05248,  -0.00985,   0.00031,   0.05715,  -0.00375,   0.01249,  -0.17024,   0.05309,  -0.02000,   0.04497,   0.04091,  -0.05248,   0.01452,   0.01249,   0.01046,  -0.05654,  -0.12557,   0.08964,   0.04700,  -0.09106,   0.11603,   0.08558,  -0.04030,   0.04903,  -0.06466,   0.06731,   0.02264,  -0.05451,  -0.02812,  -0.05451,  -0.06669,   0.07746,  -0.06669,   0.08761,  -0.04233,   0.12212,  -0.05654,  -0.00985,   0.01655,  -0.02812,   0.02873,   0.05309,  -0.07888,   0.03482,  -0.04842,   0.00843,   0.02670,  -0.05451,  -0.04030,  -0.04030,  -0.05654,   0.01249,  -0.07075,  -0.13979,  -0.04639,  -0.06060,  -0.03421,   0.04091,   0.02670,   0.07543,  -0.02812,   0.05918,   0.09776,  -0.07888,  -0.10121,   0.01655,  -0.01594,   0.00437,  -0.14385,  -0.06263,   0.13228,  -0.00985,   0.00031,  -0.04639,   0.00031,   0.03482,  -0.02609,   0.04091,   0.06528,  -0.02812,   0.02264,   0.06122,   0.01249,  -0.03015,   0.00843,   0.08964,   0.01452,  -0.11745,   0.04497,  -0.04436,  -0.02812,  -0.00578,   0.14649,   0.00234,  -0.09106,   0.13228,   0.02061,  -0.02000,  -0.00375,  -0.05451,   0.00234,   0.01858,  -0.02609,  -0.02609,   0.03888,  -0.02000,   0.00640,  -0.04233,  -0.03421,  -0.00172,   0.04091,  -0.00375,   0.00437,  -0.06263,  -0.01188,  -0.05654,  -0.04030,  -0.00578,  -0.08091,  -0.05451,   0.00234,   0.12009,  -0.02203,  -0.07482,  -0.01797,  -0.06263,  -0.01391,   0.00234,  -0.00985,  -0.02812,   0.00437,  -0.07685,   0.12822,   0.03279,  -0.09918,  -0.03421,  -0.10324,  -0.01391,   0.00031,   0.02467,  -0.05045,   0.03888,  -0.00578,   0.09776,   0.00437,  -0.04436,  -0.00172,  -0.02203,  -0.09512,  -0.00985,   0.01249,  -0.04842,  -0.01391,   0.02467,  -0.04233,   0.04294,   0.00437,  -0.02203,  -0.00375,  -0.02609,   0.07949,  -0.08903,  -0.02812,   0.00640,  -0.02812,   0.01046,  -0.05045,  -0.05045,   0.05106,  -0.00985,   0.11603,   0.02467,   0.13025,  -0.08903,  -0.03218,   0.04700,  -0.09106,  -0.03624,   0.02670,   0.04700,  -0.10324,   0.00640,  -0.01391,  -0.00578,   0.03685,  -0.01188,  -0.00172,   0.12618,  -0.06466,  -0.05248,  -0.01188,   0.02467,   0.06122,   0.01046,   0.15258,  -0.01594,  -0.04030,   0.08761,   0.04294,  -0.05045,  -0.04233,  -0.04233,   0.04091,   0.04294,   0.00437,   0.00437,  -0.04842
  -0.00375,  -0.05451,  -0.09512,  -0.02406,   0.00437,   0.01249,  -0.04436,   0.01655,   0.01452,  -0.04233,  -0.02406,  -0.02000,  -0.02812,  -0.03624,   0.03279,  -0.07482,  -0.05045,   0.03685,  -0.01188,  -0.01391,   0.01858,   0.04091,   0.00031,  -0.06466,  -0.03015,   0.01655,   0.04700,   0.06934,   0.00234,  -0.06060,  -0.05451,  -0.07888,  -0.05045,   0.00234,   0.13228,   0.04497,   0.11603,   0.05106,  -0.04436,  -0.02812,   0.01046,   0.00843,   0.07949,  -0.00172,  -0.02203,  -0.05248,  -0.05654,   0.00234,   0.05715,  -0.04030,  -0.03015,  -0.03015,  -0.02406,  -0.01391,   0.05309,  -0.01594,   0.01249,   0.00437,   0.04294,   0.02061,   0.01046,   0.01249,  -0.00985,   0.00437,   0.00234,   0.02670,  -0.04233,   0.07340,  -0.05045,  -0.02609,  -0.06872,   0.00031,  -0.12557,   0.04497,  -0.05654,  -0.04842,  -0.03015,  -0.01188,  -0.01391,  -0.00578,  -0.06466,   0.06122,  -0.03218,   0.05715,   0.03076,  -0.03624,  -0.05857,   0.05715,  -0.01188,  -0.01188,   0.00640,   0.02467,  -0.00985,   0.01046,   0.01046,   0.01046,   0.00234,  -0.03015,   0.04294,  -0.03218,  -0.02609,   0.03076,   0.02467,   0.00640,  -0.01594,   0.06731,  -0.03624,   0.02061,  -0.03827,  -0.06872,   0.01858,   0.06122,   0.03685,   0.00437,  -0.01594,   0.00234,   0.00640,   0.02670,   0.02467,   0.06528,   0.10385,   0.01249,  -0.03624,  -0.04639,  -0.02609,   0.07340,  -0.04639,  -0.01391,   0.00234,   0.00640,  -0.00782,  -0.02000,   0.06528,  -0.05654,  -0.05451,  -0.06060,   0.00640,   0.01046,  -0.00172,  -0.05654,  -0.05857,   0.04294,  -0.02609,   0.03279,  -0.04639,   0.02670,  -0.01797,  -0.01797,  -0.03827,   0.01858,   0.01452,   0.02467,  -0.00782,   0.00234,   0.01452,   0.00640,  -0.00172,  -0.02203,   0.08152,  -0.08294,  -0.08091,  -0.02000,   0.00031,  -0.06872,   0.05309,   0.03685,   0.03685,   0.01046,   0.01655,  -0.04842,  -0.00578,  -0.03421,   0.02670,   0.03279,  -0.00375,  -0.03421,  -0.01594,  -0.09309,   0.00437,  -0.04436,   0.01046,   0.05918,   0.01452,  -0.01391,   0.01249,  -0.02000,  -0.03421,   0.05106,  -0.00578,  -0.02406,  -0.00985,  -0.02000,   0.01452,  -0.00375,  -0.00172,   0.03482,   0.02061,  -0.01188,  -0.03624,  -0.02812,   0.00640,  -0.00172,  -0.00578,  -0.00172,   0.07746,  -0.05045,  -0.00172,   0.02670,  -0.02203,  -0.00578,   0.02264,   0.00031,   0.03888,   0.05512,   0.03076,   0.02873,  -0.02609,  -0.06466,   0.04700,  -0.05654,   0.01452,   0.00234,   0.10385,  -0.05248,  -0.02406,   0.00437,  -0.01188,   0.05106,   0.01452,  -0.07685,   0.01046,  -0.01594,  -0.02812,  -0.02406,   0.04903,  -0.02609,   0.00031,  -0.04842,   0.00640,   0.01249,   0.06731,  -0.01797,   0.00437,  -0.04436,   0.06934,   0.00640,   0.02061,   0.03888,  -0.02609,  -0.04436,  -0.05045,   0.02061,   0.03482,  -0.03218,  -0.06060,   0.00640
  -0.03421,   0.03888,   0.01655,   0.03279,  -0.06669,  -0.05451,  -0.04436,   0.11603,  -0.06060,  -0.01391,   0.03279,   0.04294,  -0.05654,  -0.06263,  -0.02000,  -0.09106,   0.02467,   0.01046,   0.00843,  -0.05248,  -0.08091,  -0.02812,  -0.02812,   0.04091,  -0.01797,   0.01046,  -0.02812,  -0.01391,   0.02873,  -0.01391,   0.02061,   0.16273,   0.05309,  -0.03015,   0.01858,  -0.00782,  -0.09106,  -0.10324,  -0.08700,  -0.06669,   0.08964,   0.04091,  -0.05451,   0.04091,  -0.07482,   0.07543,  -0.02609,  -0.00578,  -0.01594,   0.08761,   0.00843,  -0.01797,   0.04497,  -0.10933,   0.00843,  -0.00172,  -0.06872,  -0.04639,  -0.05248,   0.09979,   0.04903,   0.02061,  -0.04639,  -0.01594,   0.03482,   0.03685,   0.11806,  -0.02203,   0.06325,  -0.02406,  -0.02203,   0.05106,  -0.13166,  -0.06872,  -0.06263,  -0.09512,   0.03482,   0.01249,  -0.00985,  -0.01391,   0.08761,  -0.00985,   0.02061,  -0.02812,   0.00031,   0.00843,  -0.03421,  -0.00172,   0.06122,   0.04294,  -0.02406,   0.03685,  -0.05045,   0.03888,   0.05512,  -0.04233,  -0.01594,  -0.00578,   0.03888,   0.02670,   0.00234,  -0.03218,   0.02873,   0.03685,  -0.02609,  -0.02609,   0.03685,   0.00640,   0.04294,  -0.00375,  -0.00172,  -0.06060,  -0.03421,   0.00031,   0.05106,  -0.02406,  -0.01797,  -0.06060,  -0.07279,  -0.04030,  -0.04436,   0.03888,  -0.01797,   0.07543,  -0.03218,  -0.01188,  -0.10121,  -0.06466,   0.08558,  -0.08497,  -0.02609,  -0.07482,   0.06122,   0.00234,   0.09167,   0.04497,  -0.07279,  -0.04233,   0.00234,  -0.06466,   0.18100,   0.04903,  -0.04030,   0.11806,  -0.05451,   0.01046,  -0.01391,  -0.01188,  -0.05857,  -0.03218,  -0.01594,  -0.00375,   0.04091,   0.04700,   0.04497,   0.07746,   0.02264,  -0.02406,  -0.03827,   0.02061,   0.05918,  -0.00375,   0.02061,  -0.03827,   0.13837,   0.00234,  -0.06872,   0.14852,   0.03279,   0.03279,   0.03279,   0.06934,   0.02061,  -0.03827,   0.05715,   0.08761,  -0.03827,  -0.07888,   0.05309,  -0.06263,   0.00843,  -0.07888,  -0.05451,   0.06528,  -0.07279,   0.05715,   0.10182,  -0.06466,  -0.02000,   0.06731,  -0.01594,  -0.02203,   0.01858,  -0.09106,  -0.07888,  -0.01594,  -0.00172,   0.00031,  -0.03218,   0.03076,  -0.01188,  -0.06872,  -0.01797,  -0.04639,   0.01046,  -0.12963,  -0.00375,   0.04497,   0.01858,   0.08761,  -0.06466,  -0.00375,   0.03685,  -0.01594,  -0.03218,   0.02670,   0.04903,   0.02467,   0.04497,  -0.09106,  -0.09309,  -0.04030,  -0.06669,   0.02873,   0.08761,   0.01249,   0.01046,   0.02670,  -0.10730,  -0.03421,  -0.02609,  -0.02203,  -0.05248,  -0.05248,  -0.09106,   0.01858,   0.08355,  -0.05045,  -0.09918,  -0.06263,   0.00234,   0.01046,   0.02670,   0.13228,  -0.03827,  -0.07279,   0.05918,  -0.04030,   0.07340,   0.10791,  -0.03421,   0.12009,  -0.02406,  -0.07075,   0.07543,   0.01046
  -0.02812,   0.00234,   0.02873,   0.01046,  -0.06466,  -0.02406,  -0.02203,   0.05512,  -0.09512,  -0.02203,   0.00640,   0.02670,  -0.03624,   0.02264,   0.06122,  -0.03015,   0.02670,   0.05309,   0.08152,   0.02264,   0.01452,   0.03888,   0.05512,   0.00031,  -0.05045,   0.01655,  -0.05248,  -0.03624,  -0.04233,   0.04294,  -0.07888,  -0.09512,   0.03076,  -0.03218,   0.00234,  -0.00375,   0.02467,  -0.07685,  -0.00375,  -0.02406,   0.00640,   0.04497,   0.02467,  -0.01391,  -0.05451,   0.02467,   0.04700,  -0.02406,  -0.06466,  -0.02406,   0.01858,   0.03076,   0.00234,   0.03076,   0.01452,   0.00234,   0.01452,   0.13228,   0.05918,   0.03888,  -0.02406,  -0.01391,   0.03076,   0.03279,   0.05918,  -0.07482,   0.03685,   0.06325,   0.03482,  -0.03624,  -0.06466,   0.01858,   0.08964,  -0.01797,   0.01249,  -0.05857,  -0.00375,  -0.01391,   0.01655,   0.07340,  -0.00375,  -0.01594,   0.04091,  -0.05248,  -0.04436,  -0.06060,  -0.02203,  -0.04639,   0.01655,   0.01858,  -0.00375,  -0.08903,   0.02873,  -0.04842,   0.01249,   0.00234,   0.12618,  -0.00578,  -0.00578,  -0.03015,  -0.02406,  -0.02406,   0.01452,   0.03279,   0.02264,  -0.09918,  -0.03827,  -0.08903,   0.00640,   0.06325,  -0.04233,   0.02467,  -0.02000,   0.10994,   0.01655,  -0.03015,  -0.00985,   0.03076,  -0.02812,  -0.05654,   0.00234,   0.02061,   0.01452,  -0.01594,  -0.00375,  -0.03827,   0.02467,   0.04700,  -0.00172,  -0.09512,  -0.00375,  -0.06669,   0.02264,  -0.01188,   0.00640,  -0.05045,  -0.03827,  -0.07075,   0.02264,  -0.01797,  -0.04233,  -0.00172,   0.02670,  -0.03015,   0.08152,  -0.01188,  -0.00782,  -0.17430,  -0.03015,   0.02467,   0.04700,  -0.06669,  -0.03624,   0.00437,  -0.05857,   0.06731,   0.03076,  -0.05248,   0.00640,  -0.08497,   0.03279,  -0.10933,   0.08558,  -0.03218,  -0.06669,   0.02264,  -0.10324,   0.04294,  -0.06263,   0.01249,   0.03076,  -0.02203,  -0.05857,  -0.01391,   0.03076,   0.04700,  -0.03624,   0.07543,  -0.00985,   0.00640,   0.06122,  -0.02812,  -0.03218,  -0.03218,  -0.00375,   0.05715,   0.00843,   0.00437,  -0.02000,   0.13431,  -0.08497,   0.02061,   0.03685,   0.02264,  -0.03624,  -0.02203,  -0.07279,  -0.01797,   0.02467,  -0.02406,  -0.05857,   0.09370,  -0.02000,  -0.05857,  -0.07279,  -0.03421,   0.05918,  -0.05654,  -0.12151,  -0.07075,  -0.04233,   0.06122,  -0.03421,   0.06325,  -0.05857,   0.03685,  -0.06872,   0.00437,  -0.07279,  -0.02812,   0.00031,  -0.02000,  -0.03218,   0.03482,  -0.10933,  -0.02000,   0.04700,   0.01249,  -0.02609,   0.02670,  -0.07279,  -0.02406,   0.01046,  -0.08700,  -0.07279,  -0.00782,  -0.00782,   0.02873,  -0.05857,   0.07340,   0.01452,  -0.04639,  -0.02609,  -0.06669,   0.07340,   0.05106,  -0.06872,  -0.00172,  -0.03421,  -0.01188,  -0.06263,  -0.00985,  -0.04639,   0.02873,  -0.07482,  -0.04842
   0.06934,   0.03076,   0.03888,   0.03076,  -0.08903,   0.02061,   0.01046,  -0.02000,   0.03279,  -0.02000,  -0.04436,  -0.00375,   0.03279,  -0.03421,  -0.12557,  -0.00782,   0.06934,  -0.02203,  -0.00578,  -0.06466,  -0.00782,  -0.11136,  -0.02000,   0.04294,   0.00234,  -0.00172,   0.03685,  -0.02203,  -0.03218,  -0.04030,  -0.01188,  -0.04233,  -0.06669,   0.00031,   0.05715,   0.00843,   0.03076,   0.07543,   0.03888,  -0.01188,  -0.03827,  -0.01188,   0.00843,  -0.07888,  -0.01188,   0.00031,   0.04497,   0.02467,   0.02873,  -0.04436,  -0.03421,   0.01046,   0.06122,   0.06528,  -0.05248,  -0.00985,  -0.01188,  -0.07279,   0.00437,  -0.01594,  -0.00985,  -0.05248,   0.00640,  -0.03827,   0.04497,   0.01858,  -0.02000,   0.01046,   0.04497,  -0.00375,  -0.02406,   0.03482,  -0.06669,   0.04294,  -0.08700,   0.04903,   0.00843,   0.00437,   0.01249,   0.00437,   0.01249,  -0.03015,  -0.03421,  -0.00578,   0.05715,  -0.02609,   0.01452,   0.01046,  -0.03827,   0.00437,  -0.01188,  -0.04233,  -0.02203,   0.00031,   0.02061,  -0.00985,   0.00843,   0.01858,   0.03076,   0.00437,  -0.03218,  -0.02406,   0.03076,  -0.02000,   0.02670,   0.05512,  -0.00172,   0.02061,  -0.01797,  -0.03421,   0.02467,  -0.04030,  -0.00578,  -0.00985,  -0.02609,  -0.03218,   0.07746,   0.02061,  -0.03421,   0.02061,   0.01858,   0.09167,  -0.02000,   0.00640,  -0.04233,  -0.01594,   0.07543,   0.01249,   0.04091,   0.03279,   0.03279,   0.03076,  -0.02203,   0.00843,  -0.00985,  -0.11136,  -0.03827,   0.00640,   0.03279,  -0.07888,   0.02873,  -0.00782,  -0.00782,  -0.00985,  -0.05857,   0.02873,  -0.01391,   0.05512,  -0.03421,  -0.02812,  -0.01391,  -0.00985,   0.01452,   0.04294,  -0.05045,  -0.04436,  -0.00172,  -0.04639,   0.01249,  -0.08091,  -0.04436,   0.00843,  -0.02000,  -0.03624,   0.04903,  -0.01391,   0.05512,   0.04903,  -0.02812,  -0.03218,  -0.06872,  -0.03421,   0.02467,   0.02670,  -0.00578,  -0.08091,   0.04700,  -0.00782,  -0.07482,  -0.00375,  -0.01594,  -0.00375,   0.01046,  -0.04436,  -0.00172,   0.01858,  -0.04639,   0.02467,   0.01655,  -0.08700,   0.09167,  -0.00578,   0.04294,   0.04294,   0.01046,   0.04091,  -0.00172,   0.00437,  -0.02609,  -0.02000,   0.02467,   0.00234,   0.01452,  -0.01594,  -0.00172,  -0.03015,  -0.03218,   0.08964,  -0.02000,  -0.04436,  -0.00985,  -0.03421,   0.08558,  -0.00782,   0.11197,  -0.00375,   0.00843,   0.00234,   0.01046,  -0.00578,  -0.01188,  -0.00578,   0.00843,   0.02061,   0.00234,   0.01249,   0.01046,   0.00234,  -0.02609,  -0.03218,   0.02061,   0.01249,  -0.04639,   0.01046,  -0.02812,   0.03685,   0.00234,  -0.04233,  -0.02203,  -0.04842,   0.04091,  -0.09715,   0.01452,   0.00234,  -0.00172,  -0.02406,  -0.06060,  -0.01391,   0.05715,   0.02264,  -0.03015,  -0.05045,   0.03279,   0.00843,   0.01046,   0.03482
   0.07543,  -0.01797,  -0.00375,  -0.02812,   0.03279,  -0.04030,   0.00234,  -0.04233,   0.06528,  -0.01594,   0.00234,   0.14852,   0.04294,   0.03685,  -0.05248,   0.02873,  -0.04233,   0.01655,   0.02467,  -0.05248,  -0.03624,  -0.04436,  -0.02812,  -0.06872,  -0.04842,   0.01655,  -0.05451,  -0.00375,  -0.10730,  -0.09309,   0.03076,   0.06731,  -0.06466,   0.03888,  -0.03218,  -0.02812,  -0.07075,  -0.10527,   0.00031,  -0.07685,   0.12822,  -0.05857,  -0.01594,  -0.00985,   0.00031,  -0.03218,  -0.00172,   0.02061,   0.03888,   0.02467,  -0.05451,  -0.04233,   0.09573,  -0.04030,  -0.00985,  -0.01188,  -0.01188,   0.06528,  -0.03421,   0.01655,  -0.00782,  -0.04436,  -0.02000,  -0.06466,   0.01452,   0.04091,  -0.01188,   0.00437,  -0.04436,  -0.02203,   0.01655,  -0.04639,  -0.00172,  -0.00985,  -0.13166,  -0.01797,  -0.08294,  -0.02812,  -0.03015,  -0.01391,  -0.10324,  -0.08091,   0.02467,   0.00437,  -0.03827,  -0.03624,   0.01452,  -0.06669,  -0.06263,  -0.01594,  -0.02406,  -0.07279,   0.02061,  -0.06669,  -0.05045,   0.05918,   0.00843,  -0.05248,   0.07746,   0.01655,   0.02264,  -0.00375,   0.05715,  -0.02812,   0.03076,   0.06731,   0.00437,  -0.08700,  -0.04842,  -0.01188,  -0.01391,  -0.00172,  -0.00782,  -0.03624,   0.01655,   0.08152,  -0.04436,   0.07746,   0.00843,  -0.05248,   0.09979,  -0.12151,  -0.03624,  -0.02609,   0.02061,  -0.01797,  -0.02000,   0.03888,  -0.04233,   0.03482,  -0.06263,  -0.01797,  -0.04639,  -0.04639,  -0.03827,   0.04294,   0.03482,  -0.04233,   0.02264,  -0.02406,  -0.03421,   0.00843,  -0.00375,   0.04294,  -0.06466,  -0.00172,   0.00640,   0.05512,  -0.07888,  -0.01188,  -0.04436,   0.03685,  -0.09715,   0.01249,  -0.03421,  -0.04233,   0.02873,   0.05715,  -0.01188,   0.07137,   0.02061,   0.06528,  -0.02406,   0.04497,   0.04091,   0.06122,  -0.11542,  -0.11339,  -0.04436,   0.11400,  -0.00172,  -0.02812,   0.06528,  -0.01188,  -0.00985,   0.09370,   0.07137,  -0.13369,  -0.02812,  -0.00578,   0.00234,  -0.00578,  -0.04436,  -0.04842,  -0.01391,   0.07137,   0.07137,  -0.02609,   0.05106,   0.03888,  -0.09106,   0.01249,   0.05715,  -0.00985,   0.01249,  -0.01594,  -0.08294,  -0.00782,   0.02873,   0.05715,  -0.01188,   0.03888,   0.07340,  -0.12151,  -0.03421,  -0.10324,   0.01655,  -0.00375,   0.00640,  -0.03624,   0.01452,  -0.01188,   0.01452,  -0.02812,  -0.00172,   0.05715,  -0.03218,   0.01452,  -0.01188,   0.03888,  -0.06263,  -0.08497,   0.04497,  -0.01391,   0.00031,   0.00234,   0.01046,  -0.04233,   0.11400,   0.00640,  -0.00578,  -0.08294,  -0.07075,  -0.11948,   0.01655,  -0.01594,  -0.07888,   0.00843,  -0.03624,  -0.02609,  -0.02203,   0.01249,  -0.05045,   0.03076,  -0.03827,  -0.02203,   0.10994,  -0.06872,  -0.04436,  -0.00375,  -0.00578,  -0.00375,   0.00640,   0.06122,   0.03685,  -0.00375
  -0.05045,   0.06122,   0.00437,  -0.07075,  -0.03015,  -0.00578,   0.03685,   0.07949,  -0.02203,   0.00234,  -0.00375,  -0.00985,   0.01858,   0.02264,  -0.02203,   0.07340,  -0.08091,   0.05309,  -0.00782,  -0.00782,   0.01655,   0.05309,   0.04294,   0.04091,  -0.00782,  -0.03218,  -0.03827,   0.02670,  -0.01797,   0.05715,  -0.05857,  -0.07888,   0.02467,  -0.04842,  -0.02000,  -0.05451,   0.00843,   0.07137,   0.08964,   0.03076,   0.00843,   0.01655,   0.01452,  -0.08294,   0.01655,   0.03482,  -0.01188,  -0.01797,   0.00234,   0.04497,   0.01046,   0.00843,  -0.00578,   0.02670,  -0.00578,   0.04700,  -0.04436,   0.05918,  -0.00578,   0.03888,   0.05918,  -0.01797,   0.02467,   0.01858,   0.04294,  -0.06263,   0.00437,   0.05106,   0.03482,  -0.06466,  -0.07482,  -0.02203,  -0.03421,   0.06934,   0.05309,   0.04497,   0.02670,   0.05715,   0.00031,   0.00234,   0.07340,   0.08761,  -0.02609,   0.02061,   0.03685,   0.00437,   0.02264,   0.02061,  -0.08091,   0.02467,  -0.02812,  -0.03015,   0.02061,   0.02061,   0.00843,   0.01249,  -0.03015,  -0.08091,   0.00234,   0.00234,  -0.04639,  -0.00578,  -0.01391,   0.07543,   0.00234,  -0.02000,  -0.04030,   0.09573,  -0.00375,  -0.01391,   0.02670,   0.04091,   0.02467,   0.00234,   0.01655,   0.01858,   0.01249,  -0.02406,   0.02873,  -0.08091,  -0.09918,  -0.05045,  -0.01391,   0.03076,  -0.00985,  -0.01797,   0.03888,  -0.00375,   0.01655,   0.00640,   0.01655,   0.04091,   0.04700,  -0.00985,  -0.03827,   0.00843,  -0.03827,   0.00437,   0.02467,  -0.02203,  -0.03624,  -0.03624,  -0.00172,   0.01655,  -0.02406,   0.05918,  -0.01797,   0.08152,  -0.01797,  -0.09309,  -0.01594,  -0.03827,  -0.01391,  -0.09715,   0.01249,   0.03888,  -0.00172,  -0.03827,   0.00031,  -0.08091,  -0.08294,   0.07543,   0.01046,  -0.00782,   0.08964,  -0.02203,   0.01452,  -0.00782,  -0.00985,   0.06731,   0.02467,  -0.04030,  -0.01188,  -0.01391,  -0.06669,  -0.08497,  -0.07075,   0.11197,   0.05309,  -0.03218,  -0.01797,   0.08152,  -0.07279,  -0.00782,   0.00843,   0.03482,   0.00437,  -0.03827,  -0.02203,  -0.03015,   0.00843,  -0.00985,   0.01858,  -0.04639,  -0.06060,   0.05918,  -0.00985,   0.01046,   0.07137,  -0.00172,   0.04091,  -0.00172,  -0.02000,   0.03482,  -0.03015,  -0.08294,   0.04903,   0.00234,   0.00031,  -0.00578,  -0.04639,  -0.00578,   0.05512,   0.01858,   0.02467,   0.00437,   0.05715,   0.00640,   0.10994,   0.00437,   0.02061,  -0.04842,   0.04700,   0.00437,  -0.00578,  -0.01594,  -0.02000,   0.02467,  -0.03218,  -0.03218,  -0.03421,   0.01249,   0.01858,  -0.02000,  -0.02609,  -0.06060,  -0.03015,  -0.00985,   0.00031,   0.05715,   0.10791,  -0.02812,   0.01655,   0.03888,   0.05918,   0.03888,  -0.01188,   0.00031,   0.03279,   0.02467,  -0.07482,  -0.07888,  -0.01188,  -0.07279,  -0.00172,   0.02264
   0.10791,   0.00234,   0.14243,   0.00437,  -0.08091,   0.02061,   0.08761,  -0.02000,  -0.09512,  -0.02812,  -0.05451,   0.12415,  -0.04233,  -0.01797,  -0.03218,  -0.06263,   0.03279,  -0.03421,  -0.03015,   0.09776,   0.01655,   0.02873,   0.05309,  -0.07482,  -0.00985,  -0.03421,  -0.05451,  -0.05045,  -0.06060,  -0.00172,   0.02873,   0.03482,   0.01046,  -0.01188,   0.01858,   0.00843,   0.08355,  -0.01797,  -0.00375,  -0.06669,  -0.04233,  -0.01391,  -0.03827,   0.07340,  -0.04030,   0.04700,   0.04294,  -0.08700,  -0.00578,   0.03279,  -0.10730,  -0.01594,   0.01046,   0.06934,  -0.02406,  -0.03827,   0.05715,   0.00234,   0.00234,   0.04294,  -0.02609,  -0.00375,   0.01249,   0.02061,   0.01452,   0.07746,  -0.03827,   0.01858,  -0.02812,   0.03888,   0.12009,  -0.00782,  -0.00578,   0.01858,   0.02061,   0.09776,  -0.05654,   0.02467,   0.00234,   0.07340,   0.05309,   0.05309,   0.02061,   0.18506,   0.02061,  -0.01391,  -0.00985,  -0.04639,  -0.00172,  -0.06263,  -0.01188,  -0.05451,   0.00234,   0.01046,   0.01452,  -0.03218,  -0.01391,   0.07543,  -0.00578,  -0.06060,  -0.00172,   0.01655,  -0.06060,  -0.00985,   0.00640,  -0.03624,  -0.12760,   0.08152,  -0.07075,  -0.00578,   0.03888,   0.00437,  -0.05857,  -0.03218,  -0.06263,  -0.01188,   0.08558,   0.05715,   0.00843,  -0.01594,   0.01452,   0.04903,  -0.01188,  -0.03015,  -0.06669,  -0.02812,   0.01249,   0.01858,  -0.07279,  -0.00985,   0.02467,   0.09167,  -0.01391,   0.07949,  -0.02203,  -0.07888,  -0.01188,   0.06122,   0.07543,   0.13634,   0.02873,   0.00437,   0.03685,   0.13431,  -0.03827,  -0.00985,  -0.04030,  -0.02000,  -0.12354,  -0.04639,  -0.06466,   0.01249,   0.04497,   0.10791,   0.02264,  -0.01391,  -0.02000,   0.02467,   0.03888,  -0.04842,  -0.02609,   0.04091,  -0.02609,  -0.00578,  -0.09512,   0.02467,   0.03279,   0.02873,  -0.06872,   0.00234,   0.06934,  -0.02812,   0.05715,  -0.00985,  -0.11136,  -0.08294,  -0.03827,  -0.01797,   0.04091,  -0.01188,  -0.03218,  -0.04436,  -0.03218,  -0.02203,  -0.01594,   0.03279,  -0.00375,   0.01655,  -0.05045,   0.06122,   0.02264,  -0.00375,  -0.06669,   0.05715,  -0.03624,   0.00437,  -0.00985,  -0.00172,   0.03076,  -0.12557,  -0.05654,  -0.00985,   0.01249,   0.05309,   0.03685,   0.04497,   0.05309,   0.08964,  -0.04030,  -0.08294,  -0.00578,   0.04497,  -0.06466,   0.04294,   0.02467,   0.03279,  -0.04030,   0.04700,   0.03076,  -0.01594,   0.06731,  -0.02609,  -0.03827,  -0.04436,   0.12212,  -0.06263,   0.06528,   0.01249,  -0.08294,  -0.00578,  -0.03218,   0.10588,  -0.00985,  -0.00782,  -0.01391,   0.07137,  -0.06060,  -0.00375,   0.00234,   0.02467,   0.02873,   0.01655,  -0.02000,  -0.00578,   0.01655,   0.01046,   0.03076,  -0.01594,  -0.00375,  -0.03218,  -0.03827,   0.01858,  -0.00985,  -0.06060,   0.00843,   0.05309
   0.01249,   0.08355,  -0.04233,  -0.01391,   0.05512,  -0.03015,   0.02670,   0.06934,   0.03685,   0.05512,  -0.02812,   0.11806,  -0.03624,   0.00437,   0.02061,   0.07746,   0.01046,  -0.06263,   0.03279,   0.08355,   0.02873,   0.04903,  -0.02609,  -0.06466,  -0.06060,   0.04497,   0.02061,   0.03888,   0.08152,  -0.03827,  -0.07685,   0.08964,  -0.06060,   0.00234,  -0.02812,  -0.04639,  -0.05654,  -0.08091,  -0.04436,   0.07746,   0.04903,   0.01249,  -0.04639,  -0.08497,  -0.05045,  -0.01188,   0.05512,  -0.00782,  -0.03421,   0.00640,  -0.02609,  -0.08294,  -0.07075,  -0.02812,  -0.08294,  -0.01391,   0.03482,  -0.00172,   0.01249,  -0.00578,  -0.05451,   0.09573,  -0.00172,   0.00843,   0.02467,  -0.04030,  -0.03827,  -0.01391,  -0.05248,   0.00437,  -0.00578,  -0.04436,   0.03685,   0.01452,  -0.00375,  -0.09715,  -0.03218,   0.01655,   0.01249,  -0.04030,  -0.02812,  -0.04030,   0.04497,  -0.00782,   0.00843,  -0.05451,   0.01452,   0.05106,  -0.01188,  -0.00578,  -0.00578,   0.02467,  -0.01391,  -0.00985,   0.01249,   0.01249,  -0.00375,  -0.03218,   0.01046,  -0.03421,   0.11400,  -0.04030,   0.06325,  -0.08903,  -0.02203,  -0.01188,   0.02264,  -0.08091,   0.06731,  -0.00578,   0.03888,   0.03482,  -0.02406,  -0.00172,  -0.06466,   0.05106,  -0.03421,   0.00234,   0.00437,  -0.01797,  -0.00172,  -0.03827,  -0.02406,  -0.06060,  -0.02203,   0.04091,   0.07949,   0.01249,  -0.06872,   0.00640,  -0.01188,  -0.01797,  -0.07482,  -0.01188,   0.01655,   0.03076,  -0.07075,  -0.04842,  -0.07279,  -0.00985,  -0.09512,  -0.04842,  -0.03421,  -0.06263,   0.00234,   0.00640,  -0.00375,  -0.07482,  -0.02203,  -0.00578,   0.04091,   0.00843,  -0.05857,  -0.04436,  -0.05451,   0.01046,   0.02467,  -0.01188,  -0.02203,   0.01858,  -0.05045,  -0.06466,  -0.01188,   0.05715,  -0.08294,  -0.03827,  -0.05045,  -0.06872,   0.02061,  -0.00172,  -0.05857,   0.00640,  -0.01391,  -0.05857,   0.06934,  -0.06872,   0.00640,  -0.09715,  -0.03624,   0.03482,  -0.05045,   0.02467,   0.00437,  -0.04842,  -0.08700,   0.04497,  -0.00578,   0.05512,   0.02061,  -0.03218,   0.06731,  -0.00985,  -0.00172,  -0.01594,   0.04497,   0.00437,  -0.01391,  -0.03827,  -0.07075,  -0.09715,   0.05309,  -0.07075,  -0.01797,   0.03685,   0.02873,  -0.06669,  -0.03015,  -0.03015,  -0.02000,   0.00640,   0.01046,   0.09167,  -0.02000,   0.02467,   0.01249,   0.00843,   0.02061,  -0.04436,   0.02264,   0.05106,   0.00031,  -0.00375,  -0.00578,  -0.00578,   0.08355,   0.14852,  -0.00375,   0.03076,   0.00234,   0.01249,   0.07949,  -0.04436,  -0.08091,  -0.03421,   0.08558,   0.01249,  -0.02203,  -0.03218,   0.00437,  -0.00985,  -0.00172,  -0.03421,  -0.07888,  -0.03624,  -0.04436,  -0.06669,   0.01249,   0.06731,  -0.00782,  -0.02609,  -0.00782,  -0.04842,   0.03279,  -0.04842,   0.04294,   0.01655
   0.01452,  -0.01391,   0.04700,  -0.02203,   0.09776,  -0.00172,   0.01655,  -0.07482,  -0.00578,  -0.09918,  -0.02609,  -0.03218,   0.00031,   0.02264,  -0.00172,  -0.00782,   0.02467,   0.01249,   0.00437,   0.04700,  -0.00172,   0.04700,   0.00843,   0.00437,   0.10182,  -0.02609,   0.04091,  -0.00985,  -0.02406,   0.00437,  -0.02000,   0.03888,   0.02061,   0.02467,  -0.01594,   0.02670,   0.06528,   0.05106,   0.00234,   0.00437,   0.02670,  -0.04436,  -0.02609,  -0.02406,   0.04294,   0.07949,  -0.04233,  -0.00172,  -0.02203,  -0.00578,   0.06325,  -0.05857,  -0.07075,   0.12618,  -0.00578,  -0.00782,   0.03076,  -0.01391,   0.02873,  -0.02812,  -0.02609,   0.00234,   0.01249,  -0.02609,  -0.03421,  -0.00375,   0.03888,   0.07746,  -0.05451,   0.01655,  -0.00985,  -0.00172,   0.04294,  -0.00375,   0.02467,   0.01046,   0.16679,  -0.04436,   0.05512,   0.03482,  -0.09512,  -0.01594,  -0.01188,   0.02264,   0.02061,  -0.00985,  -0.00578,  -0.01188,   0.04497,  -0.00375,  -0.01594,   0.06325,   0.03279,   0.00234,   0.02467,   0.02670,   0.05512,   0.02264,   0.00640,  -0.01391,   0.03685,  -0.00375,   0.02873,   0.00437,  -0.00985,  -0.08903,   0.05106,  -0.02406,   0.01046,  -0.05857,   0.01655,   0.02467,   0.05309,   0.01249,   0.01655,  -0.07888,   0.12212,  -0.02609,   0.07746,   0.03482,   0.03888,   0.04091,   0.01452,  -0.03218,   0.01046,   0.04091,  -0.01797,   0.01452,   0.01858,   0.05106,  -0.00172,  -0.02406,   0.02670,   0.05512,  -0.02812,  -0.04233,   0.04294,   0.00843,   0.02264,  -0.07075,  -0.07482,  -0.02609,  -0.03015,  -0.03827,  -0.03624,   0.03482,  -0.00172,  -0.04436,   0.02264,  -0.01391,  -0.00985,  -0.00375,   0.02670,   0.02873,  -0.00985,  -0.09715,  -0.02203,  -0.05045,   0.04294,  -0.02000,   0.03482,   0.02467,  -0.03015,   0.03482,  -0.05045,  -0.02609,   0.07340,  -0.01188,   0.01655,  -0.08294,   0.01452,   0.09573,  -0.02406,   0.04294,   0.07543,   0.07949,  -0.01594,  -0.03827,  -0.03218,   0.00437,   0.00437,   0.00843,   0.05309,   0.05309,   0.05715,  -0.07482,  -0.08497,   0.00843,   0.06934,   0.03279,   0.02061,   0.01858,   0.00843,   0.03482,   0.04497,  -0.03421,   0.03685,  -0.07279,   0.01655,  -0.04436,   0.08152,  -0.00578,   0.05715,  -0.00375,  -0.09106,  -0.07279,  -0.04436,  -0.00985,  -0.06263,  -0.00172,   0.00437,   0.06528,  -0.01797,  -0.02812,  -0.03421,   0.02670,   0.02670,  -0.05248,  -0.02000,   0.02467,   0.07746,   0.03076,  -0.02406,  -0.06060,   0.02264,   0.00640,   0.03279,  -0.02812,   0.01249,  -0.03218,  -0.01188,   0.00437,  -0.04639,   0.04294,  -0.03015,  -0.03015,   0.12212,  -0.01797,   0.01452,   0.00234,   0.02467,  -0.00375,  -0.00985,  -0.07888,   0.05918,   0.03279,  -0.03218,   0.01858,  -0.06060,  -0.03015,   0.04294,  -0.01594,   0.07340,   0.01655,  -0.02609,   0.05715
  -0.02406,  -0.04030,   0.02264,  -0.07685,  -0.02406,  -0.04842,   0.00234,   0.01046,   0.00640,  -0.05451,   0.00437,   0.03482,  -0.05248,   0.01452,  -0.01391,   0.02061,  -0.00375,  -0.04233,   0.01249,   0.01655,   0.03076,  -0.06263,  -0.03015,   0.05309,  -0.01797,   0.03076,  -0.05248,   0.03482,  -0.02812,  -0.04030,   0.01046,   0.01858,  -0.00578,  -0.00172,   0.02670,  -0.06872,  -0.01188,  -0.10121,  -0.00375,  -0.03624,   0.02670,   0.02873,   0.00031,  -0.04233,  -0.04842,   0.01452,  -0.01391,  -0.00782,   0.04700,   0.02670,   0.01452,  -0.00578,  -0.01797,   0.01452,  -0.01188,   0.02061,  -0.02812,   0.02264,   0.04497,  -0.03015,   0.05309,   0.01046,  -0.03421,  -0.04639,   0.02061,   0.00843,   0.01452,  -0.02812,  -0.04639,  -0.00985,  -0.05451,   0.02061,  -0.04639,  -0.00375,  -0.05857,  -0.05451,   0.04091,  -0.03624,  -0.00172,   0.06122,  -0.03015,  -0.05248,   0.02670,  -0.04639,  -0.09106,   0.02061,  -0.02406,  -0.03015,   0.01452,   0.06122,   0.05918,  -0.03624,  -0.01188,   0.01858,   0.00031,   0.01858,   0.01046,  -0.02812,  -0.02812,   0.04700,   0.00640,   0.00437,   0.03888,  -0.01188,   0.05309,  -0.02609,   0.02467,  -0.05451,  -0.01797,   0.02061,   0.01655,  -0.00782,   0.04903,  -0.04233,  -0.03827,  -0.01797,  -0.00782,  -0.06872,   0.02467,  -0.05857,   0.07137,  -0.02406,  -0.00375,   0.02061,  -0.00985,  -0.03015,  -0.00782,   0.10182,  -0.01391,   0.03482,   0.00031,  -0.04639,   0.04700,   0.02670,  -0.03015,   0.02670,  -0.07075,  -0.01594,  -0.02812,   0.02670,  -0.02406,  -0.03624,  -0.01188,   0.01858,  -0.02812,  -0.02609,   0.00234,  -0.02812,  -0.02000,   0.00843,   0.01655,   0.01452,  -0.00375,  -0.03624,  -0.06263,   0.00031,  -0.01594,  -0.06466,   0.06528,  -0.00375,  -0.02609,  -0.02609,  -0.02406,   0.03279,  -0.00782,  -0.06466,   0.01249,  -0.02000,   0.01249,  -0.07482,   0.02264,   0.09370,  -0.01391,   0.01858,   0.05309,   0.06934,  -0.05857,   0.00640,  -0.00172,   0.00640,  -0.02406,   0.04497,  -0.03015,  -0.02406,  -0.04639,   0.06528,  -0.02000,  -0.03624,  -0.00782,   0.07949,  -0.00985,   0.00843,  -0.05248,   0.01655,  -0.05857,  -0.03421,   0.06122,   0.01452,   0.03076,  -0.04030,  -0.01594,   0.00031,   0.00234,  -0.03218,  -0.05654,  -0.06060,   0.02264,  -0.02000,   0.05918,   0.02061,  -0.02406,   0.04700,  -0.03015,   0.01046,   0.07340,  -0.03421,   0.00234,  -0.01797,   0.00843,   0.03279,  -0.01797,  -0.04233,  -0.00172,  -0.02203,  -0.01797,   0.00031,   0.00843,  -0.00578,  -0.00375,  -0.00375,  -0.04436,   0.06528,  -0.05045,  -0.01797,  -0.02000,  -0.04233,   0.01046,  -0.02812,  -0.06466,   0.00843,  -0.05654,  -0.03624,  -0.01594,  -0.05654,   0.01452,   0.02264,  -0.06872,   0.04903,  -0.01594,   0.03482,   0.05512,   0.01452,  -0.02812,   0.07137,  -0.06060,  -0.08700
   0.00640,  -0.00375,   0.00234,   0.00640,   0.01858,  -0.04233,  -0.00172,  -0.06263,  -0.02812,   0.07340,  -0.01188,  -0.01188,  -0.17024,   0.04091,   0.06528,   0.02670,  -0.03827,  -0.00782,  -0.02406,   0.04294,  -0.09512,   0.03076,  -0.03218,  -0.02000,   0.00234,   0.00031,  -0.02812,  -0.06872,   0.08355,   0.03482,  -0.04436,   0.01858,   0.03279,   0.08761,   0.02467,  -0.00782,   0.04091,   0.11603,   0.01046,  -0.04030,  -0.00172,  -0.05654,  -0.01797,  -0.01797,   0.01858,  -0.00985,  -0.03624,  -0.00172,   0.02467,  -0.07279,  -0.03015,  -0.02609,  -0.00985,   0.00234,  -0.03827,  -0.07685,   0.02467,  -0.03015,  -0.02406,  -0.00375,   0.02670,  -0.01797,   0.02061,   0.05715,   0.01452,   0.04294,  -0.00172,  -0.00578,   0.10182,   0.04294,   0.05309,   0.00640,   0.03076,   0.01655,   0.09167,   0.01046,  -0.00782,   0.02467,  -0.05248,  -0.02203,   0.02061,   0.06528,   0.03279,   0.01452,   0.12822,  -0.02812,  -0.00985,   0.10385,  -0.05451,   0.00640,  -0.02000,  -0.01594,   0.01046,  -0.06263,  -0.00782,  -0.04842,  -0.04639,  -0.02203,   0.03685,   0.03888,  -0.01188,  -0.00375,  -0.06669,  -0.04842,  -0.02406,   0.03685,  -0.09512,   0.06934,  -0.04233,   0.00031,   0.05512,   0.01046,   0.06528,  -0.05857,   0.07137,  -0.00578,   0.00031,  -0.03218,   0.02873,   0.05309,   0.08355,  -0.01594,   0.04294,  -0.05045,   0.03482,  -0.03218,  -0.02203,  -0.02812,   0.00031,  -0.01391,   0.02264,  -0.04639,  -0.03015,   0.06325,   0.02670,   0.08558,  -0.02609,   0.04700,   0.05918,   0.01452,   0.00234,   0.02061,  -0.01188,  -0.02000,  -0.03218,  -0.01391,   0.00640,   0.13634,  -0.06060,  -0.06669,  -0.00578,  -0.01594,  -0.03015,  -0.02609,   0.00234,  -0.03624,  -0.00782,   0.02061,  -0.01797,   0.08558,  -0.04030,   0.08152,  -0.03421,   0.06122,   0.01046,   0.01249,   0.02670,  -0.01188,   0.00640,   0.08152,  -0.00578,   0.00234,  -0.03218,  -0.03827,  -0.01188,  -0.04233,   0.05106,   0.04091,   0.05106,  -0.00578,  -0.06060,  -0.04842,  -0.06263,  -0.02406,  -0.07888,  -0.13572,  -0.01391,   0.05715,  -0.06466,  -0.06466,   0.06325,   0.03482,  -0.02406,  -0.09918,  -0.02000,   0.04903,   0.01249,  -0.08091,  -0.01188,   0.04497,  -0.05857,  -0.00578,   0.01858,   0.01452,   0.00843,  -0.01391,   0.06731,  -0.00985,   0.08558,   0.01655,  -0.03218,   0.03685,   0.00031,   0.00234,  -0.02609,  -0.00578,   0.00843,  -0.05248,   0.04700,   0.06528,   0.03685,  -0.04639,   0.01249,   0.04091,   0.02670,   0.05106,   0.00843,   0.03076,   0.12212,  -0.00172,  -0.00578,  -0.11948,   0.09573,   0.00843,  -0.06466,   0.03685,   0.02670,  -0.03624,   0.07949,  -0.06263,   0.06731,   0.03482,   0.06934,   0.13228,   0.00031,  -0.06263,   0.02873,   0.00234,  -0.06263,  -0.04639,   0.06528,   0.04903,  -0.02406,  -0.03015,   0.04497,   0.01249
  -0.04233,   0.05512,   0.03076,   0.00234,  -0.04639,  -0.00985,   0.05309,  -0.01391,  -0.02203,   0.02264,  -0.00375,  -0.04233,  -0.04842,  -0.03421,  -0.03421,   0.02061,   0.00843,   0.05106,  -0.02203,   0.03482,  -0.06872,  -0.02000,  -0.03218,   0.16882,  -0.00578,  -0.00172,  -0.00985,  -0.04030,  -0.00985,   0.01858,   0.00640,  -0.03624,   0.06122,   0.10385,  -0.00985,  -0.02609,  -0.05654,   0.00843,   0.10385,  -0.02812,  -0.02609,  -0.06060,  -0.04639,  -0.00782,   0.02670,  -0.01391,   0.01249,   0.05309,   0.01452,  -0.01188,   0.03482,   0.10994,   0.06122,  -0.01188,  -0.08700,  -0.11339,   0.03482,   0.01046,  -0.00172,   0.05918,  -0.04030,   0.00843,   0.02264,   0.07746,   0.04497,  -0.00375,   0.00640,  -0.00375,   0.09573,   0.04294,   0.04091,  -0.02406,  -0.06872,   0.02061,   0.02670,  -0.05451,   0.03482,  -0.01594,   0.01249,   0.07543,  -0.03624,  -0.00375,  -0.01594,  -0.00985,   0.02467,  -0.02406,   0.01858,   0.01046,  -0.00578,   0.02873,  -0.03624,  -0.05654,   0.00031,  -0.06669,   0.03685,  -0.01594,  -0.06669,   0.03685,  -0.01594,   0.01249,  -0.07482,   0.00640,  -0.03218,  -0.02406,   0.04091,  -0.03218,  -0.00985,   0.09167,  -0.00782,  -0.00985,   0.03076,  -0.02406,   0.03685,   0.02670,   0.00843,  -0.03015,  -0.00782,  -0.03827,   0.00640,  -0.04639,  -0.00578,   0.05512,  -0.01797,   0.00843,  -0.01797,   0.01249,  -0.00375,  -0.02406,  -0.02000,   0.01046,   0.07949,   0.02670,  -0.01594,   0.01655,  -0.00578,   0.01858,  -0.11339,  -0.02203,   0.00031,   0.01249,   0.04497,   0.04497,   0.01249,  -0.02203,  -0.02203,   0.00031,  -0.01188,   0.02467,  -0.05045,  -0.01391,  -0.03624,  -0.01797,   0.00640,   0.00843,   0.03279,  -0.07482,   0.02873,   0.03279,   0.00437,   0.01858,   0.00234,  -0.01391,   0.00843,   0.02873,   0.00437,  -0.02609,  -0.05857,   0.00031,  -0.04639,  -0.00578,   0.01249,   0.03888,  -0.04030,   0.00437,  -0.00782,   0.00031,  -0.04436,   0.15461,   0.02467,  -0.00172,  -0.03421,   0.02264,   0.01655,  -0.00172,  -0.01188,  -0.04639,  -0.03827,  -0.03421,   0.00234,   0.05512,   0.07340,   0.00437,  -0.03624,  -0.05654,   0.02670,  -0.04436,  -0.03827,  -0.03421,   0.03685,   0.06122,   0.01249,   0.02264,   0.01249,  -0.05857,  -0.03624,   0.04700,   0.00031,   0.04091,   0.02061,  -0.07075,  -0.03218,   0.01249,   0.01046,  -0.00578,  -0.02406,  -0.04233,  -0.06669,   0.07949,  -0.06466,   0.02061,  -0.03218,  -0.04233,  -0.06872,   0.01655,   0.04294,   0.01452,   0.01046,  -0.02812,   0.05918,   0.02467,   0.01046,  -0.02812,   0.03888,  -0.02000,  -0.06263,   0.04497,   0.02061,  -0.03624,  -0.05857,  -0.02609,   0.07543,   0.01046,   0.00843,   0.00234,   0.01655,  -0.05248,   0.01249,  -0.03015,  -0.00375,  -0.01391,  -0.01797,  -0.02812,   0.00437,   0.03685,  -0.04233,  -0.08091
