  -0.01779,  -0.00747,  -0.02530,  -0.00091,   0.00942,  -0.01029,   0.00472,   0.00754,   0.03944,  -0.02718,  -0.01029,  -0.05157,   0.02631,  -0.00560,   0.01880,   0.00472,   0.01129,  -0.00747,  -0.02061,   0.00942,  -0.01029,  -0.01310,   0.01505,   0.01505,  -0.02249,   0.02818,  -0.01029,  -0.03562,   0.02537,   0.01880,   0.04319,   0.00754,  -0.02530,  -0.00560,  -0.00091,   0.00191,  -0.01029,  -0.00184,   0.04132,   0.00097,   0.03944,  -0.02718,   0.00754,  -0.00184,   0.05352,  -0.00278,   0.04507,   0.00003,   0.02255,  -0.00935,  -0.01686,  -0.01592,   0.00754,  -0.03468,   0.00754,  -0.00653,  -0.05720,   0.02818,   0.01223,  -0.01029,  -0.01592,  -0.00653,  -0.03187,  -0.03562,  -0.01123,   0.03193,   0.03850,   0.01598,  -0.04407,   0.03100,  -0.01029,   0.02255,  -0.00747,   0.01974,  -0.02999,   0.01129,   0.01129,   0.00379,  -0.03281,   0.01035,   0.01223,  -0.00466,   0.00472,   0.00379,  -0.02718,  -0.03375,  -0.00653,  -0.01404,   0.00379,  -0.03468,   0.00754,   0.04789,   0.05164,  -0.00653,  -0.00184,  -0.02812,   0.03850,   0.00379,   0.02537,   0.03475,   0.02724,   0.03850,   0.00097,  -0.02342,   0.00097,  -0.00560,  -0.02905,   0.00379,   0.00285,   0.04976,   0.01129,   0.02255,  -0.01873,  -0.02436,   0.01786,  -0.00091,   0.00942,   0.04601,   0.01786,  -0.02436,  -0.02624,   0.01129,  -0.01404,  -0.01873,  -0.02061,  -0.00091,   0.00754,  -0.01592,   0.03100,   0.02537,  -0.00184,  -0.02342,   0.00379,  -0.04031,  -0.02530,   0.03100,  -0.01404,   0.01223,  -0.01779,  -0.06377,  -0.01310,  -0.00372,  -0.01123,  -0.01967,   0.00660,  -0.02342,  -0.03375,  -0.00653,  -0.00653,   0.00191,  -0.01686,  -0.02530,   0.00003,   0.00660,   0.03475,  -0.01592,  -0.01216,   0.01223,  -0.03187,   0.00848,  -0.00653,  -0.03375,  -0.00747,  -0.02624,  -0.03375,  -0.02718,  -0.00091,   0.00285,   0.00848,   0.01035,   0.01411,   0.03006,  -0.01123,   0.02068,  -0.04031,  -0.03937,  -0.01498,  -0.00560,   0.04038,  -0.02342,  -0.01686,   0.00472,   0.05633,  -0.00184,   0.00191,   0.01692,  -0.00278,   0.01129,  -0.03562,  -0.02155,  -0.03562,  -0.02718,  -0.02342,  -0.01310,  -0.00841,  -0.04407,   0.01505,  -0.03750,   0.01786,  -0.00184,   0.02724,  -0.01123,   0.00097,  -0.01498,   0.03381,  -0.01967,   0.00379,  -0.03937,  -0.00184,  -0.00184,   0.02068,  -0.00560,  -0.00184,   0.02443,  -0.02812,   0.00191,  -0.01029,   0.01411,  -0.02249,  -0.00184,  -0.00278,  -0.02436,   0.03100,   0.02349,  -0.02812,  -0.01498,  -0.00747,   0.00379,  -0.03281,   0.00754,   0.04601,  -0.00560,   0.00097,  -0.01216,  -0.04125,  -0.01404,   0.02537,  -0.01123,  -0.05063,  -0.00935,   0.01223,  -0.02905,   0.01880,  -0.00184,   0.00942,   0.01692,   0.02255,  -0.02718,   0.01035,   0.02068,  -0.01310,  -0.00278,  -0.00653,   0.01505,   0.00660,  -0.00935
  -0.00841,   0.02349,   0.02912,  -0.00653,  -0.01779,  -0.00747,   0.04976,   0.00660,  -0.00091,  -0.01592,   0.00191,  -0.02530,   0.00285,   0.01974,  -0.04219,  -0.01686,  -0.00466,   0.00754,  -0.01029,  -0.00278,  -0.01123,   0.00848,  -0.02718,   0.04695,  -0.00278,  -0.00466,  -0.01123,   0.00003,  -0.01404,  -0.02155,  -0.01216,   0.01880,   0.01692,  -0.01498,   0.03193,   0.00285,   0.03944,  -0.00560,   0.01317,   0.03475,  -0.05251,  -0.02999,   0.01692,   0.02818,   0.00379,   0.01692,   0.00566,   0.00379,   0.02537,  -0.00841,  -0.02999,   0.00472,  -0.02342,   0.01035,  -0.02155,   0.03663,  -0.02155,   0.01129,   0.01223,  -0.01123,   0.00003,  -0.03281,  -0.01873,   0.01880,   0.01317,  -0.03093,  -0.00935,  -0.00747,   0.00566,  -0.01686,  -0.05626,  -0.00372,   0.04882,   0.03193,  -0.02249,   0.01505,   0.01411,  -0.00841,   0.01692,  -0.01029,   0.03100,   0.00848,  -0.00653,   0.01880,   0.00848,  -0.01498,   0.08448,  -0.00560,   0.01880,   0.02724,  -0.00935,   0.02161,   0.01505,   0.02443,  -0.03375,   0.00942,   0.02161,  -0.02155,  -0.02249,  -0.01967,   0.00472,   0.00285,  -0.00747,   0.00754,  -0.00091,   0.02161,  -0.07034,  -0.00091,   0.05258,   0.01598,  -0.03844,   0.04413,  -0.01686,   0.01035,  -0.03281,  -0.02718,   0.02818,  -0.00935,   0.00472,  -0.02530,   0.05070,  -0.00184,   0.03850,   0.01411,  -0.03656,  -0.03375,  -0.01779,  -0.00935,   0.00942,   0.00848,  -0.02249,   0.01035,  -0.02999,   0.02255,   0.01880,  -0.02812,  -0.01592,   0.00848,  -0.01873,   0.03287,   0.01786,   0.03193,  -0.01310,   0.00848,   0.00848,  -0.02624,  -0.00747,  -0.01404,  -0.00747,   0.01598,   0.00285,   0.05821,   0.01880,   0.00285,  -0.02530,  -0.00466,  -0.01592,  -0.01029,   0.01505,   0.00472,   0.01880,  -0.04313,   0.01411,  -0.00278,   0.01035,  -0.01404,  -0.00841,  -0.00935,  -0.04313,  -0.01404,  -0.00278,  -0.05908,   0.00942,  -0.00560,   0.01317,   0.02537,   0.02537,  -0.00935,   0.01692,  -0.00653,  -0.00935,  -0.02061,  -0.00372,   0.00191,   0.00191,   0.01505,  -0.02436,   0.00942,  -0.02155,  -0.01029,   0.02537,  -0.01779,   0.03381,   0.05352,   0.02161,   0.00942,  -0.00935,   0.03193,  -0.01216,  -0.00091,  -0.01216,  -0.00653,  -0.02436,   0.00097,  -0.00278,  -0.01216,  -0.00091,  -0.02812,   0.02068,   0.01598,  -0.04782,  -0.01686,  -0.00653,   0.01035,   0.04226,   0.01129,   0.01974,   0.00003,   0.01598,   0.04789,   0.01974,   0.02818,   0.02068,   0.01598,   0.02443,   0.00566,  -0.02249,   0.04695,   0.02349,  -0.06752,  -0.00091,   0.07416,  -0.05814,  -0.00278,   0.05445,   0.01880,   0.00097,  -0.00278,   0.00003,  -0.01123,  -0.00466,   0.01223,  -0.01216,  -0.00091,  -0.01216,   0.01880,  -0.00184,   0.00754,   0.00660,  -0.03281,   0.00754,  -0.00184,   0.01786,   0.02255,  -0.00747,  -0.00841
  -0.02999,  -0.01404,   0.01786,  -0.02249,   0.02443,   0.00285,   0.01505,  -0.00278,  -0.00747,  -0.00091,  -0.01498,  -0.01779,   0.02068,  -0.03375,  -0.00841,  -0.02624,   0.01129,  -0.02812,   0.00566,  -0.02718,  -0.00560,   0.00942,   0.02537,   0.00848,  -0.01310,  -0.00560,  -0.00841,   0.00566,   0.00566,   0.02349,  -0.01123,   0.02068,  -0.00653,  -0.00091,  -0.02342,   0.01223,   0.03287,  -0.00841,   0.01880,  -0.02905,  -0.01310,  -0.01498,  -0.02155,   0.00379,   0.03006,  -0.04876,   0.00660,  -0.00560,   0.02631,  -0.01967,  -0.00184,  -0.01592,   0.00660,  -0.01029,   0.05539,   0.01129,   0.03663,   0.00848,  -0.01123,  -0.01404,   0.02912,   0.01223,   0.01692,   0.00379,  -0.02061,  -0.02342,  -0.00653,   0.03850,  -0.02905,   0.01786,  -0.00466,  -0.00653,  -0.00653,  -0.01873,   0.00285,   0.01505,  -0.02530,  -0.04407,  -0.05063,   0.01317,   0.01692,   0.00097,  -0.00278,   0.03944,  -0.00747,   0.01880,  -0.01779,  -0.01592,  -0.00560,  -0.02155,   0.01129,   0.01317,  -0.01779,  -0.02530,  -0.01123,   0.00285,   0.01129,  -0.00091,  -0.01310,   0.01692,   0.00848,   0.03006,   0.01598,   0.01317,   0.00848,   0.01880,   0.03006,  -0.04500,   0.00660,  -0.00278,  -0.01686,  -0.01498,   0.02349,   0.00942,  -0.01404,  -0.00560,   0.00003,   0.02068,  -0.01686,  -0.01873,   0.00097,   0.00942,  -0.01779,  -0.01216,  -0.00653,   0.05258,   0.00285,   0.00191,  -0.00747,   0.00379,   0.01317,   0.04226,   0.03006,   0.00848,  -0.01123,   0.00942,   0.02818,  -0.02342,  -0.00747,  -0.02436,   0.00472,  -0.00935,  -0.03093,   0.01598,  -0.01029,  -0.01592,  -0.03562,  -0.03187,  -0.00372,  -0.00935,   0.00003,   0.00566,   0.03100,  -0.02530,  -0.03468,  -0.01216,  -0.01029,  -0.00184,   0.01317,   0.03006,  -0.00747,   0.00285,  -0.00466,   0.03287,  -0.02061,  -0.03750,   0.04132,   0.00285,   0.00942,   0.00191,  -0.02061,  -0.03093,   0.01035,  -0.02436,  -0.01123,  -0.01967,   0.04038,  -0.02155,  -0.02905,  -0.00653,   0.02161,  -0.00841,   0.00754,   0.00848,  -0.02249,  -0.00841,   0.02912,   0.00379,  -0.01592,   0.04226,   0.01786,   0.03193,  -0.01310,  -0.00747,   0.01786,  -0.01967,   0.01598,   0.00660,  -0.01686,  -0.01123,   0.02724,  -0.05157,   0.00942,  -0.03375,  -0.00747,  -0.00560,   0.01223,  -0.01686,  -0.00560,   0.02349,   0.01223,   0.00754,   0.04226,  -0.02530,  -0.00560,  -0.03562,  -0.00560,   0.00848,   0.02443,  -0.02155,  -0.00747,   0.00379,  -0.01029,   0.02537,  -0.04970,   0.00660,   0.00097,   0.01974,  -0.02624,  -0.01029,  -0.00184,  -0.01123,   0.00379,  -0.00184,   0.01692,   0.00285,  -0.01779,  -0.03656,  -0.01592,  -0.00560,   0.00848,   0.00097,  -0.01123,  -0.00560,  -0.02155,   0.00379,  -0.01592,  -0.01216,  -0.00747,  -0.03093,   0.02537,   0.00285,   0.01223,  -0.05814,  -0.00935,   0.01692
   0.00848,  -0.00560,  -0.01498,   0.01317,  -0.02624,  -0.02061,   0.02255,  -0.00841,   0.03850,   0.01598,  -0.00372,  -0.01216,  -0.02530,   0.00285,   0.00003,   0.00379,   0.03475,   0.00660,  -0.02530,  -0.00935,   0.04601,   0.02818,   0.00660,   0.00942,   0.00191,   0.04789,   0.00566,   0.00285,   0.00285,  -0.02718,  -0.01873,   0.02724,   0.05727,  -0.01123,   0.00848,   0.01411,  -0.00560,  -0.04313,   0.02255,  -0.00935,   0.00566,   0.00097,   0.01880,  -0.01310,  -0.00841,   0.01129,  -0.01404,   0.05539,  -0.00747,  -0.01216,   0.00191,   0.00191,   0.03006,   0.00097,  -0.00653,  -0.00560,   0.00848,  -0.02718,   0.00848,  -0.00653,  -0.01216,   0.02068,  -0.02155,   0.00660,   0.02818,   0.00942,   0.04507,   0.01880,  -0.01404,   0.02068,  -0.00560,   0.03100,  -0.00372,  -0.05251,  -0.00091,   0.00379,   0.00848,   0.04226,  -0.04313,   0.00848,  -0.00653,  -0.01216,  -0.00184,   0.03381,   0.01786,   0.00848,  -0.06096,  -0.01216,  -0.02530,  -0.04125,  -0.02155,  -0.03375,   0.02724,   0.01129,   0.00660,   0.03475,   0.01880,  -0.00278,  -0.03844,  -0.03375,  -0.05439,   0.00285,   0.00097,   0.00566,   0.02068,   0.01505,   0.00191,  -0.00935,   0.02443,  -0.01686,   0.02161,  -0.04125,   0.00754,  -0.00091,   0.05539,  -0.04688,  -0.06377,  -0.00184,  -0.01029,  -0.03187,  -0.01404,  -0.01686,  -0.01216,  -0.03281,  -0.04031,  -0.01123,  -0.03844,  -0.03187,  -0.01967,   0.02912,   0.02537,  -0.00278,  -0.03468,   0.00191,  -0.03375,   0.00942,  -0.00841,   0.03475,  -0.00841,   0.00754,  -0.01123,   0.01786,  -0.07128,  -0.02530,  -0.05439,  -0.02155,   0.00472,   0.00285,   0.01411,  -0.01873,   0.02818,   0.04038,   0.01505,   0.01692,  -0.01216,   0.02255,  -0.01404,  -0.05814,   0.00191,  -0.00653,  -0.05063,   0.02818,  -0.03844,   0.02443,  -0.01686,   0.01317,  -0.01216,  -0.00560,   0.01223,   0.01129,   0.03381,   0.00379,  -0.00184,  -0.01029,  -0.00466,  -0.01029,  -0.05063,  -0.00560,   0.01129,  -0.00091,   0.04882,   0.00097,   0.01317,  -0.01123,  -0.01498,  -0.01310,   0.00660,  -0.00372,   0.00660,  -0.01967,   0.03850,  -0.01967,   0.01880,  -0.01779,  -0.00935,   0.01974,   0.04789,  -0.02999,  -0.00560,   0.03381,  -0.02061,  -0.03844,   0.00191,  -0.02061,   0.02255,   0.00097,   0.03944,  -0.00747,  -0.00278,  -0.00935,   0.00003,  -0.01686,  -0.01592,   0.01129,   0.00566,  -0.03844,   0.00660,   0.05258,  -0.02342,   0.02631,   0.01692,  -0.00560,   0.01129,  -0.01123,  -0.04125,   0.01505,   0.01411,  -0.02061,  -0.03937,   0.03663,   0.02349,  -0.03656,  -0.02999,  -0.01123,   0.03756,   0.02443,  -0.02812,  -0.01686,  -0.00560,   0.00754,   0.00942,  -0.04125,  -0.00560,   0.01880,   0.00191,   0.01317,   0.00003,   0.03569,   0.01035,   0.05352,  -0.01686,   0.05070,   0.00472,   0.00003,  -0.00091,   0.02068
  -0.04782,   0.00472,   0.02255,  -0.00747,  -0.00372,  -0.00278,  -0.00935,   0.00285,  -0.02249,  -0.02624,  -0.01123,   0.03569,   0.02631,   0.00285,   0.00848,   0.00003,   0.01411,  -0.04031,  -0.02342,  -0.01029,  -0.00184,  -0.00091,  -0.00372,   0.01129,   0.03663,   0.02068,   0.05821,   0.02255,   0.02255,  -0.01592,   0.02349,  -0.02436,  -0.01216,   0.00097,  -0.01216,   0.02537,  -0.00091,   0.02537,  -0.01873,   0.00097,  -0.03562,   0.03193,  -0.01498,  -0.00747,  -0.00184,   0.01129,  -0.03562,   0.02818,  -0.01029,  -0.00184,  -0.01873,   0.04226,   0.04601,   0.01598,   0.00472,   0.00003,   0.00660,   0.03756,   0.01129,  -0.02249,   0.03475,  -0.00091,   0.00472,   0.01974,   0.00285,   0.02818,  -0.01498,   0.01223,   0.00566,  -0.00184,  -0.00747,  -0.01404,   0.01974,  -0.00372,   0.00097,  -0.03750,  -0.05533,  -0.00278,  -0.03562,  -0.00747,   0.00660,  -0.00278,   0.00003,  -0.00466,  -0.04031,  -0.00372,  -0.00091,   0.06196,  -0.02342,  -0.00560,   0.03569,   0.01880,  -0.02718,   0.02068,  -0.00841,  -0.00560,   0.02161,  -0.02342,  -0.01873,  -0.00466,   0.00379,  -0.01029,   0.00754,   0.02537,   0.00660,  -0.00841,   0.00566,   0.01223,   0.01035,  -0.00841,  -0.03750,   0.01692,  -0.00841,  -0.00278,  -0.00935,   0.03287,   0.02818,  -0.00466,  -0.01404,   0.00566,   0.03287,   0.02161,   0.03381,   0.01317,   0.03193,  -0.00560,   0.02443,  -0.01873,  -0.01216,  -0.00747,   0.06196,   0.01598,  -0.01592,  -0.00653,  -0.00091,   0.00754,  -0.00653,  -0.01310,   0.01317,   0.01223,   0.02255,  -0.03281,   0.01974,   0.00097,   0.01411,   0.00472,  -0.01216,  -0.02436,   0.01411,   0.00754,   0.01129,   0.01598,   0.00191,   0.00472,   0.00191,   0.01223,  -0.00935,  -0.01404,  -0.00091,   0.00191,  -0.00841,   0.02068,   0.00660,   0.03287,  -0.00278,  -0.03375,   0.03569,   0.01129,  -0.00841,   0.02255,  -0.02812,   0.00848,   0.01317,   0.01880,  -0.02155,  -0.00935,  -0.02342,   0.00942,   0.00942,  -0.02812,   0.01974,   0.02443,   0.00097,  -0.02812,  -0.00184,  -0.00278,  -0.01123,   0.00472,   0.02349,   0.00472,   0.05539,  -0.00184,  -0.00560,  -0.00560,  -0.04219,  -0.00278,  -0.00841,  -0.02530,  -0.00560,  -0.00935,  -0.03937,   0.01223,  -0.03093,  -0.00653,   0.01223,   0.00472,  -0.00184,   0.00754,  -0.00935,   0.01223,   0.00566,   0.00097,   0.04319,   0.02068,   0.02161,   0.02724,   0.00191,  -0.02342,  -0.00653,   0.02349,   0.03381,  -0.02155,   0.00754,  -0.00184,  -0.01310,  -0.03281,   0.00472,   0.03381,  -0.00935,  -0.01873,   0.03381,   0.02349,   0.02537,   0.03569,   0.00566,  -0.00935,   0.00660,  -0.01404,  -0.01404,  -0.01123,  -0.00466,   0.02255,   0.00379,   0.01411,   0.01129,   0.00848,   0.00566,   0.03100,  -0.02436,  -0.01029,   0.02255,  -0.02530,   0.01598,   0.00003,  -0.00372,   0.03569
   0.02537,   0.01692,  -0.00372,  -0.00560,   0.03381,  -0.03281,  -0.04500,  -0.00091,   0.00660,  -0.01498,   0.02349,  -0.00841,   0.00191,  -0.00184,   0.00097,   0.00472,  -0.00184,   0.03663,   0.00660,   0.03663,   0.02255,  -0.01029,  -0.01873,   0.00472,  -0.01123,  -0.00935,  -0.00935,  -0.02905,   0.01505,  -0.00278,   0.00754,   0.01035,  -0.01967,   0.00003,   0.02255,  -0.05157,  -0.04125,   0.03381,   0.01974,   0.02724,   0.03100,  -0.01592,   0.00942,  -0.02061,   0.01880,  -0.06002,  -0.00466,  -0.03656,   0.01317,   0.02912,  -0.00466,   0.01129,  -0.02061,   0.03475,   0.03569,  -0.00560,  -0.04500,  -0.01686,   0.00003,   0.00191,   0.00848,   0.03006,  -0.04125,  -0.02624,   0.02537,   0.02537,  -0.01310,   0.02349,  -0.07128,  -0.02530,  -0.02530,   0.01035,  -0.00372,   0.00003,   0.02161,   0.00379,   0.01035,   0.05070,   0.04507,  -0.02999,   0.01129,   0.01317,   0.00660,   0.01974,  -0.03468,  -0.01686,  -0.00091,   0.00754,  -0.00653,  -0.01967,  -0.02530,   0.05070,  -0.01686,   0.00754,  -0.03937,  -0.01686,   0.03006,   0.02068,  -0.01592,   0.02161,  -0.00747,  -0.01686,   0.03006,   0.00379,   0.02443,  -0.05251,   0.02161,   0.02255,   0.02349,   0.00660,   0.01692,  -0.01029,  -0.01967,  -0.02812,   0.01317,   0.01223,   0.02724,  -0.00278,  -0.02812,   0.01317,  -0.02999,   0.01129,   0.00848,  -0.01686,   0.02161,  -0.01216,   0.00379,   0.04601,  -0.00841,  -0.01592,  -0.02061,  -0.01873,  -0.01029,   0.03756,  -0.01873,   0.03756,  -0.04031,  -0.00372,  -0.00653,   0.04226,   0.03193,  -0.03750,  -0.02718,  -0.02061,  -0.06752,   0.01598,  -0.00841,  -0.00653,  -0.02436,   0.00848,  -0.02155,  -0.00184,   0.00660,  -0.01404,  -0.03281,  -0.00747,   0.03100,   0.01505,  -0.01310,   0.00566,  -0.01123,  -0.01779,   0.05915,   0.02631,   0.00379,  -0.04594,  -0.01779,   0.01880,   0.02161,   0.02631,  -0.03656,   0.02255,   0.00754,  -0.04407,  -0.02342,   0.00285,   0.03569,  -0.01498,  -0.01967,  -0.02249,   0.00003,   0.01598,  -0.02530,  -0.00560,   0.01129,  -0.00560,   0.02443,  -0.00372,  -0.00935,   0.00942,  -0.00278,   0.04601,  -0.01498,   0.01411,   0.00472,   0.04132,   0.02255,   0.02912,   0.00848,  -0.04782,  -0.01779,   0.01974,  -0.03375,   0.00097,  -0.01779,  -0.00935,  -0.00935,   0.01974,   0.02161,   0.00848,   0.01692,  -0.00653,  -0.01686,   0.07510,   0.00191,   0.00942,  -0.01779,   0.01786,   0.01880,   0.01129,   0.03850,   0.01317,   0.02631,   0.01035,   0.01411,  -0.02436,   0.03475,  -0.00184,   0.01974,   0.04226,  -0.02155,   0.00566,  -0.00653,   0.00566,   0.04319,   0.03944,   0.02818,   0.01974,   0.00660,   0.01223,  -0.02999,   0.01411,   0.03944,  -0.00841,  -0.01123,   0.00848,   0.01317,  -0.02342,   0.03006,  -0.01873,   0.02912,   0.01035,   0.01692,  -0.03937,   0.02818,   0.01317
   0.01035,  -0.01592,  -0.02718,   0.03850,   0.04789,  -0.00653,   0.00754,  -0.00091,  -0.02812,  -0.01967,   0.00003,   0.01974,  -0.00841,   0.01129,   0.04132,  -0.01123,   0.01223,   0.02349,  -0.01404,   0.00566,   0.00942,   0.03569,   0.03006,  -0.03562,   0.00003,  -0.01592,  -0.02718,   0.00472,   0.00942,  -0.01123,  -0.00560,   0.01223,  -0.02061,   0.00097,  -0.00184,  -0.02061,   0.00191,  -0.01029,   0.00472,  -0.01123,   0.01129,   0.01129,  -0.03093,  -0.01029,  -0.00935,  -0.00841,   0.00285,   0.03756,   0.03475,   0.00472,   0.04882,   0.04601,   0.00754,  -0.02999,   0.01035,   0.02443,   0.02349,  -0.01686,  -0.07503,   0.00660,   0.02631,   0.04695,   0.00191,  -0.01498,   0.02537,   0.00660,   0.02912,   0.00660,   0.02255,  -0.05345,   0.03756,   0.02161,  -0.05251,   0.00754,   0.00660,   0.00660,  -0.00091,  -0.01779,   0.00285,   0.01317,   0.01317,  -0.01029,  -0.03656,  -0.02530,  -0.02342,   0.00472,  -0.01498,   0.03287,  -0.00653,   0.01598,  -0.00841,   0.02724,  -0.05439,   0.05539,   0.00848,   0.02255,  -0.01592,   0.00566,   0.00285,   0.00003,  -0.04876,   0.00472,   0.03381,  -0.02718,  -0.01310,  -0.01216,   0.01035,   0.01692,   0.00003,  -0.02530,  -0.02436,  -0.02999,   0.01505,  -0.01498,  -0.02249,  -0.02624,   0.00848,  -0.01779,   0.02068,   0.01598,  -0.00747,   0.01317,  -0.02624,   0.00285,   0.02818,   0.03569,  -0.02905,  -0.01123,  -0.00747,   0.02068,  -0.02342,  -0.01967,  -0.00184,  -0.01498,   0.01974,   0.01411,  -0.00560,   0.01598,  -0.03187,  -0.01967,  -0.00091,   0.03100,  -0.02061,  -0.00560,  -0.03750,   0.01223,  -0.02342,   0.01786,   0.00379,   0.02255,   0.02255,   0.06290,   0.00566,   0.01035,  -0.00184,   0.01411,   0.01317,  -0.01029,   0.01223,  -0.05626,  -0.02061,  -0.04594,   0.01974,  -0.00935,   0.03100,  -0.01029,  -0.02061,  -0.01498,  -0.01123,  -0.00278,   0.05633,  -0.01123,   0.02349,  -0.00466,   0.01223,  -0.02249,  -0.02155,   0.00566,  -0.00184,  -0.01686,   0.03756,   0.01129,   0.00191,   0.00660,   0.00660,  -0.00278,   0.02068,  -0.00278,  -0.02061,   0.04226,   0.01035,  -0.02718,  -0.01967,   0.00942,  -0.01029,   0.01505,  -0.01592,   0.03287,   0.00285,  -0.03187,   0.03006,   0.02631,   0.02631,  -0.04125,  -0.01873,  -0.03187,   0.02255,  -0.03187,  -0.01686,   0.00285,  -0.01592,   0.00942,   0.01692,  -0.03844,   0.01505,   0.03663,   0.00848,  -0.01967,   0.00472,   0.00097,   0.01505,   0.01505,   0.00003,   0.00097,  -0.01592,   0.00191,   0.01317,   0.00660,  -0.02155,  -0.00653,  -0.00841,   0.00379,  -0.02812,  -0.00091,  -0.03656,   0.00379,  -0.01216,   0.02818,   0.01786,   0.01974,   0.03663,  -0.00466,  -0.02812,  -0.01779,   0.00379,  -0.02249,  -0.00560,  -0.01498,  -0.03281,  -0.02249,   0.00660,  -0.00091,   0.00848,  -0.01686,   0.01505,  -0.01498
  -0.01592,   0.05915,  -0.02249,   0.03006,   0.01786,   0.03756,   0.00754,   0.01692,  -0.01873,   0.00660,   0.00472,   0.03850,  -0.02812,   0.00472,  -0.02999,   0.02912,  -0.04594,  -0.01310,   0.00285,   0.01598,  -0.04125,  -0.01686,  -0.01310,   0.00660,  -0.01498,  -0.01310,  -0.02530,  -0.02624,  -0.00560,   0.01974,   0.02443,   0.00660,  -0.01498,  -0.06752,   0.00660,  -0.01123,  -0.00747,   0.03193,   0.00191,  -0.01592,  -0.02436,   0.00566,   0.02349,   0.01411,   0.00848,  -0.04219,   0.01129,  -0.03937,   0.00379,  -0.01498,   0.00379,  -0.02436,  -0.00466,  -0.00091,   0.00191,   0.00942,   0.03100,  -0.01498,   0.00754,   0.00379,  -0.01029,  -0.00747,   0.03475,   0.00566,   0.01223,  -0.02905,   0.00660,  -0.02812,  -0.01029,  -0.03937,   0.01598,   0.00566,  -0.00653,  -0.01404,   0.04601,   0.00472,  -0.01404,   0.00097,  -0.02061,  -0.02342,   0.03381,  -0.02155,  -0.04688,   0.06290,  -0.01029,  -0.01873,  -0.01686,   0.00379,   0.03100,  -0.04031,   0.03569,  -0.00841,   0.00191,  -0.00747,  -0.02530,   0.01411,   0.00285,   0.01223,  -0.01029,  -0.04782,   0.01974,  -0.03093,  -0.00278,  -0.00466,  -0.01123,  -0.00278,  -0.03468,  -0.00935,  -0.00653,  -0.00560,   0.01974,  -0.00466,   0.00848,   0.01411,  -0.01123,   0.03006,   0.03756,   0.00754,  -0.00466,   0.01505,  -0.01029,   0.00285,  -0.01310,   0.02537,   0.01223,   0.02068,   0.02068,   0.00754,   0.00566,  -0.01592,   0.01129,   0.01692,  -0.00372,   0.02068,  -0.00278,   0.01035,   0.03569,   0.01505,   0.02349,   0.01035,   0.01035,  -0.00747,  -0.01029,  -0.03093,   0.00285,  -0.01592,   0.03475,  -0.01592,   0.02443,   0.03006,  -0.02155,  -0.00841,   0.01223,   0.00660,  -0.00747,  -0.00466,   0.01223,  -0.01404,   0.00472,  -0.02812,  -0.02436,  -0.03937,  -0.05908,   0.03944,  -0.00747,   0.04601,   0.00003,  -0.02155,  -0.00560,   0.01411,  -0.03844,   0.01692,  -0.00841,  -0.00184,   0.00285,  -0.01310,  -0.00841,  -0.00560,   0.00848,  -0.04219,   0.03569,   0.01317,   0.01035,  -0.00747,   0.00097,  -0.00184,  -0.00747,  -0.01873,   0.03381,   0.03006,   0.00191,  -0.01779,   0.00472,   0.02537,  -0.03844,  -0.00372,  -0.02436,   0.01223,  -0.03281,  -0.01498,  -0.01967,   0.01223,  -0.01029,  -0.01310,   0.00942,   0.00848,  -0.01404,  -0.01967,  -0.02342,  -0.02061,  -0.00372,   0.02443,  -0.01029,  -0.01779,  -0.00372,   0.01411,   0.00379,   0.00566,   0.02161,  -0.00466,  -0.01779,  -0.01967,   0.02161,  -0.01216,   0.00285,   0.01223,   0.03006,   0.00097,   0.01505,  -0.01873,   0.02161,  -0.01686,   0.00285,   0.02631,  -0.04876,  -0.03093,   0.00566,  -0.00935,   0.00472,   0.02912,   0.00848,  -0.00372,   0.02631,  -0.01873,  -0.01216,   0.05070,   0.01692,  -0.03468,   0.04132,  -0.04219,  -0.01686,  -0.02624,  -0.01967,   0.01880,   0.00097,   0.02443
  -0.02905,  -0.01873,  -0.01967,   0.02068,   0.04226,  -0.00466,   0.00097,   0.00003,  -0.00278,   0.00003,  -0.03375,   0.04132,  -0.01310,  -0.04500,   0.00191,   0.04319,  -0.02061,  -0.04313,   0.00660,  -0.00091,   0.02349,  -0.02812,   0.01317,  -0.01029,  -0.01404,   0.01129,  -0.02530,  -0.01873,   0.09761,   0.00379,   0.00379,  -0.05157,  -0.01216,   0.00003,   0.00003,  -0.02999,  -0.03750,   0.00566,   0.01129,  -0.03468,   0.03756,  -0.03656,  -0.08535,  -0.06377,   0.02255,  -0.00560,  -0.01592,  -0.04970,   0.00942,   0.00848,  -0.00184,   0.04507,  -0.00747,  -0.02061,   0.02349,   0.02443,   0.01974,   0.01129,   0.01223,   0.01974,   0.00379,   0.02255,  -0.04313,  -0.02624,   0.01974,  -0.01216,   0.00379,   0.01411,  -0.04500,  -0.00560,  -0.00466,   0.00942,  -0.03187,  -0.03937,   0.02068,   0.00003,   0.02255,   0.01880,   0.02068,   0.00942,   0.02818,   0.00754,   0.01598,   0.02537,  -0.00935,  -0.00184,   0.02255,   0.00472,   0.01692,   0.02349,   0.03756,   0.03100,  -0.01404,  -0.07034,   0.00191,  -0.00091,   0.01598,  -0.01967,  -0.00184,  -0.02061,   0.04038,  -0.01216,  -0.00372,   0.03756,   0.00942,   0.00379,  -0.01404,   0.01786,  -0.01967,   0.03100,   0.00660,  -0.01029,   0.00003,  -0.01123,   0.03381,  -0.00278,   0.03663,  -0.04313,   0.00285,   0.02912,   0.01786,  -0.00091,  -0.01029,  -0.01967,   0.02631,  -0.02249,  -0.02530,  -0.01592,  -0.03937,  -0.02812,   0.02724,  -0.04970,  -0.00841,  -0.01310,  -0.05439,  -0.02342,   0.02537,   0.07322,   0.09105,  -0.00372,  -0.01498,   0.01411,   0.01129,   0.02631,  -0.08160,   0.00472,  -0.03187,   0.03287,  -0.01686,  -0.00372,   0.03193,   0.02255,   0.01317,  -0.00091,  -0.00184,   0.01598,  -0.02436,  -0.02624,  -0.03562,   0.01786,  -0.01873,  -0.05063,  -0.04031,  -0.02718,  -0.02718,  -0.04782,   0.00754,  -0.05063,   0.00003,  -0.03750,  -0.04782,  -0.06283,   0.01505,  -0.02530,   0.04413,  -0.01686,   0.00566,   0.01223,  -0.02155,  -0.02905,  -0.00466,  -0.00841,   0.00660,  -0.02718,   0.00003,   0.02068,   0.01598,   0.06477,  -0.02249,   0.03381,  -0.07597,   0.01505,  -0.02624,   0.02912,  -0.00560,  -0.03093,  -0.04407,  -0.01967,  -0.01216,   0.01786,   0.02537,   0.01786,  -0.03656,  -0.00935,   0.01692,  -0.00653,   0.00285,   0.02537,  -0.04313,  -0.01029,   0.01880,   0.02724,  -0.02905,  -0.01498,  -0.04688,   0.03381,   0.03944,  -0.01686,   0.02161,  -0.02718,   0.01129,  -0.02155,  -0.01592,   0.02631,   0.02631,  -0.04876,   0.02537,  -0.00466,  -0.01404,   0.03006,   0.00097,  -0.02342,  -0.01873,   0.04789,   0.03193,   0.02161,  -0.03093,   0.01974,  -0.01310,  -0.02342,  -0.02812,   0.01317,  -0.01592,   0.03663,  -0.02812,   0.02068,   0.04695,   0.01880,   0.00097,  -0.00091,   0.03756,   0.03663,   0.09105,  -0.00935,   0.04789,   0.03663
  -0.00841,  -0.00466,   0.03006,   0.06008,  -0.02342,  -0.02624,  -0.00935,   0.00379,   0.00942,  -0.00935,  -0.02061,  -0.02999,   0.02068,  -0.02436,   0.01035,   0.01786,  -0.01967,  -0.01498,  -0.02061,  -0.00653,  -0.02249,   0.03100,   0.02255,  -0.01310,   0.01035,   0.02724,   0.00285,   0.01598,   0.02912,   0.01035,   0.00191,   0.01880,   0.00942,   0.03100,   0.02068,   0.03006,  -0.00841,   0.02255,   0.03381,  -0.01498,   0.00848,   0.01786,  -0.01967,   0.01411,   0.01411,   0.01974,  -0.01592,  -0.02155,  -0.00747,   0.01974,   0.01598,   0.01223,   0.02349,  -0.00091,   0.00754,   0.00097,   0.01317,  -0.01310,   0.02724,  -0.02530,   0.04976,   0.00566,   0.02161,   0.02068,  -0.01967,   0.03100,  -0.02812,   0.01598,   0.00003,  -0.03656,  -0.01592,   0.01598,   0.00942,  -0.00653,  -0.03656,  -0.00466,   0.02537,  -0.01592,  -0.02436,   0.00472,  -0.05063,   0.03287,   0.00379,  -0.02155,   0.00003,   0.00003,  -0.01310,   0.01035,   0.01974,   0.02724,  -0.00466,  -0.03375,   0.00379,  -0.00560,  -0.00560,  -0.02249,  -0.01873,   0.01035,  -0.01216,   0.00191,   0.03006,  -0.01216,   0.02724,   0.05445,   0.03944,  -0.02905,   0.00379,  -0.02155,  -0.00747,   0.03100,   0.01035,   0.00191,  -0.00747,   0.00191,   0.03381,  -0.00560,   0.04319,  -0.04031,  -0.02342,   0.01786,   0.06008,   0.03193,   0.03663,   0.03287,   0.01223,   0.03475,   0.00754,  -0.00278,  -0.01779,  -0.01310,  -0.02905,   0.01411,   0.05352,   0.01692,  -0.02061,  -0.05251,  -0.00841,  -0.00560,  -0.01404,   0.03100,   0.01505,   0.01974,  -0.01873,   0.02068,   0.00003,   0.00472,   0.01880,   0.01035,   0.01223,   0.00942,  -0.00091,   0.02912,   0.00097,   0.02537,   0.00566,  -0.01873,   0.01880,  -0.03562,  -0.05063,   0.00848,   0.00379,   0.03193,   0.00285,  -0.01310,   0.00003,  -0.05533,   0.03100,  -0.00278,   0.02068,   0.02068,   0.02912,  -0.00091,  -0.01873,  -0.00372,  -0.00184,   0.00848,  -0.01123,   0.01598,  -0.00091,  -0.01967,  -0.01498,  -0.01873,  -0.00372,  -0.00653,  -0.00372,   0.02443,   0.00285,   0.00379,   0.01411,   0.02349,  -0.02718,  -0.00560,   0.00285,   0.02443,  -0.03750,   0.00942,  -0.00841,  -0.02999,  -0.00278,   0.00660,  -0.01310,   0.00472,  -0.00841,  -0.01216,  -0.00184,   0.01974,   0.02349,  -0.04031,  -0.00841,   0.00566,   0.00754,   0.00003,  -0.01592,   0.01880,  -0.00091,   0.01974,  -0.01123,  -0.00466,   0.00285,   0.00191,  -0.00653,  -0.00184,   0.05352,   0.01692,  -0.00372,   0.01880,  -0.03468,  -0.01123,   0.03006,  -0.01967,  -0.00278,   0.00097,   0.00660,   0.00191,   0.02443,   0.04882,  -0.01310,  -0.00372,   0.00191,  -0.02061,   0.02068,  -0.00278,  -0.02530,   0.01035,   0.00285,   0.00942,   0.02724,  -0.02530,   0.03475,   0.00379,  -0.00278,  -0.01686,  -0.03093,   0.02537,   0.01411,  -0.00935
  -0.01123,   0.00472,  -0.01592,  -0.05439,   0.01223,  -0.01873,  -0.04594,  -0.00560,  -0.04031,   0.00472,   0.04319,   0.02724,  -0.00184,  -0.01967,  -0.00747,  -0.02812,   0.00472,   0.01786,  -0.01592,  -0.03375,  -0.01404,  -0.00466,   0.01786,   0.00660,  -0.01310,   0.04882,  -0.01029,   0.03663,   0.00942,   0.00097,  -0.01404,  -0.00466,   0.02068,  -0.03750,   0.01974,   0.00191,   0.01692,  -0.00466,  -0.03187,  -0.00653,  -0.01498,   0.01317,   0.02068,   0.02349,  -0.00466,  -0.00372,  -0.00935,   0.00566,   0.01692,   0.00191,   0.00942,   0.01786,   0.00942,  -0.03562,  -0.01029,  -0.03187,   0.02818,   0.00942,   0.01786,   0.00285,   0.03944,  -0.02061,   0.01505,  -0.00935,  -0.00560,  -0.02249,   0.01974,  -0.00841,  -0.00184,   0.00285,   0.02818,   0.00003,  -0.00372,  -0.00841,  -0.00278,   0.00379,   0.03100,   0.01129,   0.04976,   0.01598,  -0.03656,   0.00003,  -0.05720,  -0.00653,   0.01505,  -0.01216,   0.00660,   0.03287,  -0.01123,  -0.00278,  -0.00935,   0.00191,   0.02443,  -0.01592,  -0.01029,  -0.00841,  -0.00653,  -0.00841,  -0.01216,  -0.00466,  -0.02249,  -0.02999,  -0.01404,  -0.03093,  -0.01498,   0.01411,   0.01129,   0.03756,   0.00097,  -0.00747,  -0.01498,  -0.02342,  -0.05814,  -0.01123,   0.02161,   0.00285,   0.00472,   0.00942,   0.00285,   0.02255,   0.02068,  -0.00184,   0.00097,   0.00660,  -0.00747,   0.01786,   0.02255,  -0.02812,   0.01411,  -0.04970,  -0.02530,  -0.06752,  -0.02999,   0.00379,   0.04601,   0.02068,  -0.00466,  -0.02436,   0.02631,   0.04038,   0.00379,  -0.00653,  -0.00653,  -0.01123,  -0.02249,   0.01692,  -0.01216,   0.01505,   0.01598,  -0.02624,   0.01223,   0.03100,   0.01129,   0.02349,  -0.00091,   0.00472,   0.05821,   0.02349,  -0.02342,   0.03944,  -0.01498,   0.01411,   0.01786,   0.02255,   0.02349,  -0.02249,   0.02818,   0.01317,   0.00848,  -0.00184,   0.01974,   0.00660,  -0.00278,  -0.02530,   0.00285,  -0.00372,   0.00754,  -0.02530,   0.00379,  -0.03375,   0.01692,  -0.02061,  -0.02342,   0.01786,   0.02537,  -0.00372,   0.00942,   0.01035,  -0.00372,   0.03475,   0.04226,   0.00754,   0.02068,  -0.01498,   0.02631,   0.01317,  -0.00372,  -0.00184,  -0.02061,  -0.03844,   0.03006,   0.00285,   0.00379,   0.00379,   0.00379,  -0.01967,  -0.02342,   0.00472,  -0.00935,   0.01692,   0.01598,   0.01880,   0.00379,   0.01129,  -0.00653,  -0.04031,  -0.00466,  -0.00747,  -0.03375,   0.00848,  -0.04125,  -0.03281,   0.01129,  -0.03844,  -0.02155,  -0.02999,   0.00848,  -0.00278,  -0.02718,   0.06196,  -0.01123,   0.01411,  -0.02061,  -0.01592,   0.00848,  -0.00747,  -0.00372,  -0.00935,   0.03663,  -0.05439,  -0.03468,   0.02724,  -0.01967,   0.01317,  -0.01873,  -0.02530,  -0.04970,   0.03569,  -0.00841,  -0.02342,   0.01035,   0.01223,  -0.01873,  -0.04125,  -0.00560,   0.01223
  -0.00466,  -0.01123,   0.05164,   0.00566,   0.07885,  -0.02155,  -0.00653,   0.02537,   0.01880,   0.00285,   0.04226,  -0.01216,  -0.00278,   0.01223,  -0.03281,   0.01974,  -0.00935,   0.00191,  -0.01686,   0.01786,  -0.01310,  -0.00184,  -0.01404,   0.02255,   0.00566,   0.00754,   0.02161,   0.01317,   0.05727,   0.04789,  -0.00747,   0.00848,   0.01786,   0.00754,   0.02161,  -0.01310,   0.04038,  -0.00560,  -0.00091,   0.02443,  -0.00372,   0.01317,  -0.03656,  -0.00372,  -0.00278,  -0.00935,  -0.01779,  -0.04219,  -0.00091,   0.00285,  -0.03375,   0.00754,   0.04789,   0.01786,   0.02255,  -0.02905,  -0.03375,   0.01598,   0.00566,   0.00472,  -0.05439,  -0.04500,  -0.02812,   0.00379,   0.00003,  -0.03844,   0.01692,   0.01317,   0.00942,   0.06196,  -0.03187,  -0.01779,  -0.01967,   0.02537,  -0.03750,  -0.01310,   0.03381,   0.02443,   0.03756,  -0.02999,  -0.00841,   0.00660,   0.01880,   0.00285,  -0.03187,   0.01786,   0.00472,  -0.03187,   0.04132,  -0.02718,  -0.02999,   0.02349,   0.00848,   0.04695,   0.01505,   0.01035,   0.01692,  -0.03937,  -0.02061,   0.01880,   0.02631,  -0.02812,  -0.00466,  -0.01123,   0.02349,   0.01035,  -0.00935,   0.03006,  -0.00278,  -0.01779,   0.03287,   0.01880,  -0.01873,  -0.02342,   0.05539,   0.03006,  -0.02812,   0.04976,  -0.02249,  -0.01404,   0.01129,  -0.02436,   0.00097,   0.01223,   0.00942,   0.01974,   0.02537,   0.00003,  -0.01123,   0.00097,  -0.02812,  -0.03656,   0.04789,  -0.00841,  -0.01123,  -0.04031,   0.03850,   0.00660,  -0.04876,  -0.01404,   0.01880,  -0.02999,  -0.05814,  -0.03937,  -0.00278,  -0.04594,   0.03193,  -0.02061,  -0.02718,   0.01692,   0.01411,  -0.03468,  -0.00653,   0.04507,   0.02631,   0.00942,  -0.03375,   0.00379,   0.01786,   0.01317,  -0.02155,  -0.00091,   0.02818,  -0.02999,  -0.03937,   0.03944,   0.01223,  -0.00560,   0.03475,   0.00379,   0.00566,   0.00566,  -0.01967,  -0.00653,   0.00566,   0.04038,   0.04601,  -0.04313,  -0.00560,   0.04882,   0.00097,   0.00191,   0.01317,   0.01786,   0.01974,  -0.00935,  -0.01873,   0.02068,  -0.00278,  -0.01592,   0.00848,  -0.01967,   0.04789,  -0.00841,  -0.01216,   0.05445,   0.04882,  -0.02436,  -0.00466,   0.01411,   0.00754,   0.10043,  -0.01029,   0.01317,  -0.03187,  -0.01592,  -0.00560,   0.01880,  -0.03468,  -0.01779,  -0.02342,   0.00848,   0.00003,   0.00097,   0.00754,   0.00097,  -0.02436,  -0.01498,   0.03006,  -0.00466,  -0.02249,  -0.05063,   0.00566,   0.02349,  -0.01029,  -0.01779,  -0.01404,   0.02068,  -0.02624,   0.03850,  -0.00091,  -0.03844,  -0.01873,   0.00942,   0.01880,   0.00097,   0.00754,   0.00754,   0.00097,  -0.00466,  -0.02249,   0.00566,  -0.00560,   0.03475,   0.00566,   0.04226,   0.00379,  -0.00278,   0.04132,  -0.01779,   0.00660,  -0.04876,   0.01598,   0.01598,  -0.00278,   0.01505
  -0.04594,   0.04882,   0.00660,   0.01223,  -0.00091,   0.01598,   0.01035,   0.01129,  -0.00278,   0.02161,  -0.03562,  -0.00091,   0.00848,   0.02349,   0.01598,  -0.01216,   0.01786,  -0.01592,  -0.00841,  -0.04031,   0.03287,   0.00754,   0.00566,   0.00754,  -0.00278,  -0.00278,  -0.00091,  -0.01123,   0.01223,   0.02255,   0.02349,   0.01129,  -0.01592,  -0.01873,  -0.01216,   0.01692,  -0.04031,  -0.01779,  -0.01873,  -0.02718,  -0.01498,  -0.01216,  -0.02342,   0.01505,  -0.00841,   0.01223,  -0.00372,  -0.02249,  -0.01216,   0.00848,   0.01129,   0.05445,   0.02631,  -0.00372,  -0.00278,  -0.03281,  -0.02812,  -0.00091,  -0.03281,   0.00191,   0.03475,   0.01129,   0.03006,  -0.00278,   0.00285,   0.01786,  -0.04500,  -0.00372,   0.03663,  -0.01123,   0.04132,   0.01505,   0.01786,  -0.00278,   0.05258,  -0.00278,   0.02068,   0.01692,  -0.01123,  -0.01592,   0.02255,  -0.00747,   0.00942,   0.06008,   0.01317,   0.00566,   0.02068,   0.01223,   0.02161,   0.03756,  -0.02812,  -0.01686,   0.01317,   0.02724,  -0.01123,   0.01505,   0.02537,  -0.01404,  -0.02530,   0.00191,  -0.00935,   0.01411,   0.02537,  -0.01216,   0.00379,  -0.01029,   0.02255,  -0.01310,  -0.00466,   0.01129,   0.00003,   0.00097,   0.00285,   0.01505,   0.01505,  -0.01216,   0.03287,   0.02724,   0.02349,  -0.01686,   0.00566,   0.00942,   0.04789,  -0.02342,   0.00848,  -0.00466,  -0.04407,  -0.02812,   0.00754,   0.03006,   0.00097,   0.00285,   0.00191,   0.02068,  -0.02436,  -0.02999,   0.00379,   0.03287,  -0.03187,   0.03475,   0.00097,   0.05164,   0.01974,   0.01786,   0.03850,   0.00097,  -0.04125,   0.00191,  -0.03656,  -0.01498,   0.01692,   0.01505,   0.02255,   0.01974,   0.00472,   0.01880,   0.02724,   0.04226,   0.00191,   0.01317,  -0.00747,   0.01692,   0.00754,  -0.00747,  -0.02530,   0.03287,   0.03475,  -0.05345,  -0.02249,  -0.00091,  -0.00466,  -0.01123,  -0.01498,  -0.02342,   0.02443,  -0.02061,  -0.00091,  -0.01123,   0.00472,  -0.00560,   0.01880,  -0.00935,   0.00660,  -0.01592,   0.03475,  -0.01310,  -0.03093,  -0.00560,  -0.03187,   0.02537,  -0.00935,   0.00379,  -0.00372,   0.00754,  -0.00372,  -0.02999,   0.00191,  -0.02530,   0.00003,   0.03193,   0.03287,  -0.01967,   0.00472,  -0.02342,  -0.01216,   0.00848,  -0.01592,   0.05352,   0.02255,   0.00660,   0.00003,  -0.01123,   0.00191,   0.01974,   0.00566,  -0.02249,   0.01880,   0.00191,  -0.00184,   0.00191,   0.01317,   0.03100,  -0.00466,   0.00848,  -0.00935,   0.03193,   0.02068,   0.02537,  -0.01123,  -0.00560,  -0.02061,   0.04226,  -0.01216,   0.00848,  -0.01310,  -0.01498,   0.00097,   0.00660,  -0.00653,  -0.01498,  -0.00278,  -0.05720,  -0.03750,  -0.00747,   0.02537,   0.04695,  -0.00747,  -0.00560,  -0.00278,   0.00379,  -0.01592,  -0.00935,   0.00942,   0.00097,   0.01317,  -0.03093
   0.04976,  -0.05345,   0.00566,   0.04976,  -0.00091,   0.01692,  -0.00466,   0.02912,   0.01598,   0.01129,  -0.05063,  -0.00935,  -0.00935,  -0.00091,   0.04507,   0.03569,   0.01505,   0.05258,   0.03381,  -0.02249,  -0.00653,   0.00566,   0.00191,  -0.00841,   0.01598,  -0.02342,  -0.01310,   0.01505,   0.05915,   0.00848,  -0.00560,  -0.01779,  -0.00653,   0.02912,   0.01129,  -0.01216,   0.03475,   0.00848,  -0.02812,   0.01411,   0.01505,   0.03663,   0.01317,  -0.01404,  -0.00372,  -0.05626,  -0.00091,   0.02443,   0.03569,   0.00285,  -0.01967,  -0.02249,  -0.04125,   0.00191,   0.00191,  -0.00935,   0.01598,  -0.03187,   0.01974,   0.01411,  -0.00184,   0.02818,   0.01129,  -0.00935,  -0.01498,  -0.00841,  -0.01779,  -0.01216,   0.03475,  -0.03093,   0.02255,   0.02161,  -0.00278,   0.01411,  -0.00841,   0.04226,   0.00097,  -0.00560,   0.03663,   0.06947,  -0.01123,   0.01035,   0.01129,   0.01411,   0.00660,  -0.03093,  -0.04031,  -0.00653,  -0.01216,  -0.02530,  -0.03187,  -0.05157,  -0.04688,   0.01786,   0.00848,   0.00285,  -0.01029,   0.03569,  -0.03375,  -0.00653,  -0.02718,  -0.04594,   0.02161,  -0.00841,  -0.03750,  -0.01686,  -0.02436,   0.01692,   0.03850,  -0.01779,  -0.02061,   0.00003,  -0.00278,  -0.04407,   0.01692,   0.00097,   0.00566,   0.01223,   0.01880,   0.00942,  -0.02155,   0.02818,  -0.00560,   0.01880,  -0.02249,   0.03663,   0.01974,  -0.02342,  -0.01592,  -0.00841,  -0.01873,  -0.02436,  -0.00278,  -0.02718,  -0.02436,   0.01317,  -0.01967,  -0.01123,  -0.02249,  -0.00935,   0.02255,  -0.01216,  -0.00935,   0.01505,   0.01974,   0.06290,   0.04507,  -0.00466,  -0.01967,  -0.01310,   0.01692,   0.03944,   0.00566,   0.00379,   0.01223,   0.01786,  -0.03281,   0.01974,  -0.02718,  -0.00653,  -0.00560,  -0.01029,  -0.00372,  -0.04407,  -0.01310,  -0.00841,  -0.02061,   0.01692,  -0.03750,   0.00379,   0.02161,   0.03006,   0.01974,  -0.00466,   0.02912,   0.01411,  -0.01873,  -0.01029,  -0.00935,   0.02161,   0.04226,   0.03006,  -0.00841,   0.00285,   0.01317,   0.01880,   0.00472,  -0.02812,  -0.03656,   0.03100,   0.01974,   0.02912,  -0.02530,  -0.04125,  -0.03187,  -0.04219,   0.00942,  -0.02812,   0.00472,   0.00942,  -0.01873,   0.03287,  -0.02061,  -0.00184,   0.01598,   0.03193,   0.01035,   0.03663,   0.01317,  -0.03187,  -0.00935,  -0.00091,   0.01317,  -0.04594,   0.00472,   0.00660,   0.03663,  -0.00841,  -0.04125,   0.00003,  -0.01592,   0.00285,   0.02631,  -0.02999,   0.02161,  -0.00935,  -0.02905,  -0.01029,  -0.02905,   0.00003,  -0.01686,   0.02912,  -0.02342,  -0.03093,  -0.01404,   0.02068,  -0.01310,  -0.01498,  -0.00841,   0.01317,   0.01505,  -0.03375,  -0.01967,   0.01129,   0.00472,   0.05164,   0.01974,  -0.00935,   0.00285,  -0.06002,   0.03006,  -0.04407,   0.00566,  -0.01404,   0.01692,   0.00660
  -0.02436,   0.00191,  -0.00560,   0.02349,  -0.06002,  -0.01592,  -0.02249,  -0.02061,  -0.00466,  -0.00278,   0.03287,  -0.00653,   0.00285,  -0.01873,  -0.01873,   0.00379,   0.03193,  -0.00935,  -0.01967,   0.00848,   0.02912,  -0.02624,   0.01505,  -0.00935,  -0.02061,  -0.00747,  -0.02342,  -0.01310,  -0.02624,   0.00285,   0.00566,  -0.02342,   0.03475,  -0.01310,   0.01505,  -0.00091,  -0.00653,   0.00566,   0.02912,  -0.05533,   0.01598,  -0.03375,   0.02349,   0.01598,   0.00191,  -0.01779,  -0.01216,   0.01598,   0.04319,   0.01786,   0.01505,   0.01692,  -0.00372,   0.01129,  -0.00278,  -0.02061,   0.00003,  -0.02155,   0.01880,   0.00379,  -0.05157,   0.00191,  -0.02905,  -0.03375,  -0.01404,   0.01411,   0.00003,   0.02068,  -0.00935,  -0.02624,  -0.03656,  -0.00278,   0.00472,  -0.00747,  -0.00841,  -0.00560,  -0.02812,   0.00097,  -0.00841,   0.00472,   0.00285,   0.01880,  -0.00372,   0.02912,   0.01129,  -0.01779,  -0.00278,  -0.00372,  -0.01873,   0.00942,   0.00003,  -0.00091,  -0.04407,   0.00942,  -0.00653,  -0.00841,   0.01129,  -0.01498,   0.00379,   0.00754,  -0.01216,   0.01129,   0.02068,   0.03381,   0.00285,  -0.00653,   0.00097,  -0.00935,   0.00754,  -0.00278,   0.00472,   0.01411,  -0.02530,  -0.05157,  -0.01404,   0.03850,  -0.00184,   0.00191,   0.01786,  -0.02155,   0.00285,   0.00191,  -0.02530,  -0.02718,  -0.00747,  -0.01216,   0.04038,  -0.01216,  -0.03093,  -0.03844,   0.03287,  -0.00935,  -0.00841,  -0.02436,   0.00472,  -0.02436,  -0.02436,   0.00285,   0.01598,  -0.00184,  -0.06189,   0.01880,  -0.02061,   0.03663,  -0.01404,   0.01223,   0.01035,  -0.00560,   0.01598,   0.01411,  -0.01029,   0.00379,  -0.01216,   0.00942,   0.03756,   0.00285,   0.00942,  -0.01310,  -0.01592,  -0.00372,  -0.02249,   0.00848,  -0.03375,   0.02349,  -0.01498,   0.03756,  -0.00466,   0.01692,   0.01129,   0.01317,  -0.01779,   0.04601,   0.03006,   0.01598,  -0.02999,  -0.00278,   0.00754,   0.01223,  -0.00278,   0.03850,  -0.00466,   0.02724,  -0.02342,  -0.02342,   0.05258,  -0.00091,   0.00472,  -0.03468,  -0.02436,  -0.02530,   0.00191,  -0.01967,  -0.02436,  -0.03281,   0.00191,   0.01974,   0.02724,   0.00285,   0.02631,   0.03287,   0.01786,   0.00942,  -0.01404,  -0.00747,  -0.01029,   0.00191,   0.01035,  -0.01873,  -0.01310,  -0.00372,  -0.00747,   0.01317,   0.00660,  -0.02812,  -0.01873,  -0.01123,  -0.00184,   0.01974,   0.03100,  -0.01498,  -0.02061,  -0.01592,   0.01223,  -0.01779,  -0.01967,   0.00191,  -0.02342,   0.01411,  -0.04782,  -0.00653,  -0.01873,  -0.01029,   0.01223,   0.00754,  -0.01779,  -0.01967,   0.00848,   0.05070,  -0.02155,  -0.04031,   0.01598,   0.00754,   0.00848,   0.03569,   0.00472,  -0.00466,   0.02255,   0.04413,   0.00848,   0.00472,  -0.00747,  -0.00653,   0.01786,   0.01411,   0.00566,  -0.04313
  -0.01029,   0.04038,  -0.01310,   0.06571,   0.03006,   0.01880,  -0.02061,   0.02255,  -0.03281,   0.02631,   0.00097,   0.01505,  -0.01216,  -0.02436,   0.00285,  -0.02436,   0.01129,  -0.01310,   0.01880,   0.01692,   0.05164,  -0.01029,   0.00942,  -0.01310,  -0.01216,   0.03193,   0.02255,  -0.00466,   0.01035,   0.00097,  -0.01592,  -0.03281,   0.00285,  -0.00935,  -0.00372,  -0.01873,  -0.01873,  -0.02718,  -0.00466,  -0.01029,  -0.01029,   0.00097,   0.01411,   0.00191,  -0.02624,  -0.01686,   0.02818,   0.04319,   0.01786,   0.02443,   0.01598,   0.01223,  -0.02624,  -0.01779,   0.00942,  -0.00184,   0.01317,   0.00285,  -0.03750,   0.02349,   0.02161,   0.00191,  -0.03375,  -0.01404,   0.00848,  -0.00091,  -0.03750,   0.01317,  -0.04125,   0.02724,  -0.01779,   0.00003,  -0.00278,  -0.00466,  -0.00466,  -0.00372,   0.02161,   0.00285,  -0.01498,   0.00097,   0.02818,   0.01505,   0.00754,   0.01223,  -0.00091,   0.00003,   0.04976,  -0.00091,  -0.00935,   0.01505,   0.00754,  -0.03937,  -0.00560,  -0.00372,  -0.02905,   0.02724,  -0.01779,  -0.03281,  -0.04782,   0.01786,  -0.02812,   0.02724,   0.00660,  -0.00935,   0.00472,  -0.02342,  -0.04500,   0.04695,   0.01598,  -0.00091,   0.02443,  -0.02061,   0.00472,   0.00472,   0.00285,  -0.00372,  -0.00935,   0.00003,  -0.02905,  -0.00091,  -0.03468,  -0.00091,  -0.03468,  -0.00278,   0.00848,  -0.01404,  -0.03375,   0.00942,  -0.01686,  -0.01592,  -0.01779,  -0.00841,   0.01974,   0.04319,   0.04789,   0.01974,   0.01786,   0.00848,  -0.01498,   0.01505,  -0.02530,   0.00379,  -0.00372,  -0.02812,  -0.01498,   0.02537,  -0.01873,  -0.03187,   0.02537,  -0.00935,  -0.01686,   0.03100,  -0.01686,   0.01786,   0.00191,  -0.01592,   0.04507,  -0.00560,   0.00097,  -0.00466,  -0.01029,  -0.02342,  -0.03375,  -0.02624,   0.01129,   0.02349,   0.00191,   0.04038,   0.02349,  -0.01123,  -0.00653,  -0.04125,  -0.00278,  -0.01592,   0.00285,   0.02724,   0.00191,  -0.00372,  -0.01967,   0.01411,   0.02161,  -0.00841,  -0.02812,   0.00097,  -0.04407,  -0.00372,   0.00472,   0.04882,  -0.04876,   0.01880,  -0.00653,  -0.02436,   0.00754,  -0.00653,  -0.02999,   0.00754,   0.00191,   0.00472,  -0.02624,   0.00660,  -0.01216,   0.00285,   0.03756,  -0.01873,   0.00003,  -0.00935,   0.02349,   0.01411,  -0.03187,   0.03100,  -0.02812,  -0.02905,   0.02912,   0.00097,   0.02443,   0.00003,   0.00566,   0.00848,  -0.04031,   0.01505,   0.02068,   0.00285,   0.00848,   0.00097,   0.00566,  -0.02718,   0.01411,   0.01786,  -0.00184,   0.00754,   0.00942,   0.01974,  -0.00372,  -0.00747,  -0.01310,   0.01505,  -0.02718,  -0.01498,   0.03287,   0.00472,  -0.02999,   0.05258,   0.01317,   0.00472,  -0.02624,  -0.00560,  -0.00747,  -0.04688,  -0.02624,  -0.00372,  -0.02530,   0.00097,  -0.00184,   0.00379,  -0.01686,   0.00097
  -0.01310,  -0.01967,   0.00566,   0.00097,  -0.04500,   0.01974,   0.01411,   0.01129,   0.02161,  -0.01592,  -0.00372,  -0.01873,  -0.01498,   0.02724,   0.02537,   0.01786,   0.02161,   0.03944,   0.03193,  -0.01123,   0.00472,  -0.00560,   0.00942,  -0.00747,  -0.00091,   0.01129,   0.02537,   0.01786,   0.02537,   0.01974,  -0.01123,   0.01223,  -0.01779,   0.03663,  -0.02718,   0.03475,  -0.02624,   0.01129,  -0.04031,  -0.02905,   0.02161,   0.00379,  -0.01498,  -0.00372,  -0.02812,   0.00848,  -0.00372,   0.00191,  -0.01404,  -0.00560,   0.00472,  -0.01779,   0.06477,  -0.05814,   0.02161,  -0.02436,   0.03944,   0.00285,   0.01598,  -0.00466,  -0.05063,   0.01317,   0.01505,  -0.00466,  -0.02061,  -0.07128,  -0.00653,   0.00942,   0.05727,   0.04319,  -0.02342,   0.00754,   0.01880,  -0.05063,   0.01035,  -0.01686,  -0.05251,   0.00942,  -0.01498,   0.00848,   0.01505,   0.00848,   0.00942,   0.00472,  -0.02342,  -0.01779,   0.01505,   0.00472,   0.00191,  -0.02530,  -0.00653,  -0.02342,  -0.02812,  -0.00653,  -0.04125,  -0.00653,  -0.00278,   0.03663,  -0.01123,   0.02443,  -0.02061,  -0.00935,  -0.00560,   0.00379,  -0.01310,  -0.00466,   0.01129,  -0.02249,   0.00379,   0.02912,   0.00942,  -0.00935,  -0.01592,  -0.01029,  -0.00747,  -0.00372,  -0.01592,  -0.00747,  -0.00653,  -0.01592,   0.01598,  -0.01592,   0.00566,  -0.01029,  -0.04594,   0.00003,   0.01035,  -0.03093,   0.01411,  -0.00372,   0.03850,   0.00097,  -0.00466,   0.00754,  -0.00184,   0.03944,   0.02631,   0.06008,   0.03193,   0.03100,  -0.00466,  -0.03750,   0.02161,   0.00003,   0.00566,   0.04132,  -0.00560,   0.01223,  -0.01216,  -0.01592,   0.03850,   0.01786,  -0.02530,  -0.00466,   0.00566,  -0.00747,   0.01974,  -0.01592,   0.03006,  -0.01216,  -0.02249,   0.08917,  -0.00560,   0.02818,  -0.00747,  -0.01779,   0.01035,  -0.00935,   0.00660,   0.01880,   0.01411,   0.00848,   0.03475,   0.00660,  -0.01404,  -0.00653,  -0.05533,   0.01317,   0.02161,  -0.01029,   0.01035,  -0.02342,   0.00566,   0.02349,  -0.02436,  -0.01404,   0.01505,  -0.00278,   0.02724,   0.04038,  -0.03187,  -0.01967,   0.02255,   0.00942,   0.01223,  -0.02342,   0.00848,   0.02631,   0.03381,  -0.00091,   0.05352,  -0.04031,   0.00003,   0.00942,   0.03569,  -0.01686,   0.00942,   0.03006,   0.03100,   0.00191,   0.03381,  -0.04970,   0.06102,  -0.00747,   0.00566,   0.03193,  -0.02436,   0.01035,  -0.02249,  -0.02530,  -0.00184,   0.00285,  -0.01592,  -0.01967,  -0.00372,  -0.01216,   0.00660,  -0.00466,  -0.02624,   0.02631,   0.02724,  -0.01029,   0.01505,   0.00285,  -0.01404,  -0.00560,   0.00003,   0.00285,   0.00379,   0.01223,  -0.01967,   0.00472,   0.02255,  -0.01686,   0.03100,   0.00566,   0.02912,   0.00566,   0.03850,   0.03287,   0.02631,   0.02724,  -0.01779,   0.01223,  -0.03187,  -0.00372
   0.00003,  -0.02812,   0.01035,  -0.01498,  -0.00935,   0.00097,  -0.02905,  -0.01873,   0.04132,  -0.01404,   0.02818,   0.01692,   0.04976,  -0.03187,   0.00566,   0.01786,   0.04507,   0.00942,   0.00191,  -0.02530,   0.00003,   0.02161,   0.00942,   0.00942,  -0.01310,   0.01035,  -0.00184,   0.01411,   0.03006,   0.02537,  -0.00747,   0.02068,   0.00848,  -0.02342,   0.07134,   0.01411,   0.01786,   0.01129,   0.02443,  -0.03656,  -0.04031,  -0.02905,   0.00472,  -0.02718,  -0.01123,  -0.00560,   0.00003,   0.01035,  -0.01029,  -0.01310,   0.02724,   0.02349,  -0.01216,   0.00472,   0.00660,  -0.01967,   0.01880,  -0.01873,   0.03381,   0.00754,  -0.02718,  -0.01029,   0.02631,   0.01505,  -0.00653,   0.00660,   0.01223,  -0.00935,   0.02349,  -0.01498,   0.03944,   0.01129,   0.00379,  -0.01310,   0.00660,   0.01223,   0.04695,  -0.03937,   0.00942,   0.01317,  -0.01029,  -0.00184,   0.01598,   0.00942,   0.01598,   0.00660,  -0.01498,   0.00660,  -0.04500,  -0.02718,   0.02255,   0.03100,   0.02068,   0.00379,   0.00285,   0.01035,   0.00566,   0.03944,  -0.03468,  -0.00841,  -0.03375,  -0.02530,   0.00660,   0.02631,   0.03756,  -0.04313,  -0.01216,   0.00660,  -0.00091,  -0.02812,  -0.01029,  -0.01123,  -0.03093,  -0.00278,   0.01223,   0.00379,   0.01317,   0.02724,  -0.01873,  -0.01029,  -0.02436,   0.00191,   0.00566,   0.01035,  -0.01779,   0.02724,   0.02912,  -0.02249,   0.02161,  -0.00091,  -0.01216,   0.02537,  -0.02999,   0.00285,   0.00097,   0.01411,  -0.01123,  -0.02155,  -0.05626,  -0.04407,   0.00097,  -0.00466,   0.00097,  -0.00935,  -0.00184,   0.01129,   0.01974,   0.02631,   0.00660,   0.04413,   0.01223,  -0.03562,  -0.01592,   0.02537,  -0.02342,   0.01974,  -0.01967,  -0.03375,   0.04413,   0.02443,   0.01223,  -0.00278,   0.00285,   0.00754,  -0.02530,   0.02349,  -0.00372,  -0.02905,  -0.01216,   0.01880,   0.05352,   0.03475,  -0.00747,  -0.00560,  -0.02905,  -0.00372,  -0.02905,   0.03006,  -0.03281,   0.02255,  -0.02624,  -0.04594,   0.01317,  -0.00184,   0.00848,   0.02255,  -0.01498,   0.03100,   0.02161,  -0.04407,  -0.01310,   0.02161,  -0.01498,  -0.03656,   0.01786,   0.00566,   0.02818,   0.00191,   0.00754,  -0.02905,   0.01505,   0.01411,   0.01974,  -0.01216,   0.01411,  -0.00184,  -0.00466,  -0.00653,   0.03100,   0.00754,  -0.00372,  -0.04125,  -0.04970,   0.05258,   0.01411,   0.03663,   0.01786,  -0.01404,   0.02818,   0.02912,  -0.01310,   0.03569,   0.01317,  -0.01404,  -0.00747,  -0.01029,   0.02255,  -0.00372,   0.00285,   0.04319,  -0.00091,  -0.04031,   0.00097,   0.01317,   0.00285,  -0.02999,  -0.02530,  -0.00091,  -0.01123,  -0.01123,  -0.04125,  -0.02999,   0.01129,  -0.00653,   0.02912,  -0.01310,   0.01974,  -0.00278,   0.02631,   0.03850,  -0.00653,  -0.00560,  -0.02530,  -0.00372,  -0.00372,  -0.00653
  -0.02155,   0.01692,   0.00285,   0.01035,  -0.01873,  -0.00841,   0.00942,   0.03006,  -0.02530,  -0.02530,  -0.01404,   0.02443,  -0.03187,  -0.00278,   0.02161,  -0.00935,  -0.00372,   0.01317,  -0.00466,  -0.01216,   0.01129,   0.05258,   0.02818,   0.02161,   0.01692,   0.00566,  -0.01404,   0.00472,  -0.00466,   0.00660,   0.00660,   0.02161,   0.02912,  -0.03093,  -0.01779,  -0.01404,  -0.00091,   0.00848,   0.04695,  -0.03562,  -0.04594,  -0.01216,  -0.00560,   0.03100,  -0.01404,  -0.01029,  -0.00372,  -0.00184,  -0.00841,  -0.01404,  -0.01123,  -0.07128,  -0.05533,  -0.00653,   0.02912,   0.01035,  -0.02061,  -0.00560,  -0.04500,   0.01035,   0.01598,  -0.01029,  -0.00935,   0.01129,   0.03944,  -0.02436,   0.01223,   0.02349,   0.04319,  -0.01686,  -0.00560,   0.00942,   0.01786,  -0.04031,  -0.01686,  -0.00184,   0.03850,  -0.02436,   0.00003,   0.04226,  -0.01310,  -0.04125,  -0.02155,  -0.00653,  -0.00653,  -0.00091,   0.00285,   0.00191,  -0.01873,  -0.04125,  -0.00278,  -0.02061,  -0.00372,   0.03850,  -0.00184,   0.00566,   0.01317,  -0.02061,   0.02631,  -0.01123,   0.02631,   0.02724,   0.00848,   0.01411,  -0.00841,   0.03287,  -0.01873,  -0.00091,  -0.00560,  -0.01779,   0.01880,  -0.04688,   0.02068,   0.00754,   0.04226,   0.00379,  -0.01686,  -0.00560,   0.03381,  -0.01123,   0.02255,  -0.01216,   0.02912,   0.00191,  -0.02530,  -0.03093,   0.00660,   0.00660,   0.01974,  -0.00278,  -0.01310,   0.00097,   0.01880,  -0.01310,   0.01974,  -0.00091,   0.02537,  -0.04500,  -0.01498,  -0.01779,   0.03006,   0.01129,   0.01411,  -0.01873,   0.05070,   0.00285,   0.01317,   0.02255,  -0.01216,   0.01786,  -0.00841,  -0.04688,  -0.04125,  -0.02530,  -0.01498,   0.01598,  -0.00747,   0.01317,   0.01505,  -0.03187,   0.01317,   0.00754,   0.02818,   0.00566,   0.01129,  -0.02905,  -0.00747,   0.00942,  -0.02155,   0.00472,   0.02912,  -0.03656,   0.00379,  -0.01216,   0.02724,   0.04226,  -0.02249,  -0.00184,   0.00848,   0.04132,  -0.05157,   0.00942,  -0.00278,   0.01129,  -0.01029,  -0.00278,   0.00660,  -0.01873,   0.02068,   0.02255,   0.02912,  -0.05439,  -0.00560,  -0.04313,   0.00285,   0.03006,   0.00379,  -0.00278,   0.02443,  -0.03187,  -0.02155,   0.01129,   0.01598,   0.00472,   0.00754,   0.00472,   0.00191,  -0.00653,   0.03193,  -0.01592,   0.01129,   0.00285,  -0.00653,   0.01692,  -0.01216,   0.00848,   0.01880,  -0.00841,  -0.01404,   0.00285,   0.01129,   0.02537,   0.00097,   0.00285,   0.04038,  -0.01498,  -0.01310,  -0.02530,   0.00942,   0.02349,  -0.04594,   0.03850,   0.00003,   0.02724,   0.01880,  -0.03281,   0.02443,   0.00003,   0.02443,   0.01880,  -0.01029,   0.03663,   0.01786,   0.00848,  -0.03468,  -0.03093,  -0.00841,  -0.03281,   0.01035,   0.00472,  -0.02436,  -0.02155,  -0.02905,  -0.02155,  -0.02436,  -0.00278
  -0.01216,   0.01786,   0.02912,   0.00754,   0.01035,  -0.04313,  -0.02812,  -0.00372,  -0.02155,  -0.02061,   0.02912,  -0.01498,   0.03663,   0.02161,   0.03569,   0.01505,   0.03193,  -0.01123,  -0.02812,   0.02537,   0.00285,   0.04695,  -0.01310,   0.01317,   0.00379,   0.02724,  -0.00278,   0.02724,  -0.02061,   0.03944,   0.00191,   0.04413,  -0.02155,  -0.00653,   0.03756,   0.03663,   0.03569,   0.00379,   0.00660,   0.01129,   0.00097,   0.03006,  -0.02905,  -0.02436,   0.04507,  -0.02812,   0.00660,  -0.00372,   0.01598,   0.03006,  -0.01498,   0.00942,   0.01505,  -0.06096,  -0.02342,   0.01505,  -0.00091,   0.02631,  -0.01967,   0.00003,  -0.01216,  -0.01873,   0.00754,  -0.03750,  -0.00091,  -0.00278,  -0.02718,   0.02912,  -0.02530,  -0.01498,   0.00097,   0.02255,   0.01035,  -0.01029,  -0.01216,   0.00754,   0.02349,  -0.00184,  -0.00091,   0.01411,  -0.04500,   0.01035,   0.03569,   0.00097,   0.01317,   0.04601,   0.00566,   0.00379,  -0.01310,   0.03287,  -0.02155,   0.00379,   0.01223,   0.00566,   0.03193,   0.00660,  -0.00466,   0.03100,  -0.00372,  -0.00653,  -0.01873,   0.00097,  -0.02624,  -0.02249,   0.01505,  -0.00841,  -0.01216,   0.02537,  -0.03281,   0.00191,  -0.01216,  -0.01123,   0.00660,   0.00472,  -0.00466,  -0.01592,   0.03100,  -0.01873,  -0.00184,   0.00285,  -0.01216,   0.02818,   0.00942,  -0.02249,  -0.03750,   0.02255,   0.00003,  -0.01404,   0.01035,   0.01974,  -0.01498,   0.00566,   0.02724,   0.00097,   0.01786,   0.01786,  -0.01873,   0.05164,  -0.02249,  -0.03937,   0.00003,  -0.02530,  -0.01592,   0.00285,  -0.02342,   0.02631,   0.04976,   0.01598,   0.00003,   0.01505,   0.01505,   0.02349,  -0.02812,   0.01035,  -0.01123,  -0.02342,  -0.02718,   0.03381,   0.00285,  -0.01779,  -0.01029,  -0.00560,  -0.00560,   0.02068,   0.00097,   0.03475,   0.01411,  -0.02155,   0.01317,   0.00003,  -0.02436,  -0.01123,   0.01317,   0.01505,  -0.00091,   0.00754,  -0.01029,  -0.01310,   0.00754,  -0.01498,   0.00379,  -0.00278,  -0.02249,  -0.03750,  -0.00747,  -0.01310,  -0.00184,  -0.02624,   0.01129,   0.02068,  -0.00653,  -0.02342,  -0.00466,  -0.00184,  -0.00653,   0.01880,  -0.01498,   0.02537,   0.03663,   0.00191,   0.00660,   0.01317,   0.01317,   0.00660,   0.01598,   0.01223,  -0.03844,   0.01880,   0.00097,  -0.05720,   0.01598,  -0.00653,  -0.03750,   0.01880,   0.02631,   0.03100,   0.00566,   0.00848,  -0.01404,  -0.03093,   0.02255,  -0.03093,  -0.00184,  -0.00184,   0.00003,  -0.00278,  -0.00372,   0.02537,   0.00472,   0.05727,  -0.01404,  -0.01216,  -0.01498,   0.00848,   0.00003,   0.03850,  -0.01686,  -0.01216,  -0.01873,   0.01505,   0.00848,   0.03475,  -0.00653,   0.01974,  -0.00560,  -0.02061,  -0.00278,   0.03756,   0.01974,  -0.01216,   0.02818,  -0.01216,  -0.02342,   0.01129,  -0.01873,   0.00003
   0.05539,  -0.01404,  -0.02812,   0.02161,  -0.01967,  -0.03468,   0.00472,   0.00285,   0.00754,   0.02068,   0.02724,  -0.00278,   0.03850,  -0.02530,   0.01598,  -0.02436,   0.06477,  -0.01779,   0.01505,   0.01035,  -0.02812,  -0.02812,  -0.01779,   0.01598,  -0.03093,   0.04226,  -0.02812,   0.02912,  -0.07034,  -0.00560,   0.01411,   0.02068,   0.03381,  -0.00560,   0.01880,  -0.01779,   0.00566,  -0.02999,   0.02818,   0.06853,  -0.03656,   0.03006,   0.02537,  -0.01686,   0.02912,  -0.03187,  -0.00560,   0.05258,   0.00754,   0.00754,   0.02068,   0.05915,   0.03287,  -0.02999,  -0.09004,   0.01786,  -0.02999,  -0.00935,   0.01129,  -0.02061,   0.05258,   0.00472,  -0.01686,   0.01317,  -0.00184,  -0.00278,  -0.01029,   0.00379,   0.00566,  -0.02342,  -0.01310,  -0.01310,   0.00660,   0.00097,   0.01786,   0.02068,  -0.01592,  -0.00841,   0.03006,   0.03193,   0.01692,   0.01317,  -0.02249,   0.00472,   0.01035,  -0.03375,  -0.02061,   0.02631,   0.00003,   0.01692,   0.02161,  -0.03468,  -0.01310,   0.00379,   0.00003,  -0.00935,  -0.00091,   0.01223,   0.00191,   0.03100,   0.02349,  -0.04407,   0.01035,   0.02161,  -0.01216,  -0.01498,  -0.01873,  -0.01310,  -0.02342,  -0.00747,   0.00754,  -0.02905,  -0.01873,   0.00848,  -0.02624,   0.01317,   0.02818,  -0.00560,  -0.01592,  -0.01123,   0.03193,  -0.00091,  -0.02718,   0.04413,   0.00942,  -0.00747,  -0.01779,   0.02161,   0.03756,   0.02912,   0.01411,   0.03381,  -0.00841,   0.00848,  -0.02249,   0.01880,  -0.00935,  -0.00560,  -0.04970,  -0.03375,  -0.00560,   0.00097,  -0.03093,   0.00003,  -0.00841,   0.01223,   0.01786,  -0.00841,   0.01411,  -0.01498,   0.00379,   0.02724,   0.03850,   0.02537,  -0.02436,  -0.00653,   0.02349,  -0.00560,   0.04976,   0.01223,   0.01129,   0.01035,  -0.00184,   0.00379,  -0.03562,   0.02161,  -0.01123,   0.01411,   0.04226,  -0.00747,   0.01786,  -0.02812,   0.03850,   0.01692,  -0.03468,  -0.01592,   0.02255,  -0.01216,   0.01129,  -0.01404,  -0.02624,   0.02724,   0.01411,  -0.01029,  -0.01123,   0.00191,  -0.01592,  -0.03844,  -0.01404,  -0.06189,  -0.02061,  -0.02436,   0.00003,   0.00660,   0.00472,   0.04132,   0.01223,  -0.01686,  -0.03656,  -0.03562,   0.09668,   0.00285,  -0.02530,   0.00379,   0.04413,   0.01411,  -0.04125,   0.00191,  -0.00184,   0.00942,   0.01692,  -0.00841,  -0.02155,  -0.01686,  -0.01498,  -0.02342,   0.02068,  -0.00278,   0.00003,   0.02912,  -0.02436,  -0.01029,  -0.01404,  -0.00184,  -0.02155,  -0.00841,   0.00097,   0.00097,   0.00754,  -0.01779,  -0.07034,  -0.04313,   0.02724,   0.00754,  -0.00935,   0.03381,  -0.00841,   0.02161,  -0.00184,   0.01317,  -0.00747,  -0.01404,   0.01317,   0.01974,  -0.01310,   0.01317,   0.00472,   0.03475,   0.01129,   0.01786,  -0.01779,  -0.01967,  -0.05533,  -0.00372,  -0.01967,  -0.02718
  -0.00747,  -0.02342,  -0.02436,  -0.03281,   0.00472,  -0.02155,   0.03006,  -0.00278,  -0.00466,   0.04882,   0.07322,  -0.01592,   0.01129,   0.01223,   0.02537,   0.01129,  -0.00466,   0.01786,   0.01598,   0.01035,  -0.00278,   0.03287,  -0.00747,   0.00097,   0.04413,  -0.03093,   0.03663,  -0.01216,   0.00754,  -0.05063,  -0.01873,  -0.00747,  -0.01404,  -0.03375,   0.00848,   0.01129,   0.01880,  -0.02436,   0.01974,   0.00660,   0.01880,   0.00942,  -0.00466,   0.00660,   0.00379,   0.02068,   0.03193,   0.03569,  -0.00841,  -0.01779,  -0.01123,  -0.05814,   0.00472,  -0.06377,   0.03193,  -0.03468,  -0.02530,   0.00191,   0.02443,   0.00379,  -0.02342,  -0.02999,   0.01223,  -0.00466,   0.01223,   0.00660,   0.00472,   0.02818,  -0.04594,   0.03850,  -0.01686,   0.01317,  -0.00184,   0.01411,   0.00191,   0.00754,  -0.00935,   0.02161,   0.00566,  -0.00278,  -0.01592,  -0.02812,   0.02631,   0.01129,   0.01223,  -0.01123,   0.02818,   0.00848,   0.00754,   0.00472,  -0.03281,  -0.03468,  -0.00747,   0.01411,   0.02255,  -0.00278,  -0.00091,  -0.03844,   0.00097,  -0.03562,   0.00472,  -0.04125,   0.00379,   0.00848,   0.01317,  -0.03093,  -0.00184,  -0.01592,   0.01505,   0.04038,  -0.01123,   0.01317,  -0.00653,   0.02161,  -0.00278,  -0.01498,   0.01505,   0.02349,   0.00472,  -0.00935,  -0.00841,   0.00660,   0.03193,  -0.02530,   0.03756,   0.00191,   0.01974,  -0.01029,  -0.03281,   0.02724,  -0.02718,   0.01129,   0.00379,   0.00097,  -0.00653,   0.03475,  -0.03937,   0.03193,   0.02912,   0.02349,  -0.00935,   0.04507,   0.01786,  -0.04594,   0.02349,   0.00942,   0.00097,   0.00566,   0.03287,  -0.00653,  -0.02249,  -0.02999,  -0.00841,   0.00472,  -0.01216,  -0.00841,   0.01692,   0.00942,  -0.01779,  -0.01967,  -0.04688,  -0.03093,  -0.02061,   0.00097,   0.04319,  -0.00091,  -0.02999,  -0.00653,   0.03569,  -0.04031,   0.02537,  -0.01967,   0.03193,  -0.04594,  -0.01310,   0.00660,   0.00848,   0.00191,  -0.00841,   0.00848,  -0.01216,   0.01035,  -0.00466,  -0.00372,  -0.03844,   0.01035,   0.01974,   0.01786,  -0.00372,  -0.00184,  -0.00278,  -0.01686,  -0.02530,   0.03193,   0.01880,  -0.03187,   0.00285,   0.01786,  -0.01498,   0.01129,  -0.00372,   0.00003,   0.01598,  -0.00184,   0.00942,   0.00754,   0.01317,   0.00660,  -0.00091,  -0.03281,   0.02255,   0.02161,  -0.02155,   0.02349,   0.02161,  -0.00466,   0.02631,  -0.02155,   0.01035,  -0.00466,  -0.02624,   0.02349,  -0.02061,   0.05164,  -0.01123,   0.00191,   0.04038,   0.04226,   0.02443,   0.01786,   0.01411,   0.00660,   0.01505,  -0.00184,  -0.03656,  -0.01123,   0.01786,   0.00379,  -0.01779,  -0.00653,   0.01880,  -0.01498,  -0.04313,   0.01598,   0.02537,  -0.03093,  -0.01404,   0.00191,  -0.02249,   0.00285,  -0.01779,  -0.03281,  -0.01123,   0.01129,  -0.03281,  -0.02249
   0.03663,   0.00848,  -0.04876,  -0.02436,  -0.07409,   0.00097,  -0.02624,  -0.00841,  -0.02530,   0.02912,   0.04695,   0.00003,  -0.00466,  -0.00466,  -0.01029,  -0.00747,  -0.02530,  -0.03562,   0.02161,   0.00660,  -0.01029,  -0.03750,  -0.00935,   0.00754,   0.02443,  -0.00091,   0.03850,   0.02631,  -0.02624,  -0.03750,  -0.00372,  -0.00372,   0.00097,  -0.00841,   0.01598,  -0.03937,  -0.04594,  -0.02530,  -0.01592,  -0.01779,   0.01786,  -0.02718,   0.03287,  -0.02249,  -0.02624,  -0.00747,   0.01317,  -0.01404,  -0.00653,   0.02161,   0.02161,   0.00566,  -0.00560,   0.04695,  -0.02812,  -0.02342,   0.01786,   0.02537,  -0.00091,   0.02443,   0.01692,  -0.01592,  -0.01029,  -0.00841,  -0.03750,   0.03006,   0.01129,  -0.00935,   0.00754,  -0.02624,   0.00097,  -0.01967,  -0.00466,  -0.01029,   0.03381,   0.00285,  -0.05439,   0.01598,   0.01035,  -0.01873,  -0.02999,  -0.00747,  -0.01029,   0.00379,   0.03756,  -0.00466,   0.01411,  -0.00184,  -0.01498,   0.00848,  -0.01310,   0.00942,  -0.00372,   0.04319,   0.01505,  -0.01873,   0.01692,  -0.01967,  -0.00184,   0.01786,  -0.01779,   0.01786,   0.02443,   0.03287,   0.00942,  -0.03562,   0.02537,   0.00285,   0.01598,   0.00003,   0.00566,   0.00472,  -0.02061,  -0.00560,  -0.01592,  -0.01779,  -0.00184,   0.00660,  -0.04031,   0.01317,  -0.02061,   0.01317,   0.01786,   0.02068,   0.05070,   0.02443,  -0.00560,  -0.00466,   0.00566,  -0.00091,   0.02161,   0.01317,  -0.00935,  -0.03187,  -0.00278,   0.00285,   0.01411,  -0.02530,   0.04695,   0.03006,  -0.03468,   0.06008,  -0.00935,  -0.00372,  -0.01029,   0.00848,   0.01223,   0.00566,  -0.00653,  -0.02530,   0.03006,   0.00003,  -0.00091,   0.00379,  -0.02342,  -0.02342,   0.05352,  -0.01592,   0.01974,   0.04319,   0.02537,   0.01692,   0.00379,   0.02161,   0.00566,  -0.00935,   0.03006,  -0.00466,  -0.00278,   0.01505,   0.03287,   0.00566,  -0.01029,   0.00942,  -0.01123,   0.00660,  -0.02624,  -0.02249,  -0.00935,   0.02068,   0.00472,   0.00285,  -0.02905,  -0.02530,  -0.00466,   0.02818,  -0.02155,   0.00097,  -0.02624,   0.00566,   0.02255,  -0.01592,  -0.01216,  -0.03750,  -0.00841,   0.02818,   0.01786,  -0.00841,   0.00097,   0.00379,  -0.01216,   0.02349,  -0.00184,  -0.01310,   0.01035,  -0.02249,  -0.02342,   0.00003,  -0.02249,  -0.04313,   0.01505,   0.01411,   0.00097,  -0.01310,  -0.00278,   0.01317,   0.01598,  -0.01779,  -0.01404,  -0.00935,  -0.00091,   0.01692,   0.01880,   0.04695,  -0.01686,  -0.01404,   0.02724,  -0.03093,  -0.01592,   0.03569,   0.03006,   0.00848,   0.01317,   0.00754,  -0.01310,  -0.00841,  -0.00372,  -0.01310,  -0.00935,   0.07885,   0.00379,   0.03569,   0.03006,   0.01035,  -0.02155,   0.00191,   0.00942,   0.01223,  -0.01029,   0.01505,  -0.01123,   0.01598,  -0.00466,   0.00942,  -0.00747,  -0.00560
   0.04226,   0.00097,   0.03663,   0.00942,   0.01129,  -0.00184,  -0.01216,   0.01786,   0.01880,   0.03944,  -0.00653,   0.04976,  -0.03375,  -0.00935,   0.00097,   0.00097,  -0.04313,   0.03100,  -0.02342,  -0.01592,  -0.01967,  -0.01873,  -0.02436,  -0.00372,   0.03381,  -0.04970,  -0.02155,   0.01129,  -0.02342,   0.00191,  -0.00747,  -0.00184,   0.01317,   0.02537,  -0.00372,   0.02537,   0.04882,  -0.02342,   0.00379,  -0.00372,  -0.00935,   0.01786,   0.01129,  -0.02999,  -0.02061,   0.01411,  -0.01310,   0.02161,   0.00754,  -0.04688,   0.00566,   0.00097,   0.00097,   0.02443,  -0.00278,   0.02349,   0.05445,  -0.01498,  -0.03937,   0.00191,   0.01035,  -0.01873,   0.01974,  -0.01779,   0.01035,  -0.00091,  -0.02905,  -0.03375,  -0.01686,   0.00285,  -0.01216,  -0.00091,   0.00942,  -0.02436,  -0.00091,  -0.00747,  -0.01029,  -0.03656,   0.01035,  -0.02249,   0.03944,  -0.03093,  -0.00653,  -0.02999,   0.00660,  -0.00091,  -0.02624,   0.00379,   0.01411,  -0.02061,  -0.00935,  -0.01123,   0.02349,  -0.03844,   0.00754,  -0.01310,  -0.00560,   0.03193,  -0.04876,  -0.00372,  -0.02718,   0.00848,  -0.00091,   0.00379,   0.00285,   0.01505,   0.01035,  -0.00278,  -0.00091,  -0.01029,   0.04976,  -0.01310,   0.00191,  -0.00935,  -0.00466,  -0.02999,  -0.02718,  -0.02718,  -0.01029,   0.01411,   0.01129,  -0.00560,  -0.02342,  -0.05720,   0.02068,   0.01129,  -0.00653,   0.01505,  -0.02905,   0.00942,  -0.01404,   0.00566,  -0.01779,   0.00754,  -0.01404,   0.00003,  -0.01686,  -0.01779,  -0.06659,  -0.03281,   0.02631,  -0.01873,  -0.02061,  -0.02624,  -0.03093,  -0.00091,   0.01880,  -0.01779,   0.00660,  -0.02436,  -0.00091,  -0.01029,  -0.02155,  -0.02905,  -0.01029,   0.03569,  -0.02436,  -0.03093,   0.03944,   0.01129,  -0.04313,   0.00942,   0.00942,  -0.00841,   0.02912,   0.04507,  -0.04313,  -0.00747,  -0.01873,  -0.05251,   0.06196,   0.01786,   0.01129,  -0.03281,   0.00848,  -0.05814,  -0.00747,  -0.02155,  -0.01029,  -0.01592,   0.00003,  -0.02249,  -0.02905,   0.00472,   0.01598,  -0.01029,   0.02912,   0.01692,   0.01974,   0.00285,   0.00191,   0.01598,   0.02818,  -0.00184,  -0.03468,   0.03006,   0.07134,  -0.00372,   0.03381,   0.06477,  -0.00747,  -0.02718,   0.00566,   0.00754,  -0.00560,   0.00660,  -0.05157,  -0.02155,   0.01692,  -0.02061,  -0.01779,  -0.01310,   0.01411,   0.02912,   0.00754,   0.01223,   0.01035,  -0.00935,  -0.04500,  -0.00278,   0.02912,   0.01129,  -0.03093,  -0.00841,   0.00754,  -0.03187,   0.01505,   0.01974,  -0.01029,   0.01129,  -0.01967,   0.01880,   0.01035,  -0.02249,  -0.02061,  -0.02155,  -0.00466,  -0.01404,   0.00848,  -0.03750,   0.02349,  -0.00466,  -0.04313,  -0.02342,  -0.00278,  -0.05814,   0.02443,  -0.01310,  -0.01686,  -0.02155,   0.02161,   0.03100,   0.00566,  -0.04219,   0.00566,  -0.00935
  -0.02624,   0.01598,  -0.03562,  -0.00466,  -0.01310,  -0.04313,   0.01692,   0.03006,  -0.01123,  -0.03656,  -0.01029,   0.00191,   0.00191,   0.03287,   0.00097,   0.00660,  -0.02624,  -0.02061,  -0.03844,  -0.01498,  -0.01029,  -0.01123,   0.01129,  -0.01873,   0.02443,   0.00285,   0.02443,  -0.01592,   0.00191,  -0.00747,  -0.01498,   0.00848,   0.03193,   0.00191,  -0.02624,   0.00660,   0.00942,  -0.04031,  -0.00091,  -0.03281,   0.01223,  -0.01592,   0.02349,   0.03287,  -0.01967,   0.02161,  -0.00560,   0.04038,   0.00379,  -0.01310,   0.00566,  -0.00935,   0.01786,   0.02443,   0.02818,  -0.03844,  -0.02436,  -0.02905,   0.01880,   0.04789,   0.02443,   0.02161,   0.03100,   0.01598,   0.02068,  -0.02342,  -0.00466,   0.02161,  -0.02624,   0.02349,  -0.01123,  -0.00466,   0.03569,   0.03100,   0.04695,   0.02255,  -0.00747,  -0.02530,   0.01411,  -0.01404,  -0.02905,  -0.01310,  -0.05157,   0.03944,  -0.00184,   0.01786,   0.00472,  -0.02249,   0.00660,   0.04507,  -0.00372,   0.01692,   0.02818,  -0.00372,   0.01223,   0.01129,  -0.00184,  -0.01498,   0.01317,  -0.03281,  -0.02061,  -0.03187,   0.00097,  -0.01310,   0.01129,  -0.02905,   0.01974,   0.00097,   0.01035,  -0.00372,   0.03663,  -0.01686,  -0.02624,  -0.03844,  -0.05157,  -0.01404,   0.02631,  -0.03656,  -0.01686,  -0.00091,  -0.02249,  -0.01123,  -0.00184,   0.01505,   0.01880,  -0.01779,   0.00472,  -0.01404,  -0.00747,   0.03756,  -0.03281,   0.00097,  -0.02530,  -0.00841,  -0.02718,   0.01317,   0.00942,   0.00848,  -0.01592,   0.02068,  -0.03750,   0.04132,   0.01129,  -0.00184,  -0.02061,  -0.00560,  -0.00935,   0.02349,  -0.00184,  -0.00372,  -0.01310,  -0.01404,  -0.00278,  -0.00466,   0.02255,   0.02349,   0.01598,  -0.00747,  -0.00935,   0.02349,   0.01035,   0.01129,  -0.00560,   0.02255,   0.02724,   0.01035,   0.00285,   0.04038,   0.01411,  -0.02061,  -0.02061,  -0.03844,   0.00472,   0.00566,   0.03287,  -0.00466,  -0.00747,   0.01880,  -0.00372,   0.00191,  -0.02530,  -0.00372,   0.06571,  -0.07409,   0.00566,   0.01411,  -0.04219,   0.01411,   0.02631,   0.04226,   0.01223,   0.02068,   0.00097,  -0.03375,   0.00754,   0.01317,   0.02818,   0.02818,   0.02912,   0.00003,   0.01223,   0.03850,   0.00754,   0.01035,   0.01411,   0.01129,  -0.02530,  -0.00653,  -0.03937,   0.00003,   0.02068,  -0.01123,   0.03381,  -0.02155,   0.01411,   0.01223,   0.04226,  -0.01404,   0.04038,  -0.00560,  -0.00091,  -0.00184,   0.00754,   0.01786,   0.00660,  -0.00841,   0.00660,   0.02818,  -0.01592,  -0.03281,  -0.01029,  -0.01404,  -0.00560,   0.02537,   0.02912,   0.02537,  -0.01123,  -0.01029,   0.00285,  -0.01686,   0.05821,   0.00472,   0.00097,   0.03100,  -0.01123,   0.03756,   0.00942,   0.00003,  -0.02061,  -0.01404,   0.01129,   0.00191,   0.03287,  -0.00466,  -0.01310,  -0.00560
   0.03100,   0.03475,  -0.02342,   0.04976,   0.02255,  -0.00278,   0.03569,  -0.02436,  -0.04313,  -0.05345,   0.00191,  -0.06096,  -0.01404,  -0.01873,   0.04132,  -0.01686,  -0.01404,  -0.03468,  -0.03750,   0.00191,  -0.00466,  -0.04688,  -0.00372,  -0.01498,   0.00285,   0.00754,   0.01411,  -0.00091,  -0.04313,  -0.01216,  -0.04031,   0.00754,  -0.00184,  -0.02718,  -0.01029,  -0.01498,  -0.01686,  -0.00372,   0.00942,  -0.01592,  -0.01404,  -0.01873,  -0.03093,   0.00097,  -0.01967,   0.00285,   0.01035,   0.00191,  -0.00935,  -0.01686,   0.02349,   0.03850,   0.01505,  -0.03093,   0.00472,  -0.02812,  -0.01029,  -0.01873,   0.01223,   0.01598,   0.01974,  -0.01029,  -0.00560,  -0.01310,   0.01880,   0.01411,  -0.01123,  -0.02249,  -0.03937,   0.05539,  -0.04407,   0.01974,  -0.02436,  -0.00466,   0.01692,   0.01786,  -0.02624,   0.00566,   0.04507,   0.00097,  -0.01029,   0.01035,  -0.00278,   0.04789,   0.01035,  -0.00466,   0.01692,  -0.01967,   0.01223,  -0.03844,  -0.00184,   0.01035,   0.02255,  -0.01029,   0.00003,  -0.00091,  -0.01967,  -0.01123,  -0.00466,   0.00566,  -0.02624,   0.01598,   0.00379,  -0.05157,   0.02255,   0.01786,  -0.02718,   0.01223,   0.02255,  -0.04031,  -0.01873,   0.02443,  -0.01404,  -0.04031,   0.06102,  -0.03281,  -0.00466,  -0.00841,  -0.00747,  -0.01592,  -0.00653,   0.00191,   0.00285,   0.01317,   0.01129,   0.01411,   0.02724,   0.01223,   0.03475,   0.00097,  -0.02905,  -0.01498,  -0.02812,  -0.00278,  -0.00278,  -0.00091,   0.00003,  -0.00091,   0.02161,  -0.01123,   0.03663,   0.00754,   0.03381,   0.03100,  -0.01310,   0.00848,  -0.01404,  -0.03844,   0.01223,  -0.01404,  -0.02718,   0.00285,  -0.00841,   0.02068,   0.00660,  -0.02436,  -0.01123,   0.00472,  -0.04782,   0.01129,   0.00097,  -0.03937,  -0.01029,   0.02537,   0.01598,  -0.05063,   0.01223,  -0.03375,  -0.00935,   0.00379,  -0.05251,  -0.03281,   0.01411,  -0.01404,  -0.01216,   0.02349,   0.00754,  -0.00184,  -0.01216,   0.00285,  -0.03937,  -0.02436,  -0.00935,  -0.02249,   0.02818,   0.02724,   0.01411,   0.02724,  -0.04688,   0.00097,   0.00472,   0.02443,  -0.00184,   0.01974,   0.03944,   0.00097,  -0.00184,  -0.01498,   0.00754,   0.02349,  -0.00184,  -0.00466,  -0.01404,   0.00848,  -0.02530,  -0.00278,   0.01411,   0.01035,  -0.01686,  -0.01967,   0.01411,   0.00003,  -0.01404,  -0.02342,  -0.00372,   0.03569,   0.02161,   0.00379,  -0.00184,   0.01129,   0.00754,   0.00848,   0.01223,  -0.00184,  -0.03468,   0.01505,   0.00848,   0.01598,  -0.02342,  -0.00466,  -0.01779,  -0.01498,   0.01411,   0.01598,  -0.02718,  -0.02905,  -0.02155,   0.02068,  -0.01310,  -0.02342,  -0.00653,   0.01411,  -0.03468,   0.00566,  -0.00278,  -0.00747,  -0.02155,  -0.00466,  -0.01779,  -0.01310,   0.01786,  -0.02718,   0.01974,   0.01129,  -0.04407,   0.01786
  -0.02061,   0.00191,   0.01129,   0.00566,   0.01880,  -0.04031,   0.02068,   0.00097,   0.01129,   0.00285,   0.04038,  -0.01216,  -0.00560,  -0.00560,  -0.00278,  -0.00560,   0.01317,   0.02631,  -0.00560,  -0.01779,   0.00191,   0.01692,  -0.00372,  -0.01779,  -0.01592,  -0.00372,  -0.01029,   0.00472,   0.00379,   0.00472,  -0.02905,  -0.00184,  -0.01592,  -0.00184,   0.01598,  -0.04031,   0.04413,  -0.01592,   0.02443,   0.03475,  -0.01123,   0.01411,  -0.01029,  -0.02249,   0.00848,  -0.00653,  -0.00278,  -0.02342,   0.00097,  -0.00653,  -0.00466,  -0.00841,  -0.03093,   0.00848,   0.00754,   0.02631,  -0.02061,   0.02631,  -0.02999,   0.00097,   0.01223,   0.01880,  -0.01967,   0.01411,  -0.00372,  -0.00560,   0.04789,   0.00191,   0.01598,  -0.01310,   0.00566,   0.01880,   0.01035,  -0.01592,  -0.00372,  -0.00466,  -0.01967,   0.00566,  -0.04407,  -0.02155,   0.03569,  -0.01310,   0.02631,   0.00379,  -0.03375,  -0.00841,   0.02724,  -0.00372,   0.00191,  -0.00278,  -0.02342,  -0.03375,   0.02349,   0.02631,   0.00848,  -0.01686,  -0.04125,   0.03287,  -0.01029,  -0.03468,  -0.04970,   0.00285,   0.01223,   0.03381,  -0.03375,  -0.01498,   0.00472,  -0.02905,   0.00942,  -0.00184,   0.00191,   0.02724,   0.01035,  -0.03375,  -0.02999,   0.02255,   0.01223,   0.00848,  -0.01404,   0.05164,  -0.03281,  -0.02061,  -0.03844,   0.01035,   0.00472,   0.00566,   0.00285,  -0.00653,   0.02161,   0.02161,  -0.03656,  -0.02155,  -0.03844,  -0.03562,  -0.01498,   0.02349,   0.01129,  -0.01216,  -0.01498,   0.02631,   0.00848,   0.02068,  -0.01310,   0.00472,  -0.00653,  -0.02624,  -0.03093,   0.03100,  -0.02249,  -0.02530,  -0.03187,  -0.01123,  -0.02155,  -0.01029,   0.03193,   0.01505,   0.00848,  -0.00091,  -0.03937,  -0.05251,  -0.00560,   0.01880,   0.00754,  -0.00184,  -0.03468,  -0.02249,   0.02443,   0.03569,  -0.01779,  -0.01873,   0.00285,  -0.01592,  -0.00466,   0.01129,  -0.00184,  -0.02342,   0.01035,   0.00191,  -0.02436,   0.01317,  -0.01029,  -0.00560,  -0.01310,  -0.01686,  -0.01404,  -0.00091,   0.00848,   0.00472,  -0.04500,   0.04319,   0.00097,   0.02161,   0.00566,   0.00379,  -0.00184,  -0.02061,  -0.00184,   0.01598,  -0.00278,  -0.01779,  -0.00935,   0.00379,   0.02068,  -0.00560,   0.01692,   0.02068,  -0.05439,  -0.00747,  -0.01779,   0.03850,   0.01035,   0.01129,   0.04413,   0.02443,   0.01974,   0.00097,   0.02161,  -0.01310,  -0.02905,  -0.02624,  -0.00653,  -0.03750,  -0.04313,   0.01223,   0.02255,   0.07040,  -0.00841,   0.03756,   0.01129,  -0.00278,  -0.01498,   0.03475,   0.01411,   0.00754,   0.02631,   0.03663,   0.03193,   0.05915,  -0.02999,   0.00285,   0.01223,   0.01505,  -0.01686,   0.04507,  -0.01498,   0.00285,   0.00942,   0.00942,  -0.04219,  -0.01686,  -0.03375,   0.00942,   0.01411,   0.02537,   0.01974,  -0.04594
   0.03381,  -0.02436,  -0.03562,  -0.03937,   0.00472,   0.00754,   0.01974,  -0.00841,  -0.03844,  -0.00747,  -0.02249,   0.03100,  -0.01498,  -0.03187,  -0.02718,   0.03287,  -0.00278,  -0.03375,   0.01598,  -0.01686,  -0.01029,  -0.00184,   0.01786,   0.00754,  -0.01123,   0.03944,   0.07416,   0.03663,  -0.00184,   0.01880,  -0.02342,   0.00660,  -0.00466,   0.01974,   0.01692,  -0.00841,   0.04132,   0.03100,  -0.03468,   0.00660,  -0.03281,  -0.00747,   0.03100,   0.02161,   0.03006,   0.01598,   0.01223,   0.01035,   0.00942,   0.04226,  -0.00184,   0.00566,  -0.01873,   0.01880,  -0.02249,  -0.02905,   0.02818,   0.03756,  -0.02624,  -0.01779,   0.00379,  -0.04219,   0.00942,   0.00379,  -0.00184,  -0.02905,   0.02255,   0.02443,  -0.03281,   0.01974,  -0.00560,   0.03756,   0.00942,  -0.00653,   0.00942,  -0.01123,   0.01974,  -0.00747,   0.04413,  -0.01216,   0.03569,   0.00848,   0.01974,   0.01786,   0.02537,  -0.00747,   0.02349,  -0.00935,   0.00003,   0.00285,   0.00003,  -0.00278,  -0.03281,   0.03287,   0.02161,  -0.00278,  -0.03844,   0.01786,  -0.00935,  -0.01404,  -0.02155,   0.03006,   0.00003,  -0.00747,   0.00566,  -0.02812,  -0.02624,  -0.00841,   0.01129,  -0.01686,   0.00285,   0.02912,  -0.03750,  -0.02061,  -0.00653,  -0.02155,   0.01974,   0.00566,  -0.00372,   0.01035,  -0.00747,   0.01223,  -0.02155,  -0.00935,   0.00472,  -0.00747,   0.00472,   0.01598,  -0.01310,  -0.04313,  -0.00278,   0.02349,  -0.03093,  -0.02624,  -0.04594,  -0.03375,  -0.01029,  -0.00653,  -0.07784,  -0.01873,  -0.00372,  -0.02999,   0.01598,   0.01598,  -0.06659,  -0.00372,   0.01974,   0.00942,  -0.02718,  -0.01123,   0.01129,  -0.00184,  -0.02812,  -0.00841,  -0.01310,   0.01505,   0.00003,   0.01598,   0.00003,   0.01129,   0.00097,   0.00097,   0.01035,   0.01692,   0.01317,  -0.01498,   0.02255,  -0.01873,   0.00379,   0.00003,  -0.03468,  -0.05251,   0.01317,   0.00379,   0.02443,   0.02255,  -0.00653,   0.01411,  -0.00560,  -0.00653,  -0.01216,   0.01129,  -0.00466,   0.01317,   0.01974,   0.00097,  -0.03187,  -0.01216,   0.06759,  -0.00372,   0.00942,  -0.02342,  -0.01498,   0.00848,   0.00942,   0.04695,   0.02631,   0.00285,   0.00566,  -0.02249,  -0.00935,   0.00754,   0.03850,   0.01692,  -0.01123,   0.01223,   0.02068,   0.00660,   0.02349,   0.01317,  -0.00560,   0.03569,  -0.00372,  -0.03656,   0.03381,  -0.01967,  -0.00560,  -0.00184,   0.02724,   0.00660,   0.01880,  -0.02061,   0.02724,   0.01035,  -0.00466,  -0.00560,   0.02068,  -0.00841,  -0.03281,  -0.00278,   0.02537,  -0.00935,   0.00754,  -0.02436,   0.01317,   0.05070,  -0.01498,  -0.00184,  -0.02342,   0.01035,  -0.00935,   0.03944,   0.03944,   0.01598,  -0.03093,  -0.00278,  -0.02061,  -0.00747,  -0.00184,  -0.02999,   0.01974,  -0.01216,  -0.02061,   0.01129,  -0.02905,  -0.03187
   0.00285,  -0.00372,  -0.02155,   0.00379,   0.04413,   0.02912,  -0.01592,  -0.01404,  -0.00653,  -0.05814,   0.02068,   0.02912,   0.00379,  -0.02812,  -0.01123,  -0.02905,  -0.03937,   0.02349,   0.00285,   0.01129,   0.01317,  -0.01404,   0.02537,  -0.01029,  -0.01967,  -0.02249,  -0.01779,   0.00472,   0.01317,  -0.02624,   0.00003,   0.02631,   0.02818,   0.04226,   0.03663,  -0.01123,  -0.00841,  -0.00747,   0.01880,   0.02255,  -0.00747,   0.01880,  -0.00653,  -0.00653,  -0.02999,  -0.04970,   0.00097,   0.00566,  -0.03468,  -0.01029,   0.04695,  -0.00278,   0.04976,   0.02443,  -0.00935,  -0.01873,   0.03475,   0.00660,  -0.02999,  -0.01123,   0.00191,   0.01035,   0.01786,  -0.00841,  -0.02812,   0.01880,   0.00003,  -0.01029,   0.00848,  -0.00841,   0.01035,   0.01692,   0.00848,  -0.01967,  -0.03468,   0.02349,   0.03100,   0.00285,  -0.00278,  -0.01498,   0.04413,   0.02255,  -0.02999,   0.02068,  -0.00184,  -0.00560,   0.04226,   0.04976,  -0.04125,   0.02161,   0.00191,  -0.00184,   0.00754,   0.03381,   0.01974,   0.00754,   0.02537,   0.03193,   0.02349,   0.04789,  -0.00560,  -0.02905,   0.00942,   0.04413,   0.02537,  -0.02342,  -0.01592,   0.05821,  -0.00560,   0.00379,   0.00097,   0.00379,   0.01035,  -0.00653,  -0.01686,   0.02349,   0.00285,  -0.01029,  -0.01779,  -0.01967,   0.01035,   0.01880,  -0.03093,   0.00472,  -0.00841,  -0.03093,   0.01035,  -0.01216,   0.00754,   0.01505,  -0.00560,   0.00566,  -0.06002,   0.00566,   0.00848,   0.00097,   0.01035,   0.00379,   0.03381,   0.00754,   0.00097,   0.02255,   0.00191,  -0.02999,   0.01505,   0.00942,  -0.00935,   0.02349,  -0.00466,   0.04038,  -0.00560,   0.01880,   0.00566,  -0.01967,  -0.00935,   0.01035,  -0.02718,   0.06290,   0.00003,  -0.00466,   0.00003,   0.00472,  -0.01310,  -0.01123,   0.01786,  -0.03468,  -0.02905,  -0.01404,  -0.01967,   0.01035,  -0.00372,  -0.02249,   0.00660,   0.00285,   0.01223,   0.03944,   0.02255,   0.01974,   0.01223,  -0.00935,  -0.00466,  -0.01216,   0.01035,  -0.00935,   0.01505,  -0.00935,   0.01692,   0.01692,  -0.00841,   0.03193,  -0.00184,   0.00003,   0.00285,  -0.01310,   0.05164,   0.02443,   0.01505,   0.02161,   0.00848,  -0.02249,   0.01692,   0.00285,  -0.00653,   0.04507,  -0.03468,  -0.02999,  -0.01216,  -0.03375,   0.02161,  -0.01216,   0.00848,   0.01692,  -0.00184,   0.00848,  -0.01779,   0.06196,   0.01692,  -0.04031,   0.01129,   0.01035,   0.00379,  -0.02249,  -0.03468,  -0.01873,   0.02349,  -0.01216,   0.02161,   0.02068,  -0.00091,   0.05258,  -0.05157,  -0.01873,  -0.03656,   0.00097,  -0.00091,  -0.02530,   0.03100,  -0.02249,   0.01035,   0.00754,   0.00566,   0.00848,  -0.02155,  -0.00091,  -0.01873,   0.02912,   0.01880,   0.00003,   0.03756,   0.03475,   0.01880,  -0.01779,   0.01317,   0.02537,  -0.00747,   0.00191
   0.01317,   0.01598,  -0.00091,  -0.00653,   0.01786,   0.02068,  -0.01404,  -0.00935,  -0.02436,  -0.01029,  -0.00653,  -0.00091,  -0.02061,  -0.03562,   0.04507,  -0.03844,  -0.03844,  -0.02061,  -0.01592,   0.00754,  -0.01779,  -0.01498,   0.02443,   0.01598,  -0.02342,   0.02724,  -0.02249,  -0.01967,  -0.07128,  -0.00747,  -0.01779,   0.02443,   0.01505,  -0.02812,   0.03850,  -0.00184,  -0.01310,  -0.01216,   0.02724,   0.00097,   0.05070,   0.02068,  -0.01123,   0.00285,   0.00754,   0.00003,  -0.02436,  -0.01873,  -0.05063,   0.00003,  -0.00653,  -0.02342,   0.00942,  -0.01592,   0.01317,  -0.04970,   0.00191,   0.00566,   0.01786,   0.01129,  -0.02249,   0.01598,   0.05445,   0.02068,   0.00472,   0.01411,  -0.00091,   0.02443,  -0.03375,  -0.00278,  -0.01779,   0.04413,  -0.00466,  -0.01029,   0.05633,  -0.01873,   0.00003,   0.00003,   0.02161,  -0.00747,   0.03006,  -0.00466,   0.03475,   0.02724,  -0.00278,   0.00285,   0.02255,  -0.01404,   0.03193,  -0.00935,   0.01317,  -0.00935,  -0.01029,  -0.05626,  -0.01123,   0.00566,   0.01598,  -0.02249,   0.01223,  -0.01967,   0.02349,  -0.01310,   0.01411,  -0.00935,   0.04132,  -0.01779,  -0.02249,  -0.00466,   0.01317,  -0.03187,  -0.05720,  -0.03187,  -0.00278,  -0.00184,   0.00097,  -0.00747,   0.05633,   0.01505,   0.00754,  -0.00278,  -0.00372,   0.01035,   0.01223,   0.04319,   0.05164,  -0.01310,  -0.02061,   0.00660,  -0.02436,  -0.01123,  -0.02624,   0.00285,  -0.00653,   0.00660,  -0.03375,  -0.02249,   0.03569,  -0.01779,   0.02255,   0.00754,   0.00848,  -0.01967,  -0.01216,  -0.00841,  -0.02905,   0.00848,   0.01505,  -0.00184,   0.01505,   0.00848,  -0.00372,   0.00285,   0.03193,  -0.01592,  -0.01498,   0.00942,   0.00660,   0.01692,   0.03100,  -0.00466,   0.01223,   0.00942,   0.04038,   0.01505,  -0.04782,  -0.04407,  -0.02436,  -0.01498,  -0.02905,  -0.00560,  -0.03187,  -0.00653,  -0.01029,  -0.00841,   0.03006,  -0.06283,  -0.00747,  -0.03281,  -0.00653,  -0.00935,   0.01505,  -0.03187,  -0.03844,  -0.01873,   0.00285,  -0.02436,  -0.01123,   0.00097,   0.00379,   0.03287,  -0.02718,  -0.01686,   0.01223,   0.01035,   0.02068,  -0.00560,   0.02161,  -0.01498,   0.01129,  -0.00653,  -0.00560,  -0.02436,   0.00285,  -0.00091,  -0.01404,  -0.02905,  -0.03562,   0.01880,  -0.00091,   0.01692,  -0.01686,   0.04601,  -0.01498,   0.01505,  -0.03187,   0.00942,   0.00003,   0.00566,  -0.01498,   0.01223,   0.00942,  -0.00747,  -0.01498,  -0.01967,  -0.04876,  -0.02624,   0.01598,  -0.00091,   0.00566,   0.01223,  -0.00747,  -0.00841,  -0.00935,   0.00848,   0.02443,   0.03569,   0.05352,   0.01692,  -0.01498,   0.00379,  -0.00841,  -0.02812,  -0.02155,  -0.02061,   0.00754,   0.02068,   0.03663,  -0.00091,   0.00191,   0.01692,   0.03850,   0.01505,   0.01129,  -0.02905,  -0.00372,  -0.05720
  -0.03844,  -0.02342,   0.00566,  -0.04970,   0.03006,  -0.00466,  -0.00184,   0.00191,   0.02255,  -0.00747,  -0.00278,  -0.01967,  -0.02530,   0.00003,   0.02724,   0.00660,   0.02068,   0.01692,  -0.01404,  -0.01123,  -0.00560,  -0.00278,  -0.01216,   0.00379,   0.03475,  -0.03093,   0.02912,  -0.00466,   0.01411,  -0.00560,  -0.01967,  -0.03937,  -0.00747,   0.02068,   0.05445,  -0.01779,  -0.01779,  -0.02624,   0.00754,  -0.01310,   0.00566,   0.01598,  -0.01310,  -0.05345,  -0.00935,   0.02068,  -0.02155,   0.01317,  -0.02155,  -0.00372,  -0.00091,   0.00097,   0.01223,  -0.03375,  -0.00466,  -0.01873,  -0.02530,   0.00379,   0.03193,   0.00660,   0.02443,  -0.02718,   0.03850,   0.01692,  -0.00278,  -0.01029,  -0.00935,  -0.02436,  -0.02624,   0.03287,  -0.03281,   0.00660,  -0.02061,   0.02443,   0.00379,   0.00566,   0.02161,  -0.02342,   0.06477,   0.00754,   0.04601,  -0.02342,  -0.03281,   0.03569,   0.00379,  -0.00653,   0.03006,   0.00660,   0.01411,   0.01505,  -0.00466,  -0.00278,   0.01223,   0.02724,  -0.00372,   0.05352,   0.03006,   0.00191,  -0.00091,   0.00097,  -0.02999,   0.02912,  -0.01592,   0.03381,  -0.02155,  -0.03656,  -0.00653,   0.02724,  -0.00091,  -0.02155,   0.02724,   0.01505,  -0.01873,  -0.00372,  -0.00747,   0.00379,   0.04976,   0.02161,  -0.02155,  -0.03093,   0.00566,   0.00379,   0.00379,  -0.00372,  -0.00091,  -0.01310,   0.05164,   0.00754,   0.01505,   0.01598,   0.00942,  -0.01404,   0.00848,   0.01411,  -0.02812,  -0.05345,  -0.02812,  -0.01029,  -0.02530,   0.06290,   0.00191,   0.01505,   0.04976,  -0.04125,  -0.01404,   0.01692,   0.01411,  -0.00935,   0.03475,  -0.01779,   0.00942,   0.03100,   0.03475,  -0.00935,   0.00379,   0.03381,   0.00754,  -0.00091,   0.01035,  -0.01779,   0.01035,  -0.01123,   0.01035,   0.03756,  -0.00278,  -0.05439,   0.01974,   0.03663,  -0.00278,   0.01411,  -0.01404,  -0.01216,  -0.00841,  -0.01123,  -0.00091,  -0.00184,  -0.01686,   0.00097,   0.00566,  -0.03468,  -0.01216,  -0.00653,   0.02724,   0.02068,  -0.01873,   0.03287,   0.03475,   0.01317,  -0.01123,   0.00191,  -0.01216,  -0.00091,  -0.00653,   0.00191,  -0.01779,  -0.01123,   0.04601,  -0.02436,   0.01786,   0.00472,  -0.00466,  -0.01592,   0.00191,  -0.01029,   0.01317,   0.00848,   0.01411,  -0.01216,   0.00285,  -0.00653,   0.02818,  -0.00466,  -0.05814,  -0.03656,   0.01505,  -0.01123,   0.01505,   0.02443,   0.00003,   0.01598,  -0.00653,   0.03100,   0.01223,  -0.00935,  -0.01216,   0.01317,   0.01411,   0.02537,   0.02255,  -0.00466,   0.00379,   0.02912,   0.02631,  -0.00091,  -0.01216,   0.01223,   0.03287,   0.00848,  -0.00747,   0.03100,   0.03569,   0.02724,   0.05821,   0.01880,   0.02537,   0.00566,   0.01505,  -0.02718,  -0.03844,   0.02724,   0.03100,  -0.00091,  -0.01686,  -0.01216,  -0.02812,  -0.02436
   0.04976,   0.02912,   0.01974,   0.00003,   0.00285,   0.03006,   0.02537,   0.02818,   0.00379,  -0.00372,  -0.02155,  -0.01404,  -0.00935,  -0.00747,  -0.01310,   0.02443,   0.05727,   0.00003,  -0.00466,   0.01317,  -0.01686,   0.00003,  -0.01686,  -0.00560,   0.03006,   0.05070,  -0.01404,   0.01505,   0.01880,  -0.02342,   0.00285,  -0.01498,  -0.02342,  -0.01310,  -0.00560,   0.00003,  -0.01404,  -0.00184,  -0.01967,   0.01411,   0.04038,  -0.00372,   0.02443,  -0.04407,   0.00191,  -0.06283,  -0.01310,  -0.03281,   0.01411,  -0.00091,  -0.01967,   0.02068,  -0.00278,  -0.01498,   0.02161,   0.01411,   0.00848,  -0.02249,   0.01223,   0.02912,  -0.01216,  -0.01592,  -0.00278,  -0.00466,  -0.00091,   0.02724,   0.00566,   0.01786,  -0.00278,   0.02068,   0.01880,  -0.02999,   0.03475,   0.02443,   0.00472,   0.00942,   0.00379,   0.00566,   0.00379,  -0.01404,  -0.00091,   0.00754,   0.00848,  -0.01029,  -0.00466,  -0.00372,   0.01317,   0.00379,   0.00003,   0.00285,   0.01692,  -0.01498,   0.02068,  -0.03844,   0.02912,   0.01974,   0.00660,  -0.03187,   0.01223,   0.00003,  -0.01216,   0.03663,  -0.02530,   0.00379,  -0.01123,  -0.00466,   0.00472,   0.04507,   0.00003,  -0.00184,   0.01598,   0.01035,   0.00003,  -0.01686,  -0.00935,   0.00942,  -0.00653,  -0.03750,  -0.02999,  -0.01779,  -0.04125,  -0.01686,   0.01974,  -0.02530,   0.05258,  -0.04125,  -0.03656,   0.00848,   0.01974,   0.00285,   0.01317,   0.03100,   0.01035,  -0.01216,  -0.01592,   0.01129,  -0.02905,  -0.02624,   0.00003,  -0.02155,   0.04319,   0.01505,  -0.01498,  -0.02061,   0.03287,  -0.01216,   0.02068,  -0.03750,  -0.01592,   0.00660,  -0.01216,   0.00566,   0.00566,   0.02537,   0.00754,   0.00566,   0.02912,  -0.00372,  -0.00653,  -0.00278,   0.00379,  -0.00653,   0.02443,   0.02443,   0.02161,   0.00566,  -0.00091,  -0.01873,   0.02818,  -0.02624,  -0.02155,  -0.01123,   0.03100,  -0.00935,  -0.01029,   0.01411,   0.00754,  -0.01686,  -0.01123,   0.02912,  -0.00278,  -0.01404,   0.02068,  -0.00935,   0.02631,   0.01317,   0.04695,  -0.01967,   0.02068,   0.04601,   0.00848,   0.03100,   0.00191,   0.01880,   0.00660,  -0.00747,  -0.01123,  -0.05626,   0.01411,   0.00566,  -0.01498,   0.01786,  -0.02061,   0.01035,  -0.01592,  -0.00184,  -0.01123,  -0.01592,   0.00191,   0.01974,  -0.02905,  -0.02436,  -0.03937,   0.01598,  -0.01029,   0.01129,  -0.01592,  -0.02718,  -0.00935,   0.01223,   0.00191,  -0.02624,   0.02818,  -0.02905,   0.01411,  -0.01310,   0.00097,  -0.00560,   0.01598,   0.00848,  -0.01967,   0.01598,  -0.00466,  -0.00841,   0.00566,   0.00472,   0.02818,   0.04413,  -0.00466,   0.00097,  -0.00278,   0.04507,   0.01035,  -0.02718,   0.02818,   0.01129,  -0.02436,   0.01880,   0.02818,   0.02537,  -0.01029,  -0.00372,  -0.00653,   0.03100,   0.02255,  -0.03750
   0.00848,   0.03475,   0.00942,   0.02724,  -0.02812,  -0.00372,  -0.01967,  -0.01873,  -0.00466,   0.00285,  -0.00184,   0.00379,  -0.02155,  -0.03187,   0.01035,  -0.02624,   0.01035,  -0.03937,  -0.00747,  -0.00091,  -0.01592,   0.00191,  -0.03281,  -0.04970,  -0.00747,   0.01692,   0.01692,  -0.05439,   0.04038,   0.00379,   0.02349,   0.00379,  -0.00841,  -0.00653,  -0.01216,   0.04319,  -0.00278,   0.00848,   0.01411,  -0.01592,   0.01505,   0.02161,  -0.00560,   0.03569,  -0.03281,   0.00191,   0.00566,   0.01786,   0.01786,  -0.01123,  -0.00184,  -0.02624,  -0.01779,   0.00566,   0.06665,   0.01035,  -0.03281,  -0.01873,   0.00285,   0.05164,  -0.02812,   0.03381,  -0.01404,   0.00003,   0.01692,  -0.03093,  -0.03562,   0.02724,   0.01129,   0.01880,   0.01223,   0.00566,  -0.02249,   0.04976,   0.02068,   0.04132,  -0.04031,   0.00191,   0.00472,   0.02068,   0.00472,   0.00097,   0.00848,   0.01505,   0.01411,   0.03100,   0.00566,  -0.03468,  -0.04031,  -0.06002,  -0.01873,  -0.00184,  -0.04970,   0.02068,  -0.01123,  -0.02530,   0.03193,  -0.00278,  -0.00747,   0.03475,   0.03569,  -0.01123,   0.09011,  -0.01592,  -0.03375,   0.05164,   0.00379,   0.02068,   0.00848,  -0.00747,  -0.00653,  -0.00372,  -0.01686,   0.00942,   0.03193,  -0.04782,   0.00379,  -0.02530,   0.01598,  -0.01123,   0.00191,  -0.00653,  -0.00747,   0.02068,   0.00472,   0.00097,  -0.03375,   0.00848,  -0.02905,   0.03006,  -0.02249,  -0.01592,  -0.00091,   0.01880,   0.01223,   0.03944,   0.03193,   0.00097,   0.04789,   0.00285,  -0.01123,  -0.00372,   0.01505,  -0.01310,  -0.02249,  -0.02905,  -0.00935,   0.00566,   0.03006,  -0.00091,   0.00848,  -0.01498,   0.01035,  -0.03468,   0.00660,   0.01974,  -0.00560,  -0.01404,  -0.05814,   0.01880,  -0.03750,  -0.00747,   0.03569,   0.01129,  -0.02905,   0.01692,  -0.03937,  -0.01216,  -0.02812,  -0.03750,  -0.01123,  -0.00935,   0.00097,  -0.01310,   0.01223,   0.04038,  -0.02624,  -0.00466,  -0.00841,   0.01786,  -0.00747,   0.00097,  -0.01967,  -0.04594,  -0.02249,  -0.02061,  -0.00653,   0.00285,   0.01129,   0.00660,   0.01786,  -0.01498,   0.01880,   0.00472,   0.00003,  -0.00184,   0.01786,   0.00848,  -0.01967,   0.01223,  -0.00935,  -0.02718,   0.00003,  -0.04782,  -0.01873,   0.01692,   0.01598,   0.01786,   0.00191,  -0.02249,   0.00566,  -0.01310,  -0.04688,  -0.00278,   0.02912,   0.00191,   0.00848,  -0.03375,   0.00942,   0.01129,  -0.01123,  -0.00560,  -0.04125,   0.03756,   0.00566,  -0.01310,  -0.00372,   0.00097,  -0.00560,   0.02255,   0.06477,   0.02912,  -0.01404,  -0.02249,  -0.02155,  -0.02436,  -0.01873,   0.00942,   0.02631,   0.03381,   0.03100,   0.01692,   0.00472,  -0.01029,   0.00660,  -0.01592,   0.00003,   0.00848,   0.00003,   0.01317,   0.00191,  -0.00747,   0.00191,   0.00566,  -0.01498,  -0.01216
   0.02912,   0.01129,   0.02443,  -0.01686,  -0.01592,  -0.01404,  -0.03937,  -0.00747,  -0.02249,  -0.05157,   0.01974,  -0.02342,   0.00472,  -0.03562,  -0.00560,   0.01035,  -0.01123,  -0.03187,  -0.01216,   0.02255,  -0.00841,  -0.06940,   0.01505,  -0.00184,   0.02443,   0.03006,   0.02068,  -0.00184,  -0.03937,  -0.03093,   0.00942,  -0.03562,   0.00191,  -0.04031,  -0.00372,  -0.01779,  -0.01873,  -0.02155,  -0.01779,   0.01598,   0.04695,  -0.00935,   0.01880,   0.05915,  -0.01123,   0.00848,  -0.03281,  -0.02999,   0.03756,   0.01223,  -0.00372,  -0.00935,  -0.00466,   0.00097,   0.02349,  -0.03093,   0.01129,   0.00472,   0.03569,   0.00848,  -0.01123,  -0.02061,   0.00754,  -0.01216,   0.00285,  -0.04876,  -0.02718,   0.00285,   0.00003,  -0.05439,  -0.00184,  -0.01029,   0.01223,  -0.01873,   0.03193,   0.00097,  -0.02624,   0.02537,   0.00660,  -0.03562,  -0.00653,  -0.02812,  -0.03281,   0.02724,  -0.01498,  -0.05157,  -0.00466,   0.05352,   0.03663,  -0.02905,   0.00097,   0.01692,  -0.01686,  -0.01498,  -0.02530,   0.02818,  -0.02718,  -0.01873,  -0.01498,  -0.02624,  -0.00466,   0.01223,  -0.00278,  -0.03468,   0.00191,   0.00754,   0.00848,   0.03850,   0.02818,   0.01317,  -0.00560,   0.01692,   0.00472,  -0.02718,   0.01223,  -0.02155,  -0.00091,  -0.01779,  -0.01404,  -0.02342,  -0.04500,   0.02349,   0.00191,   0.06477,   0.02912,   0.02068,   0.03006,   0.00379,  -0.00184,  -0.02155,   0.00566,   0.03100,   0.03756,   0.00379,  -0.03093,  -0.00935,   0.01692,  -0.03093,   0.05070,  -0.01498,   0.01786,  -0.02718,  -0.01029,   0.02349,   0.00191,   0.01598,   0.04695,   0.01786,  -0.00466,  -0.02905,   0.02349,  -0.01498,   0.00566,  -0.01592,   0.02631,   0.00848,   0.00754,  -0.03281,  -0.04219,   0.02631,   0.02724,  -0.02436,   0.00191,  -0.02530,   0.00754,  -0.02905,  -0.01216,  -0.01404,  -0.02061,  -0.01216,  -0.06752,  -0.00935,  -0.02999,  -0.00560,  -0.02718,  -0.00372,  -0.01404,   0.03756,   0.00566,   0.01129,  -0.02155,  -0.01592,  -0.00184,   0.00660,  -0.02530,   0.02068,  -0.01310,   0.02724,   0.01505,   0.00472,  -0.02624,   0.02068,   0.00191,   0.02349,   0.02537,   0.03756,   0.02255,  -0.02812,   0.04132,  -0.02624,  -0.01216,  -0.02905,   0.02818,  -0.02624,   0.00754,  -0.00466,  -0.03656,   0.03381,  -0.01310,  -0.01592,   0.03193,  -0.01873,   0.01411,  -0.03281,   0.02255,   0.01223,   0.02537,  -0.01216,  -0.00466,  -0.01123,   0.00191,   0.01692,   0.00097,  -0.00747,  -0.03750,  -0.00091,  -0.00091,  -0.00560,  -0.03093,   0.06196,   0.05727,  -0.01592,  -0.02624,   0.00285,  -0.01310,  -0.02436,  -0.03656,  -0.01216,  -0.02249,  -0.01779,   0.03006,   0.03944,   0.02349,   0.00566,  -0.01310,  -0.00560,  -0.00466,  -0.00372,   0.04789,   0.01692,   0.01598,   0.00285,   0.02912,   0.02255,   0.00660,  -0.00747
  -0.00841,   0.00191,  -0.02249,  -0.01029,   0.01317,  -0.01686,  -0.02530,   0.02161,  -0.00466,  -0.03750,  -0.03093,  -0.02249,   0.02349,  -0.02061,  -0.00747,  -0.00278,  -0.00560,  -0.01592,  -0.01310,   0.00191,  -0.03468,  -0.01592,   0.00472,  -0.04219,   0.01317,   0.02724,  -0.01686,  -0.00184,   0.02724,   0.01035,   0.00754,   0.00660,  -0.02436,   0.00379,   0.02631,  -0.03093,   0.03850,   0.01129,   0.04882,   0.00003,   0.00754,   0.00285,  -0.05814,  -0.02624,  -0.01123,  -0.00372,   0.01505,  -0.01029,  -0.01686,   0.02818,  -0.02342,  -0.02999,  -0.03562,   0.02537,  -0.00747,   0.03756,   0.01411,  -0.04219,  -0.00184,   0.04132,   0.01692,  -0.02624,   0.02724,   0.00285,  -0.00091,  -0.01779,  -0.01404,  -0.00184,  -0.03750,  -0.04500,  -0.03281,  -0.00372,  -0.01873,  -0.00653,  -0.01498,  -0.00653,   0.01505,   0.01317,  -0.00091,  -0.00560,  -0.02999,   0.01598,   0.02255,   0.01880,  -0.03468,  -0.01498,  -0.00653,  -0.01498,   0.02349,  -0.01123,   0.00285,   0.02161,   0.00003,  -0.00466,   0.05164,   0.03287,  -0.02436,  -0.01498,   0.00003,   0.00660,   0.00754,   0.02068,  -0.01779,   0.03569,   0.04601,   0.02724,   0.03381,   0.00848,   0.00191,  -0.00841,   0.01692,  -0.01498,   0.00754,   0.02161,   0.01035,  -0.01967,   0.00191,   0.00472,  -0.04125,   0.03193,   0.01035,   0.02818,  -0.00747,   0.00942,   0.01505,   0.02631,  -0.03750,   0.01786,  -0.00935,   0.01035,   0.00191,   0.00379,   0.00754,   0.00285,  -0.00372,   0.01129,   0.01692,  -0.01216,   0.00942,   0.01223,  -0.01216,  -0.03187,  -0.02999,   0.03381,  -0.02061,  -0.02155,   0.03100,  -0.01310,   0.00660,   0.01692,   0.01786,  -0.02436,   0.03381,  -0.01686,  -0.02155,   0.00472,   0.03944,  -0.00372,   0.00566,  -0.03187,   0.03569,  -0.02342,  -0.03093,   0.01035,   0.01880,   0.01692,   0.00848,  -0.00184,  -0.02624,   0.01880,  -0.01123,  -0.02530,   0.01880,   0.00285,  -0.01779,   0.02349,   0.00848,   0.00003,  -0.00466,   0.00754,  -0.02530,   0.02068,  -0.01967,  -0.04688,   0.02161,  -0.02718,   0.01692,   0.04789,  -0.02999,  -0.01404,  -0.00372,   0.00566,  -0.02624,  -0.01779,   0.02068,   0.01035,   0.00754,  -0.01404,   0.00942,   0.01317,  -0.00372,   0.01786,  -0.00372,  -0.04313,  -0.00091,  -0.02249,  -0.01498,   0.01598,   0.03944,   0.01411,   0.02161,  -0.04219,  -0.01029,   0.01223,  -0.01686,   0.00848,  -0.00935,  -0.01967,   0.02349,  -0.02061,  -0.00184,  -0.02718,   0.00191,  -0.00653,  -0.02436,   0.02349,  -0.06096,   0.00566,  -0.00372,   0.05352,   0.03006,   0.01692,   0.00754,  -0.03750,  -0.01029,   0.02068,  -0.00935,  -0.04970,  -0.02999,  -0.03187,   0.03193,   0.01411,   0.02349,   0.02349,  -0.03656,   0.00942,   0.03475,   0.00003,  -0.01592,  -0.03468,  -0.04031,  -0.01123,   0.02443,  -0.00560,  -0.02249,  -0.01779
