   0.00991,   0.04385,  -0.01498,  -0.01950,  -0.00367,  -0.01950,  -0.04439,   0.01444,   0.01670,  -0.00819,  -0.01950,  -0.00367,   0.01444,   0.04385,  -0.01724,   0.00765,  -0.02629,  -0.00140,   0.02575,  -0.02177,   0.01896,   0.02349,   0.05290,  -0.00140,  -0.03534,  -0.06023,   0.01217,  -0.03760,   0.01444,  -0.05118,  -0.04892,   0.07100,  -0.02403,   0.00086,  -0.00819,   0.00312,  -0.06702,   0.02349,  -0.00593,  -0.02403,   0.00991,  -0.02855,  -0.00593,  -0.01272,   0.01896,   0.00538,  -0.08512,  -0.02177,   0.02349,  -0.00593,   0.02349,   0.00086,  -0.02177,   0.00086,  -0.03987,   0.04385,  -0.02855,   0.02122,   0.08005,  -0.01950,   0.08231,   0.00086,  -0.00819,  -0.10548,   0.02349,   0.01444,   0.00312,   0.01217,  -0.02403,  -0.02855,  -0.01724,  -0.00367,  -0.02855,   0.00765,  -0.01724,  -0.01724,  -0.04666,   0.05743,   0.03027,  -0.01045,  -0.06249,  -0.01950,  -0.00819,   0.09815,   0.00312,   0.01896,   0.00312,   0.02575,   0.06648,   0.00991,  -0.03760,   0.00765,  -0.01045,  -0.03308,   0.03480,  -0.02403,   0.02122,  -0.02177,   0.04611,  -0.02629,  -0.01724,  -0.00593,  -0.04213,   0.09815,   0.02349,  -0.00367,   0.03254,   0.00538,   0.01896,   0.03480,   0.04385,  -0.00819,  -0.06928,  -0.00367,  -0.00819,  -0.00593,  -0.03987,  -0.00140,   0.01444,   0.00991,  -0.03082,  -0.00140,   0.03932,  -0.04213,   0.00765,  -0.00367,  -0.06702,  -0.03987,  -0.03308,   0.00538,  -0.03760,  -0.03082,  -0.01045,  -0.02403,  -0.06928,  -0.02855,   0.05969,   0.00086,   0.05064,  -0.07154,  -0.03987,  -0.00593,  -0.03082,  -0.11680,   0.01896,   0.00538,   0.04611,  -0.00593,  -0.00367,   0.00765,   0.01896,   0.00991,   0.01670,  -0.01045,  -0.05344,  -0.03082,  -0.04892,   0.07326,   0.04385,  -0.01498,  -0.03308,  -0.06476,   0.02575,  -0.04439,  -0.03987,  -0.05344,   0.02122,   0.00765,   0.01670,  -0.02177,  -0.03082,   0.02575,  -0.00819,   0.05064,  -0.11227,  -0.06023,  -0.05571,  -0.02177,  -0.02403,  -0.01950,   0.02122,   0.07100,   0.02349,  -0.00593,  -0.09191,  -0.01498,  -0.01724,  -0.04892,  -0.00593,   0.00765,  -0.09870,   0.00538,  -0.07833,   0.00312,   0.03027,   0.02575,   0.01444,  -0.00819,   0.00086,   0.00086,   0.00538,   0.00991,  -0.06476,  -0.00367,   0.00086,  -0.01950,  -0.01498,   0.06874,  -0.03082,   0.03254,   0.01896,  -0.01045,   0.00991,  -0.03308,  -0.03760,  -0.01950,  -0.00140,   0.01896,  -0.05571,  -0.01045,   0.01896,  -0.03534,   0.03480,  -0.01724,   0.00991,   0.00765,   0.00991,  -0.02629,   0.01896,   0.03027,   0.06195,   0.00765,  -0.02177,  -0.02855,   0.00312,   0.00765,   0.00538,  -0.04213,  -0.02629,  -0.02855,  -0.04213,   0.01444,  -0.02629,   0.02349,   0.02575,  -0.00593,  -0.02855,  -0.04213,  -0.13037,  -0.02403,  -0.02403,  -0.05797,  -0.00140,   0.02122,   0.05064,  -0.03987,  -0.00819,  -0.03760,  -0.03760,  -0.03987,  -0.00593,  -0.00593,  -0.01950,  -0.01045,   0.01444,   0.04385,  -0.00140,   0.07100,   0.01444,   0.00765,   0.00086,   0.00086,   0.03254,  -0.01045,  -0.00140,  -0.00140,   0.01896,  -0.04666,  -0.05344,   0.00312,  -0.00593,   0.01217,   0.01670,   0.03254,   0.00086,  -0.03987,  -0.00140,   0.01670,   0.03027,   0.00538,  -0.04439,  -0.02177,   0.04611,   0.00991,   0.00765,   0.07779,  -0.05344,   0.01896,  -0.00819,  -0.01045,  -0.00593,   0.03254,   0.00312,  -0.01498,   0.00765,   0.01896,  -0.02177,   0.03254,  -0.02403,  -0.02855,  -0.12358,   0.00312,  -0.09191,   0.00312,  -0.01272,   0.03027,  -0.00819,   0.01896,   0.01444,  -0.08964,  -0.03308,  -0.00593,  -0.00367,  -0.01950,   0.01444,   0.01444,  -0.01950,  -0.04666,  -0.01045,   0.00765,  -0.01724,  -0.04213,   0.03254,   0.04385,   0.01896,   0.03932,   0.03706,   0.03254,   0.01896,  -0.01498,  -0.06476,  -0.02403,  -0.00140,   0.01444,   0.00765,   0.00538,   0.08458,  -0.02177,   0.00312,  -0.06249,   0.01217,   0.00086,   0.00765,  -0.02403,  -0.00367,   0.01217,  -0.01045,  -0.00367,   0.03027,  -0.00367,   0.02575,  -0.05118,  -0.01950,   0.01896,   0.10720,  -0.00593,   0.07779,  -0.00367,  -0.01045,  -0.04666,  -0.01724,  -0.01724,  -0.03760,   0.01896,  -0.02177,  -0.07381,  -0.02855,   0.00312,   0.04159,  -0.00367,   0.00086,  -0.01498,  -0.03308,  -0.01724,  -0.01950,  -0.01724,  -0.10322,  -0.03760,  -0.02403,   0.00765,   0.01896,  -0.01950,  -0.12132,   0.02801,   0.00991,  -0.03987,   0.00765,  -0.04666,   0.02801,   0.03480,   0.00086,   0.00538,  -0.01950,  -0.01272,  -0.06928,  -0.02177,  -0.07154,  -0.02177,  -0.05118,  -0.05571,  -0.08738,  -0.06249,   0.01896,  -0.01045,   0.05743,  -0.01724,   0.05064,   0.01217,   0.04837,  -0.02177,  -0.02403,   0.00312,   0.02349,  -0.04892,  -0.02177,  -0.00367,   0.01217,  -0.03308,   0.04837,   0.02349,  -0.00819,   0.01896,   0.00312,  -0.03082,   0.01217,   0.02575,  -0.02177,  -0.00819,   0.02349,  -0.01498,   0.02349,  -0.02629,  -0.01724,   0.07100,  -0.01950,  -0.00819,  -0.04213,   0.00765,   0.02122,   0.00086,   0.01217,  -0.00140,   0.01670,  -0.00819,  -0.01950,  -0.02177,  -0.03308,   0.01670,   0.01896,  -0.02855,  -0.00367,   0.00991,   0.03254,   0.02122,  -0.01498,   0.01896,  -0.03760,   0.01217,  -0.05797,  -0.00140,   0.00312,  -0.03534,  -0.00367,   0.00086,  -0.00140,   0.01217,   0.00991,   0.00086,  -0.00819,   0.00991,   0.04611,  -0.03987,   0.00312,  -0.15526,  -0.02629,  -0.05571,   0.02801,  -0.00819,   0.00538,  -0.02855,   0.01670,   0.01217,  -0.00593,   0.02122,  -0.03534,  -0.05344,   0.00086,  -0.01724,   0.03932,   0.00538,  -0.02629,   0.01670,  -0.03534,  -0.01950,  -0.00367,  -0.04439,  -0.01045,   0.01217,   0.01670,  -0.01724,  -0.07607,   0.02349
  -0.00819,   0.02122,  -0.03082,  -0.00593,  -0.04892,  -0.00819,   0.02575,  -0.05344,   0.04385,  -0.07607,   0.03027,   0.00538,  -0.09417,  -0.03534,  -0.01498,  -0.00140,  -0.02177,  -0.03308,  -0.01950,   0.01444,   0.01444,  -0.06702,   0.05969,   0.00086,   0.04159,  -0.03534,   0.06648,  -0.04666,  -0.01498,  -0.05344,   0.03706,   0.00312,   0.01217,  -0.01045,  -0.10775,  -0.04439,  -0.00140,   0.00765,   0.02801,   0.03027,  -0.00819,  -0.05344,  -0.10548,  -0.02403,  -0.03987,   0.01217,   0.00765,   0.02122,   0.00312,  -0.00593,  -0.04439,  -0.03082,  -0.02629,  -0.01724,   0.01896,  -0.08512,  -0.05571,  -0.01272,   0.01217,   0.03027,  -0.04439,  -0.01045,  -0.00593,  -0.07833,   0.03254,   0.00991,   0.01217,  -0.02855,  -0.04439,   0.10494,  -0.03760,   0.01217,   0.03027,  -0.00593,  -0.05118,  -0.04439,  -0.03082,  -0.05571,  -0.03760,   0.02801,  -0.00367,   0.00086,   0.08910,   0.01217,  -0.06023,  -0.03534,   0.00991,  -0.03987,   0.02122,  -0.04439,  -0.10322,  -0.10775,   0.04611,  -0.01724,   0.00312,   0.11852,  -0.02403,   0.02349,   0.01217,  -0.00593,   0.00991,  -0.00140,   0.00538,  -0.03987,  -0.00593,  -0.01498,  -0.04213,   0.05290,  -0.04666,   0.02575,   0.00086,  -0.08059,   0.10041,  -0.01950,   0.00312,   0.00086,   0.06421,   0.00991,  -0.00593,  -0.05571,  -0.00819,  -0.02177,   0.06648,   0.00086,   0.00538,  -0.01498,  -0.01272,   0.03027,   0.04385,   0.00312,  -0.02629,  -0.03308,   0.01896,  -0.01272,   0.00086,   0.03027,  -0.03082,   0.04611,  -0.00593,   0.03706,   0.01217,   0.02349,   0.05743,   0.03254,  -0.01498,   0.03706,  -0.03534,  -0.04892,  -0.03082,   0.02349,  -0.04439,   0.05969,  -0.04439,   0.00765,  -0.03987,  -0.00140,   0.01444,  -0.02403,  -0.05571,  -0.02855,  -0.03534,   0.01896,   0.03932,   0.00538,  -0.00367,   0.10041,  -0.01724,  -0.03308,   0.01896,  -0.01272,  -0.00367,   0.00538,  -0.05118,  -0.00593,   0.08910,  -0.06249,  -0.03760,  -0.02177,  -0.03082,  -0.01045,  -0.04666,   0.05064,   0.03932,  -0.00140,   0.05516,  -0.08738,  -0.06249,  -0.05118,  -0.02177,  -0.01272,  -0.04439,   0.04385,   0.02349,  -0.04213,  -0.09191,  -0.13942,   0.08458,  -0.05797,   0.02575,  -0.01950,  -0.03308,  -0.05118,  -0.01272,  -0.00367,  -0.03987,  -0.02629,   0.03254,   0.02801,   0.00312,  -0.04666,   0.00312,  -0.03308,   0.00312,   0.05969,   0.00538,  -0.03987,  -0.03534,   0.00991,   0.04611,   0.07100,   0.10947,  -0.06928,  -0.05118,   0.00765,   0.00086,   0.01217,   0.03706,  -0.09417,   0.06874,  -0.03308,  -0.01272,  -0.03308,   0.05290,   0.02575,   0.01896,   0.00765,   0.03706,  -0.03082,   0.00086,  -0.01498,   0.00538,   0.04611,   0.00765,   0.01217,  -0.03760,  -0.03534,  -0.01045,  -0.01724,   0.00086,   0.01896,   0.00086,  -0.02629,  -0.01498,  -0.04213,  -0.07381,  -0.14847,  -0.01950,   0.02801,  -0.01045,   0.04837,  -0.00593,  -0.01498,   0.05290,   0.03706,   0.02122,  -0.00367,  -0.00819,  -0.03308,  -0.02403,  -0.02629,  -0.01272,  -0.01724,  -0.02177,   0.01670,   0.02349,   0.00991,   0.03254,   0.02575,  -0.04439,   0.02122,  -0.02403,   0.04159,   0.05516,   0.01896,  -0.03534,  -0.05571,   0.05064,   0.10494,   0.08005,   0.02575,   0.04385,   0.00086,   0.00991,  -0.03082,  -0.04213,  -0.06249,  -0.02403,  -0.00593,  -0.02403,   0.00312,  -0.06249,   0.02349,  -0.00819,  -0.01498,   0.01444,  -0.00593,   0.02122,   0.09815,   0.06195,   0.00086,  -0.03308,   0.00312,   0.03932,  -0.00367,  -0.00140,   0.04611,   0.00765,  -0.03760,   0.05516,   0.03254,   0.03706,  -0.05118,  -0.05571,   0.01217,   0.00538,   0.01896,   0.00312,   0.01896,  -0.00593,   0.03932,  -0.02855,   0.01896,   0.04385,   0.04611,  -0.03987,   0.03480,   0.05743,   0.02801,   0.02349,   0.03480,   0.17056,   0.05969,  -0.03534,   0.04159,   0.03706,  -0.02629,  -0.04439,  -0.02629,   0.00991,  -0.02403,   0.04159,  -0.02629,  -0.01498,  -0.08738,  -0.06702,  -0.00819,  -0.07607,  -0.08059,  -0.00593,  -0.02403,   0.02349,  -0.00819,  -0.02855,   0.01217,   0.04837,  -0.05118,   0.01444,   0.04611,  -0.06023,   0.01217,  -0.01498,  -0.03987,   0.03027,  -0.03987,   0.00086,   0.07779,   0.00991,  -0.03308,  -0.06476,  -0.03760,  -0.02403,   0.04159,   0.02575,   0.05290,  -0.02403,  -0.04439,   0.04385,  -0.02855,   0.01217,  -0.01045,   0.01896,  -0.01272,   0.05743,   0.01217,   0.07553,  -0.00367,  -0.01045,   0.05064,  -0.00140,  -0.10096,  -0.01498,  -0.03082,   0.08231,   0.00765,  -0.02855,   0.10947,   0.01217,   0.03254,  -0.02403,  -0.04666,   0.01896,  -0.01045,   0.06648,   0.02122,  -0.00819,  -0.02403,  -0.08286,  -0.01045,   0.00086,  -0.01724,   0.03480,  -0.05571,   0.00991,   0.01896,  -0.02177,   0.01670,   0.02575,  -0.04439,  -0.00819,  -0.02629,  -0.06249,   0.02801,  -0.04213,  -0.02403,  -0.00367,  -0.02177,   0.00086,   0.00538,  -0.00140,   0.01670,   0.00765,  -0.03308,  -0.02177,  -0.04213,  -0.01950,  -0.03082,   0.01217,   0.01444,   0.00765,  -0.00819,  -0.06476,  -0.02629,  -0.01724,   0.00991,   0.01444,   0.02575,  -0.01950,  -0.00593,  -0.04439,  -0.00367,   0.02122,   0.02122,  -0.14169,   0.01217,  -0.02177,   0.01670,  -0.02629,  -0.00140,  -0.00593,   0.00538,  -0.02177,   0.00538,  -0.00140,  -0.03534,   0.00765,  -0.03987,  -0.04892,  -0.00593,  -0.07607,   0.03254,   0.02122,  -0.02177,   0.00538,   0.15924,   0.02575,  -0.01724,  -0.00593,   0.05969,  -0.02177,   0.00991,   0.05516,  -0.03082,   0.07779,  -0.03082,  -0.00819,  -0.11680,  -0.01272,   0.04611,   0.00312,  -0.01950,  -0.00593,  -0.03534,   0.04837,   0.00991,   0.03480,  -0.01272,   0.05516,   0.00312,   0.01670,  -0.01950,   0.03027,  -0.03760
  -0.04439,   0.06648,   0.09363,   0.01444,   0.03027,  -0.01045,  -0.02177,  -0.07381,  -0.01498,  -0.09643,   0.03932,   0.03254,   0.00312,   0.02122,   0.03254,   0.02349,  -0.03082,   0.01217,   0.06195,  -0.03082,   0.01444,   0.00312,   0.11852,  -0.01724,  -0.00367,  -0.05118,  -0.00819,  -0.00819,  -0.02629,   0.04385,   0.04159,  -0.06476,   0.00312,  -0.04666,   0.04611,  -0.04213,  -0.00593,  -0.05344,  -0.01950,  -0.03534,  -0.05344,   0.00086,   0.16151,   0.01670,  -0.03082,   0.00538,  -0.03308,   0.00312,   0.03480,  -0.04213,   0.07553,  -0.03308,  -0.03308,   0.05969,   0.01896,  -0.04666,  -0.02177,   0.03932,   0.01670,  -0.01950,   0.05064,  -0.01045,  -0.06476,  -0.08738,   0.02122,  -0.04892,   0.00991,  -0.06249,   0.03027,  -0.12132,  -0.01272,   0.04159,   0.00086,  -0.04666,   0.07779,   0.04159,  -0.06023,   0.09136,  -0.03987,  -0.00367,   0.02801,  -0.05118,  -0.03082,   0.01896,   0.00765,  -0.03308,   0.02122,   0.07100,   0.01896,  -0.02403,  -0.01724,   0.06874,   0.02801,  -0.00367,   0.12757,   0.01670,   0.00086,   0.01444,  -0.04439,   0.00991,   0.00312,  -0.04439,  -0.04666,   0.02575,  -0.00819,  -0.03760,   0.04385,  -0.01724,   0.01444,   0.00312,  -0.06023,   0.02122,  -0.01045,  -0.03082,   0.03254,   0.00991,   0.01670,  -0.00593,  -0.03534,   0.04159,   0.04837,   0.01896,   0.01896,   0.00086,   0.05064,   0.05064,  -0.05118,   0.06648,  -0.00367,   0.01217,  -0.02855,   0.02801,  -0.05797,  -0.01724,   0.01217,  -0.01950,   0.07100,  -0.04439,   0.06195,  -0.05118,   0.03706,  -0.04892,   0.04385,  -0.07154,   0.03027,   0.04159,   0.02349,  -0.03082,  -0.02403,   0.07779,  -0.02629,  -0.01272,   0.07100,  -0.02629,   0.01217,  -0.03082,  -0.02177,  -0.01045,  -0.02403,  -0.00367,   0.01670,  -0.02855,   0.02349,   0.01444,  -0.03987,   0.04837,  -0.02629,   0.00538,   0.03706,  -0.01045,   0.05290,   0.12530,  -0.06023,   0.00312,  -0.01272,  -0.03534,  -0.00140,   0.06874,  -0.08512,   0.03706,   0.05290,  -0.00367,  -0.02403,   0.13888,   0.00538,   0.05290,   0.04385,   0.02349,  -0.04213,  -0.00367,  -0.06702,   0.04385,  -0.00140,   0.00538,  -0.00367,  -0.01498,   0.00538,  -0.01272,   0.00086,  -0.02403,   0.01896,   0.00765,  -0.04213,   0.03027,  -0.02629,   0.03027,   0.01444,   0.05290,   0.05290,   0.05064,   0.04385,  -0.01272,  -0.02177,   0.01217,   0.05743,  -0.03987,   0.00765,  -0.02855,  -0.03760,  -0.04666,  -0.01950,  -0.03534,  -0.00819,   0.01217,   0.01670,   0.02349,   0.01670,  -0.01272,   0.05064,   0.01217,  -0.05797,   0.04159,  -0.02629,  -0.03760,  -0.06476,   0.01670,  -0.01498,   0.03480,   0.01217,   0.07100,  -0.01272,  -0.06023,  -0.05118,   0.02575,  -0.00367,   0.01217,  -0.03760,  -0.01950,  -0.06249,   0.03932,  -0.00367,   0.02122,  -0.02403,   0.07326,  -0.00140,  -0.02855,   0.01896,   0.00765,  -0.01272,   0.07100,  -0.02855,   0.03027,  -0.05797,  -0.01498,   0.01217,   0.03706,  -0.01724,   0.05743,   0.02349,  -0.06023,   0.01896,   0.04385,   0.01896,   0.01896,   0.04385,  -0.00819,   0.00086,  -0.03082,  -0.09191,  -0.02177,   0.00991,   0.03027,   0.03254,   0.08005,   0.01896,  -0.01045,  -0.01724,   0.06421,   0.03932,   0.03706,  -0.03308,  -0.09191,  -0.00140,   0.00538,   0.04837,   0.05969,  -0.00819,   0.00538,  -0.00367,   0.01896,   0.00991,  -0.08059,  -0.02177,  -0.01272,   0.03254,   0.00991,   0.08005,   0.05064,  -0.04439,  -0.01045,   0.00312,   0.00312,  -0.02855,  -0.01272,  -0.00593,   0.03932,   0.05290,  -0.02855,  -0.02403,  -0.04892,  -0.02177,   0.01670,   0.03254,  -0.02177,  -0.01498,  -0.05118,  -0.02855,   0.00086,   0.05290,  -0.01272,  -0.00140,  -0.10775,  -0.01045,   0.07779,   0.08005,   0.03254,  -0.02855,  -0.03987,  -0.01950,   0.05290,   0.13888,  -0.01724,   0.05064,  -0.01950,   0.08458,   0.02349,   0.04385,   0.05290,  -0.04666,  -0.05118,   0.00991,  -0.03760,   0.03932,   0.03706,   0.00086,   0.01896,  -0.01950,  -0.04439,  -0.02177,   0.02349,   0.00991,   0.01217,   0.05516,   0.03480,   0.07100,   0.00991,   0.01670,  -0.02855,   0.07100,  -0.03760,  -0.03534,  -0.02855,   0.01670,   0.04385,   0.00538,  -0.07833,  -0.00819,  -0.07607,  -0.00140,  -0.02855,  -0.05344,  -0.00593,  -0.01950,   0.08231,   0.05969,  -0.03987,  -0.08059,   0.00312,  -0.00593,  -0.01950,  -0.03987,  -0.02403,  -0.05344,   0.02575,   0.09589,  -0.02177,   0.00765,   0.01670,  -0.02629,   0.05743,  -0.00367,   0.03480,   0.01670,  -0.01045,  -0.05797,  -0.01045,  -0.04892,   0.01896,  -0.03082,   0.00991,  -0.08964,   0.01670,  -0.05118,  -0.01045,  -0.02855,   0.03480,   0.03706,   0.00312,  -0.03760,  -0.03082,   0.00086,   0.02801,   0.08231,  -0.01272,  -0.04439,   0.06195,   0.00538,  -0.01498,   0.08005,  -0.08286,   0.06421,   0.00538,  -0.01045,  -0.02403,  -0.04213,  -0.01045,   0.00312,  -0.00819,  -0.05344,   0.03027,   0.06195,  -0.05344,  -0.01272,   0.03254,   0.01670,   0.03254,  -0.09417,   0.00991,   0.05516,  -0.06023,  -0.00140,  -0.02629,  -0.01045,   0.03254,  -0.07607,   0.00991,  -0.00367,   0.07100,   0.00312,   0.04159,  -0.02403,  -0.04213,   0.04611,  -0.04666,  -0.00593,   0.03480,  -0.01498,   0.00765,  -0.06928,   0.00538,  -0.04439,   0.01444,   0.03480,  -0.00593,  -0.00819,   0.07779,   0.01217,   0.01217,   0.00086,   0.01896,  -0.00593,  -0.01045,  -0.03082,  -0.11680,  -0.00593,   0.02801,   0.03932,  -0.06476,   0.04159,  -0.03760,  -0.03987,  -0.04892,   0.00538,   0.01670,  -0.02855,  -0.08512,  -0.02403,  -0.03534,  -0.04666,   0.01444,  -0.01272,  -0.04439,  -0.01272,  -0.01498,   0.01217,  -0.04439,  -0.04213,  -0.03308,  -0.01498,   0.04159,  -0.08964,   0.00086
   0.06874,   0.05516,  -0.02403,  -0.03308,   0.00312,   0.01896,  -0.05344,   0.01217,   0.05064,  -0.03534,  -0.05118,  -0.06702,   0.01896,  -0.00140,   0.05064,  -0.05118,  -0.03987,  -0.02403,   0.05743,   0.01217,  -0.02629,   0.00538,  -0.07381,   0.03932,   0.00991,   0.07100,   0.05290,  -0.01498,   0.04385,   0.06421,  -0.05118,   0.05290,  -0.01498,   0.01670,  -0.05344,  -0.04892,  -0.02629,   0.14340,  -0.00819,  -0.01498,  -0.01724,  -0.13037,  -0.08512,   0.04385,   0.07100,  -0.00367,  -0.04666,  -0.04439,  -0.03082,   0.00086,   0.01670,  -0.08059,   0.01670,  -0.02629,  -0.00367,   0.02801,   0.03932,  -0.00819,   0.04611,   0.04837,  -0.01272,  -0.02855,  -0.02177,  -0.13490,   0.02801,  -0.02629,   0.01670,   0.04385,  -0.07154,   0.02122,  -0.02403,   0.05969,   0.00991,   0.01896,  -0.04439,  -0.06249,   0.03706,  -0.02629,  -0.04666,   0.00765,  -0.01272,   0.03706,   0.00312,   0.07779,  -0.04439,   0.06195,   0.00086,  -0.03082,   0.03480,  -0.01950,  -0.09870,  -0.15074,   0.00765,  -0.01045,  -0.01950,  -0.04892,  -0.03987,   0.05290,  -0.02403,  -0.03308,   0.02349,   0.00991,   0.02801,   0.00086,   0.03706,  -0.03082,  -0.06476,   0.03027,   0.02575,  -0.02177,   0.08910,  -0.01045,  -0.07154,   0.02801,   0.05290,  -0.03308,  -0.02855,   0.03027,   0.02349,   0.03480,  -0.00367,  -0.03082,   0.03254,  -0.05571,  -0.05344,  -0.00819,   0.06648,  -0.05571,   0.01896,  -0.00593,  -0.05797,  -0.05797,   0.00086,   0.01217,  -0.05344,   0.05743,  -0.01498,  -0.00593,   0.00086,  -0.06023,  -0.00367,   0.02801,  -0.01950,  -0.02177,   0.01896,   0.00991,  -0.01950,   0.06195,   0.01444,  -0.03987,  -0.00593,  -0.00140,   0.03027,   0.02122,  -0.04439,   0.03027,  -0.05571,  -0.03308,   0.04837,   0.02122,  -0.01950,  -0.01724,   0.03254,  -0.01724,  -0.01950,  -0.00367,   0.00312,   0.06421,   0.05064,  -0.02177,  -0.04213,  -0.03082,  -0.03987,   0.07326,  -0.08738,  -0.01272,   0.03706,  -0.06023,  -0.03534,  -0.03987,   0.00765,   0.01896,  -0.09643,  -0.04892,  -0.06476,  -0.02403,  -0.08738,  -0.04213,   0.08005,  -0.00140,  -0.06249,   0.01896,  -0.03760,   0.02801,   0.05290,  -0.01950,   0.12530,   0.02122,  -0.01045,   0.01670,   0.00312,  -0.01272,  -0.04892,  -0.00593,   0.00765,  -0.00367,   0.00312,  -0.03987,  -0.03308,   0.00538,   0.00538,   0.03027,   0.01444,  -0.00819,  -0.00819,  -0.01272,  -0.01272,  -0.02629,   0.06648,  -0.01498,  -0.03082,  -0.05571,   0.00991,  -0.07154,  -0.09643,  -0.01724,   0.00538,   0.00538,  -0.03308,   0.02801,   0.08684,   0.00312,  -0.05118,  -0.00593,  -0.07833,  -0.07833,  -0.00140,  -0.09191,   0.04611,  -0.01272,  -0.01272,  -0.02177,   0.02122,  -0.02177,   0.01670,   0.01217,  -0.01272,   0.00086,   0.02349,  -0.00367,  -0.02629,  -0.07833,   0.03932,  -0.01724,   0.03027,  -0.01272,  -0.03534,  -0.01724,  -0.00819,   0.02349,   0.10041,   0.00312,   0.05290,  -0.07381,  -0.02403,   0.04611,  -0.03308,   0.05969,  -0.04666,   0.04159,   0.00991,  -0.01045,   0.01444,  -0.01272,   0.01670,   0.00312,   0.01444,   0.00086,  -0.01950,  -0.04213,  -0.03308,   0.00765,  -0.01498,  -0.06023,   0.01670,  -0.07381,   0.02801,   0.02575,   0.01896,  -0.04439,  -0.05118,   0.13662,  -0.00593,   0.01896,  -0.01045,  -0.03082,  -0.03534,   0.01670,  -0.00819,   0.03027,   0.01444,   0.02575,   0.00538,   0.00991,  -0.02177,   0.04385,  -0.03308,  -0.01724,   0.00765,  -0.00819,  -0.14621,  -0.03534,  -0.03987,  -0.02403,  -0.04213,  -0.01950,   0.04385,   0.02349,   0.00538,  -0.04666,   0.10494,   0.00086,   0.02349,  -0.03760,   0.04159,  -0.05344,  -0.01272,  -0.03308,  -0.02855,  -0.02403,   0.01670,   0.04837,  -0.00140,   0.03480,  -0.01950,  -0.05118,  -0.01498,   0.05743,   0.03027,   0.01670,  -0.09870,   0.04611,   0.00765,  -0.02629,  -0.00367,   0.01217,  -0.01950,  -0.01045,  -0.06702,  -0.02403,   0.01896,   0.05290,  -0.03987,  -0.06023,  -0.03534,   0.00991,  -0.02403,   0.02349,  -0.01045,  -0.03082,   0.03480,  -0.01498,  -0.03987,  -0.01950,   0.05064,   0.02349,   0.03706,   0.04385,   0.00086,  -0.08286,   0.06648,  -0.05118,   0.00538,  -0.00593,  -0.00819,  -0.00819,   0.00312,   0.00765,  -0.05571,   0.02122,   0.00991,   0.01670,  -0.05571,  -0.00367,  -0.07154,   0.00086,  -0.10322,  -0.08738,   0.04611,   0.01444,  -0.05797,  -0.00367,   0.00312,  -0.07607,   0.03932,  -0.00819,  -0.03760,  -0.00819,   0.02349,  -0.00367,  -0.03760,  -0.03308,  -0.03760,  -0.00367,  -0.06702,   0.12757,  -0.06702,   0.01444,   0.01896,   0.01670,  -0.06476,  -0.01272,   0.04385,   0.01444,   0.03254,  -0.05571,   0.00312,   0.01670,   0.01896,  -0.02403,  -0.04666,   0.01896,   0.02801,  -0.04892,  -0.05118,  -0.03534,   0.05969,  -0.02403,   0.03027,   0.03027,  -0.12811,   0.01444,  -0.02403,  -0.05118,  -0.01498,  -0.02629,  -0.03308,  -0.04213,   0.03254,  -0.00819,   0.02575,  -0.01950,   0.02122,   0.04159,   0.01896,  -0.06023,   0.03706,   0.01670,  -0.01498,   0.02349,   0.15245,  -0.07154,   0.01444,  -0.01724,  -0.08738,   0.00086,  -0.04666,   0.00765,   0.01896,  -0.01272,   0.00312,   0.01670,  -0.04666,  -0.02403,  -0.03308,  -0.04892,  -0.04666,  -0.01045,  -0.05797,   0.02349,   0.03027,  -0.03760,  -0.01498,   0.05516,  -0.00593,   0.01217,  -0.01950,   0.00991,   0.00765,  -0.01045,   0.03706,  -0.01045,  -0.00819,  -0.12358,  -0.00367,  -0.12585,  -0.03760,  -0.03308,   0.01670,   0.01670,   0.01217,   0.03932,   0.01896,  -0.03534,   0.03254,  -0.06023,  -0.01950,  -0.03760,   0.13209,   0.00312,  -0.02177,   0.00312,  -0.03534,  -0.06249,  -0.03987,  -0.00593,   0.00991,   0.07779,  -0.03534,   0.02349,  -0.06476,  -0.02855
  -0.00593,   0.01896,   0.01444,  -0.05344,  -0.04892,   0.01217,   0.00765,  -0.05344,   0.02122,  -0.07154,   0.00991,  -0.00367,   0.05064,  -0.02177,   0.04837,   0.02349,  -0.06023,  -0.02403,  -0.04666,  -0.02855,  -0.02177,   0.02801,  -0.13037,  -0.04666,   0.04159,   0.05064,  -0.00819,  -0.01498,  -0.04213,  -0.00367,  -0.02177,   0.02349,   0.00991,   0.06874,  -0.03308,  -0.03534,  -0.04666,   0.00991,   0.01217,   0.01896,  -0.01950,  -0.03308,  -0.11680,   0.00991,   0.02122,   0.00991,  -0.08512,   0.00765,  -0.03534,   0.01217,   0.01896,  -0.01950,   0.03932,   0.02801,  -0.05118,  -0.01950,   0.01217,   0.00991,   0.05064,  -0.00593,  -0.03082,   0.03254,   0.03027,   0.10041,   0.03706,   0.08005,   0.02122,   0.03027,  -0.06023,   0.05969,   0.01670,  -0.00367,   0.04385,   0.00991,  -0.02855,  -0.04666,  -0.00819,  -0.00140,  -0.05571,   0.01670,   0.03932,  -0.01045,  -0.03760,  -0.06023,   0.00765,   0.03706,   0.01217,  -0.05571,  -0.01272,   0.03480,  -0.11001,  -0.00593,   0.01444,   0.05064,  -0.00140,   0.04159,  -0.01950,   0.00312,  -0.03308,  -0.00819,   0.02349,   0.00765,   0.01670,   0.01670,  -0.02177,  -0.05571,  -0.00593,  -0.03760,   0.03480,  -0.06702,  -0.01724,   0.02349,   0.02575,   0.07326,  -0.00140,  -0.02855,   0.00086,   0.06648,  -0.00819,   0.01670,   0.01217,  -0.01950,   0.00086,   0.00765,   0.02122,  -0.00593,   0.06195,   0.03027,   0.01217,   0.02349,  -0.00140,  -0.01724,   0.02122,  -0.04892,   0.01444,   0.02575,  -0.03082,   0.02801,  -0.12358,   0.04611,  -0.01950,   0.05969,  -0.01272,  -0.03308,   0.03480,  -0.04439,  -0.09191,   0.10720,   0.03027,   0.01670,   0.04385,  -0.05344,  -0.03760,  -0.08059,  -0.01950,  -0.00593,  -0.01498,   0.01444,  -0.00367,   0.04837,  -0.00140,   0.07326,   0.03480,   0.03706,  -0.03308,  -0.01950,  -0.02177,   0.03932,   0.01217,   0.01896,  -0.03082,  -0.06023,  -0.03308,  -0.01498,   0.06648,  -0.02403,   0.04159,  -0.06023,   0.04837,  -0.01950,   0.01444,   0.04159,  -0.00367,   0.01217,  -0.00140,   0.00086,   0.00312,   0.01444,  -0.02177,   0.00312,  -0.02629,   0.00086,  -0.03308,  -0.05797,  -0.01272,   0.00991,   0.03027,   0.03027,   0.00991,  -0.01045,  -0.03534,  -0.02629,   0.03706,   0.01217,   0.00086,   0.00312,  -0.02177,  -0.04892,  -0.00593,  -0.06023,  -0.01724,  -0.04666,   0.03254,   0.02575,   0.00086,   0.05064,   0.00991,   0.01896,   0.07100,   0.03027,   0.01670,  -0.01272,  -0.06476,  -0.02403,   0.03027,  -0.06928,   0.04837,   0.06195,  -0.01950,   0.00991,   0.05969,   0.01217,  -0.00140,  -0.01045,  -0.06476,   0.01217,   0.06874,  -0.03987,   0.01896,   0.07326,   0.00086,   0.00086,  -0.01045,   0.01896,  -0.02403,   0.01444,   0.03027,   0.01670,   0.02122,  -0.00819,   0.02349,  -0.05118,  -0.03308,  -0.03760,   0.00991,  -0.11453,  -0.06249,   0.00312,   0.03027,   0.01896,  -0.09643,   0.00991,   0.00765,   0.04385,   0.01217,  -0.01272,  -0.01272,   0.02801,  -0.02629,   0.07779,   0.01670,  -0.03082,   0.03480,  -0.02177,  -0.00367,   0.00765,  -0.00593,  -0.00140,   0.08005,   0.00312,  -0.01950,  -0.00819,   0.00538,   0.01444,   0.00765,  -0.00819,  -0.05797,   0.00538,  -0.03534,  -0.01272,  -0.00140,  -0.04439,  -0.07381,  -0.05118,   0.03706,  -0.02403,   0.01444,  -0.04213,  -0.02403,   0.01444,  -0.00367,  -0.00140,   0.03932,   0.07100,   0.05743,  -0.04213,  -0.00367,   0.00538,  -0.01272,   0.00538,  -0.00367,   0.00086,   0.03027,   0.02122,  -0.01045,   0.00312,  -0.00819,  -0.07381,  -0.07154,  -0.00140,   0.07553,  -0.05797,  -0.00367,  -0.02177,  -0.02629,   0.01444,   0.03027,   0.02349,  -0.03760,   0.02575,   0.02801,  -0.03308,  -0.02177,   0.00312,   0.00765,   0.02349,  -0.00367,  -0.01272,   0.07553,  -0.03534,  -0.03760,   0.01444,  -0.00367,   0.01670,   0.00312,   0.00991,  -0.11227,  -0.01498,  -0.00367,  -0.00593,  -0.03308,   0.03480,  -0.01498,   0.00991,  -0.02403,  -0.03760,  -0.00140,  -0.03534,  -0.00593,  -0.00367,   0.00086,  -0.08738,   0.04385,   0.01217,   0.00991,  -0.01045,  -0.03534,  -0.02177,  -0.01950,  -0.00593,  -0.01045,  -0.00367,  -0.03534,  -0.01950,   0.00086,   0.05516,  -0.00593,   0.03480,  -0.06702,  -0.02855,  -0.03082,  -0.01950,   0.02122,  -0.02403,  -0.01498,  -0.05344,   0.01444,  -0.01950,   0.00312,   0.04611,   0.01896,  -0.07381,  -0.01950,  -0.06476,   0.01896,   0.00312,  -0.01724,   0.02349,   0.00765,  -0.00367,  -0.02855,   0.07779,  -0.00140,   0.06421,  -0.04213,   0.04837,   0.00765,   0.00312,  -0.05118,   0.04385,   0.01444,  -0.03534,   0.04611,  -0.01724,  -0.01498,  -0.03760,   0.02575,   0.03027,  -0.05344,  -0.01724,  -0.00140,  -0.01498,  -0.04892,  -0.03082,   0.02801,   0.03027,   0.00312,  -0.01045,  -0.02855,  -0.03082,  -0.06702,  -0.00819,  -0.05571,   0.01896,   0.04159,  -0.07833,  -0.01724,   0.02349,   0.05064,   0.00538,  -0.00140,  -0.05118,  -0.00367,   0.03480,  -0.00819,  -0.00140,  -0.01045,   0.03480,   0.03254,  -0.04666,   0.04159,  -0.00140,   0.02122,   0.01217,   0.04611,  -0.03987,   0.05516,  -0.01950,   0.03480,  -0.00140,  -0.04892,   0.00765,  -0.00593,   0.02122,  -0.01950,  -0.03760,   0.00538,   0.06874,  -0.00593,   0.01896,  -0.04666,  -0.00367,   0.03932,   0.01896,   0.00765,  -0.02177,   0.01896,   0.00765,  -0.01498,  -0.04666,  -0.02629,   0.04611,   0.04837,   0.04837,   0.00538,   0.03706,   0.01670,  -0.01950,  -0.03760,   0.05064,   0.06421,  -0.04439,   0.05064,   0.00765,  -0.01272,  -0.04439,   0.03706,  -0.00593,   0.05290,  -0.01272,  -0.00140,   0.03706,  -0.02403,  -0.02629,   0.01444,   0.01896,   0.01217,   0.05743,  -0.00819,  -0.00140,  -0.01724,   0.00765
  -0.02403,   0.00312,  -0.04213,  -0.02855,   0.22938,   0.01444,  -0.03082,  -0.00593,  -0.00140,   0.00312,   0.00991,  -0.03534,  -0.00593,   0.02349,  -0.01724,  -0.00819,  -0.01272,   0.04837,   0.01670,  -0.05571,   0.05064,  -0.01950,   0.13888,  -0.02177,   0.00312,  -0.05571,  -0.04439,  -0.03987,   0.01670,  -0.00140,  -0.05797,  -0.01272,  -0.02177,   0.03706,   0.02122,   0.00991,  -0.01498,  -0.00367,   0.00991,  -0.04213,   0.01444,  -0.01498,   0.01217,   0.07326,  -0.01045,  -0.02403,  -0.03760,   0.01444,  -0.09870,   0.06195,  -0.03534,   0.03254,   0.00086,   0.05064,  -0.01272,   0.02801,  -0.01498,   0.04837,   0.01217,   0.06648,   0.01896,  -0.02177,   0.01896,  -0.10096,   0.03254,  -0.02403,   0.04837,   0.09363,  -0.00819,   0.05743,  -0.03534,   0.02801,   0.00538,  -0.05571,   0.05064,  -0.06476,  -0.01950,  -0.01498,   0.12078,   0.02575,   0.01444,   0.01896,   0.01444,   0.02349,  -0.01045,  -0.02403,  -0.02403,   0.00765,   0.01896,   0.04611,   0.06195,  -0.06249,  -0.02177,  -0.04213,  -0.05797,  -0.02629,   0.00312,  -0.02629,  -0.01272,  -0.06476,  -0.00140,  -0.04439,  -0.03534,   0.00312,  -0.00140,  -0.07154,  -0.00140,   0.02575,  -0.01498,   0.03027,   0.04159,  -0.01272,  -0.00140,   0.00312,   0.04385,   0.02801,  -0.00819,   0.01896,   0.07100,   0.01896,   0.01896,  -0.03760,   0.03027,  -0.00367,  -0.05797,  -0.04439,   0.12530,   0.02122,  -0.01950,  -0.01950,  -0.00593,  -0.03760,   0.02801,  -0.00819,  -0.01498,   0.00086,   0.02801,   0.02575,   0.05516,  -0.05797,  -0.00819,  -0.01498,   0.01217,  -0.01498,  -0.01498,   0.00086,  -0.02403,  -0.03760,   0.03027,   0.01217,  -0.00367,   0.01444,   0.00538,  -0.01950,  -0.03082,  -0.02855,  -0.00140,  -0.10775,  -0.00140,   0.03480,  -0.05797,   0.01896,  -0.04439,  -0.02403,   0.03932,   0.07779,   0.01670,   0.03027,  -0.03534,  -0.00819,   0.03254,   0.04611,  -0.01045,   0.04385,  -0.02403,  -0.05118,  -0.07154,   0.02801,  -0.07607,  -0.01724,  -0.01272,   0.01444,  -0.03987,  -0.02177,  -0.05118,  -0.02855,  -0.06023,  -0.00140,   0.01896,   0.00312,  -0.01045,   0.00312,  -0.00140,   0.03480,  -0.00140,  -0.06249,   0.14114,   0.00538,   0.02575,   0.00991,   0.02122,  -0.02403,  -0.00367,  -0.01950,  -0.02177,   0.02349,   0.00765,  -0.04439,  -0.02177,  -0.01498,  -0.01045,   0.01444,  -0.01724,   0.01670,   0.00312,  -0.03987,  -0.01272,   0.02575,   0.02122,  -0.03082,   0.02575,  -0.03082,   0.03706,  -0.06928,  -0.03987,   0.01670,  -0.09417,  -0.03308,  -0.03534,  -0.04666,   0.00765,  -0.01498,  -0.04213,  -0.04439,  -0.05118,  -0.01950,   0.01444,   0.00312,  -0.03534,   0.00538,  -0.01272,  -0.04892,   0.00538,   0.03027,  -0.02403,   0.00765,  -0.01272,  -0.01045,  -0.01045,  -0.01498,   0.00538,  -0.05571,   0.02575,   0.00086,  -0.00367,  -0.01724,  -0.06476,  -0.03760,  -0.03987,  -0.05797,  -0.00593,   0.01670,  -0.01724,  -0.07154,   0.02122,   0.09136,  -0.04892,  -0.02629,   0.03932,   0.02801,  -0.03308,  -0.04439,  -0.02855,   0.01896,   0.03254,  -0.02629,   0.04611,  -0.05344,  -0.06702,   0.00991,  -0.00593,   0.03480,   0.05064,   0.05064,  -0.01272,  -0.06476,  -0.02629,   0.01896,   0.00086,   0.00765,  -0.05344,   0.00086,  -0.06249,   0.05969,  -0.00367,  -0.02629,  -0.04213,   0.00765,   0.00312,  -0.05118,   0.00086,   0.04837,   0.02575,  -0.02629,  -0.01950,   0.05290,  -0.02403,   0.04385,   0.08005,  -0.02403,  -0.10322,  -0.03308,   0.02122,   0.00538,  -0.01498,  -0.05344,   0.03706,   0.00086,   0.02575,  -0.06249,  -0.00819,   0.03254,   0.03480,  -0.02629,   0.03480,  -0.07833,  -0.03760,   0.01444,  -0.01724,   0.03027,  -0.03534,   0.02575,   0.00086,   0.01444,   0.02349,  -0.07154,  -0.05344,  -0.02177,  -0.01724,   0.01670,  -0.06249,  -0.01045,   0.05290,  -0.02855,  -0.02403,   0.02575,  -0.02629,   0.02122,  -0.04892,   0.01670,   0.01896,  -0.02177,  -0.12358,  -0.02177,  -0.04666,   0.00086,  -0.05571,   0.05290,  -0.02403,   0.03254,   0.02349,   0.00086,   0.00312,  -0.01045,   0.05290,  -0.01498,  -0.01724,   0.03706,   0.05743,  -0.04892,   0.02575,  -0.06476,  -0.08286,   0.06195,  -0.02629,  -0.00593,  -0.05118,  -0.00819,  -0.01724,   0.03932,   0.02349,   0.00312,  -0.00819,   0.04611,  -0.06249,   0.03480,  -0.03534,  -0.04439,   0.02122,   0.01670,  -0.01724,  -0.00819,   0.01670,   0.00538,   0.12757,  -0.02177,  -0.01498,  -0.06249,  -0.01045,   0.08684,  -0.01724,   0.00312,  -0.01950,  -0.03534,   0.00991,  -0.04439,  -0.05118,  -0.02403,  -0.08286,  -0.00140,  -0.02403,  -0.00819,   0.03932,  -0.03534,   0.07553,  -0.01724,  -0.01724,   0.06648,   0.02575,   0.00765,   0.00991,  -0.04213,  -0.00593,   0.05516,  -0.03534,  -0.02403,   0.04611,  -0.00367,  -0.01724,  -0.01724,   0.02122,   0.02801,   0.07100,  -0.03308,   0.00538,   0.10947,   0.03254,   0.02801,   0.00086,   0.00991,  -0.01272,  -0.04892,  -0.01950,   0.03254,  -0.01045,  -0.03760,  -0.04213,   0.04837,   0.01896,   0.03027,   0.00765,  -0.06476,   0.03480,   0.05064,  -0.06702,   0.07326,   0.03706,   0.00312,  -0.01498,   0.01896,   0.02349,   0.01444,  -0.04213,   0.01444,   0.04159,  -0.08286,  -0.04892,  -0.06702,  -0.00819,   0.00765,   0.06195,   0.05969,  -0.06928,  -0.01272,  -0.01272,   0.00086,  -0.03987,  -0.01272,   0.02122,   0.04159,  -0.05118,  -0.04213,  -0.04892,   0.01444,  -0.01272,  -0.10548,  -0.01272,  -0.01950,   0.04159,   0.01217,   0.01444,   0.03706,  -0.01045,  -0.02177,   0.00991,  -0.01724,   0.00086,   0.07553,   0.03706,  -0.00819,   0.00765,  -0.04892,  -0.08059,   0.01670,  -0.07381,  -0.04892,   0.04385,  -0.04213,   0.04159,   0.00991,   0.00312,  -0.04213
   0.01896,   0.05290,   0.04385,   0.03027,  -0.02177,   0.01217,  -0.03082,  -0.01045,   0.10494,  -0.01950,  -0.00367,  -0.11680,  -0.07381,  -0.03760,   0.05064,  -0.03987,  -0.04666,  -0.00140,   0.03706,  -0.05797,  -0.00819,  -0.01950,  -0.11001,   0.02349,   0.04385,   0.01444,  -0.03082,   0.01217,   0.01217,   0.09136,  -0.03308,  -0.02403,   0.03027,   0.00991,  -0.01498,   0.10268,  -0.06023,   0.00312,  -0.07154,   0.00086,   0.00086,  -0.02855,   0.05969,   0.00086,  -0.01724,  -0.04892,  -0.02403,  -0.01498,   0.01217,  -0.02177,   0.01444,   0.05969,  -0.01272,  -0.03760,   0.01444,  -0.03308,  -0.01724,   0.02349,  -0.02629,  -0.01950,   0.08458,   0.00991,  -0.00140,  -0.02403,  -0.05118,  -0.09643,  -0.01724,   0.02349,  -0.00593,  -0.06476,  -0.01045,   0.02801,  -0.01498,  -0.04892,   0.00086,  -0.00819,  -0.05571,   0.07100,  -0.12811,  -0.01950,  -0.00140,  -0.05118,  -0.08738,   0.05064,  -0.01724,   0.05064,  -0.02855,   0.01444,  -0.00140,  -0.01498,  -0.09191,   0.03706,  -0.01950,   0.02349,  -0.03082,  -0.02629,  -0.06476,  -0.04213,  -0.01272,  -0.03534,   0.00991,  -0.05797,  -0.00819,   0.04385,   0.01444,   0.08458,  -0.00140,  -0.07154,  -0.05118,  -0.05571,  -0.00593,  -0.00367,  -0.00819,  -0.02855,  -0.01272,  -0.01950,   0.04159,   0.03027,   0.03932,  -0.00140,   0.08910,   0.08458,   0.00991,  -0.00367,  -0.00367,  -0.00819,   0.05290,  -0.02177,   0.07326,  -0.01045,  -0.02177,   0.00991,   0.04837,   0.00991,  -0.01045,   0.02575,  -0.02403,   0.07100,  -0.02855,  -0.00367,   0.05290,  -0.03082,  -0.01498,   0.02349,  -0.06702,   0.06874,   0.02801,  -0.01272,  -0.04439,  -0.00140,  -0.01724,  -0.02403,  -0.00140,  -0.02177,   0.03027,   0.05516,  -0.05797,   0.03254,  -0.02855,   0.01217,   0.03706,  -0.02629,  -0.03534,  -0.01724,  -0.07833,  -0.00367,   0.02801,  -0.00819,   0.02349,  -0.03987,  -0.00367,  -0.06928,  -0.03987,   0.01217,  -0.00367,   0.02575,   0.03254,   0.02349,   0.02575,   0.02801,  -0.01498,  -0.10548,   0.01896,  -0.06928,   0.02575,  -0.09870,  -0.09643,   0.03480,   0.04159,   0.01217,   0.05969,  -0.06249,   0.00538,   0.00538,  -0.01950,  -0.04213,  -0.01950,   0.03027,  -0.03308,   0.02575,  -0.05344,  -0.07607,  -0.01272,  -0.06023,   0.01217,  -0.00819,  -0.02177,  -0.01045,   0.05064,   0.05516,   0.01670,  -0.00593,  -0.02177,  -0.02629,  -0.01045,   0.01896,   0.00086,  -0.08964,   0.00312,  -0.00593,  -0.01272,   0.01217,  -0.02629,   0.00538,   0.06421,  -0.02855,  -0.04213,   0.03027,   0.10947,  -0.05118,  -0.09870,   0.04837,   0.01217,  -0.00367,  -0.09417,   0.06648,   0.03254,  -0.01724,   0.01217,   0.04385,  -0.01272,   0.05290,   0.03932,   0.04611,   0.00538,   0.03027,  -0.02403,   0.05064,   0.01896,  -0.03308,   0.02122,   0.05516,   0.04159,  -0.07833,   0.00086,   0.02122,   0.06874,   0.01896,  -0.00140,   0.02349,   0.05743,   0.02801,   0.09136,   0.00991,  -0.02855,  -0.00593,   0.07779,  -0.01724,  -0.03308,  -0.07154,  -0.01272,  -0.03308,   0.02349,   0.05064,   0.00991,  -0.06476,  -0.03082,  -0.02177,  -0.01498,   0.03480,  -0.01724,  -0.03308,  -0.05571,  -0.02177,   0.04159,  -0.02177,  -0.03987,   0.00086,   0.04159,   0.02349,   0.01670,   0.06195,   0.00086,  -0.02403,  -0.05344,  -0.03760,   0.01896,   0.02122,   0.02801,  -0.00367,   0.02575,   0.01670,   0.00086,  -0.04213,   0.04159,  -0.03987,   0.09136,  -0.03082,   0.00086,   0.00991,   0.01217,  -0.01498,  -0.01498,  -0.04439,  -0.01045,  -0.03534,  -0.04439,  -0.01724,  -0.00819,   0.01670,   0.03027,  -0.02177,   0.02349,  -0.00593,   0.02575,   0.00538,  -0.03534,   0.00538,  -0.02177,  -0.01498,   0.05743,   0.01217,  -0.00140,  -0.06928,  -0.03308,   0.02349,   0.00538,  -0.04439,  -0.01272,  -0.06249,  -0.05571,  -0.04213,   0.03932,  -0.06023,  -0.00819,  -0.00593,   0.04385,  -0.01272,  -0.00367,   0.00991,  -0.02177,   0.03254,  -0.07607,  -0.03987,  -0.03534,   0.01217,  -0.01724,   0.02122,  -0.00819,  -0.01950,  -0.08286,  -0.00367,   0.02122,   0.00765,  -0.05344,   0.02801,   0.00312,  -0.05344,   0.03254,   0.01217,   0.03706,   0.05743,  -0.02855,  -0.04892,  -0.00593,   0.04611,  -0.01950,   0.00765,  -0.01498,  -0.01950,  -0.05344,   0.00765,  -0.02629,   0.12530,  -0.05571,   0.00312,   0.03254,  -0.06249,  -0.01045,  -0.01272,   0.02575,   0.02349,  -0.01272,  -0.02177,  -0.02855,   0.01444,   0.01896,   0.00312,   0.00086,  -0.01950,   0.03932,  -0.01272,   0.05064,  -0.04213,  -0.01272,   0.06195,  -0.01498,   0.03706,   0.05290,  -0.02177,   0.00991,  -0.03082,  -0.00367,  -0.01272,  -0.01724,   0.00538,  -0.01724,   0.00312,  -0.05118,  -0.00593,   0.01217,   0.05516,   0.00991,  -0.05571,   0.00765,   0.01444,  -0.02403,   0.03027,  -0.07833,  -0.04213,  -0.07154,   0.00086,  -0.06476,   0.00765,   0.02801,  -0.02403,   0.01896,   0.07100,   0.00765,   0.04611,   0.02349,  -0.00367,   0.01896,  -0.04213,   0.00086,   0.00765,  -0.01045,  -0.00593,   0.03932,  -0.02855,   0.06648,   0.05064,  -0.03534,   0.00086,  -0.02403,   0.00086,  -0.02177,   0.04611,   0.03480,  -0.01045,   0.02349,  -0.04666,  -0.01272,  -0.04666,  -0.02403,  -0.06476,   0.00538,   0.01896,   0.03480,  -0.01045,  -0.02855,   0.00538,   0.05064,   0.08684,   0.04611,   0.03932,   0.00086,  -0.01272,   0.08005,   0.10494,   0.01217,  -0.01272,   0.00538,   0.00765,   0.01444,  -0.04213,  -0.01272,  -0.01045,  -0.01724,   0.01217,  -0.02177,  -0.02629,  -0.01950,  -0.00593,   0.03027,   0.11173,   0.00086,  -0.10322,  -0.06476,   0.00991,  -0.00593,  -0.07833,   0.00086,  -0.07381,  -0.03082,  -0.07154,  -0.03308,  -0.04213,  -0.02629,   0.01217,  -0.03760,  -0.06249
   0.02122,  -0.02629,   0.03027,   0.02122,   0.03706,  -0.01498,   0.05290,  -0.03082,   0.00765,  -0.00819,   0.03706,  -0.02177,   0.00086,  -0.01045,   0.00086,  -0.01950,  -0.03760,  -0.00367,   0.03254,  -0.00140,   0.03480,   0.00312,  -0.01950,  -0.02855,  -0.02177,   0.05969,  -0.00367,   0.05743,  -0.03082,   0.01670,   0.00538,  -0.01045,   0.04611,   0.01670,   0.00765,  -0.02855,  -0.00367,  -0.01045,   0.00765,  -0.00140,  -0.03082,  -0.00367,  -0.02177,  -0.00593,  -0.01272,  -0.00140,  -0.01045,   0.00991,  -0.02177,  -0.02629,  -0.02403,   0.00312,   0.03706,  -0.01498,   0.01896,   0.03254,  -0.00819,   0.04159,  -0.01498,   0.00312,  -0.01045,  -0.05571,  -0.00367,  -0.01498,   0.02801,   0.00765,   0.00991,  -0.02403,  -0.00367,  -0.00593,   0.04385,  -0.00367,   0.01217,   0.05290,  -0.02855,  -0.04892,   0.00765,   0.01670,   0.03706,   0.00765,  -0.01950,   0.01444,  -0.01272,  -0.05797,  -0.01045,   0.00538,  -0.01950,   0.00086,   0.00765,  -0.01498,   0.06874,   0.04159,   0.02801,   0.03027,  -0.04666,   0.03027,   0.00765,   0.00086,  -0.03308,   0.02349,   0.00765,   0.01217,   0.00991,   0.02575,   0.00991,  -0.00367,  -0.00819,   0.00312,  -0.02177,  -0.01950,   0.01896,  -0.06249,  -0.05571,   0.04385,   0.01217,  -0.02403,   0.00991,   0.01670,   0.01670,  -0.00367,  -0.05344,   0.01896,  -0.03534,  -0.00819,   0.01896,  -0.00367,   0.03027,   0.04837,   0.04837,   0.03027,   0.02122,  -0.00367,  -0.00140,   0.00312,  -0.00819,   0.01896,  -0.00593,  -0.02629,  -0.04213,   0.00991,  -0.03308,  -0.02403,   0.02122,  -0.00140,  -0.02403,  -0.02855,   0.02349,  -0.00367,  -0.01272,   0.00538,  -0.01724,  -0.07381,  -0.00367,  -0.02629,  -0.01498,   0.02122,   0.00538,  -0.03308,   0.00991,  -0.01272,  -0.00367,   0.01896,  -0.00593,  -0.00593,   0.03480,  -0.00593,  -0.04666,  -0.01950,   0.02122,  -0.03760,   0.01670,   0.00538,  -0.01498,   0.01217,  -0.02177,  -0.00140,   0.04159,  -0.01950,   0.01670,  -0.00367,   0.03706,   0.01217,   0.02575,  -0.03987,  -0.01045,  -0.03534,   0.04611,   0.00312,  -0.01950,   0.00312,  -0.02855,   0.02575,   0.02122,   0.01444,  -0.01272,  -0.03760,   0.01670,   0.06648,  -0.01045,  -0.00140,   0.00312,   0.00086,   0.03932,   0.00765,  -0.00367,   0.03480,  -0.03760,  -0.01272,  -0.02177,   0.00538,  -0.04213,  -0.01045,  -0.02403,   0.01444,  -0.01498,  -0.00367,   0.00765,   0.01670,   0.01896,  -0.00819,   0.00991,   0.01670,  -0.08059,   0.05516,  -0.03760,  -0.03082,   0.03027,  -0.00819,  -0.03308,   0.04385,  -0.00593,  -0.00367,   0.00312,  -0.00140,   0.01444,   0.01896,  -0.01498,   0.01896,  -0.02177,   0.00765,   0.00765,  -0.00140,  -0.00819,  -0.01724,  -0.03082,  -0.00367,   0.02122,  -0.01950,   0.06421,   0.07326,  -0.00367,   0.02575,  -0.05797,  -0.04892,  -0.03534,   0.02801,  -0.01272,   0.00765,   0.06195,  -0.00367,   0.01217,  -0.04666,  -0.04666,   0.02575,   0.01217,  -0.03308,   0.02575,  -0.04892,  -0.02855,   0.03480,   0.00312,  -0.00819,  -0.00593,  -0.00367,  -0.01950,  -0.03987,  -0.00367,   0.02122,   0.02801,  -0.00819,   0.00312,   0.02349,  -0.02855,  -0.02177,   0.02349,  -0.02177,  -0.02855,  -0.00593,   0.02122,  -0.01950,   0.00538,  -0.00140,  -0.02403,  -0.01272,  -0.01498,   0.00312,   0.00991,   0.01670,  -0.00593,  -0.01045,   0.01896,  -0.01498,  -0.03082,   0.04159,  -0.00367,  -0.00593,  -0.06023,  -0.04213,  -0.05344,   0.00991,   0.02349,  -0.04213,   0.01444,   0.02575,   0.00312,   0.03027,  -0.02629,   0.02349,  -0.01950,   0.03932,   0.04159,  -0.01272,   0.01217,  -0.03534,  -0.01045,   0.00312,  -0.01950,   0.00765,   0.00991,   0.00538,  -0.02177,   0.01444,  -0.04439,  -0.01498,   0.04611,  -0.02855,   0.01896,  -0.03987,   0.00991,   0.03932,   0.00086,  -0.01950,  -0.03534,  -0.01272,  -0.01498,  -0.00367,   0.01670,  -0.01950,   0.02801,   0.00991,   0.04611,   0.00991,   0.00312,   0.02801,   0.01444,   0.03027,   0.03480,  -0.01045,  -0.04439,   0.01896,  -0.02629,   0.03706,   0.01217,  -0.00140,  -0.04213,   0.04385,  -0.01724,  -0.03082,   0.01670,   0.04159,  -0.00367,   0.05290,   0.05516,  -0.00593,   0.00312,   0.02801,   0.03027,   0.00991,   0.01670,  -0.01498,  -0.00819,  -0.01950,  -0.00819,   0.05290,   0.04611,   0.02575,  -0.00367,   0.05516,  -0.00140,   0.03706,  -0.00593,  -0.07381,  -0.04439,   0.05969,   0.01444,   0.00538,   0.00991,   0.00991,  -0.01272,   0.07779,  -0.04666,  -0.00593,  -0.05797,  -0.01724,   0.04159,  -0.00819,   0.00765,   0.02575,   0.02575,   0.03480,  -0.00593,   0.00765,  -0.04892,   0.00538,   0.04837,  -0.01724,   0.00538,  -0.01950,  -0.04666,   0.04159,  -0.00819,   0.02575,  -0.03760,   0.00991,   0.01896,  -0.01498,   0.01444,  -0.03534,  -0.01272,  -0.03760,  -0.01724,  -0.00593,  -0.00819,  -0.01498,   0.01444,  -0.07833,   0.00765,   0.01217,  -0.03082,  -0.02855,   0.02122,  -0.01498,   0.01217,   0.01896,   0.03027,  -0.00140,  -0.01272,   0.02575,   0.00538,   0.01444,  -0.07833,  -0.01498,  -0.00819,  -0.01272,   0.00086,  -0.01950,   0.00765,   0.02122,   0.03480,  -0.00819,  -0.02403,  -0.00367,   0.03254,  -0.01950,   0.03254,  -0.04666,   0.08005,  -0.01045,   0.00312,   0.01217,  -0.02855,   0.01896,   0.04611,  -0.01045,   0.01896,   0.05969,  -0.00367,   0.01670,   0.01896,   0.02122,  -0.01950,   0.01444,  -0.00819,  -0.00140,  -0.00593,   0.07100,  -0.01724,   0.00312,   0.01217,   0.02122,  -0.00593,  -0.03987,   0.02575,   0.00538,  -0.02629,   0.02349,  -0.00367,  -0.02403,  -0.01272,  -0.03082,  -0.02629,  -0.00593,  -0.02855,  -0.02403,   0.00086,  -0.00140,  -0.05344,  -0.01950,  -0.01498,   0.00538,  -0.01045,   0.01444
  -0.03534,   0.00991,   0.00312,  -0.01272,   0.05743,   0.01444,   0.03254,  -0.01950,  -0.05344,  -0.01950,  -0.00140,  -0.03082,   0.01670,  -0.03987,   0.02801,   0.00538,  -0.01045,   0.02122,  -0.04439,  -0.01045,  -0.06928,   0.01217,  -0.03308,  -0.02403,  -0.02855,   0.04611,  -0.02629,  -0.01272,  -0.00140,   0.03254,   0.03706,  -0.00593,  -0.00819,  -0.04213,   0.01670,   0.00765,   0.00991,  -0.00140,  -0.04213,  -0.01272,   0.03254,  -0.00819,  -0.07381,   0.02122,  -0.03308,  -0.01950,  -0.03987,  -0.07381,   0.00765,  -0.02855,   0.05743,   0.05290,   0.03027,  -0.05344,  -0.02629,  -0.05571,  -0.01724,  -0.06476,   0.01896,  -0.01724,   0.01444,   0.00538,   0.00312,   0.04385,  -0.05344,  -0.00819,  -0.04892,  -0.00819,  -0.04213,  -0.07607,   0.02801,   0.01896,   0.00538,  -0.04666,   0.01217,  -0.06928,   0.01896,   0.01670,  -0.01045,   0.00312,   0.06874,  -0.05118,  -0.00593,  -0.00819,  -0.03308,   0.04837,  -0.00140,  -0.01272,   0.00991,   0.04611,  -0.08286,   0.07326,  -0.02855,   0.00991,  -0.00140,  -0.06023,  -0.03760,  -0.03534,  -0.00367,   0.04385,   0.05516,   0.00086,  -0.04213,   0.00312,   0.01670,   0.00538,  -0.05344,  -0.03987,  -0.05118,  -0.04439,  -0.00819,  -0.05344,   0.02349,   0.03706,   0.05516,  -0.01498,   0.01217,   0.00765,  -0.05797,   0.00991,   0.06874,   0.04837,  -0.00140,  -0.01724,  -0.00140,   0.03932,   0.00991,   0.02349,   0.04837,  -0.03082,   0.01217,   0.03027,   0.04159,   0.02801,   0.01670,   0.03254,   0.03480,   0.02122,  -0.03082,   0.02801,  -0.06476,  -0.01724,   0.02349,   0.02801,  -0.00367,  -0.04666,   0.00086,  -0.03760,  -0.03308,   0.03480,  -0.03308,  -0.00819,   0.02122,   0.03027,   0.09815,   0.03480,  -0.02629,  -0.02629,   0.00312,   0.03027,  -0.01045,   0.02122,  -0.04892,   0.01444,  -0.01498,  -0.03082,  -0.03760,  -0.04892,   0.02349,  -0.02855,   0.01444,  -0.03082,  -0.02629,   0.00991,   0.00538,   0.02349,  -0.01498,   0.00538,  -0.02403,  -0.05118,  -0.01045,   0.05290,  -0.00367,  -0.05118,  -0.01950,  -0.01272,  -0.04892,  -0.03082,  -0.03534,  -0.04892,  -0.04213,  -0.01045,  -0.02177,  -0.01950,  -0.02177,   0.00991,   0.06195,   0.03706,   0.00765,   0.05743,  -0.00593,  -0.04666,   0.01444,   0.00991,  -0.02177,   0.03254,   0.00086,  -0.00140,  -0.01045,   0.02122,  -0.00367,  -0.00593,   0.00086,   0.03932,   0.00991,  -0.01950,  -0.01272,  -0.04666,  -0.00593,  -0.02177,  -0.00140,   0.01896,   0.01217,  -0.04439,  -0.00367,  -0.03760,   0.03254,  -0.00819,   0.02575,  -0.04439,  -0.03987,   0.03932,  -0.03760,   0.00086,  -0.08964,   0.02349,  -0.02403,  -0.06249,  -0.00140,   0.03932,   0.02575,   0.00312,   0.00765,  -0.01498,  -0.02855,   0.03254,   0.00765,  -0.02403,  -0.03534,  -0.04666,  -0.00819,  -0.01724,  -0.05118,  -0.07381,  -0.01724,  -0.02177,  -0.00819,   0.01670,  -0.02177,  -0.00819,   0.02801,  -0.00367,   0.04159,  -0.03760,   0.03706,  -0.02403,  -0.01498,  -0.02855,   0.01217,  -0.03760,  -0.00140,   0.00312,   0.03480,   0.01444,  -0.01498,  -0.01272,   0.03932,   0.03706,  -0.01272,  -0.03308,   0.02801,  -0.00593,   0.02349,  -0.04213,  -0.01724,   0.00086,   0.00991,   0.01217,  -0.00140,   0.04611,  -0.01272,   0.04385,  -0.00140,   0.00312,  -0.02855,  -0.01950,   0.02349,   0.00086,  -0.00140,  -0.03987,  -0.02177,  -0.01045,   0.00765,  -0.03534,   0.03480,   0.02801,  -0.06476,   0.00312,  -0.04439,   0.02801,   0.00312,   0.00538,   0.01670,  -0.00593,   0.00991,  -0.03760,  -0.05797,   0.01670,   0.05969,   0.00312,   0.03706,  -0.01724,   0.01896,  -0.01950,  -0.01724,   0.00312,   0.00991,  -0.04892,  -0.01498,   0.01217,  -0.00367,  -0.00593,  -0.01498,  -0.02855,   0.01670,  -0.03308,  -0.02629,  -0.04213,   0.01217,   0.01217,  -0.04892,  -0.05797,   0.01444,  -0.01724,  -0.03534,   0.01444,   0.02122,  -0.02177,  -0.03534,   0.00312,  -0.00367,   0.03254,  -0.07381,  -0.05118,  -0.02177,   0.03706,  -0.00593,   0.03254,  -0.00593,   0.02801,  -0.03534,   0.00312,  -0.04439,   0.00538,  -0.03308,  -0.02403,  -0.01950,  -0.01045,   0.04837,  -0.00367,  -0.00819,   0.05064,   0.02801,   0.02801,  -0.02177,   0.00991,   0.03027,   0.00086,  -0.01724,  -0.00367,  -0.00140,  -0.08512,  -0.02403,   0.09589,   0.03480,   0.01217,  -0.04892,  -0.00140,  -0.00140,  -0.01498,  -0.00819,  -0.03082,  -0.03082,  -0.02403,  -0.03987,   0.02122,   0.00086,   0.03706,   0.02349,   0.02801,  -0.04439,   0.02122,  -0.02177,   0.00765,   0.04837,   0.04611,   0.00538,  -0.03760,   0.06421,  -0.01045,   0.00991,  -0.01045,   0.01670,  -0.00140,  -0.02403,   0.00538,   0.02575,  -0.06023,  -0.04892,   0.00765,  -0.00140,  -0.04213,   0.00086,   0.01896,   0.01444,   0.03932,   0.04837,  -0.00367,  -0.03987,  -0.04666,  -0.00819,  -0.01045,   0.01444,   0.00991,  -0.05344,  -0.03082,   0.01444,   0.00991,  -0.04892,  -0.03308,  -0.04666,   0.00765,  -0.02177,  -0.00367,   0.01444,   0.01896,  -0.03987,  -0.01950,  -0.02403,  -0.01045,  -0.01724,  -0.04666,  -0.00819,   0.04611,  -0.00819,  -0.00140,   0.06648,   0.00991,   0.02349,   0.01444,  -0.04213,  -0.02855,   0.07326,  -0.02629,  -0.01045,  -0.03760,   0.02349,   0.00086,  -0.01724,   0.03480,  -0.04892,  -0.01272,   0.03254,  -0.00367,   0.01217,  -0.00140,  -0.03534,   0.01896,   0.03480,  -0.00140,   0.00538,  -0.00367,  -0.00819,  -0.00819,  -0.01724,   0.03027,   0.02122,  -0.00593,   0.01444,   0.01444,  -0.00140,   0.02575,  -0.03534,   0.00538,   0.00538,   0.00991,   0.01217,  -0.06928,  -0.02629,  -0.00593,   0.02122,  -0.03308,  -0.01724,  -0.07833,   0.00538,   0.00312,  -0.02629,  -0.03760,   0.01896,  -0.00140,  -0.02177,  -0.01272
  -0.00593,   0.01896,  -0.01045,  -0.00140,   0.03706,  -0.01045,   0.00312,  -0.01272,  -0.03082,   0.05516,  -0.00367,   0.03706,  -0.00593,  -0.01272,  -0.02403,  -0.01272,   0.01217,   0.00991,   0.05743,  -0.00593,   0.02349,  -0.01272,  -0.04892,  -0.04213,   0.02575,   0.06421,   0.04837,  -0.00819,   0.00086,   0.00991,  -0.01724,  -0.03987,   0.01896,  -0.00819,   0.00538,   0.06648,  -0.02177,  -0.04213,   0.00086,  -0.01950,  -0.01045,  -0.00140,   0.05290,  -0.00367,  -0.03534,  -0.00140,   0.00991,   0.00538,  -0.04666,   0.03027,   0.00086,   0.02575,   0.00312,  -0.00140,   0.03932,   0.00086,  -0.00819,   0.05064,  -0.01950,  -0.01045,   0.03932,  -0.01045,  -0.04439,  -0.00367,   0.00312,   0.00765,   0.00086,   0.00765,   0.03480,   0.01670,   0.02349,  -0.00593,   0.00765,   0.02349,  -0.01724,   0.03027,   0.00312,  -0.01272,  -0.01724,  -0.01724,  -0.01950,  -0.00367,  -0.00819,   0.00538,  -0.00367,  -0.04439,  -0.01045,  -0.00140,   0.00991,  -0.02629,   0.01217,   0.01670,  -0.00593,   0.00538,   0.00765,   0.00086,   0.06195,   0.04159,  -0.00140,   0.00086,   0.00312,   0.00312,  -0.02855,   0.00086,   0.02349,   0.00086,   0.01217,   0.00086,   0.02575,   0.02801,  -0.01498,   0.01896,  -0.03987,  -0.02629,   0.01217,   0.01670,  -0.03760,  -0.00593,  -0.00367,  -0.01950,  -0.04666,   0.04385,  -0.01498,  -0.01950,   0.01217,   0.02349,  -0.01045,   0.01217,   0.02575,  -0.01045,  -0.01724,  -0.02177,  -0.00593,   0.00538,  -0.00819,  -0.00593,   0.01444,  -0.03308,   0.01444,  -0.01045,  -0.00140,  -0.00140,   0.02801,  -0.00367,   0.04611,   0.00312,   0.00538,  -0.02855,  -0.04213,  -0.01272,  -0.01724,  -0.04892,   0.02349,   0.02122,  -0.00819,  -0.00140,   0.01670,  -0.02403,  -0.01045,  -0.05344,   0.00086,   0.01444,  -0.01272,   0.00538,   0.03254,   0.00312,   0.01896,   0.00765,   0.02801,  -0.02177,   0.07100,   0.03932,   0.00991,   0.00538,  -0.05797,  -0.01498,  -0.00140,   0.00312,   0.01444,   0.01670,   0.03706,  -0.01272,   0.00086,   0.01444,  -0.00140,  -0.03534,   0.02575,   0.03706,   0.02349,  -0.01045,  -0.00367,  -0.00593,   0.04385,  -0.02403,   0.01217,  -0.03082,   0.03932,  -0.02403,   0.00538,  -0.01724,  -0.02403,   0.00312,   0.01670,  -0.01272,  -0.00367,   0.02122,  -0.02629,   0.02575,  -0.00819,   0.03706,  -0.01272,   0.02575,  -0.00593,   0.00086,  -0.00819,  -0.00140,  -0.01950,   0.01217,   0.02122,  -0.04213,  -0.01045,   0.00312,   0.02122,  -0.00593,  -0.01498,  -0.01045,   0.02801,  -0.01272,  -0.02855,  -0.01724,  -0.01498,   0.00086,  -0.01950,   0.01670,  -0.00593,  -0.00819,  -0.00140,  -0.00140,  -0.04892,  -0.03760,   0.01670,  -0.02855,  -0.02403,   0.00312,  -0.00819,   0.00991,  -0.00819,   0.00312,  -0.02177,  -0.03082,   0.00538,  -0.01950,  -0.00819,   0.01444,   0.02122,   0.03480,   0.05064,  -0.01272,   0.00991,  -0.00819,   0.00765,  -0.00593,  -0.00140,   0.03706,   0.03480,   0.00086,   0.01217,  -0.00819,   0.00312,   0.02801,   0.02575,  -0.00819,  -0.03987,   0.00312,   0.01217,   0.00538,  -0.01272,  -0.01045,  -0.02629,  -0.02177,   0.01896,   0.00312,  -0.00593,  -0.00819,   0.05743,   0.01444,   0.00765,   0.00991,   0.01217,   0.00538,   0.01444,   0.00312,  -0.00140,   0.02122,   0.01670,   0.03480,  -0.01724,  -0.01045,  -0.01498,  -0.02177,   0.03706,  -0.02629,   0.00991,   0.01444,  -0.00593,  -0.02177,   0.03706,   0.01896,  -0.01498,   0.00538,  -0.00367,  -0.04439,  -0.00593,  -0.00819,  -0.01724,  -0.00367,  -0.03082,  -0.00140,   0.00991,  -0.01045,  -0.01498,   0.02122,  -0.00140,  -0.03534,  -0.01498,  -0.01950,  -0.01272,   0.00312,  -0.01950,   0.01444,   0.00538,   0.00765,  -0.00819,   0.00312,  -0.01498,   0.00991,  -0.01272,  -0.01950,   0.00991,  -0.01272,  -0.05344,  -0.00593,   0.02349,   0.00086,  -0.01498,  -0.01950,  -0.01272,  -0.00140,   0.00086,   0.00765,   0.05516,  -0.01045,   0.06874,   0.03254,   0.00991,   0.01670,   0.00086,  -0.01045,  -0.03082,  -0.00593,   0.00765,   0.03027,  -0.02403,   0.00765,  -0.04213,   0.00765,   0.01217,   0.02575,   0.00312,  -0.04213,  -0.03082,  -0.03760,  -0.00593,   0.03027,   0.03480,  -0.03760,  -0.00140,  -0.01950,  -0.01950,  -0.02629,   0.02349,   0.02122,  -0.00140,   0.01896,   0.03254,   0.01217,  -0.05571,  -0.00140,   0.02349,   0.00312,   0.00538,  -0.03082,  -0.02855,   0.00086,   0.02349,   0.02122,  -0.00140,  -0.02403,   0.03254,  -0.00593,  -0.03308,  -0.00593,  -0.02403,   0.00312,  -0.02177,  -0.03534,  -0.03308,  -0.00367,   0.03480,   0.02122,  -0.00593,  -0.02177,  -0.00367,  -0.02855,   0.03480,   0.00765,  -0.00140,   0.02349,  -0.02177,  -0.02403,  -0.01272,  -0.01724,  -0.00819,  -0.00593,   0.01670,  -0.01272,   0.01217,  -0.00593,   0.01896,  -0.00367,   0.08910,   0.00086,  -0.00593,  -0.00140,  -0.01272,   0.05290,  -0.01498,   0.00086,  -0.05797,  -0.01045,  -0.01045,   0.02801,   0.00765,  -0.01724,   0.03254,   0.00086,  -0.00367,   0.00312,   0.02575,   0.01896,   0.01217,  -0.00140,  -0.01045,  -0.01272,   0.00086,   0.03027,  -0.02855,   0.02575,   0.03254,   0.00312,   0.00086,  -0.00367,   0.01670,  -0.00367,  -0.00819,  -0.00140,   0.03027,   0.01217,   0.01670,  -0.00593,   0.01217,   0.01896,  -0.00367,  -0.01498,   0.00765,  -0.03082,  -0.01950,   0.01896,  -0.01045,   0.00312,  -0.00819,  -0.00140,   0.03932,  -0.02403,   0.00312,  -0.01045,   0.02575,  -0.00140,   0.03254,   0.00991,  -0.00593,  -0.01272,  -0.02177,   0.00538,   0.00538,   0.01444,   0.02122,  -0.01498,  -0.01272,   0.02575,  -0.01498,   0.02349,   0.03027,  -0.00593,  -0.02177,  -0.05118,   0.00538,  -0.01950,   0.00991,   0.00538,  -0.03082,   0.01217
  -0.04213,   0.01896,  -0.00140,  -0.00593,   0.04385,  -0.00367,   0.00312,  -0.00819,  -0.01045,  -0.00593,   0.00765,  -0.01272,  -0.00593,  -0.00819,   0.01444,  -0.00367,   0.01444,  -0.01045,   0.06195,   0.00991,   0.05064,  -0.01950,   0.01217,  -0.01045,   0.00538,  -0.00140,  -0.01950,  -0.00367,  -0.00367,   0.01670,   0.03932,   0.01217,   0.00538,   0.00765,   0.03254,   0.00538,  -0.02403,  -0.04666,   0.03254,  -0.00593,  -0.01950,  -0.00593,   0.03932,   0.01896,   0.02349,  -0.00819,   0.01444,   0.04837,   0.01217,   0.00991,  -0.02629,   0.05516,  -0.01724,   0.00991,  -0.00140,   0.01896,   0.00765,   0.00312,   0.03254,   0.02575,   0.03706,  -0.03987,   0.00312,  -0.02177,   0.02801,  -0.05571,   0.00538,   0.00765,  -0.01724,  -0.03760,   0.01670,  -0.02855,  -0.00819,  -0.01272,  -0.02177,   0.02349,   0.00538,   0.03254,   0.08910,   0.02575,   0.02801,  -0.01724,  -0.02177,  -0.01272,   0.01217,  -0.01272,   0.00991,   0.02349,   0.00538,   0.03480,   0.03254,   0.00538,   0.00991,  -0.02403,  -0.03987,  -0.01724,   0.04385,   0.02122,  -0.02403,  -0.02629,   0.03480,   0.02122,   0.01444,   0.00312,  -0.00819,   0.04159,  -0.01724,  -0.02629,   0.02122,   0.00765,   0.02801,   0.03932,  -0.01498,  -0.03082,  -0.00593,   0.03706,  -0.00367,   0.00765,   0.00991,   0.04385,   0.03027,   0.02349,  -0.00367,   0.01444,   0.00538,  -0.00140,  -0.00819,  -0.00140,  -0.04213,   0.02575,  -0.00140,   0.00765,   0.03480,   0.01670,  -0.02177,   0.00765,   0.01444,  -0.04892,   0.00765,   0.02801,  -0.03308,  -0.03082,   0.02122,   0.02575,   0.04611,   0.00086,   0.03932,  -0.05118,   0.00086,  -0.04892,   0.01217,  -0.05118,   0.02349,  -0.03308,   0.00312,   0.00765,  -0.01498,   0.04611,   0.00991,  -0.02177,   0.01896,  -0.03534,  -0.03308,   0.00312,  -0.00367,  -0.03308,   0.03706,  -0.03987,   0.04611,   0.00991,   0.03480,  -0.00819,  -0.00140,   0.03706,   0.00991,   0.01444,  -0.03308,  -0.02403,  -0.03534,   0.00765,   0.03027,  -0.07607,  -0.03308,  -0.03082,  -0.01272,  -0.07381,  -0.02629,   0.03027,   0.01896,   0.03027,  -0.00140,   0.02575,   0.00765,  -0.00140,  -0.01498,   0.01444,   0.02122,  -0.01498,   0.01217,   0.01670,   0.01896,  -0.00593,  -0.00593,   0.03932,   0.00312,  -0.01045,  -0.00367,  -0.02403,  -0.01045,   0.02575,  -0.01272,  -0.01724,  -0.00140,  -0.01950,  -0.03987,  -0.02629,   0.02122,  -0.00140,  -0.01724,   0.00086,   0.02801,   0.03254,   0.01670,  -0.01045,  -0.01498,   0.05064,  -0.03082,   0.01217,  -0.04666,   0.01670,   0.03027,   0.03254,   0.00312,   0.02349,  -0.00819,   0.03027,  -0.01724,  -0.04892,   0.03480,  -0.00819,  -0.01045,   0.01670,   0.02349,  -0.01272,  -0.01272,   0.01670,   0.00086,  -0.03082,   0.02349,   0.01217,   0.00086,   0.00538,  -0.01498,   0.01896,   0.00538,   0.01670,   0.03027,   0.03254,   0.00991,   0.00765,  -0.00819,  -0.00140,   0.01444,  -0.00593,   0.00538,   0.03027,  -0.00819,  -0.03308,  -0.04213,   0.00765,   0.00765,   0.01444,   0.01896,   0.01217,  -0.01950,  -0.01724,   0.04837,   0.01444,   0.01670,  -0.03534,   0.00538,  -0.01498,   0.02575,   0.03254,   0.01444,  -0.01272,  -0.00367,  -0.04892,  -0.03308,   0.01670,   0.02349,   0.00991,  -0.01498,   0.00991,   0.02801,  -0.01950,   0.01217,   0.00765,  -0.00140,  -0.03082,   0.03027,  -0.05118,   0.01444,   0.00991,   0.00538,  -0.01498,  -0.03082,  -0.00593,  -0.01950,   0.01670,  -0.01724,  -0.01498,   0.01444,  -0.00593,  -0.00367,  -0.01045,  -0.00819,  -0.02177,   0.05290,   0.01217,  -0.01272,   0.04611,  -0.03082,  -0.03987,   0.01896,   0.00765,  -0.00140,   0.01896,  -0.00140,  -0.02403,   0.00765,   0.01444,  -0.01724,   0.00312,  -0.02629,  -0.01272,  -0.01498,   0.02575,  -0.02629,   0.00086,  -0.06023,  -0.02855,   0.01896,  -0.02177,  -0.05344,   0.01896,   0.00312,   0.01444,   0.06195,   0.00765,   0.00765,   0.00538,  -0.02403,  -0.05118,   0.00312,   0.00991,   0.00991,  -0.00367,  -0.04666,  -0.03082,  -0.01950,  -0.02403,   0.00538,  -0.03082,  -0.02177,   0.03254,   0.00086,  -0.00140,   0.03027,   0.00765,  -0.02403,   0.01670,  -0.00819,   0.03480,   0.02122,  -0.02177,   0.02801,   0.00991,   0.00538,   0.02349,  -0.02177,   0.03480,   0.00991,   0.02575,   0.00538,  -0.05571,  -0.00819,  -0.01498,  -0.01724,   0.01896,   0.00765,  -0.03082,   0.00538,   0.07553,   0.04611,   0.02575,   0.01217,  -0.02403,  -0.01724,   0.01896,  -0.03760,   0.00538,  -0.03534,  -0.04892,   0.02801,  -0.03760,   0.00086,  -0.00593,  -0.00367,   0.00538,  -0.00140,  -0.00140,  -0.01724,   0.00538,   0.02801,   0.01670,   0.00765,  -0.01045,   0.00765,  -0.00593,  -0.02629,  -0.04213,   0.01670,   0.00086,   0.02122,  -0.00367,   0.02575,  -0.03534,   0.00991,   0.01217,   0.05516,  -0.00593,   0.02801,   0.01670,  -0.00367,  -0.03534,   0.00991,   0.05290,   0.01670,  -0.00593,   0.02122,   0.01896,   0.02122,  -0.03534,  -0.01724,  -0.00593,  -0.03760,   0.02801,  -0.03308,  -0.02403,   0.01444,  -0.00593,   0.01670,  -0.01498,  -0.01950,  -0.01272,  -0.00140,   0.01896,  -0.02403,   0.00991,  -0.02629,  -0.02403,   0.00765,   0.04385,   0.00991,   0.01217,   0.02575,  -0.07381,  -0.01950,   0.02575,   0.05064,  -0.01950,  -0.03082,  -0.03534,   0.00991,   0.02575,   0.04159,  -0.01272,  -0.01724,   0.01896,   0.00086,   0.03706,  -0.01724,   0.02801,   0.00765,   0.00086,   0.02122,  -0.00367,  -0.01724,  -0.01498,   0.03027,   0.00765,   0.00312,   0.03254,   0.04611,   0.08458,   0.01444,   0.06421,   0.01217,  -0.03987,  -0.01045,  -0.00367,  -0.00593,  -0.02629,   0.06195,  -0.02629,  -0.02403,  -0.01950,   0.00991,   0.02801,  -0.02629,   0.00312
   0.00765,  -0.03534,   0.03480,  -0.01950,   0.03706,  -0.01724,   0.03480,  -0.01045,   0.02575,  -0.02177,  -0.02855,   0.03932,  -0.08286,  -0.03082,   0.04159,  -0.06249,   0.02801,  -0.04892,   0.08684,  -0.00819,   0.05516,  -0.07381,   0.05743,  -0.01950,   0.04385,   0.04611,  -0.00367,  -0.03082,   0.03480,   0.02575,   0.01217,  -0.06702,   0.00086,   0.04159,   0.09136,  -0.01724,   0.04611,  -0.06476,   0.01444,   0.02801,   0.00765,   0.01670,   0.16603,  -0.00140,  -0.02855,   0.00765,  -0.05118,   0.06195,  -0.02403,  -0.04666,  -0.01498,   0.00991,  -0.04213,   0.03706,   0.02575,  -0.00819,   0.06874,   0.01670,  -0.04892,   0.02349,   0.01217,   0.02122,  -0.07381,   0.03480,   0.03932,  -0.03308,   0.02349,  -0.00140,   0.01896,  -0.06702,  -0.03308,  -0.08059,   0.00991,  -0.03987,   0.01896,   0.03706,  -0.01045,   0.03706,  -0.08286,  -0.02629,  -0.00367,   0.01670,   0.00312,  -0.03987,  -0.00140,  -0.02403,  -0.00593,  -0.02177,   0.00991,   0.04837,   0.05743,   0.06195,  -0.04213,   0.00991,  -0.00819,   0.02349,   0.06421,   0.04385,  -0.04439,   0.00086,   0.01670,   0.05290,  -0.00367,  -0.03534,  -0.01724,   0.04385,   0.10494,   0.00765,  -0.01045,  -0.02177,  -0.05118,   0.00312,   0.00312,  -0.10322,   0.02349,   0.00765,  -0.02403,  -0.02629,  -0.01724,   0.05743,  -0.00819,  -0.00367,   0.03706,  -0.01045,   0.01670,   0.04159,  -0.03760,   0.08910,   0.01670,   0.04159,   0.02575,  -0.02403,  -0.04439,  -0.00367,  -0.00367,  -0.00367,   0.00312,  -0.01724,   0.02349,   0.02801,   0.00086,  -0.06928,   0.03254,  -0.02403,   0.05290,  -0.01045,   0.04159,  -0.06702,  -0.02855,   0.04611,  -0.04892,   0.05969,   0.07326,   0.05743,   0.03027,  -0.05571,  -0.02629,  -0.00140,   0.06874,  -0.01724,  -0.03308,   0.02349,  -0.10322,   0.03706,   0.04611,   0.00086,   0.00538,   0.04385,   0.01444,   0.04837,   0.03932,  -0.00593,   0.03706,  -0.02629,   0.00312,  -0.03082,  -0.04666,   0.01444,   0.03254,  -0.00367,   0.01670,  -0.07154,   0.00991,   0.03706,   0.01896,  -0.04439,   0.04159,  -0.01045,  -0.02855,   0.00991,   0.00086,  -0.06928,  -0.02403,   0.03027,  -0.06702,   0.01670,   0.01444,  -0.03082,  -0.01950,   0.01670,   0.03932,  -0.03308,   0.02801,   0.00991,   0.04385,   0.01217,  -0.03534,  -0.02629,   0.03254,  -0.02629,   0.01217,   0.04385,   0.04159,  -0.01045,   0.00991,   0.02575,   0.00312,  -0.04439,  -0.01498,  -0.01272,   0.04385,   0.10494,   0.04611,   0.01444,   0.01670,  -0.02855,  -0.00593,  -0.02855,   0.05064,  -0.01498,   0.07326,   0.01217,   0.00765,  -0.03987,  -0.01724,  -0.01272,   0.04159,  -0.00367,  -0.03987,   0.05743,  -0.00593,  -0.04439,  -0.01950,   0.00086,   0.02349,   0.02575,   0.03480,   0.00765,  -0.06249,  -0.06023,   0.01444,  -0.03308,   0.00086,   0.03254,  -0.03534,  -0.05118,  -0.01272,  -0.01045,   0.00538,   0.04159,  -0.03760,   0.03480,  -0.02177,  -0.00819,   0.04611,   0.00538,  -0.01498,   0.02122,   0.00086,  -0.01950,   0.00086,  -0.01498,  -0.03760,  -0.03987,   0.01670,   0.06648,   0.00086,  -0.00593,   0.00312,  -0.03760,   0.01670,  -0.02403,   0.04385,   0.01444,  -0.03082,   0.03254,  -0.00367,   0.00312,  -0.05571,   0.00086,   0.01217,   0.02801,  -0.00819,  -0.01724,   0.00765,  -0.02177,   0.02122,  -0.01045,  -0.01045,   0.01444,   0.03480,  -0.01272,   0.00086,  -0.00140,  -0.00819,   0.03932,   0.07553,  -0.01498,  -0.04439,  -0.02403,  -0.01950,  -0.02403,   0.10947,  -0.00819,  -0.06249,  -0.00593,   0.01444,  -0.05571,  -0.06023,   0.02801,   0.08005,  -0.01498,   0.01444,  -0.01950,   0.03027,  -0.01272,  -0.01045,  -0.04439,   0.02349,  -0.04892,  -0.01724,  -0.00367,  -0.05571,  -0.05344,  -0.01272,   0.05743,  -0.01724,   0.01444,  -0.03760,   0.02575,  -0.01498,  -0.04439,   0.03254,   0.02122,  -0.00367,  -0.06702,  -0.01950,   0.06874,   0.03027,   0.02575,   0.00086,   0.03027,   0.11625,   0.05743,  -0.00140,  -0.00367,   0.00765,   0.01670,  -0.02855,   0.01217,  -0.05344,  -0.01498,   0.01444,  -0.03308,  -0.03308,   0.01670,  -0.03082,  -0.05797,   0.01896,   0.02801,  -0.07607,   0.00312,   0.01217,   0.03706,  -0.01045,  -0.03987,   0.05516,  -0.03534,  -0.06702,  -0.00593,   0.03254,  -0.05344,  -0.00367,  -0.01724,   0.07553,   0.00312,  -0.05797,  -0.01724,  -0.01724,  -0.01045,  -0.00140,  -0.01272,  -0.06928,  -0.02403,   0.07100,   0.03932,   0.01896,   0.03932,  -0.03534,  -0.07607,  -0.00367,   0.04611,   0.00991,   0.03480,  -0.05571,   0.02801,  -0.01724,  -0.03760,  -0.00140,  -0.07154,  -0.08738,   0.01670,   0.06874,  -0.06249,   0.07100,   0.01217,  -0.02177,   0.06874,  -0.06928,  -0.02403,   0.06421,   0.03254,  -0.02177,   0.00765,   0.02575,  -0.00140,   0.00538,   0.06648,   0.02122,  -0.03308,   0.01896,   0.00765,   0.03706,  -0.00140,  -0.00367,   0.01444,   0.01217,  -0.02403,   0.00538,   0.00991,   0.06648,   0.01217,   0.02801,  -0.04892,   0.00312,  -0.04439,  -0.00367,   0.04611,  -0.03308,   0.01670,  -0.00593,   0.02349,  -0.01498,   0.02349,   0.01444,  -0.01272,  -0.04666,   0.03932,  -0.04439,   0.00765,   0.04159,   0.03027,   0.04385,  -0.01950,  -0.03987,  -0.00593,   0.03480,   0.06648,  -0.01950,   0.01670,  -0.05118,   0.04611,   0.00765,  -0.00367,  -0.00593,  -0.01045,  -0.04892,   0.05290,   0.03254,  -0.01724,  -0.01045,   0.02349,   0.05290,  -0.00367,  -0.00593,  -0.01045,  -0.02855,  -0.02403,   0.07100,  -0.05118,   0.02801,   0.01217,  -0.03534,   0.01217,  -0.02855,   0.05064,  -0.00367,  -0.05118,   0.07100,   0.05516,   0.02122,  -0.02855,  -0.02855,   0.02575,   0.00765,  -0.06249,  -0.00819,  -0.00593,   0.02349,  -0.02855,  -0.01724,   0.01896
   0.02122,   0.01217,  -0.02629,  -0.03987,  -0.12585,   0.02122,  -0.02403,   0.05743,  -0.02403,  -0.01272,  -0.03534,  -0.00593,   0.06421,  -0.00140,  -0.04439,  -0.01498,  -0.00819,   0.00765,  -0.02177,  -0.01724,  -0.00367,   0.01896,  -0.03082,  -0.01724,   0.03027,  -0.06249,  -0.03082,  -0.05118,   0.06421,  -0.02177,  -0.06476,  -0.05571,   0.00765,  -0.00593,  -0.02403,  -0.03987,   0.00765,   0.00765,   0.00086,   0.02575,  -0.01950,   0.02575,  -0.07607,   0.02349,   0.00765,  -0.00140,   0.00991,   0.01896,  -0.04666,   0.02349,  -0.04892,  -0.06023,  -0.00593,   0.00765,   0.02349,  -0.00819,  -0.06476,  -0.01724,   0.00765,   0.03254,  -0.03082,  -0.01045,   0.01670,   0.03254,   0.05290,  -0.00819,  -0.04666,  -0.01272,  -0.04439,   0.01444,   0.03480,  -0.02403,   0.00765,   0.03706,  -0.00140,  -0.03760,  -0.05118,   0.02801,  -0.01272,  -0.02403,   0.12530,   0.00538,   0.04385,  -0.03987,  -0.02629,  -0.03082,  -0.01272,  -0.03082,   0.00991,  -0.00367,  -0.08059,  -0.00819,  -0.05571,  -0.02629,   0.02122,  -0.00367,  -0.03534,  -0.03308,  -0.01272,   0.00765,  -0.00593,   0.00312,   0.00765,  -0.00593,   0.00086,   0.05743,   0.07100,   0.05290,  -0.03308,  -0.04666,   0.08231,  -0.06249,  -0.00367,   0.05064,  -0.01045,  -0.01724,   0.00312,  -0.00140,   0.07553,  -0.01724,   0.05743,   0.03932,   0.00312,   0.02349,   0.02575,  -0.03760,  -0.08286,   0.01896,  -0.06928,  -0.00140,   0.01896,  -0.01950,   0.08684,  -0.02855,   0.06648,   0.00086,  -0.05797,   0.01217,  -0.05118,   0.05290,   0.03254,   0.06874,  -0.01272,  -0.02855,   0.02575,   0.02349,  -0.07381,   0.00538,   0.01444,   0.02349,   0.00312,   0.01670,   0.00991,  -0.05344,  -0.10322,  -0.02403,   0.02801,   0.09136,  -0.03308,   0.04837,  -0.03534,  -0.01724,   0.03480,  -0.02629,  -0.04666,  -0.06928,   0.01217,   0.01444,   0.00991,   0.08684,  -0.08738,   0.05290,  -0.03760,   0.01217,   0.02575,  -0.01272,   0.03706,  -0.03534,   0.04837,   0.00086,   0.00765,  -0.01724,   0.05969,  -0.01045,  -0.02177,   0.05743,  -0.08964,   0.11173,   0.01670,  -0.00140,  -0.00593,   0.04611,  -0.10096,   0.03706,   0.04611,   0.00086,  -0.03308,  -0.00819,   0.00086,  -0.04892,  -0.01045,  -0.05118,  -0.02403,  -0.01498,   0.01444,   0.01444,   0.05290,   0.02122,   0.00765,  -0.06249,   0.01217,  -0.03308,   0.01896,  -0.00367,   0.02349,   0.07779,   0.01217,  -0.01045,  -0.03308,   0.00312,   0.01217,  -0.06249,  -0.02177,  -0.00367,  -0.01498,   0.01444,  -0.00367,   0.08910,   0.01217,  -0.00819,  -0.04892,  -0.00819,   0.01896,   0.00765,  -0.00593,   0.03027,  -0.00593,  -0.02629,   0.07326,   0.04611,  -0.00140,   0.01217,   0.00312,  -0.01950,  -0.02177,  -0.02403,  -0.02177,   0.03254,   0.01444,  -0.03308,  -0.05344,  -0.00593,  -0.00593,  -0.11906,  -0.00593,  -0.03760,   0.00086,   0.03254,  -0.01498,   0.00312,   0.00086,  -0.00140,  -0.01272,   0.03254,  -0.01498,  -0.03987,   0.03706,   0.07326,   0.04837,  -0.01498,   0.01444,   0.01896,  -0.01950,   0.00991,   0.02801,   0.00765,  -0.04892,  -0.02403,  -0.01272,  -0.00819,  -0.04213,   0.00086,  -0.03082,   0.04837,  -0.07381,  -0.00367,   0.03254,   0.01217,  -0.05344,   0.02122,   0.01896,  -0.03082,   0.03932,  -0.03987,   0.00991,   0.01896,   0.00086,  -0.01045,  -0.02403,   0.03027,  -0.01045,  -0.03082,   0.00086,  -0.01724,  -0.06702,   0.03027,  -0.12358,   0.02349,  -0.06702,   0.00086,  -0.06249,  -0.07833,   0.01217,   0.01896,  -0.05118,  -0.01498,  -0.02177,   0.02122,  -0.04213,  -0.02177,   0.00312,   0.00312,   0.02122,   0.03480,   0.02122,   0.06421,  -0.04666,  -0.00593,  -0.00819,   0.05969,  -0.01950,  -0.05797,  -0.00140,   0.04385,  -0.01272,  -0.00819,   0.08231,   0.07326,   0.05516,   0.02349,   0.01670,   0.00312,  -0.03082,  -0.01724,  -0.00367,   0.00991,   0.00765,  -0.05118,   0.03706,   0.00538,  -0.06476,   0.03027,  -0.08738,  -0.05118,  -0.03082,   0.00765,  -0.03534,  -0.03308,   0.04837,  -0.01724,  -0.00819,   0.01896,   0.00765,  -0.00140,   0.03932,  -0.01498,   0.00086,  -0.02629,   0.00991,  -0.05344,  -0.06476,   0.00086,  -0.04666,  -0.05118,  -0.00367,   0.04385,   0.05969,  -0.00140,  -0.05797,  -0.02177,  -0.05571,  -0.04666,  -0.01498,   0.02801,  -0.01498,   0.00312,   0.03480,   0.00538,  -0.01272,   0.00538,   0.05516,   0.00086,  -0.01272,  -0.06928,  -0.03987,   0.02575,  -0.00819,   0.02122,   0.02575,  -0.03760,   0.04159,  -0.01498,   0.03706,   0.07779,  -0.01498,   0.03254,  -0.03987,   0.02575,  -0.03308,  -0.01498,  -0.04213,  -0.05344,   0.01896,   0.07326,   0.00991,   0.01217,  -0.01498,  -0.01498,   0.00086,   0.02122,  -0.00593,  -0.02855,  -0.04439,  -0.00593,  -0.01498,   0.02801,  -0.05797,  -0.02403,   0.04837,  -0.03987,  -0.07381,   0.00765,  -0.03987,  -0.00367,   0.00991,  -0.07833,   0.02575,  -0.06249,   0.11399,   0.03027,  -0.04439,  -0.08286,   0.06195,  -0.02177,   0.03027,  -0.04666,   0.02575,   0.01217,  -0.08286,   0.01444,  -0.01498,   0.03254,   0.05743,   0.03932,  -0.01272,  -0.00819,  -0.03308,  -0.00140,  -0.00593,  -0.04213,  -0.04892,  -0.02403,  -0.05571,   0.03480,  -0.02629,  -0.00593,  -0.04666,   0.04159,  -0.00140,   0.00086,  -0.03760,  -0.00140,   0.03480,   0.03932,   0.05290,   0.00538,  -0.03987,   0.00312,  -0.02403,   0.01217,  -0.03987,  -0.00819,   0.00086,  -0.03308,   0.00086,  -0.06023,  -0.02403,   0.05064,  -0.07154,  -0.00593,  -0.04666,  -0.03760,   0.01670,  -0.01045,  -0.01045,  -0.04439,  -0.01045,   0.01444,  -0.00140,   0.03027,  -0.02403,   0.08910,   0.07553,   0.01444,  -0.01950,  -0.02403,   0.00991,  -0.02629,  -0.02177,  -0.06476,   0.03706,   0.04611
   0.01896,  -0.01045,  -0.04439,  -0.00819,   0.10041,   0.01217,   0.10720,  -0.01950,  -0.02403,  -0.02855,   0.03027,   0.06648,  -0.01724,  -0.02177,   0.10041,   0.01444,   0.00312,   0.02801,   0.02349,  -0.00367,  -0.08059,   0.04159,   0.05290,  -0.04213,   0.01896,  -0.04666,   0.02349,   0.03706,  -0.01272,  -0.03534,  -0.03534,  -0.00367,   0.00312,  -0.04213,   0.10268,  -0.00819,  -0.00367,   0.01670,   0.02349,  -0.02403,  -0.03760,  -0.00819,   0.00086,  -0.03534,   0.00086,   0.02349,  -0.02629,  -0.05571,   0.02575,   0.02349,   0.00086,   0.00312,   0.02575,   0.04837,   0.00991,   0.01217,   0.02122,   0.05290,   0.02122,   0.01670,  -0.03760,   0.10041,   0.02575,   0.03254,   0.03254,   0.00538,   0.01896,   0.09136,   0.01670,   0.03706,  -0.01498,   0.08458,  -0.00140,   0.00312,   0.00991,   0.00538,   0.06195,  -0.05118,   0.05516,   0.01896,   0.00765,  -0.09191,   0.00765,  -0.02177,   0.03706,   0.00312,   0.00765,  -0.04439,  -0.00593,   0.02575,   0.06648,   0.01217,   0.03480,  -0.01950,  -0.05797,   0.01444,  -0.02629,  -0.02177,  -0.03534,   0.02349,   0.00538,   0.03932,   0.01896,   0.00086,   0.00991,  -0.06702,  -0.03760,  -0.01498,  -0.01272,  -0.02855,   0.01444,  -0.00367,   0.00765,   0.04611,   0.04159,   0.03706,  -0.03760,   0.01444,  -0.00140,  -0.00140,  -0.03987,   0.02575,  -0.02177,   0.04385,  -0.01272,   0.06195,   0.02122,   0.05516,  -0.05571,  -0.03760,   0.00765,  -0.01498,   0.04837,   0.05743,  -0.03082,   0.03254,   0.00312,  -0.03987,  -0.08512,   0.04611,  -0.02629,  -0.01950,   0.01670,  -0.03082,  -0.01950,  -0.07607,   0.00086,  -0.02629,  -0.01272,   0.03254,   0.01217,  -0.09643,   0.02575,  -0.03082,   0.04385,   0.04159,   0.01444,  -0.02855,  -0.00593,  -0.00819,   0.00991,  -0.01045,  -0.13942,   0.01670,  -0.02629,  -0.01045,  -0.05344,  -0.02855,   0.02122,   0.02122,   0.05290,  -0.01272,  -0.01724,  -0.00819,   0.00086,   0.03706,   0.03932,  -0.01498,   0.03027,   0.00086,  -0.02855,   0.08458,   0.01670,  -0.02855,   0.01217,   0.05064,  -0.02855,  -0.08286,  -0.00819,   0.03027,  -0.03308,  -0.06023,  -0.01724,   0.04385,   0.01444,   0.03932,   0.12757,   0.02122,  -0.01950,   0.00312,   0.00312,   0.01444,   0.04159,   0.02122,   0.00086,   0.03254,  -0.05118,  -0.00367,  -0.02403,   0.00538,  -0.00367,   0.05516,   0.02349,   0.04837,  -0.06702,   0.04159,  -0.00819,   0.00991,   0.01670,  -0.02629,  -0.03987,  -0.01045,  -0.03082,   0.02122,   0.01217,  -0.04439,  -0.01724,  -0.00367,  -0.07607,   0.06648,  -0.05344,  -0.01498,  -0.04666,   0.02122,  -0.03308,  -0.02403,  -0.01724,  -0.02629,   0.00765,  -0.02177,   0.03027,  -0.00819,  -0.01724,   0.00991,  -0.04439,   0.00538,   0.00538,   0.00086,   0.05290,   0.00765,  -0.01950,   0.00991,  -0.01272,  -0.00140,  -0.04892,  -0.00593,   0.02801,  -0.00140,   0.03027,  -0.03534,  -0.02855,  -0.06476,   0.03480,  -0.00593,  -0.00819,   0.00538,  -0.00367,  -0.01498,   0.08231,  -0.07381,   0.04385,   0.00991,  -0.04213,   0.00991,  -0.04439,   0.05516,   0.00538,   0.01670,   0.02349,   0.06195,   0.05516,   0.00312,  -0.00593,  -0.01724,  -0.01724,   0.01896,   0.00312,  -0.02177,   0.05290,   0.01217,  -0.03987,  -0.08059,   0.00086,   0.08005,  -0.00140,  -0.03760,   0.00765,   0.01670,   0.04159,   0.01217,   0.08910,  -0.04892,   0.01217,   0.03706,   0.02801,  -0.00140,   0.01670,   0.03480,   0.01670,   0.04159,   0.05743,  -0.00819,  -0.00819,   0.00765,   0.05969,   0.01444,   0.04159,   0.03480,  -0.01045,   0.03932,   0.03254,   0.03706,   0.00312,  -0.01950,   0.00765,   0.00991,   0.02349,  -0.03760,   0.00538,   0.09815,   0.00086,   0.00991,  -0.08738,  -0.08286,   0.02575,  -0.10548,  -0.03082,  -0.01498,   0.01896,  -0.00819,   0.03254,   0.02801,  -0.01950,  -0.00819,  -0.02855,   0.07100,  -0.00819,  -0.00593,   0.02801,  -0.01724,  -0.03082,  -0.04892,   0.01217,  -0.02177,   0.07326,   0.02801,  -0.01045,  -0.00367,  -0.00593,   0.00538,   0.03706,  -0.01272,  -0.01498,  -0.06249,  -0.06928,  -0.00367,  -0.07607,  -0.01498,   0.01217,   0.02575,   0.04385,  -0.02177,   0.03254,   0.05064,  -0.01498,   0.02575,   0.01670,  -0.00819,   0.02349,   0.04159,  -0.00367,  -0.01950,  -0.02177,  -0.00819,   0.00086,   0.03706,   0.07100,   0.04385,  -0.00593,   0.00991,   0.00086,  -0.09643,   0.01896,  -0.02629,   0.03706,   0.04611,  -0.03534,  -0.02855,   0.02349,   0.10720,  -0.02177,   0.01444,   0.00538,   0.01217,   0.01896,   0.03706,   0.05290,  -0.00367,   0.00312,   0.03706,  -0.00140,  -0.05118,   0.03027,  -0.07833,   0.04611,  -0.01045,   0.03027,  -0.03082,  -0.04892,   0.02575,   0.05064,  -0.01498,  -0.07154,   0.00312,   0.03480,   0.00991,   0.03706,  -0.03534,  -0.07154,  -0.05571,   0.01670,   0.04159,   0.05516,   0.00086,  -0.03082,   0.06195,   0.05743,  -0.04666,  -0.03308,  -0.00593,  -0.01498,  -0.06928,  -0.00819,   0.03480,  -0.00819,  -0.01272,  -0.04666,  -0.00140,  -0.02403,   0.00991,  -0.00140,  -0.00140,  -0.01724,  -0.00367,   0.01444,   0.03254,   0.06874,  -0.00593,   0.00312,   0.00538,   0.00538,   0.05743,   0.01444,   0.03254,   0.01896,   0.01670,   0.04837,  -0.05571,  -0.00819,   0.01670,   0.01444,   0.05290,  -0.03082,  -0.02855,   0.00765,  -0.00593,  -0.00593,   0.01444,  -0.01272,   0.00538,  -0.05797,  -0.03082,   0.05969,   0.03932,  -0.01272,   0.08458,  -0.02855,  -0.02177,  -0.00593,  -0.02177,  -0.00593,   0.05743,  -0.03534,   0.00991,   0.01217,  -0.01272,   0.02349,   0.03480,  -0.00593,   0.03254,   0.02122,   0.00086,   0.00312,   0.07779,  -0.02855,   0.02575,  -0.02629,   0.02349,   0.02575,  -0.04213,   0.03027,  -0.00367
  -0.03987,   0.00538,  -0.05118,   0.01670,   0.05743,  -0.00140,   0.07100,  -0.05118,  -0.02403,   0.05516,  -0.01045,  -0.01724,  -0.03308,   0.02575,  -0.05118,  -0.01045,   0.07779,  -0.00367,  -0.08738,  -0.02629,   0.03480,   0.02575,   0.12078,  -0.03082,  -0.03308,   0.00991,   0.01444,  -0.02855,  -0.03308,  -0.13490,   0.02122,   0.01217,   0.00765,  -0.03082,   0.01896,  -0.10775,   0.03706,   0.06195,   0.06421,   0.00086,   0.03027,  -0.01498,   0.06195,  -0.06928,   0.00538,   0.02801,  -0.02629,  -0.03760,   0.00991,  -0.05571,  -0.00819,   0.00312,   0.00765,  -0.03308,  -0.01498,   0.03027,   0.01896,   0.00991,  -0.01950,  -0.00367,   0.00086,  -0.01950,   0.02801,   0.18639,  -0.03308,  -0.06249,  -0.00593,  -0.03534,  -0.01498,   0.05969,   0.00991,   0.17282,  -0.00819,   0.05969,   0.01896,  -0.05118,  -0.05797,  -0.00819,   0.08458,   0.02575,  -0.10548,   0.01670,  -0.00593,  -0.10322,   0.01896,   0.00086,  -0.04892,  -0.13942,   0.00086,   0.09589,  -0.03987,   0.02801,  -0.01045,   0.00086,   0.03027,  -0.02177,  -0.04666,   0.02801,  -0.04892,  -0.11001,  -0.01045,   0.02122,   0.02575,  -0.08738,  -0.00593,  -0.03308,   0.07553,   0.00086,   0.01896,   0.03254,  -0.08286,  -0.06928,  -0.02177,   0.03480,   0.00538,  -0.01950,  -0.05571,   0.00538,  -0.03082,  -0.00819,  -0.03760,  -0.00140,  -0.03760,   0.04385,  -0.11227,  -0.02629,  -0.01498,  -0.05118,   0.05516,   0.00991,   0.11852,   0.02349,  -0.02177,  -0.07833,  -0.12132,   0.04385,   0.01444,  -0.00593,  -0.09643,   0.06874,  -0.04439,  -0.06476,   0.02575,   0.09363,  -0.01498,  -0.04213,   0.07100,   0.01217,  -0.00140,   0.04159,  -0.01272,  -0.03987,  -0.06023,  -0.01724,   0.06648,   0.03027,   0.05969,  -0.04666,  -0.01950,  -0.01272,   0.00765,   0.00538,  -0.01498,   0.00312,   0.00312,   0.05969,   0.06421,   0.01670,  -0.00819,  -0.03534,  -0.03308,  -0.05118,  -0.06249,   0.01444,  -0.03760,  -0.00819,   0.02575,  -0.02177,  -0.01950,   0.01444,   0.00765,   0.14793,  -0.03987,  -0.10322,  -0.02403,  -0.09870,  -0.00819,  -0.06023,  -0.04666,  -0.01950,   0.03254,  -0.02629,   0.02575,   0.02575,  -0.03760,   0.02122,   0.02349,   0.05969,  -0.00140,  -0.02403,  -0.02403,   0.05064,   0.02122,   0.01217,  -0.02403,   0.04159,   0.00991,  -0.00593,   0.02122,   0.03932,  -0.01272,  -0.01498,  -0.07833,   0.03254,  -0.11906,   0.01670,  -0.03308,   0.04385,   0.04611,  -0.03308,  -0.03534,   0.06648,  -0.00819,  -0.01272,  -0.02855,  -0.07381,   0.03706,  -0.01498,   0.02349,   0.02575,  -0.03082,   0.05969,  -0.05344,  -0.01950,  -0.06023,  -0.04439,  -0.07381,  -0.04892,   0.01670,   0.03480,   0.00086,  -0.05797,   0.01896,  -0.05571,  -0.08286,  -0.00140,   0.00312,   0.04159,   0.02122,   0.04611,   0.02801,  -0.03534,   0.03254,  -0.05571,  -0.04892,   0.05290,  -0.03082,   0.00991,  -0.01724,  -0.02629,   0.01444,  -0.01950,  -0.00819,  -0.02629,  -0.00140,   0.03027,   0.00086,   0.03254,   0.00991,   0.05969,   0.03932,  -0.00593,   0.02801,   0.03932,  -0.06476,   0.00765,   0.00991,   0.02801,   0.03932,   0.01670,  -0.02855,  -0.01498,   0.01670,   0.02122,   0.02349,  -0.00367,  -0.07607,  -0.03308,  -0.06023,  -0.02855,  -0.04666,   0.06195,  -0.03082,   0.00312,   0.03706,   0.02349,  -0.00819,  -0.03534,  -0.01272,  -0.01724,  -0.06249,   0.04837,  -0.01045,   0.06195,  -0.03534,  -0.00593,  -0.10096,   0.03254,  -0.08964,  -0.00593,  -0.00140,   0.02801,   0.01217,   0.05064,   0.03027,  -0.00367,   0.04611,  -0.01045,   0.00538,   0.01670,   0.04385,   0.00765,   0.00312,  -0.03987,  -0.09643,   0.06421,  -0.02855,   0.09136,   0.02349,  -0.01724,   0.02122,  -0.01045,  -0.01950,   0.02575,  -0.04213,  -0.03760,  -0.06249,   0.01896,  -0.04213,  -0.05571,   0.07553,   0.10041,  -0.04439,   0.01896,   0.04837,   0.10720,  -0.00140,   0.04611,  -0.05571,   0.06421,  -0.00593,  -0.07833,  -0.00819,  -0.04439,   0.01670,   0.03480,   0.01670,  -0.01724,  -0.04213,  -0.05571,  -0.01045,  -0.08738,  -0.02629,  -0.00819,  -0.08059,   0.00312,  -0.06928,  -0.00819,   0.03480,   0.00086,  -0.02629,   0.03480,   0.14793,  -0.03082,  -0.04892,  -0.02629,  -0.02855,   0.01217,  -0.03308,   0.06195,   0.00086,   0.05064,  -0.00819,   0.06648,  -0.11680,   0.00991,  -0.08286,  -0.01498,   0.00538,  -0.00367,  -0.01950,  -0.05571,  -0.00819,  -0.01950,  -0.04666,   0.06874,  -0.00819,  -0.05344,  -0.03534,   0.04837,   0.00538,  -0.01045,   0.05064,   0.00991,   0.04385,  -0.02403,   0.04837,  -0.10322,   0.01670,   0.01444,   0.06874,  -0.03308,  -0.03308,  -0.02177,  -0.02403,  -0.01498,   0.03480,   0.00538,   0.05969,  -0.02177,  -0.00819,   0.08231,  -0.02403,   0.19092,   0.03027,   0.00312,   0.14567,   0.04837,  -0.07154,  -0.07833,   0.04159,  -0.04439,  -0.04439,   0.02575,   0.00312,   0.00312,   0.03480,  -0.06476,  -0.01724,  -0.00140,  -0.01950,   0.05743,  -0.04892,   0.03027,   0.03027,   0.03254,  -0.05571,  -0.01045,   0.01670,  -0.02403,   0.01217,  -0.02855,  -0.00367,  -0.03082,  -0.03987,  -0.00367,   0.10268,  -0.02403,  -0.03760,   0.00538,   0.02801,  -0.00819,  -0.01950,  -0.01950,   0.05290,  -0.01950,   0.02122,  -0.02629,  -0.04892,   0.04611,  -0.02177,   0.00765,  -0.00367,  -0.07607,  -0.01045,   0.03480,  -0.00140,  -0.03308,   0.01896,  -0.01045,  -0.01724,  -0.01950,  -0.00819,  -0.04892,   0.05969,  -0.04213,  -0.03987,  -0.01724,  -0.03534,   0.04385,  -0.00367,   0.00086,  -0.06023,  -0.04439,  -0.01045,  -0.06249,   0.03027,   0.08231,  -0.04892,  -0.02855,   0.03254,  -0.02177,   0.04159,  -0.02403,  -0.06249,   0.10494,   0.00765,  -0.04439,  -0.04439,  -0.06702,  -0.04666,   0.04385
  -0.01950,   0.01217,   0.00312,   0.01444,  -0.01045,  -0.04439,   0.02575,   0.02349,   0.02349,   0.05064,   0.01670,   0.02575,   0.03254,  -0.04666,  -0.02403,   0.00765,   0.00312,  -0.01045,  -0.07381,   0.02122,   0.00538,   0.01217,  -0.01498,  -0.02177,   0.02575,  -0.01950,  -0.00367,  -0.03308,   0.01670,  -0.06702,   0.00086,   0.00312,  -0.00367,  -0.04213,  -0.04892,   0.00991,  -0.02403,   0.03706,  -0.04666,   0.00086,   0.02575,   0.02122,  -0.08059,  -0.00819,   0.02575,   0.02122,   0.03480,   0.01444,   0.03027,   0.05064,  -0.02855,  -0.01045,   0.02575,   0.05969,   0.00765,   0.00086,  -0.06476,  -0.01724,  -0.01498,  -0.01045,  -0.05344,   0.02801,  -0.00367,  -0.04892,  -0.00367,   0.05516,  -0.00140,   0.03027,  -0.04213,   0.08910,  -0.01272,   0.00312,  -0.02403,  -0.02629,  -0.01272,  -0.05571,  -0.00367,  -0.00593,   0.02122,  -0.01045,  -0.05344,   0.02349,   0.04385,   0.01670,  -0.03534,   0.02575,  -0.00140,   0.00538,  -0.00819,  -0.04213,  -0.07154,  -0.07607,   0.01217,  -0.02403,  -0.04666,   0.01444,  -0.01498,   0.01670,  -0.00593,  -0.02855,  -0.00140,   0.00765,   0.03254,  -0.05118,   0.00538,   0.05743,  -0.01950,   0.03027,  -0.02403,  -0.00819,  -0.05797,  -0.01950,   0.01217,  -0.01045,   0.03027,   0.02122,   0.00765,  -0.01272,  -0.01724,  -0.00819,   0.02122,   0.02122,  -0.03082,   0.01217,  -0.03534,  -0.03308,   0.11625,  -0.04439,  -0.03987,  -0.03534,   0.02122,  -0.04213,  -0.04666,  -0.01724,   0.00086,   0.00991,  -0.02629,  -0.03534,  -0.01950,  -0.03987,   0.00538,   0.05064,  -0.02403,   0.06648,  -0.03534,   0.05290,   0.01217,   0.02349,  -0.08286,   0.03706,  -0.04439,   0.01444,   0.02122,  -0.01724,  -0.02855,   0.01217,  -0.00140,   0.00765,   0.00765,   0.00538,  -0.00367,   0.00991,   0.05969,  -0.01724,   0.02801,  -0.00367,   0.00538,   0.00312,  -0.00140,   0.04385,  -0.02855,  -0.02629,  -0.00819,   0.02349,   0.00312,  -0.00367,   0.00538,   0.03027,   0.00312,  -0.02629,  -0.02403,  -0.02403,  -0.06702,   0.00991,  -0.02629,   0.10268,  -0.02629,   0.00765,  -0.03760,   0.02575,  -0.00140,  -0.02177,   0.01444,  -0.02177,   0.07326,  -0.05797,  -0.00140,  -0.01724,  -0.03308,  -0.01950,  -0.01950,   0.01670,   0.07779,  -0.02629,   0.00538,  -0.03082,   0.02575,  -0.03987,   0.04159,  -0.04213,   0.02575,   0.00765,   0.00538,  -0.01950,  -0.02855,   0.02575,   0.01896,   0.03027,  -0.00367,   0.01444,  -0.02855,  -0.04213,  -0.03082,   0.05969,  -0.03534,   0.02122,  -0.02855,   0.01670,   0.00086,  -0.00593,  -0.01950,  -0.01498,   0.02801,   0.00538,   0.07779,  -0.00367,  -0.02629,   0.05516,   0.02349,  -0.00819,   0.03706,  -0.01950,  -0.00367,   0.00312,   0.05743,  -0.02177,   0.00312,   0.01217,   0.00312,   0.05516,   0.01896,  -0.01272,   0.00765,  -0.04439,  -0.00140,   0.01217,   0.02801,  -0.02855,   0.01670,  -0.03987,  -0.07381,   0.00312,  -0.05344,   0.02801,   0.00765,  -0.03987,   0.02801,  -0.02629,   0.03932,   0.02349,  -0.00140,   0.02575,  -0.02403,   0.01670,   0.00765,   0.01896,   0.00538,   0.00538,   0.00991,   0.07326,   0.00765,   0.00312,  -0.03534,  -0.00140,   0.01217,  -0.02177,  -0.03082,   0.02122,  -0.03082,  -0.01045,  -0.00140,   0.00991,   0.00991,  -0.01498,  -0.00819,  -0.01498,  -0.03760,  -0.00819,   0.04611,   0.03706,   0.00086,  -0.02855,   0.06874,   0.03027,   0.00765,  -0.02177,  -0.02855,  -0.00593,   0.02349,   0.03932,   0.01217,   0.08910,  -0.00819,  -0.00367,  -0.01724,  -0.06023,  -0.00819,   0.03932,  -0.01272,   0.02575,  -0.01498,   0.00312,   0.00086,   0.02122,   0.01217,  -0.01498,   0.01217,   0.04385,  -0.01045,   0.01217,   0.03932,  -0.01724,  -0.01950,   0.00312,   0.01670,   0.02801,  -0.03987,   0.03932,   0.08231,  -0.03760,  -0.01045,   0.00538,   0.01444,  -0.01272,   0.01444,   0.00312,  -0.04892,  -0.03082,  -0.02403,   0.00765,   0.00312,   0.01670,   0.06195,   0.08684,   0.00312,   0.00312,   0.00991,   0.04159,   0.04385,   0.02122,  -0.00593,  -0.00819,  -0.00140,   0.01670,   0.00765,  -0.01272,  -0.01724,  -0.00140,  -0.00140,   0.00991,  -0.00140,   0.03706,  -0.04892,  -0.03082,  -0.02177,   0.00312,   0.06648,   0.00991,  -0.04213,   0.02575,  -0.01045,   0.01444,   0.02122,   0.00765,  -0.02629,   0.00991,   0.04159,  -0.03082,  -0.01950,  -0.03082,   0.02801,   0.01444,   0.04837,   0.00991,   0.02349,  -0.01950,  -0.00819,   0.01896,  -0.03308,  -0.06476,  -0.00593,   0.00086,   0.01444,   0.02122,   0.06874,  -0.01045,   0.03932,  -0.01724,   0.01896,   0.03254,   0.07326,   0.01896,   0.03706,  -0.06023,   0.00538,   0.01896,  -0.02177,  -0.03987,   0.08458,   0.04385,   0.02122,  -0.03534,  -0.00819,  -0.00140,  -0.01724,  -0.01045,  -0.03760,  -0.01498,   0.00086,   0.04611,   0.04611,   0.01896,  -0.05344,   0.02801,  -0.02629,  -0.01045,   0.01444,   0.00086,   0.04611,   0.01670,  -0.01498,  -0.04439,  -0.02629,  -0.00367,  -0.01950,   0.01896,  -0.00140,  -0.03308,   0.00765,   0.07326,  -0.02855,   0.00086,   0.00312,  -0.02177,  -0.00819,   0.00538,  -0.00819,  -0.06702,  -0.03987,   0.01896,  -0.01950,  -0.02403,  -0.01045,   0.06421,  -0.03082,   0.01670,   0.01896,   0.02801,   0.05516,  -0.00593,   0.00991,   0.01896,   0.01670,  -0.00819,  -0.02403,  -0.03082,  -0.03534,  -0.01950,  -0.00367,   0.01444,  -0.00819,   0.00765,  -0.03987,  -0.00819,   0.00538,  -0.00593,   0.01670,  -0.00367,   0.00991,  -0.00140,  -0.01950,   0.02349,   0.02122,  -0.01724,   0.01670,  -0.03534,  -0.00819,   0.00312,   0.00312,   0.00086,   0.02575,  -0.00819,   0.03027,  -0.00367,   0.02349,   0.00312,  -0.02403,  -0.02629,  -0.03082,  -0.04892,   0.00538,  -0.03082
   0.00991,   0.01444,   0.02801,  -0.02177,   0.00991,   0.00312,   0.04159,  -0.00593,  -0.03760,   0.08005,   0.04159,   0.00538,  -0.03987,  -0.01272,  -0.03308,  -0.06476,   0.01896,  -0.02629,  -0.00593,   0.05290,   0.00538,   0.02349,   0.01670,  -0.04213,  -0.04213,   0.02575,   0.04611,  -0.04439,   0.00991,   0.05516,  -0.03534,   0.01217,   0.01896,   0.02349,  -0.01272,  -0.00367,  -0.01724,   0.00086,   0.00086,   0.00991,  -0.03082,   0.03480,   0.02349,  -0.01498,  -0.00367,  -0.00367,   0.01217,  -0.03082,  -0.02403,  -0.01950,   0.01670,  -0.04213,  -0.02403,  -0.02629,   0.03027,   0.00765,   0.00086,   0.01670,  -0.01724,   0.03027,  -0.02855,   0.05290,  -0.00140,   0.04611,   0.00312,  -0.01724,   0.00538,  -0.03308,  -0.01950,   0.01444,  -0.00593,  -0.03308,   0.01670,  -0.04892,  -0.02629,  -0.00367,  -0.02177,   0.00086,  -0.02855,  -0.00593,  -0.00819,   0.02801,  -0.00593,   0.00991,  -0.03082,   0.00312,   0.03706,  -0.03308,   0.02122,   0.04611,   0.02349,   0.03706,   0.00312,  -0.02403,   0.00312,   0.01217,  -0.01272,   0.02349,  -0.01045,  -0.01045,   0.00086,   0.02801,   0.02575,  -0.02403,   0.02575,  -0.04439,  -0.00140,  -0.02629,   0.03480,  -0.02177,  -0.08059,   0.01217,  -0.03534,  -0.04213,   0.01217,  -0.02177,  -0.05118,  -0.00140,  -0.02403,   0.03706,  -0.03760,   0.00765,  -0.00140,   0.01217,  -0.04439,  -0.00593,  -0.00819,   0.00086,   0.03480,   0.02575,   0.05516,  -0.05118,  -0.10096,  -0.01724,  -0.03760,   0.04837,  -0.00367,  -0.02403,  -0.01950,   0.06421,   0.00538,  -0.02403,  -0.01272,   0.04159,  -0.04892,  -0.00819,   0.00765,   0.00086,  -0.02629,  -0.06023,  -0.03082,  -0.00593,  -0.01498,   0.02349,  -0.00140,   0.04837,   0.02575,  -0.01272,   0.01217,  -0.01950,  -0.01272,  -0.00140,   0.00765,  -0.00140,  -0.00819,  -0.03308,   0.04611,  -0.03760,   0.04611,   0.03027,   0.03932,  -0.01498,  -0.01724,   0.02575,  -0.00140,  -0.01498,  -0.01272,   0.02575,   0.00991,  -0.00593,  -0.00593,  -0.01498,  -0.00367,  -0.01045,   0.00765,  -0.01950,   0.00312,  -0.04213,  -0.01950,   0.00086,  -0.03760,   0.04837,   0.00991,   0.02349,   0.02349,  -0.00140,   0.08458,   0.00086,  -0.02855,   0.01217,   0.03027,   0.00538,   0.00991,  -0.00819,   0.02349,  -0.00367,   0.00538,  -0.00367,  -0.05344,   0.01217,  -0.00819,  -0.01272,   0.02349,   0.02122,  -0.00593,   0.01896,   0.02349,  -0.02855,   0.03480,   0.01670,  -0.02403,   0.01670,  -0.01498,   0.01896,  -0.04213,   0.04837,  -0.04439,  -0.04439,  -0.00819,   0.01444,   0.07100,   0.02349,   0.01670,  -0.00819,  -0.04439,  -0.01950,  -0.02177,  -0.02177,   0.00312,   0.01896,   0.00538,  -0.05118,  -0.00819,   0.01670,   0.01217,  -0.01045,   0.03027,  -0.01724,   0.02575,  -0.00140,   0.00312,  -0.00140,  -0.01045,  -0.00140,  -0.03308,   0.03932,  -0.03987,  -0.03534,   0.00991,   0.00765,   0.01896,  -0.05118,  -0.03082,   0.03706,   0.02801,   0.01670,  -0.01045,  -0.05571,  -0.02403,  -0.00593,  -0.03760,  -0.02629,  -0.00593,  -0.03308,   0.00312,  -0.01498,   0.03706,  -0.00367,   0.02349,   0.04837,  -0.00819,   0.00312,  -0.00140,   0.00538,  -0.01950,   0.04837,  -0.01045,  -0.03308,  -0.02403,  -0.02403,   0.03480,   0.00312,   0.00086,   0.02122,  -0.06476,  -0.01724,   0.00086,   0.03706,  -0.03987,   0.01670,   0.03027,  -0.02855,   0.05290,  -0.00593,  -0.00593,   0.03706,   0.02575,  -0.03987,  -0.00367,   0.00538,   0.01444,   0.05516,   0.03480,  -0.01045,   0.00086,  -0.04439,   0.01444,   0.01896,  -0.00140,   0.03706,   0.05969,   0.03254,  -0.01498,  -0.00367,   0.00086,   0.01444,  -0.03760,  -0.00819,   0.05969,  -0.06476,   0.02122,   0.02349,  -0.01272,   0.00312,   0.02801,  -0.03082,  -0.05344,   0.05290,  -0.01045,   0.01670,   0.01670,   0.05064,  -0.03308,   0.00538,  -0.00819,  -0.03082,  -0.00367,   0.03706,  -0.05571,   0.00312,  -0.01498,  -0.00593,   0.08458,  -0.00593,  -0.02177,   0.00086,  -0.00367,   0.03932,  -0.03760,  -0.01498,  -0.04666,   0.01444,   0.02801,  -0.02629,  -0.00819,   0.01896,  -0.01272,  -0.03082,  -0.00140,  -0.03760,  -0.01498,  -0.01498,   0.00312,   0.00991,   0.01217,   0.01670,   0.05064,   0.03932,  -0.02177,   0.04385,  -0.07154,  -0.00140,   0.01217,   0.04837,  -0.02177,  -0.02855,  -0.08512,   0.01896,   0.00538,  -0.01272,  -0.00367,  -0.04666,  -0.06702,  -0.04439,  -0.06023,  -0.00367,  -0.02629,   0.00312,  -0.01498,  -0.07154,   0.00765,  -0.01724,  -0.04892,   0.01670,  -0.01950,  -0.02403,  -0.00140,  -0.05571,   0.06195,   0.04385,  -0.03534,   0.00765,   0.02801,  -0.03308,   0.00538,   0.02349,  -0.02629,   0.02122,   0.01670,  -0.00819,   0.03706,   0.02575,   0.03480,  -0.00819,  -0.00593,   0.00538,  -0.00367,   0.06195,  -0.05797,  -0.04439,  -0.01045,   0.03254,   0.02349,   0.01444,   0.01217,   0.04611,   0.02122,  -0.06702,  -0.01724,  -0.00367,  -0.04439,   0.03706,   0.02122,   0.00765,  -0.01045,   0.01444,  -0.01950,  -0.00819,  -0.01950,   0.07779,  -0.03082,   0.01217,   0.00765,  -0.02177,  -0.00140,   0.01217,  -0.02629,   0.00312,  -0.02403,   0.01217,   0.01444,   0.05516,  -0.01498,   0.00312,  -0.01498,   0.02122,   0.01896,   0.00312,  -0.00140,  -0.01498,  -0.03308,   0.01670,  -0.00140,  -0.01272,   0.00765,   0.00086,  -0.02629,   0.01670,  -0.00593,  -0.03534,  -0.01045,   0.02575,   0.03932,  -0.01950,   0.00086,   0.01217,  -0.01950,  -0.01498,   0.00991,  -0.03082,   0.00991,   0.05516,  -0.06928,  -0.00593,  -0.00593,  -0.05344,   0.01444,  -0.00140,  -0.00140,   0.01896,   0.00086,   0.00086,  -0.00819,  -0.00593,  -0.01045,  -0.01950,  -0.01950,   0.02801,  -0.00593,  -0.00367,  -0.00367,  -0.01045
