   0.00096,  -0.00977,  -0.01172,  -0.00782,  -0.00879,  -0.03025,   0.02242,   0.01072,  -0.00586,   0.03120,  -0.00782,  -0.01855,  -0.01464,   0.01169,   0.01950,   0.00584,   0.02633,   0.00682,   0.03706,  -0.01757,   0.02242,  -0.04001,   0.03511,  -0.02733,   0.02828,  -0.00099,   0.01169,  -0.03708,  -0.00391,   0.00682,   0.00779,  -0.01562,  -0.01172,  -0.04001,   0.01072,   0.00584,  -0.00684,  -0.01074,  -0.01562,   0.01072,  -0.02147,  -0.00684,   0.00974,   0.02535,  -0.01855,   0.01072,   0.00096,   0.01755,  -0.01172,   0.01267,  -0.02147,   0.00096,   0.00291,  -0.02635,  -0.01855,  -0.04391,   0.00291,  -0.01952,  -0.00099,   0.00779,   0.00779,   0.00389,   0.00389,   0.01560,   0.03901,  -0.04781,  -0.02050,   0.02828,   0.02340,   0.00584,   0.01072,   0.02047,   0.03608,  -0.01269,  -0.00782,  -0.02733,  -0.04098,  -0.00782,  -0.03806,   0.00194,   0.06437,  -0.02733,   0.00487,   0.02925,  -0.03415,   0.00194,   0.02145,   0.03218,  -0.00879,   0.00291,   0.01950,   0.01560,  -0.02928,   0.01267,   0.00194,   0.03218,   0.01950,  -0.00586,   0.01852,   0.03316,   0.00194,  -0.02245,  -0.04781,  -0.02830,   0.00779,  -0.01074,  -0.01952,   0.00291,  -0.01952,   0.01950,   0.05267,  -0.03611,   0.01755,  -0.00684,   0.01950,  -0.03220,  -0.03025,   0.04193,   0.00291,  -0.01855,  -0.01855,   0.00096,  -0.00879,   0.01657,  -0.02440,   0.01072,  -0.01660,   0.00389,  -0.01660,  -0.01464,   0.00389,   0.00291,   0.00682,   0.00974,   0.01755,  -0.00782,  -0.01172,  -0.00001,  -0.00879,   0.01072,   0.02633,  -0.00099,  -0.02342,   0.01267,   0.00779,  -0.00684,  -0.02050,   0.00389,   0.04681,   0.01755,  -0.00294,  -0.00782,   0.01462,  -0.01172,  -0.00391,   0.03511,  -0.03806,   0.02828,  -0.01464,  -0.02733,  -0.01367,  -0.00782,  -0.00294,   0.01365,  -0.00586,   0.00877,   0.02535,   0.02242,  -0.02050,   0.00487,   0.03608,  -0.03123,   0.00779,   0.01169,   0.00682,   0.01365,   0.02145,   0.02047,   0.01852,  -0.01172,   0.01560,   0.02145,  -0.04781,   0.00682,  -0.01172,   0.00096,   0.04876,  -0.00099,  -0.01562,   0.03413,   0.01072,   0.01462,  -0.00391,  -0.02342,   0.02145,  -0.01660,  -0.00294,   0.02047,  -0.02733,  -0.01757,   0.05462,  -0.00099,   0.01560,  -0.00099,   0.04193,   0.01267,   0.02145,   0.00096,  -0.00196,   0.02438,  -0.02050,   0.04779,  -0.00001,  -0.00684,   0.01267,  -0.01757,   0.02242,  -0.03903,  -0.01172,   0.03023,   0.01169,   0.02047,  -0.01757,  -0.03123,  -0.00684,  -0.01269,   0.01657,   0.01852,  -0.01660,   0.01072,  -0.01269,  -0.01757,  -0.00586,   0.00682,  -0.00294,   0.03218,  -0.01660,   0.00877,  -0.02342,  -0.00977,   0.01852,   0.02047,  -0.00782,  -0.02440,   0.00487,  -0.01660,  -0.00489,   0.02242,  -0.04488,  -0.00294,  -0.00782,   0.01852,   0.07022,  -0.00099,  -0.01269,   0.03316
   0.00389,   0.01267,  -0.01855,  -0.03123,   0.01852,   0.01072,   0.02242,  -0.03220,   0.00487,   0.00974,  -0.00684,   0.02828,  -0.00391,   0.00974,   0.01755,   0.01950,   0.00682,   0.00096,   0.01267,  -0.01172,  -0.04684,   0.03218,  -0.01660,   0.01365,  -0.00684,   0.00194,  -0.03708,  -0.00586,   0.00096,   0.00584,  -0.00489,  -0.02733,  -0.02440,   0.01072,  -0.00586,   0.00682,  -0.01172,  -0.00196,   0.01852,   0.02925,   0.01169,  -0.02440,  -0.04684,   0.02925,  -0.01269,  -0.02635,  -0.02342,   0.00779,   0.00877,   0.04584,  -0.02537,  -0.02342,  -0.00489,   0.01950,   0.02633,  -0.04293,   0.01072,   0.00291,   0.02145,  -0.02245,   0.00682,   0.01267,   0.01267,  -0.03806,   0.01267,  -0.01952,   0.03901,   0.00584,  -0.00977,  -0.01464,  -0.02440,  -0.03220,   0.00487,   0.01950,   0.04096,   0.00194,  -0.00294,   0.01169,  -0.03415,   0.00682,  -0.01269,   0.00877,  -0.00977,   0.00584,  -0.01757,   0.04486,  -0.00196,   0.03706,   0.00194,  -0.00196,  -0.00196,   0.02438,  -0.01269,   0.00779,  -0.01074,   0.03218,  -0.00391,  -0.00294,   0.03316,  -0.00391,  -0.02440,  -0.01074,  -0.01367,   0.01657,  -0.02342,   0.00194,  -0.02245,   0.03803,  -0.00001,   0.01169,   0.02438,   0.01365,  -0.00684,  -0.02245,  -0.01757,   0.05559,   0.02730,   0.01657,  -0.01757,   0.03511,   0.03316,  -0.01172,  -0.00294,  -0.01269,  -0.02147,   0.01462,   0.03218,  -0.02635,   0.00877,  -0.00001,   0.02828,  -0.01269,   0.02340,   0.01950,  -0.02635,   0.00682,   0.00487,  -0.01269,  -0.05171,  -0.00294,  -0.01757,  -0.02830,  -0.03318,  -0.00586,   0.00291,  -0.01074,  -0.00099,  -0.01367,  -0.01757,  -0.00001,   0.02047,  -0.00782,  -0.00586,   0.02633,  -0.00391,  -0.06830,   0.01365,  -0.03708,   0.00877,   0.00096,   0.00194,  -0.03220,  -0.00977,  -0.02635,  -0.02537,  -0.01855,  -0.02537,  -0.02147,   0.03608,  -0.06732,  -0.00099,   0.01169,  -0.01660,   0.01267,  -0.00977,   0.00096,  -0.00977,  -0.03220,  -0.00391,   0.01852,   0.01365,  -0.01172,   0.02730,  -0.00391,  -0.02830,   0.01852,  -0.00684,  -0.00684,   0.00682,   0.02340,  -0.01172,   0.02340,   0.00389,   0.02438,  -0.01367,   0.00194,  -0.00879,  -0.03220,  -0.00977,  -0.02342,   0.01169,  -0.01367,   0.01755,  -0.01562,   0.00974,  -0.01367,   0.03120,  -0.00684,   0.02242,  -0.00586,   0.01560,  -0.00001,  -0.00586,   0.01072,  -0.00391,   0.02145,   0.00487,  -0.01269,   0.03316,  -0.04586,   0.01365,  -0.01367,  -0.00782,   0.00779,   0.00682,  -0.01464,   0.00096,  -0.00879,  -0.00684,  -0.00586,  -0.01660,   0.02828,   0.03413,   0.00389,  -0.01367,  -0.03123,   0.01657,   0.01462,   0.02925,  -0.02830,  -0.00099,  -0.01562,   0.01365,   0.02535,  -0.00489,  -0.00196,   0.02535,  -0.03513,  -0.00586,   0.02242,   0.01365,   0.03316,  -0.04098,   0.00584,  -0.01855,   0.02633
  -0.01855,   0.01365,  -0.01074,  -0.04001,  -0.00099,   0.01365,  -0.00099,  -0.00391,   0.02340,  -0.02635,  -0.00001,  -0.04293,  -0.03318,  -0.01367,  -0.00001,  -0.02733,  -0.02733,  -0.00879,   0.03608,  -0.00782,   0.00194,  -0.01562,  -0.00391,  -0.02635,  -0.03513,   0.01365,  -0.00099,  -0.01757,   0.01462,  -0.03903,  -0.00001,  -0.02733,  -0.01464,  -0.00294,  -0.04391,  -0.00879,  -0.02733,   0.00389,  -0.00099,   0.00779,  -0.04488,   0.00974,  -0.00489,   0.00291,   0.01169,  -0.03806,   0.01950,  -0.01367,  -0.01855,   0.00974,   0.00584,   0.00584,   0.01462,  -0.00586,   0.00779,   0.03023,   0.00877,  -0.01464,  -0.00001,  -0.00684,  -0.04293,   0.00096,  -0.00586,   0.04193,   0.02438,  -0.01464,   0.00974,  -0.02537,   0.03316,  -0.01952,   0.02633,  -0.00099,   0.00389,  -0.00391,  -0.01757,  -0.03415,  -0.00196,   0.03316,  -0.00489,  -0.03708,   0.01169,  -0.04488,  -0.00099,  -0.00684,   0.00974,   0.00584,   0.00194,  -0.00391,   0.00096,  -0.02733,   0.00487,  -0.01367,  -0.02050,  -0.01172,   0.02925,   0.00779,  -0.03611,  -0.02635,  -0.00294,  -0.01464,   0.02730,  -0.01269,  -0.01562,  -0.01464,  -0.02050,   0.01169,  -0.01367,   0.00291,   0.00974,   0.01755,  -0.03220,   0.01169,  -0.00294,  -0.00391,   0.01462,  -0.00196,   0.02438,  -0.00001,   0.00682,  -0.00782,   0.02145,   0.02828,  -0.02440,   0.01267,   0.00584,   0.02340,   0.00974,   0.02242,  -0.01952,  -0.00684,   0.02730,   0.01852,   0.02340,  -0.01464,  -0.00099,  -0.01269,  -0.01660,  -0.01562,   0.01852,  -0.00294,  -0.03903,   0.00194,  -0.04001,   0.05267,   0.00974,   0.00194,   0.01560,   0.01267,   0.02145,   0.00779,  -0.02733,  -0.00001,   0.00487,  -0.00684,  -0.01074,  -0.03318,  -0.01757,  -0.00782,  -0.00391,  -0.02537,  -0.01952,   0.00779,   0.00194,  -0.02440,  -0.02147,   0.00584,  -0.02635,  -0.01952,   0.01365,  -0.03806,   0.03023,  -0.02537,  -0.01074,  -0.01074,   0.02242,   0.01560,   0.01560,   0.01755,  -0.04293,   0.00096,  -0.00586,  -0.02928,  -0.00001,   0.00096,  -0.00782,   0.02145,  -0.02635,  -0.01464,  -0.00196,   0.01169,  -0.02147,  -0.00489,   0.02828,   0.00291,   0.00291,  -0.02440,  -0.02733,  -0.02635,  -0.00099,  -0.00684,  -0.03903,   0.01267,  -0.03123,  -0.02147,   0.00682,   0.01169,   0.01462,   0.00779,  -0.03220,   0.00974,  -0.02342,  -0.01172,   0.01657,  -0.00586,   0.01365,   0.01852,  -0.01952,  -0.02440,   0.02242,   0.00682,   0.03608,   0.02145,  -0.00684,   0.00682,   0.00194,  -0.01074,  -0.00099,   0.02145,  -0.02635,  -0.00001,  -0.01952,   0.01852,  -0.00391,  -0.01074,   0.01852,   0.00877,  -0.02342,   0.03023,   0.00682,   0.00974,  -0.01757,   0.00096,  -0.00391,  -0.00391,  -0.01562,   0.01657,  -0.00489,   0.00584,  -0.01074,   0.00096,  -0.00586,   0.02242,  -0.01952,  -0.02537,  -0.00001,   0.01169
  -0.00879,  -0.02147,  -0.00879,  -0.00391,  -0.02830,  -0.02342,  -0.02342,   0.02340,  -0.00099,   0.04584,   0.03901,  -0.00684,  -0.00879,   0.01365,  -0.01367,   0.02633,   0.00096,  -0.02733,   0.02535,   0.02828,  -0.00684,  -0.00586,   0.01950,  -0.03025,   0.01950,  -0.00001,  -0.01172,  -0.00099,  -0.03415,  -0.00391,  -0.01952,   0.01169,  -0.01952,  -0.02245,   0.00877,  -0.00879,  -0.01172,   0.03120,  -0.02050,   0.01365,  -0.01952,  -0.02147,  -0.01269,  -0.01367,  -0.02537,  -0.03025,   0.02242,   0.01365,  -0.01172,   0.04486,   0.00389,  -0.00879,  -0.01660,  -0.06342,  -0.01660,  -0.02830,  -0.04098,   0.00682,   0.03023,  -0.01952,  -0.00782,  -0.02537,  -0.00391,  -0.00684,  -0.01660,  -0.01464,   0.01365,  -0.02342,  -0.00294,   0.02340,  -0.03708,  -0.00294,   0.02633,   0.01365,   0.01852,   0.02730,  -0.00196,   0.02535,  -0.00586,   0.01169,  -0.04001,  -0.01757,   0.00291,   0.03803,  -0.04976,  -0.04098,  -0.05757,   0.01072,  -0.02635,   0.01462,   0.00096,  -0.01367,   0.02438,  -0.03806,  -0.01952,   0.00096,  -0.01660,  -0.01269,   0.00291,  -0.01757,  -0.00782,  -0.00294,   0.02828,  -0.01660,  -0.04781,  -0.03123,   0.01657,   0.04876,  -0.00099,   0.00096,  -0.03806,  -0.01952,   0.03608,  -0.02440,   0.00389,  -0.01172,   0.00877,   0.00389,   0.03511,  -0.02147,  -0.02050,  -0.00684,  -0.01172,   0.00682,  -0.01855,   0.02535,  -0.00977,  -0.00879,  -0.03903,   0.01950,   0.00779,  -0.03903,   0.00974,  -0.03415,   0.00194,   0.00096,  -0.03123,   0.04974,  -0.04098,  -0.00684,   0.01560,   0.03608,  -0.01464,   0.03901,   0.00194,  -0.00001,  -0.03123,  -0.00196,  -0.02245,  -0.02147,  -0.00294,   0.04681,   0.00389,  -0.00586,   0.01072,   0.00096,  -0.00001,  -0.00879,   0.02145,  -0.00489,   0.03413,   0.00389,  -0.00879,   0.02145,   0.00974,   0.00779,  -0.00001,   0.01657,  -0.04001,   0.07218,  -0.00782,   0.06925,   0.00877,   0.04974,   0.00584,   0.02828,   0.02925,   0.01852,   0.02633,  -0.00586,   0.00682,  -0.02147,   0.00389,  -0.01757,  -0.01172,   0.03316,  -0.06244,  -0.03123,   0.06730,   0.01657,  -0.01367,   0.02438,  -0.01464,   0.02145,   0.01169,   0.04193,   0.02828,   0.01072,   0.00682,   0.02828,   0.03998,  -0.03513,  -0.01464,   0.00096,   0.02925,   0.02438,   0.01950,   0.02438,   0.06827,  -0.03806,  -0.00294,  -0.00879,  -0.00196,   0.01560,  -0.01757,   0.01560,  -0.00294,  -0.02733,  -0.01855,   0.03023,   0.00584,  -0.03611,   0.02438,  -0.02635,   0.00291,   0.00487,  -0.01660,  -0.01855,  -0.01562,  -0.02147,  -0.01757,  -0.01269,  -0.04001,   0.02925,   0.00682,  -0.01269,  -0.00196,  -0.03415,  -0.02537,   0.00779,   0.01560,  -0.03318,  -0.00879,   0.00389,  -0.00099,   0.01267,  -0.00586,  -0.01855,   0.02535,  -0.04098,  -0.02050,  -0.00391,   0.01755,   0.00779,   0.01072,  -0.01757
  -0.03708,   0.00487,  -0.00489,   0.00291,  -0.00879,   0.01657,  -0.00586,  -0.02147,   0.01852,   0.01755,  -0.06439,   0.04291,  -0.02537,  -0.06439,   0.02340,   0.00096,   0.02828,  -0.02245,  -0.01855,   0.01950,  -0.01172,  -0.00879,   0.04779,  -0.03318,  -0.00391,  -0.01464,  -0.00196,  -0.00196,   0.01365,  -0.03318,   0.02535,  -0.00001,  -0.02050,   0.02340,  -0.02245,  -0.02050,  -0.00684,   0.00974,   0.01365,  -0.01660,  -0.00977,   0.01267,   0.00584,  -0.00684,   0.02340,  -0.01269,   0.01267,  -0.00684,  -0.02050,   0.02730,  -0.01757,   0.00584,  -0.00489,   0.03316,  -0.00489,  -0.00782,  -0.01562,   0.00974,   0.02633,  -0.01952,   0.00682,  -0.00391,  -0.00294,   0.01365,  -0.00782,  -0.00001,   0.02145,   0.02242,  -0.03415,  -0.01562,  -0.03806,  -0.03513,  -0.03806,   0.00389,   0.02340,   0.01267,   0.03706,  -0.00294,  -0.04684,  -0.02635,   0.00194,   0.02828,  -0.00879,  -0.00489,  -0.02342,   0.02340,   0.01950,   0.00096,  -0.01172,  -0.01074,   0.00682,   0.02145,   0.02242,  -0.03220,   0.02535,  -0.02050,  -0.00684,   0.03316,  -0.02147,   0.00194,  -0.02928,  -0.02147,  -0.01172,   0.01072,  -0.00294,  -0.02635,  -0.02928,   0.04193,   0.01755,   0.00096,   0.08291,  -0.00684,  -0.00684,  -0.01464,   0.02828,  -0.02537,  -0.00489,   0.04193,  -0.01269,   0.02925,  -0.01562,  -0.01464,   0.01267,   0.00194,  -0.02245,   0.01267,   0.02047,  -0.02928,  -0.00684,  -0.01172,  -0.00391,   0.02340,   0.00877,   0.00682,  -0.05562,   0.01267,  -0.02147,  -0.05269,  -0.02440,  -0.01660,  -0.02635,  -0.05074,   0.01950,  -0.01074,   0.02438,  -0.01660,  -0.00684,  -0.01464,   0.04779,   0.02047,  -0.00782,  -0.00977,   0.01267,  -0.01367,  -0.02245,   0.03608,   0.00194,   0.00974,  -0.01855,   0.01169,  -0.00294,   0.00194,  -0.00586,   0.02828,  -0.00001,  -0.02537,   0.00487,  -0.01562,   0.00096,   0.00779,  -0.02733,  -0.02537,   0.00096,  -0.03513,  -0.02537,   0.00194,  -0.01562,   0.01950,   0.02828,   0.03316,  -0.03806,   0.03120,   0.00779,  -0.00099,  -0.01172,   0.00974,   0.00974,   0.01169,  -0.00099,  -0.03903,   0.02633,   0.04193,  -0.03220,   0.00779,   0.02828,   0.02730,   0.02145,  -0.01464,   0.02633,   0.02047,  -0.02830,  -0.01074,   0.02145,  -0.02342,   0.01950,  -0.01074,  -0.03220,  -0.01367,  -0.01074,  -0.00489,  -0.02147,   0.01755,  -0.04586,  -0.01269,  -0.00099,   0.00584,   0.03316,   0.00779,  -0.02342,   0.00389,   0.00194,  -0.01464,  -0.00586,   0.01462,   0.03218,   0.00487,  -0.04488,  -0.02635,  -0.02635,  -0.00294,  -0.00196,  -0.02928,  -0.02342,  -0.00586,  -0.01269,  -0.04196,   0.02828,   0.04291,   0.00584,  -0.00586,  -0.00782,   0.01267,   0.03511,   0.02242,  -0.00879,   0.00584,  -0.05074,  -0.02635,   0.02925,  -0.00586,   0.00194,   0.00194,   0.00779,  -0.00489,   0.00682,   0.03218
   0.00779,   0.01462,   0.03023,   0.00291,  -0.00879,  -0.00196,  -0.00879,   0.01169,  -0.02537,   0.03706,   0.00584,   0.02925,   0.00974,  -0.04001,  -0.01269,  -0.06244,  -0.01367,   0.00096,   0.01169,  -0.02245,   0.03023,  -0.04098,  -0.00782,   0.03413,   0.03608,   0.02438,  -0.00001,   0.00682,   0.02438,   0.03998,  -0.00196,   0.00194,  -0.00684,   0.01852,  -0.00099,  -0.00196,  -0.01757,  -0.00782,  -0.01562,  -0.01855,   0.02535,  -0.02147,   0.02438,   0.00779,  -0.01464,  -0.00391,  -0.01464,   0.02730,  -0.00001,   0.01560,   0.00389,  -0.00782,   0.00194,   0.00877,  -0.03025,   0.02047,  -0.00586,  -0.03708,  -0.02733,   0.01169,   0.05169,   0.01560,  -0.01464,   0.00682,   0.00487,   0.03511,   0.00291,   0.02535,  -0.04001,   0.02145,   0.05462,  -0.00294,   0.00487,  -0.03415,  -0.02733,  -0.01660,  -0.00684,   0.01072,  -0.00684,  -0.00294,   0.03706,  -0.02147,  -0.00489,   0.00487,   0.02242,  -0.00684,  -0.00001,  -0.03025,  -0.00489,  -0.00001,   0.00487,   0.00584,  -0.00879,   0.01072,   0.02047,   0.02145,   0.03023,   0.01169,   0.01462,   0.02438,   0.05852,   0.02047,   0.02047,   0.02925,  -0.01660,  -0.02147,  -0.04976,   0.04681,  -0.02050,   0.03901,  -0.04781,   0.02047,   0.02145,  -0.03513,   0.01365,   0.05169,  -0.04001,   0.04681,  -0.02537,  -0.01074,  -0.01952,  -0.00586,   0.00194,  -0.03318,  -0.04781,   0.02730,  -0.00294,  -0.04391,  -0.03123,   0.00487,   0.03023,  -0.00099,  -0.02147,   0.00974,   0.01560,   0.01267,  -0.01464,   0.01267,   0.01560,  -0.00782,   0.00974,   0.01950,  -0.01269,   0.03413,  -0.02050,   0.00584,   0.00779,   0.01755,  -0.03123,   0.00194,  -0.01562,   0.02340,   0.00584,   0.01560,  -0.01562,  -0.01855,   0.02730,  -0.03123,  -0.02245,  -0.00196,  -0.03806,  -0.03708,   0.01755,  -0.01757,   0.03901,  -0.00294,  -0.02245,   0.03511,  -0.03806,   0.03120,   0.01950,  -0.00294,  -0.00001,  -0.03318,   0.04096,  -0.01660,   0.00584,   0.03023,   0.00682,  -0.00586,   0.02633,   0.01560,   0.02828,  -0.00586,  -0.02245,  -0.00294,  -0.03220,  -0.00684,   0.08388,  -0.04001,  -0.00196,   0.01169,   0.00974,  -0.00782,   0.02242,  -0.00001,   0.01169,   0.02340,   0.02438,   0.03511,  -0.00586,  -0.01562,  -0.05171,   0.00194,  -0.04196,   0.03218,  -0.02733,   0.00779,  -0.04976,   0.00779,  -0.04684,   0.04096,   0.03511,  -0.01952,  -0.00294,   0.00194,  -0.00879,   0.00877,   0.02242,   0.02633,   0.01267,   0.00389,  -0.01952,   0.01267,  -0.00391,  -0.02245,  -0.01074,   0.02828,  -0.00001,  -0.05562,   0.00291,   0.04681,  -0.02147,   0.01072,   0.00487,  -0.02537,   0.00584,   0.00682,   0.01365,   0.01560,   0.00877,  -0.03611,  -0.00294,   0.01267,   0.02925,  -0.00391,  -0.00099,   0.00974,  -0.00294,   0.02633,  -0.04391,   0.00096,   0.01950,  -0.00977,   0.01755,   0.00096
   0.05267,   0.00584,  -0.00196,   0.03413,   0.00974,   0.00487,   0.03218,  -0.00099,  -0.00294,  -0.04293,  -0.01855,   0.00682,  -0.04001,  -0.01269,  -0.04391,   0.00584,   0.04779,  -0.01074,  -0.00782,   0.03608,   0.01755,   0.01365,  -0.01074,   0.00584,   0.00389,   0.01462,  -0.05464,  -0.02440,   0.02145,  -0.02635,  -0.01562,  -0.03415,  -0.00684,   0.02535,   0.02145,  -0.00001,   0.01267,   0.00682,  -0.04196,  -0.01660,  -0.04684,   0.01267,  -0.02245,  -0.00196,   0.00291,  -0.05366,   0.01365,   0.04096,   0.00291,  -0.02635,   0.03316,  -0.02050,   0.03023,  -0.07122,  -0.05171,   0.00194,  -0.00782,   0.00584,   0.03706,   0.00487,   0.00877,   0.03218,   0.04584,   0.01267,   0.00779,   0.02730,  -0.00001,  -0.02245,   0.01462,  -0.04976,   0.03316,  -0.03220,  -0.04196,  -0.00196,   0.02633,   0.01267,  -0.00782,   0.00389,   0.02145,  -0.01562,  -0.01757,  -0.00879,  -0.01464,  -0.01952,   0.02242,  -0.00001,   0.01950,  -0.01855,   0.00194,  -0.01464,   0.00584,   0.03120,   0.01169,   0.03413,   0.01950,   0.03413,  -0.00099,  -0.01074,  -0.02050,  -0.01952,  -0.01464,  -0.00586,  -0.02830,  -0.00782,   0.01072,  -0.00977,   0.02145,  -0.04488,   0.00877,   0.00584,   0.04096,  -0.03025,  -0.01757,  -0.04098,  -0.00684,   0.01657,   0.00389,  -0.01757,  -0.04586,   0.01169,  -0.00196,   0.03998,  -0.00001,   0.02828,   0.02145,  -0.05464,  -0.01464,  -0.02928,  -0.01952,  -0.01757,  -0.01269,  -0.04001,  -0.01269,   0.00487,  -0.02147,   0.02047,  -0.00782,  -0.01172,   0.03023,  -0.07220,   0.01852,  -0.01367,  -0.00782,   0.00291,  -0.00684,  -0.05366,  -0.06049,  -0.02245,   0.00974,  -0.01562,  -0.00684,   0.01365,  -0.01660,  -0.01074,  -0.01269,  -0.00879,   0.04779,   0.02145,  -0.01074,   0.01560,  -0.01367,  -0.01952,   0.00487,  -0.00782,  -0.04001,  -0.01464,  -0.01367,  -0.01562,  -0.00391,  -0.05074,  -0.00196,  -0.00684,  -0.02733,  -0.00294,   0.02047,  -0.03025,   0.00779,   0.00779,   0.00682,   0.00584,   0.00389,  -0.01464,  -0.03123,  -0.04976,   0.02925,   0.00096,  -0.00586,   0.01560,   0.01560,  -0.01855,  -0.01074,  -0.01269,  -0.01464,   0.04389,   0.00779,  -0.00196,   0.00096,  -0.04684,   0.00291,  -0.00879,   0.01365,  -0.01464,   0.00584,   0.01365,  -0.00196,   0.00779,  -0.00391,  -0.01367,  -0.01172,   0.02145,  -0.04098,   0.01169,  -0.00001,   0.01462,  -0.03025,   0.02145,   0.00779,   0.00877,  -0.00294,   0.05462,  -0.00099,   0.04779,   0.00487,  -0.02050,  -0.07513,  -0.01367,  -0.00001,   0.02828,  -0.02147,  -0.03220,  -0.00977,  -0.03611,   0.01267,   0.01365,   0.01852,   0.01657,  -0.04391,   0.00682,  -0.01562,  -0.00001,  -0.06244,  -0.01074,   0.00584,   0.03120,   0.00291,  -0.00489,  -0.04098,  -0.00586,  -0.00294,   0.00974,  -0.02342,  -0.01952,   0.00389,   0.01560,  -0.02635,  -0.03513
  -0.01562,   0.08583,   0.02242,   0.00584,  -0.01562,   0.00096,  -0.00684,  -0.00099,   0.02145,   0.00877,   0.01169,   0.03803,  -0.02537,   0.01365,  -0.01269,   0.01852,   0.01852,  -0.01172,  -0.03415,   0.03316,   0.01852,  -0.03513,  -0.00294,   0.04779,  -0.01464,   0.00487,   0.04876,  -0.00879,   0.00877,  -0.02245,   0.00389,   0.04876,   0.01657,   0.00682,   0.00682,   0.01267,   0.02145,  -0.01855,   0.02633,   0.00779,   0.00682,  -0.00489,   0.02047,   0.02145,  -0.04391,   0.02047,   0.01755,  -0.03220,  -0.02440,  -0.01269,  -0.03415,   0.01560,  -0.00196,  -0.05757,  -0.01269,  -0.02928,  -0.01269,   0.02438,   0.03413,   0.00877,  -0.04684,  -0.02342,   0.01560,  -0.01855,   0.00682,  -0.03708,  -0.02245,   0.00194,   0.02242,   0.00096,   0.01072,  -0.05171,   0.01755,   0.02047,   0.00194,   0.00877,  -0.02928,  -0.02342,   0.00389,  -0.02050,   0.01462,  -0.00684,   0.03316,  -0.03611,  -0.02733,  -0.00977,  -0.03318,   0.00584,  -0.03708,  -0.00489,  -0.01269,  -0.00196,  -0.05171,  -0.00489,   0.01169,  -0.03611,  -0.00196,   0.01950,  -0.01855,  -0.00196,  -0.02342,   0.00877,  -0.00001,   0.02145,  -0.00684,   0.01072,   0.00194,   0.02438,   0.00194,  -0.02733,  -0.04586,  -0.00586,  -0.00586,  -0.02537,   0.01365,  -0.00782,  -0.00001,  -0.01952,   0.03316,  -0.00879,  -0.02147,   0.03120,  -0.02830,  -0.00391,  -0.00001,   0.00974,  -0.00684,   0.01169,   0.00877,   0.02242,  -0.02342,  -0.00879,  -0.02928,   0.00682,   0.00096,   0.01169,   0.01755,  -0.04196,   0.05267,  -0.00977,  -0.01757,  -0.00684,  -0.01464,   0.01560,   0.02925,  -0.00001,   0.01657,   0.02242,   0.02047,  -0.03318,  -0.00391,   0.00194,  -0.02440,  -0.03318,  -0.02147,  -0.03123,   0.01169,  -0.01074,   0.02535,  -0.01074,   0.02828,  -0.01952,  -0.01757,   0.02145,   0.01852,  -0.00586,  -0.02050,  -0.00977,  -0.00391,  -0.00879,  -0.02440,   0.00779,   0.05462,  -0.00196,   0.02535,   0.01560,   0.01365,   0.01755,   0.00487,  -0.04488,  -0.01269,   0.00584,   0.01462,  -0.00586,   0.01657,  -0.05464,  -0.03318,  -0.02050,   0.01072,   0.04291,  -0.00196,  -0.00977,   0.02828,  -0.03318,   0.01657,  -0.01269,   0.00389,  -0.03123,   0.02925,  -0.00489,   0.01365,  -0.03415,   0.01169,   0.03413,   0.01560,   0.03803,   0.02438,  -0.04098,   0.02730,   0.02242,  -0.00001,   0.00877,   0.04389,   0.01657,   0.04193,  -0.02245,  -0.01660,  -0.00782,  -0.02635,   0.01072,  -0.01464,   0.03023,   0.01365,   0.02535,  -0.02635,  -0.03220,  -0.06927,  -0.01269,   0.03316,  -0.02733,  -0.03025,   0.01950,   0.00877,   0.01657,   0.00682,  -0.01562,  -0.04196,   0.04389,  -0.02830,   0.01462,   0.00877,  -0.02635,  -0.03220,   0.00877,  -0.00684,  -0.01172,  -0.00586,   0.03413,  -0.03220,  -0.00879,  -0.04293,  -0.02342,   0.00877,  -0.04098,   0.01365,  -0.00879
  -0.02537,   0.02438,  -0.00099,  -0.04488,  -0.00001,  -0.02733,   0.00584,  -0.00099,  -0.04879,  -0.02147,   0.02633,   0.01657,  -0.04196,  -0.00489,  -0.05269,   0.01950,   0.04584,  -0.03708,  -0.02635,  -0.00099,  -0.02537,   0.00779,   0.01267,   0.01462,  -0.01074,  -0.01269,  -0.02245,  -0.02928,  -0.00099,  -0.01074,   0.02340,  -0.03415,   0.01169,   0.03120,  -0.02440,  -0.00099,   0.01365,   0.01169,  -0.00294,  -0.00294,   0.00779,   0.03998,   0.00682,  -0.00782,   0.01462,  -0.06244,  -0.00196,   0.02535,   0.01267,   0.04876,  -0.03513,   0.00584,   0.03120,   0.00974,  -0.01757,   0.01657,  -0.03513,   0.01267,  -0.03903,  -0.06439,  -0.00489,   0.01852,   0.00779,  -0.00684,   0.02438,   0.00682,  -0.02440,   0.04291,   0.02633,  -0.02147,  -0.03415,  -0.01172,  -0.01757,   0.02438,  -0.01562,  -0.02440,  -0.00586,   0.01560,  -0.03903,  -0.06147,  -0.03513,  -0.00001,  -0.03025,  -0.02342,   0.00877,   0.04096,   0.03803,   0.02828,  -0.03123,   0.01462,  -0.00489,   0.00194,   0.01950,   0.01755,   0.00291,  -0.00391,   0.03706,  -0.02733,  -0.02537,  -0.05464,   0.01169,  -0.01757,  -0.02342,  -0.00489,   0.00291,   0.01950,   0.01169,  -0.04684,  -0.01855,  -0.00391,  -0.02245,  -0.06049,   0.00877,  -0.02342,   0.02145,  -0.00879,   0.00682,   0.00194,  -0.00001,  -0.00099,  -0.06049,  -0.01855,  -0.00684,  -0.01172,  -0.01172,  -0.00196,   0.02438,   0.01755,  -0.02147,   0.00974,  -0.02342,   0.01267,   0.00291,   0.01657,   0.01072,   0.03120,   0.00682,  -0.01562,  -0.01074,   0.02047,   0.03413,   0.01657,   0.03218,   0.02438,  -0.03025,  -0.03025,  -0.05171,  -0.03220,  -0.00391,  -0.02440,   0.00291,  -0.00391,   0.01072,  -0.01367,   0.01462,   0.01560,  -0.01172,   0.01755,   0.03413,  -0.03806,  -0.02440,   0.02633,  -0.01855,  -0.02537,   0.02828,  -0.04391,   0.04876,  -0.01855,   0.00487,  -0.03025,   0.00877,  -0.02928,   0.00389,   0.03706,   0.00487,  -0.00099,   0.00877,   0.01072,   0.01365,  -0.04293,   0.01755,   0.02438,  -0.02245,  -0.01074,   0.04876,  -0.01172,  -0.02245,  -0.00196,  -0.04196,  -0.02342,   0.01560,  -0.01464,  -0.00196,   0.01560,  -0.00391,  -0.01367,  -0.01269,   0.02340,  -0.01074,  -0.01172,  -0.00196,   0.00974,  -0.00782,   0.00877,  -0.04781,  -0.00684,  -0.00294,  -0.02733,  -0.00489,   0.03023,   0.01852,   0.01072,  -0.00196,  -0.03220,  -0.01074,   0.01852,   0.02633,  -0.02733,   0.03413,   0.02242,  -0.02830,  -0.00977,   0.02828,   0.02438,  -0.01464,  -0.01269,  -0.02147,   0.00877,   0.02828,  -0.00879,   0.01365,   0.00682,   0.01169,   0.01755,   0.08583,   0.00584,  -0.01855,  -0.01952,  -0.05074,  -0.02830,  -0.05366,  -0.01464,  -0.00196,   0.05559,   0.04974,  -0.04001,   0.01657,   0.02633,  -0.04586,  -0.05366,  -0.03903,  -0.01172,  -0.02147,   0.00291,  -0.00001,  -0.00782
   0.01950,   0.01560,   0.00487,   0.01365,  -0.01855,  -0.00586,   0.02925,   0.03120,  -0.00196,   0.00779,  -0.01269,   0.02047,   0.01365,   0.00877,  -0.02830,  -0.00879,   0.01267,  -0.03025,  -0.00489,  -0.01855,  -0.02635,   0.01169,   0.00877,  -0.00294,  -0.01660,   0.02340,   0.01852,  -0.01660,   0.04291,  -0.00391,   0.00877,   0.00877,  -0.03220,   0.02438,   0.00194,  -0.01464,  -0.03220,  -0.02147,   0.00194,  -0.03318,   0.00096,   0.03608,   0.02340,  -0.00001,  -0.02147,  -0.01757,   0.02730,   0.01755,   0.03316,  -0.03123,   0.02925,   0.01169,   0.00487,  -0.00294,  -0.01952,   0.01950,   0.01462,   0.00584,   0.02145,   0.01950,  -0.00391,  -0.00391,  -0.00294,  -0.04098,  -0.00196,   0.00584,  -0.01269,   0.00487,   0.02828,   0.01755,   0.01657,  -0.02928,  -0.02830,   0.00194,   0.05267,   0.00584,  -0.01269,   0.01267,   0.01169,  -0.05854,   0.02925,   0.00096,  -0.00586,  -0.00977,   0.00682,   0.04876,  -0.06147,  -0.02635,  -0.02733,   0.00682,   0.01267,   0.06242,  -0.00879,  -0.00586,   0.00974,   0.01169,  -0.00391,  -0.04488,   0.03511,  -0.02440,   0.00682,   0.04876,  -0.00782,  -0.02147,   0.03023,  -0.01660,   0.00096,  -0.03708,  -0.01757,  -0.00391,   0.02730,  -0.00782,   0.00291,   0.00487,   0.01852,   0.02925,  -0.01562,  -0.00684,  -0.03415,  -0.00977,  -0.02050,   0.00974,   0.00974,   0.00487,   0.03120,  -0.02245,  -0.00684,  -0.00879,  -0.00489,  -0.04879,   0.01852,  -0.05269,  -0.02440,   0.01462,  -0.01952,   0.07218,  -0.00684,   0.00389,  -0.00001,   0.02242,   0.02438,  -0.00001,  -0.00782,   0.03608,   0.00487,   0.00096,  -0.03220,   0.01462,   0.00389,  -0.01367,  -0.01367,  -0.00684,  -0.01367,   0.00096,   0.04681,   0.00389,   0.03023,   0.00487,   0.01560,  -0.03611,  -0.03415,   0.02535,   0.04193,  -0.00489,   0.01852,  -0.01172,  -0.01367,   0.01267,   0.02047,  -0.03903,  -0.01562,  -0.01269,   0.00389,  -0.02635,  -0.02147,   0.00389,   0.02340,  -0.00099,   0.03608,   0.02145,   0.00584,  -0.03025,   0.02438,   0.02730,  -0.01660,  -0.01172,  -0.00391,   0.03023,  -0.04098,  -0.01367,  -0.04098,  -0.00196,  -0.04001,   0.02145,  -0.00977,   0.01560,   0.02828,   0.01072,  -0.01172,  -0.00879,   0.01169,   0.00877,  -0.00684,  -0.01367,   0.02730,  -0.00586,  -0.00294,  -0.02537,   0.00487,   0.03608,   0.01169,  -0.07513,  -0.01269,  -0.00294,  -0.01367,  -0.01660,  -0.01172,  -0.01074,  -0.04391,   0.01267,  -0.05659,  -0.01464,  -0.00684,   0.04389,   0.02925,  -0.03611,  -0.03318,  -0.02440,  -0.01660,   0.02535,   0.03511,  -0.01172,   0.03511,   0.02242,  -0.03415,  -0.00391,   0.02047,   0.04389,   0.03706,  -0.01074,  -0.04781,   0.06925,  -0.02830,  -0.02635,  -0.02635,  -0.04001,  -0.05757,   0.01560,   0.00291,   0.03218,   0.02535,   0.02730,   0.03316,  -0.03220,   0.02145,  -0.00001
   0.01657,   0.03706,   0.00682,   0.02340,  -0.01757,  -0.00586,   0.03023,   0.01072,  -0.02245,  -0.00099,  -0.01855,   0.02438,  -0.03220,  -0.00782,  -0.00684,   0.00096,  -0.00586,   0.01169,   0.01169,   0.01365,   0.00779,   0.00682,  -0.01074,  -0.00001,  -0.00684,   0.00291,  -0.04879,  -0.03513,  -0.00391,  -0.01952,  -0.00196,   0.00584,  -0.00782,   0.04291,   0.02047,   0.00389,   0.00096,   0.05754,  -0.00489,   0.00291,  -0.03903,   0.04096,  -0.01562,   0.00194,  -0.00001,   0.03316,   0.00974,   0.04389,   0.03218,   0.02730,   0.01267,   0.00779,   0.02535,   0.01365,   0.03023,  -0.00489,   0.01072,  -0.04001,  -0.00391,   0.04389,  -0.00099,   0.03413,  -0.00489,  -0.00001,   0.02730,  -0.00586,  -0.02928,   0.00389,   0.00291,  -0.00099,   0.01950,  -0.02733,   0.00877,   0.00877,  -0.03903,  -0.00489,  -0.03318,   0.03413,  -0.03025,   0.03316,   0.00877,   0.00779,   0.00877,   0.03413,   0.01657,   0.02438,  -0.01757,  -0.01855,  -0.02635,  -0.02245,   0.02633,  -0.00684,   0.00584,   0.03901,   0.05169,  -0.01757,  -0.01367,  -0.03318,  -0.02830,   0.00291,  -0.00001,  -0.00977,   0.03120,   0.03218,  -0.02050,  -0.02147,  -0.04879,  -0.02050,   0.01852,   0.03706,  -0.05562,  -0.04586,   0.01462,   0.00584,   0.03120,   0.05559,   0.02340,  -0.00099,  -0.00099,  -0.00977,  -0.03903,  -0.04586,  -0.01562,   0.00487,  -0.02245,   0.01462,  -0.00391,  -0.00684,   0.03413,   0.03120,   0.00974,   0.03608,  -0.00489,  -0.01172,   0.02828,   0.03023,   0.01072,   0.00487,  -0.01757,  -0.03611,  -0.05366,   0.00779,  -0.02537,  -0.00586,  -0.00196,   0.02535,  -0.00586,  -0.02147,   0.00389,  -0.01074,  -0.03318,   0.03120,  -0.01367,  -0.01074,  -0.00196,  -0.04586,   0.01657,   0.01657,  -0.00782,  -0.02537,  -0.02635,  -0.02537,  -0.02733,   0.00487,  -0.00391,  -0.01269,  -0.01855,  -0.03025,  -0.01952,  -0.01172,   0.00682,   0.01560,  -0.00586,   0.00096,   0.00096,  -0.01464,  -0.01269,   0.04291,  -0.04976,   0.00779,  -0.00099,   0.00584,  -0.01172,  -0.00294,  -0.00879,  -0.02342,  -0.00879,  -0.01269,   0.01755,   0.00389,   0.03803,   0.00096,   0.01462,   0.03316,   0.02242,  -0.00879,   0.00487,  -0.01855,  -0.05074,  -0.04391,  -0.02050,  -0.00099,  -0.03318,  -0.00879,   0.01169,  -0.00001,   0.07218,  -0.01952,  -0.00684,   0.00877,   0.02145,   0.00974,  -0.03220,   0.01560,   0.03413,  -0.01074,  -0.01464,   0.01950,   0.01462,   0.01072,  -0.00294,   0.00877,  -0.00489,   0.00779,  -0.02050,   0.02047,  -0.01464,   0.03120,   0.02340,   0.02145,  -0.00684,   0.02633,  -0.00977,   0.00389,  -0.01757,  -0.00099,   0.00584,  -0.01367,  -0.00879,   0.00096,   0.05559,  -0.00391,   0.01365,   0.02828,   0.02633,  -0.00294,  -0.00684,  -0.01464,  -0.02050,   0.00779,   0.04779,  -0.01367,  -0.04001,   0.00194,   0.01267,   0.01755
   0.02730,   0.02828,   0.02730,   0.02925,  -0.01757,   0.05462,   0.00096,   0.03608,   0.00877,  -0.01757,   0.02047,   0.02633,  -0.03708,   0.03316,  -0.01855,  -0.01269,  -0.00099,   0.04193,   0.02925,  -0.06342,   0.01267,  -0.02635,  -0.00489,   0.04876,  -0.01660,   0.00682,   0.01462,   0.03413,   0.02438,   0.03023,   0.05267,   0.03120,  -0.00586,  -0.01855,   0.01072,   0.02730,  -0.06342,  -0.00586,   0.02047,  -0.00977,   0.00194,   0.04779,  -0.00294,   0.05267,   0.00096,   0.01365,   0.00389,  -0.00196,   0.05364,   0.00194,  -0.00391,   0.01462,  -0.01855,   0.00096,  -0.00294,  -0.01367,  -0.00001,  -0.05854,  -0.00782,   0.01462,  -0.01464,   0.00194,   0.00877,  -0.00879,  -0.00294,   0.01169,   0.01267,   0.00682,  -0.02050,   0.03023,   0.02047,   0.03511,   0.03023,  -0.01855,   0.01365,   0.01657,   0.00389,  -0.00782,  -0.08195,   0.01267,   0.00779,   0.02730,  -0.00977,  -0.01757,  -0.00879,  -0.01660,   0.04096,  -0.02147,  -0.03318,  -0.01074,   0.02340,  -0.01757,  -0.00099,   0.02828,   0.01072,   0.00291,   0.03023,   0.06730,  -0.04976,   0.06047,  -0.00489,  -0.00782,  -0.00099,  -0.03903,   0.03413,  -0.00001,  -0.01367,   0.07900,   0.01755,   0.01950,  -0.00684,   0.02828,  -0.02245,   0.01950,   0.02730,  -0.03025,  -0.05464,  -0.00099,  -0.03611,   0.03413,   0.05462,  -0.02830,   0.03803,  -0.00099,  -0.00391,   0.01169,  -0.00879,  -0.03025,   0.01560,  -0.03220,  -0.00782,  -0.01464,  -0.05464,   0.00194,   0.02340,   0.01852,  -0.00782,  -0.01562,  -0.00294,   0.02633,  -0.00782,   0.01072,  -0.01269,   0.01950,   0.00291,   0.03901,   0.03218,   0.03608,  -0.02537,   0.03706,  -0.00977,  -0.03220,   0.01755,   0.04584,  -0.06147,  -0.02635,  -0.01855,  -0.03318,  -0.03025,  -0.00391,  -0.00294,  -0.00684,   0.02242,  -0.02537,  -0.02830,  -0.00586,  -0.04293,  -0.01660,  -0.01562,  -0.02050,   0.00096,  -0.01757,   0.02047,  -0.01952,   0.01365,   0.02730,  -0.01562,   0.00487,  -0.00391,  -0.02342,  -0.01172,   0.00096,  -0.01660,  -0.00879,   0.00291,  -0.02635,   0.00096,   0.02828,   0.04974,  -0.00391,   0.06047,  -0.00489,  -0.02050,   0.02633,   0.03120,  -0.02830,  -0.01952,   0.02242,   0.00194,  -0.01269,   0.00779,   0.03218,  -0.00099,   0.01852,   0.01560,   0.01267,   0.00096,   0.01072,  -0.02440,  -0.03220,   0.00194,  -0.04684,   0.03316,  -0.02830,   0.00779,  -0.01172,  -0.01074,  -0.01074,   0.01072,   0.03608,   0.05657,  -0.01172,   0.00877,   0.04486,   0.08486,  -0.01562,   0.01560,   0.01072,  -0.03123,   0.01950,  -0.01952,   0.02535,   0.00682,   0.03998,  -0.01464,  -0.01855,  -0.00684,  -0.00294,  -0.04781,  -0.01367,   0.01950,  -0.03611,  -0.00586,  -0.05171,  -0.03611,   0.05169,   0.01267,   0.01852,   0.02730,  -0.02635,   0.00096,   0.00974,  -0.04196,  -0.03220,  -0.01855,   0.02340
   0.00194,  -0.03903,  -0.04781,   0.00291,   0.03803,  -0.00684,  -0.01074,   0.02535,  -0.02830,  -0.00977,   0.02340,   0.06925,   0.01169,   0.00194,  -0.02830,  -0.00489,   0.00291,   0.00291,  -0.05562,  -0.00782,   0.00291,   0.06047,   0.00096,  -0.00099,  -0.00294,  -0.01855,  -0.00196,   0.00194,  -0.00977,   0.01657,  -0.01074,  -0.00196,   0.01657,   0.01169,   0.02535,  -0.00001,   0.01365,   0.00584,  -0.00099,  -0.00391,  -0.02733,   0.02633,  -0.03025,  -0.02635,  -0.00294,   0.02145,  -0.03025,  -0.00782,   0.01072,   0.03803,  -0.00489,  -0.00782,  -0.02440,   0.00487,  -0.00879,  -0.00782,   0.01365,   0.01365,  -0.00489,   0.06437,   0.03023,   0.01560,   0.01657,   0.02047,  -0.03806,   0.02340,  -0.03611,  -0.02440,   0.03901,   0.03511,   0.01169,   0.01462,   0.02340,   0.00584,   0.01560,  -0.01269,  -0.03611,   0.07120,   0.00779,  -0.03611,  -0.00782,  -0.00099,  -0.02635,  -0.02733,  -0.02147,   0.04389,   0.01365,  -0.01172,   0.01462,  -0.02928,  -0.00001,  -0.04976,   0.00389,   0.00974,   0.04291,  -0.02733,   0.02925,  -0.02537,   0.05364,  -0.02928,  -0.04001,   0.01267,   0.01852,  -0.00099,   0.01169,   0.02535,  -0.01464,  -0.04001,   0.01169,   0.03998,   0.04584,  -0.05171,   0.02242,   0.02438,  -0.00196,   0.04681,  -0.01757,  -0.02537,  -0.05269,  -0.02440,  -0.02733,   0.00096,  -0.00196,  -0.00782,   0.03511,   0.00877,   0.00291,  -0.01172,  -0.00977,   0.05267,  -0.01757,   0.06144,  -0.02050,  -0.01074,   0.02633,   0.02438,  -0.01367,  -0.02147,  -0.01562,  -0.01367,   0.03901,   0.02047,  -0.00391,  -0.00001,  -0.00586,  -0.00977,  -0.02050,  -0.03123,  -0.03220,  -0.04196,  -0.02245,   0.01365,  -0.02440,   0.02047,   0.02535,   0.05071,   0.00877,   0.01950,   0.00096,   0.01267,  -0.01562,  -0.01660,  -0.06439,   0.02340,  -0.00391,  -0.01952,  -0.03611,   0.01560,   0.00487,  -0.03611,   0.02242,   0.00584,   0.00682,   0.02535,   0.00096,   0.00487,  -0.03318,  -0.03708,  -0.01074,  -0.01074,   0.03706,  -0.00586,   0.02925,   0.02340,   0.01267,  -0.00391,  -0.00099,  -0.00489,  -0.04879,   0.00974,   0.02633,   0.03901,   0.02047,  -0.00196,  -0.01464,   0.00682,  -0.01855,   0.00584,  -0.02147,   0.02340,   0.02047,   0.01560,   0.00974,   0.00389,  -0.02342,   0.02145,   0.01072,  -0.00879,   0.00096,   0.00487,  -0.02733,  -0.01660,  -0.02342,   0.00487,   0.02633,   0.01950,   0.06730,  -0.03415,  -0.02440,  -0.01172,  -0.01074,   0.01169,   0.02242,   0.00487,   0.00389,  -0.00782,  -0.02050,  -0.03806,   0.03803,  -0.00294,   0.02535,   0.01365,  -0.00294,   0.00584,  -0.00099,  -0.01464,  -0.04781,   0.01267,  -0.00001,   0.02438,  -0.04098,   0.05852,   0.02730,   0.03511,   0.00291,  -0.04488,  -0.02440,  -0.01367,  -0.03513,  -0.01855,  -0.00782,   0.01560,   0.01072,   0.00096,   0.02242,   0.01755
  -0.00001,  -0.01172,  -0.00586,  -0.00099,  -0.00391,   0.01365,  -0.00391,   0.04389,  -0.01269,   0.03901,   0.00389,   0.01755,   0.00779,   0.00389,  -0.05562,   0.00096,   0.02047,   0.04291,   0.00779,   0.02242,   0.03803,  -0.01269,  -0.00684,   0.04681,   0.04681,   0.00877,   0.03023,   0.01852,  -0.01464,   0.00194,  -0.00391,  -0.01367,   0.04193,  -0.01074,   0.00877,  -0.00099,  -0.02830,  -0.02733,   0.03413,   0.01950,  -0.04586,  -0.00782,   0.01657,   0.03218,  -0.02537,   0.00291,  -0.02245,   0.01852,   0.01852,  -0.01562,   0.01169,  -0.00391,  -0.02635,  -0.03220,  -0.02537,   0.01462,   0.01462,  -0.00782,  -0.03513,  -0.01269,  -0.00294,  -0.01269,  -0.01562,  -0.00879,   0.00779,  -0.01660,   0.00096,  -0.00489,   0.02828,   0.01560,   0.00877,  -0.03708,   0.02730,  -0.01074,  -0.00294,   0.01852,  -0.02245,   0.03218,  -0.03220,   0.02828,   0.02828,   0.00877,  -0.00099,  -0.00294,   0.01560,   0.04584,  -0.01660,   0.02047,   0.02828,  -0.01269,   0.00682,   0.01267,  -0.04488,   0.01462,  -0.00391,   0.01267,   0.00096,  -0.02245,  -0.03903,   0.02535,   0.00194,   0.03608,   0.01267,   0.00291,  -0.00586,  -0.00782,  -0.02537,  -0.02245,  -0.01172,   0.02340,   0.00584,   0.03803,  -0.01074,  -0.02928,   0.00877,   0.00194,   0.02242,   0.01755,   0.00389,  -0.00489,   0.00194,  -0.03513,   0.00877,   0.01560,  -0.03806,   0.00291,  -0.03513,  -0.00879,  -0.01172,  -0.01367,  -0.00196,   0.01560,   0.05267,   0.01755,  -0.00001,   0.03901,  -0.00489,  -0.00196,   0.00779,   0.00194,   0.01267,   0.02438,   0.00487,   0.01560,   0.01852,   0.03316,   0.00487,  -0.05366,  -0.00782,   0.01169,  -0.01660,  -0.00294,   0.01657,  -0.01855,   0.00096,  -0.03318,   0.06340,   0.01560,  -0.01757,  -0.02928,   0.01462,  -0.02830,  -0.00099,  -0.03220,   0.01755,  -0.01269,  -0.00001,   0.03901,   0.00194,   0.05754,   0.00877,   0.03316,  -0.00001,   0.01267,  -0.01952,  -0.02050,  -0.00586,  -0.01172,   0.00389,   0.00974,   0.00877,  -0.01172,  -0.02245,  -0.00489,  -0.00977,  -0.02537,  -0.03220,  -0.02342,   0.01462,   0.04584,   0.01267,  -0.01855,  -0.01172,  -0.00001,   0.01267,   0.01462,  -0.00294,   0.02925,   0.06242,   0.03901,  -0.02050,   0.00291,  -0.02342,  -0.00196,   0.00194,  -0.01269,   0.04876,  -0.02342,  -0.02537,   0.01072,  -0.01464,   0.01365,  -0.01464,   0.02730,   0.00682,  -0.04781,   0.02633,  -0.02440,   0.02925,   0.06632,  -0.00391,  -0.00684,  -0.00879,  -0.01757,   0.00096,  -0.00879,   0.01950,   0.01852,  -0.03415,  -0.01660,  -0.03415,   0.06144,   0.00291,  -0.00099,   0.00194,  -0.00196,   0.01755,  -0.04196,   0.01755,  -0.05562,   0.00682,  -0.03611,   0.01950,   0.06047,  -0.00977,  -0.04001,   0.02145,   0.00974,   0.02047,  -0.00294,  -0.05562,   0.00974,  -0.03123,  -0.01367,   0.01169,  -0.02928
   0.01657,   0.00194,   0.02535,   0.00584,  -0.00879,  -0.00489,   0.00779,   0.03803,  -0.01367,   0.04193,  -0.01172,  -0.04293,   0.00779,  -0.01464,  -0.01464,   0.02828,  -0.00684,   0.00389,  -0.01952,  -0.02245,   0.00389,  -0.02050,   0.01657,  -0.03415,   0.01852,  -0.01074,   0.01950,  -0.01172,  -0.00099,  -0.01367,  -0.00489,   0.01560,  -0.01562,   0.01072,  -0.02147,  -0.01952,   0.01169,   0.02828,  -0.00196,   0.02828,   0.02633,  -0.05269,   0.00194,   0.01755,  -0.03220,   0.02047,   0.03608,  -0.01172,  -0.00977,   0.00194,   0.00779,   0.00194,   0.00974,  -0.00489,   0.03608,   0.03803,  -0.02050,   0.02925,   0.03901,  -0.02147,  -0.00489,  -0.00489,  -0.02928,   0.05559,  -0.00879,   0.00877,  -0.01562,   0.02633,   0.00487,  -0.02147,   0.02535,   0.00487,   0.01169,   0.01560,  -0.01269,   0.00584,  -0.02635,   0.02730,  -0.01269,  -0.00489,  -0.00782,  -0.04684,   0.05071,   0.00291,  -0.01367,  -0.01464,  -0.00294,   0.02828,   0.03120,  -0.01269,   0.00682,   0.00877,  -0.00489,  -0.02537,  -0.02537,  -0.00782,   0.00194,   0.00974,   0.03413,   0.00779,  -0.00391,   0.02633,   0.02925,  -0.02635,  -0.00977,  -0.00391,  -0.00782,  -0.00782,   0.00291,  -0.01952,  -0.01855,   0.02828,   0.05071,  -0.01562,  -0.00196,  -0.01367,  -0.03415,   0.00584,  -0.01952,   0.02828,   0.01267,   0.00096,  -0.00391,   0.01267,   0.00194,   0.03218,   0.01755,   0.01169,  -0.02050,  -0.01367,   0.03120,  -0.00879,  -0.02928,  -0.00489,   0.00682,   0.00974,   0.01267,  -0.01367,   0.01072,   0.02633,  -0.01464,   0.02730,  -0.01562,  -0.02245,  -0.01172,  -0.03708,  -0.00294,   0.02925,  -0.00977,   0.01169,  -0.03611,   0.02438,  -0.03513,  -0.00782,   0.00974,   0.03120,   0.03608,   0.00487,   0.04486,  -0.02342,   0.02925,   0.07705,   0.01169,  -0.00977,  -0.02537,   0.02828,  -0.04879,   0.00779,  -0.00586,   0.05462,   0.02340,   0.01852,   0.02438,   0.00096,  -0.00684,   0.03218,   0.01072,   0.02340,   0.03316,  -0.00489,   0.01657,   0.00682,   0.00779,  -0.04196,   0.01852,  -0.00489,   0.03218,  -0.00586,   0.02828,  -0.01074,   0.02535,   0.01267,   0.00194,  -0.00391,  -0.00782,  -0.00879,   0.03706,   0.00194,   0.00974,   0.00974,   0.02925,   0.00096,   0.00291,  -0.01562,   0.01169,   0.00096,   0.04193,  -0.01660,  -0.03220,  -0.02147,  -0.03220,   0.00096,   0.00584,   0.02828,   0.03413,   0.01169,   0.01072,   0.00096,  -0.01757,   0.03218,   0.00877,   0.01169,   0.01560,   0.01657,  -0.01269,   0.00194,   0.02535,   0.03608,  -0.00001,   0.00682,  -0.02928,   0.02828,   0.02242,  -0.04976,  -0.00684,  -0.01269,  -0.02635,  -0.03513,   0.01072,  -0.01562,  -0.01952,  -0.01074,  -0.02050,  -0.00001,   0.03608,  -0.02928,   0.00096,   0.03316,   0.03998,  -0.00684,  -0.00684,  -0.02635,   0.00682,   0.00584,   0.00096,  -0.00586
   0.02340,   0.01852,   0.04584,   0.00877,  -0.00196,   0.01852,  -0.00977,   0.01950,  -0.05952,   0.02047,  -0.01367,  -0.03123,  -0.00586,  -0.00684,   0.01560,   0.00194,  -0.00391,   0.01657,  -0.01269,  -0.02050,  -0.01464,   0.00096,  -0.00391,   0.00096,   0.04876,  -0.02830,  -0.00782,   0.01755,  -0.00099,   0.01462,  -0.03708,  -0.02245,  -0.01660,  -0.01269,  -0.00391,   0.00096,  -0.02147,   0.01267,  -0.00001,   0.02145,  -0.06439,   0.00487,  -0.00977,  -0.01172,  -0.03513,   0.01365,   0.01560,   0.00877,  -0.03708,  -0.01562,  -0.01660,   0.01950,  -0.01952,   0.00779,   0.04974,  -0.01367,  -0.03708,  -0.02830,   0.01560,  -0.02245,   0.02438,   0.02145,   0.00194,   0.00096,   0.00291,  -0.00879,   0.03218,  -0.01172,  -0.01660,  -0.04488,  -0.02245,   0.01072,  -0.00879,   0.00194,  -0.02440,   0.00974,   0.01365,   0.00682,  -0.00294,  -0.02537,  -0.03415,   0.02925,  -0.00977,  -0.04684,   0.00194,   0.02047,   0.02047,  -0.00196,   0.00584,   0.04291,  -0.04098,   0.00389,  -0.00684,  -0.03025,   0.04291,  -0.02733,   0.01755,   0.02535,   0.00779,   0.00291,   0.01267,  -0.02830,   0.00194,   0.01950,   0.00584,  -0.00391,   0.00291,  -0.01172,  -0.00489,  -0.02245,  -0.00489,  -0.04196,  -0.01367,  -0.02440,   0.01560,   0.02925,   0.00487,   0.02047,  -0.02245,  -0.00489,  -0.00586,  -0.01660,   0.00487,  -0.00489,   0.01072,  -0.01367,   0.00487,   0.00389,  -0.02830,   0.00779,  -0.00294,  -0.00391,  -0.02245,   0.02242,   0.00487,   0.01169,  -0.02440,  -0.00977,   0.02242,  -0.00196,   0.00389,  -0.01562,   0.02145,  -0.01367,   0.01462,  -0.00489,   0.01657,  -0.00294,  -0.02050,   0.01560,  -0.02537,   0.02535,  -0.03025,   0.06340,  -0.03123,   0.04193,  -0.01269,   0.02145,  -0.00196,   0.01072,  -0.01464,  -0.00489,  -0.00879,   0.02828,  -0.00489,  -0.00879,   0.00487,  -0.04488,   0.00194,  -0.00489,  -0.01660,  -0.01172,   0.00487,  -0.01464,   0.03998,  -0.00684,  -0.00489,  -0.00391,  -0.00294,   0.02633,   0.03511,   0.02633,  -0.02733,  -0.01562,  -0.01367,   0.00974,   0.00877,  -0.00977,  -0.01172,   0.01950,  -0.00489,  -0.02245,   0.00779,  -0.01464,   0.00389,   0.00194,   0.01852,   0.00096,   0.01267,  -0.04001,   0.03608,   0.01657,   0.02925,   0.00389,   0.02145,   0.02145,   0.00487,   0.02340,  -0.00099,   0.01950,   0.02145,   0.03511,  -0.02050,  -0.00977,   0.00779,  -0.01660,  -0.01855,  -0.03806,   0.03218,   0.02242,   0.00096,   0.01169,  -0.04684,  -0.01269,   0.00487,  -0.02928,   0.01462,   0.00584,  -0.00391,  -0.00391,   0.04486,   0.00194,   0.00682,   0.00096,   0.00389,  -0.03220,  -0.02342,   0.00877,   0.00194,   0.00779,  -0.01757,  -0.00294,  -0.00782,  -0.01269,  -0.01855,   0.00877,  -0.00391,  -0.01464,   0.01462,   0.01072,   0.01169,  -0.02928,  -0.00196,   0.01755,  -0.01660,  -0.00782
  -0.02830,   0.01267,  -0.02147,  -0.02733,  -0.02733,  -0.00391,  -0.02537,   0.02047,  -0.00879,  -0.00196,   0.05852,  -0.02147,  -0.03415,   0.02730,   0.01560,  -0.01172,  -0.02537,  -0.01660,   0.00877,   0.02730,  -0.00586,  -0.00099,  -0.03415,  -0.05854,   0.01365,   0.03218,  -0.00099,   0.00389,  -0.00782,   0.00682,  -0.02440,  -0.00294,   0.00877,  -0.02050,   0.01657,   0.04876,  -0.02342,  -0.00489,  -0.01074,   0.01950,   0.01852,   0.01852,   0.04291,   0.01462,   0.00291,   0.00291,   0.06535,  -0.02342,   0.03120,  -0.00489,  -0.00294,   0.00877,  -0.01660,  -0.01172,   0.03608,  -0.00099,   0.01169,   0.00584,  -0.02928,  -0.03806,  -0.01855,  -0.00489,  -0.02342,   0.00682,  -0.02147,  -0.00586,   0.01462,  -0.00684,  -0.01952,   0.02242,   0.03023,   0.01852,   0.03120,   0.05364,  -0.00782,  -0.01660,   0.00779,   0.03511,  -0.02928,   0.02633,  -0.03611,  -0.00196,  -0.00001,   0.01365,  -0.01464,   0.03511,   0.00877,  -0.00294,  -0.00391,   0.02047,  -0.00879,  -0.00196,   0.00096,   0.00487,  -0.00879,   0.02633,  -0.00489,  -0.00977,  -0.02050,   0.02145,   0.01365,  -0.02245,  -0.02440,  -0.00099,   0.02047,   0.00877,   0.00682,   0.02340,   0.02535,   0.03901,  -0.02245,  -0.00391,  -0.00001,   0.01852,  -0.02440,  -0.02440,  -0.01172,   0.04291,   0.02535,   0.01755,  -0.01269,   0.02145,   0.00096,  -0.00001,  -0.03415,   0.00194,  -0.00684,  -0.02050,   0.04389,   0.00779,  -0.03513,   0.03998,   0.03023,  -0.01172,   0.02340,  -0.01269,   0.00291,  -0.01269,  -0.00684,  -0.00586,  -0.02147,  -0.02440,   0.00096,   0.01950,   0.00487,   0.03023,  -0.01464,   0.01560,  -0.00001,  -0.02830,  -0.00489,   0.01657,  -0.02440,   0.02047,  -0.01757,   0.03218,   0.03120,  -0.00099,  -0.01464,  -0.01074,   0.00877,  -0.01269,   0.02633,  -0.02928,  -0.00001,  -0.01952,   0.02828,   0.02438,   0.01950,  -0.03708,  -0.01074,   0.02925,  -0.01562,   0.01755,  -0.01855,  -0.01952,   0.04096,   0.02340,  -0.03513,   0.03120,   0.00877,  -0.01269,   0.03218,   0.00682,   0.02828,   0.00779,   0.00779,   0.01560,   0.01169,  -0.02830,  -0.05171,  -0.00391,   0.02145,  -0.01172,   0.02242,   0.01169,  -0.01367,  -0.00001,  -0.03708,  -0.01952,  -0.00977,   0.01657,  -0.01757,  -0.00001,   0.05852,   0.01657,  -0.00196,  -0.00489,   0.03608,  -0.00977,   0.00974,  -0.01074,   0.05071,  -0.06049,   0.00291,   0.01560,   0.02438,  -0.02733,  -0.00977,  -0.01269,  -0.00001,   0.01950,   0.01852,   0.00682,  -0.02342,   0.02535,   0.00682,  -0.00684,  -0.01952,  -0.01074,  -0.01562,  -0.00879,  -0.00586,   0.01657,   0.00389,   0.01462,  -0.02537,  -0.00294,  -0.02050,   0.00584,  -0.00196,   0.00974,   0.00096,   0.00194,  -0.00001,  -0.01172,   0.01365,   0.01072,   0.00487,  -0.01074,   0.01169,  -0.00684,   0.00584,   0.02242,  -0.03220,   0.02633
   0.00487,   0.01267,   0.02340,   0.01852,   0.00194,   0.04974,  -0.04391,  -0.00879,  -0.00489,  -0.01855,   0.03120,  -0.00196,   0.00487,   0.00584,   0.02535,   0.00682,  -0.01562,  -0.03123,   0.01267,  -0.02147,  -0.00879,   0.02535,  -0.03220,   0.01365,   0.02535,  -0.00099,  -0.00879,  -0.01367,   0.02047,   0.00877,   0.00389,  -0.00294,   0.00096,  -0.00489,   0.00584,  -0.01855,  -0.03513,  -0.00782,  -0.00294,  -0.04196,  -0.00294,   0.01365,   0.01365,   0.01560,  -0.00489,   0.03413,  -0.00099,  -0.01757,   0.01365,  -0.00586,  -0.03220,   0.04291,   0.02730,   0.01365,  -0.02050,   0.00291,   0.04193,  -0.01367,  -0.01464,   0.00877,   0.05169,  -0.02830,  -0.01269,  -0.00294,  -0.00782,   0.00974,   0.00682,   0.01560,   0.00096,  -0.00489,   0.01462,   0.03023,   0.00877,   0.00779,  -0.00294,   0.00487,   0.03803,   0.01852,  -0.02733,  -0.00782,   0.00974,  -0.01757,  -0.01074,   0.03218,   0.00779,  -0.00684,  -0.04196,  -0.03903,   0.01267,   0.00389,   0.00877,   0.03218,  -0.01074,   0.02925,   0.02925,  -0.04293,   0.01950,   0.03998,   0.00194,   0.00877,   0.00389,  -0.01367,   0.02925,  -0.00294,   0.06340,  -0.02342,  -0.00489,  -0.03806,  -0.02342,  -0.00782,   0.00584,  -0.00294,  -0.02147,   0.02633,  -0.01367,  -0.02928,   0.03023,  -0.01660,   0.00389,   0.02145,   0.00096,   0.01365,  -0.02830,  -0.01757,   0.00194,   0.01657,   0.01072,  -0.04098,   0.02145,   0.00291,   0.00291,   0.00194,  -0.04781,   0.01365,  -0.00977,  -0.01855,   0.00584,  -0.01074,   0.01267,   0.02828,  -0.02928,   0.03608,  -0.00782,  -0.01562,   0.00291,   0.04193,  -0.01855,   0.00194,  -0.02537,   0.01950,  -0.01660,  -0.00489,  -0.01562,  -0.02928,   0.02242,   0.04584,   0.02438,  -0.00489,  -0.01464,  -0.02440,  -0.03903,   0.00974,   0.01267,  -0.01464,   0.01755,  -0.02733,  -0.02440,   0.02633,   0.01072,   0.01267,  -0.02050,  -0.01464,  -0.01952,  -0.02147,  -0.01952,  -0.00001,  -0.01562,   0.00584,   0.03120,   0.05169,   0.02047,  -0.03903,   0.01852,   0.01852,  -0.00099,  -0.01952,   0.03413,  -0.02342,  -0.04293,  -0.00391,   0.03218,  -0.00391,  -0.00001,   0.00682,   0.01365,  -0.00586,  -0.01562,  -0.00586,  -0.03708,  -0.00099,   0.03803,  -0.01269,  -0.01952,  -0.01562,   0.01072,  -0.03123,   0.03803,  -0.00196,  -0.00294,  -0.01562,  -0.00001,   0.00291,   0.02633,   0.01852,  -0.00099,   0.02047,   0.01072,   0.00877,   0.02047,   0.01365,  -0.03415,   0.01267,   0.00877,   0.01755,   0.00194,   0.01950,  -0.00001,   0.02828,   0.00194,  -0.00099,  -0.03513,   0.01950,   0.03120,  -0.02147,   0.01072,   0.01365,  -0.03611,   0.00779,  -0.00294,  -0.00684,   0.01072,   0.04291,  -0.04391,  -0.01074,   0.00974,   0.04291,  -0.00684,   0.05267,  -0.03513,   0.01365,   0.01462,   0.00779,   0.00682,  -0.03611,   0.08095,   0.02047
   0.02438,  -0.01367,   0.00389,   0.04193,  -0.01660,  -0.01952,  -0.00684,   0.00194,  -0.02537,  -0.01074,   0.00974,  -0.02245,  -0.03220,  -0.00391,   0.04096,  -0.02147,  -0.03903,   0.00096,   0.00779,   0.01169,   0.01560,  -0.00294,  -0.00586,  -0.00977,   0.00682,  -0.02342,  -0.03708,  -0.00391,   0.00096,  -0.02440,  -0.02537,   0.00682,   0.03218,   0.00682,  -0.00586,   0.04291,   0.01169,   0.03120,  -0.00001,  -0.03123,   0.00096,   0.02145,  -0.00977,   0.03023,  -0.00586,   0.00877,  -0.00684,   0.01365,  -0.00001,  -0.00196,   0.00389,  -0.02830,  -0.00489,   0.01169,  -0.03708,   0.00096,  -0.00586,  -0.04684,  -0.03123,   0.00682,  -0.00684,   0.03316,   0.00974,  -0.01660,   0.00779,   0.01950,  -0.00099,  -0.00977,   0.02047,  -0.01757,   0.00974,   0.01072,   0.00584,   0.00779,   0.00584,  -0.01367,   0.00682,   0.04584,   0.02828,  -0.01074,   0.03218,  -0.00196,  -0.00391,   0.00194,   0.02145,  -0.01562,  -0.04976,   0.01657,   0.03511,   0.04096,   0.00096,   0.01950,  -0.01757,   0.01950,   0.01657,  -0.00586,  -0.02928,  -0.01367,   0.00487,   0.03803,  -0.01172,  -0.03806,   0.00487,  -0.02147,  -0.01952,   0.01852,  -0.03025,  -0.00782,  -0.00586,  -0.02537,   0.00584,  -0.00879,   0.03218,   0.01169,  -0.00196,  -0.01757,   0.04876,  -0.02050,   0.02340,   0.01267,  -0.00001,  -0.00489,  -0.01074,   0.00682,   0.00779,   0.00487,  -0.02733,   0.04974,  -0.02537,   0.00682,  -0.01464,   0.03706,   0.01755,   0.00194,  -0.02342,  -0.01562,   0.03998,   0.00974,   0.02438,  -0.02342,  -0.01855,  -0.01757,   0.00389,   0.01267,  -0.00391,  -0.00977,  -0.00196,  -0.04001,   0.00291,   0.01950,   0.02340,   0.01072,  -0.01074,  -0.01269,   0.00389,  -0.04879,   0.00291,   0.01169,   0.00682,   0.05754,  -0.04293,   0.03316,  -0.03903,   0.00584,   0.01462,  -0.00099,  -0.01952,  -0.00391,  -0.01074,  -0.03903,   0.00974,  -0.02928,   0.00974,   0.01267,  -0.02342,  -0.03415,   0.00779,  -0.01757,  -0.02147,  -0.03318,   0.01267,   0.00096,  -0.01367,   0.02047,  -0.03415,   0.04291,  -0.00489,  -0.00977,   0.00974,   0.00194,   0.00096,  -0.00391,  -0.01562,   0.00974,  -0.00391,   0.00389,   0.01462,  -0.01172,  -0.02440,  -0.02245,   0.01072,   0.02730,  -0.02147,   0.00389,  -0.02635,   0.00682,  -0.00294,   0.02145,   0.01169,  -0.03025,  -0.02440,  -0.02147,   0.02535,   0.01755,  -0.00586,   0.00877,  -0.01562,  -0.02147,   0.00291,   0.02925,  -0.01367,  -0.00001,  -0.00001,  -0.00391,   0.04389,   0.03023,  -0.00099,  -0.00977,   0.01365,  -0.00391,   0.01755,  -0.00879,   0.00877,  -0.02147,   0.00682,   0.03218,  -0.00586,  -0.02733,  -0.00977,   0.02633,  -0.01367,  -0.01952,   0.00487,  -0.00196,   0.03608,   0.00682,  -0.01952,   0.00877,   0.01657,   0.00779,   0.02535,   0.00779,   0.00194,  -0.02245,   0.00194,   0.03413
   0.00877,   0.00682,   0.02145,   0.03218,   0.00779,   0.02730,  -0.02830,  -0.00977,   0.02535,   0.02730,   0.06437,   0.00487,  -0.01367,   0.04779,  -0.03903,   0.01852,  -0.02147,  -0.02830,   0.01657,  -0.00586,   0.01169,   0.01462,  -0.02147,   0.01072,  -0.01660,  -0.02245,   0.03706,   0.01657,   0.03998,   0.01462,   0.02145,   0.01657,   0.01950,   0.00584,  -0.01952,  -0.01464,   0.02242,   0.00291,  -0.00879,   0.03901,  -0.01855,  -0.04196,   0.01950,  -0.03513,  -0.00001,   0.01462,  -0.00391,   0.02438,  -0.01367,  -0.01562,  -0.00489,   0.03706,   0.01560,   0.01560,   0.00194,   0.00584,   0.03901,  -0.03611,   0.00194,  -0.02537,   0.03218,  -0.00586,   0.03316,   0.00389,  -0.02635,  -0.02342,   0.01072,   0.00682,  -0.01269,  -0.00977,   0.00194,   0.01755,   0.02340,   0.01852,   0.00877,   0.04486,   0.01560,  -0.04684,  -0.04196,   0.01852,  -0.01660,  -0.01269,   0.01657,   0.01462,  -0.05171,  -0.00879,  -0.02635,   0.01560,   0.00487,  -0.02928,   0.02828,   0.03901,   0.01560,   0.00974,   0.00974,  -0.01074,   0.02730,  -0.00684,  -0.01660,  -0.00879,  -0.00879,   0.02438,   0.02438,   0.00291,  -0.00294,  -0.01855,  -0.00782,  -0.04488,  -0.00196,  -0.03415,   0.02438,   0.02828,  -0.00489,  -0.01464,  -0.01269,   0.01072,  -0.03123,   0.01365,   0.02925,   0.01657,  -0.02830,   0.01852,  -0.03220,  -0.00294,  -0.00586,  -0.00099,  -0.02733,  -0.01660,  -0.01367,  -0.00001,  -0.02245,   0.04486,  -0.02830,   0.00096,   0.00877,   0.00779,   0.01560,  -0.02147,  -0.01562,   0.01560,   0.01852,  -0.01952,  -0.01367,   0.01267,   0.00291,  -0.04488,  -0.04781,   0.01072,   0.00584,   0.00096,   0.00389,  -0.00977,   0.01950,  -0.00001,   0.00682,  -0.02440,  -0.02050,   0.02340,  -0.02635,  -0.03220,   0.00974,   0.04096,  -0.00294,  -0.00489,  -0.01269,  -0.02440,  -0.00977,  -0.04879,   0.03998,  -0.03318,   0.02633,  -0.00782,   0.00779,  -0.00977,  -0.03220,   0.05852,   0.00096,   0.02438,   0.03218,  -0.00294,   0.03803,  -0.03513,  -0.00782,  -0.02928,   0.01365,  -0.03513,   0.02535,  -0.01757,   0.00389,  -0.01074,   0.02047,   0.02828,   0.00291,   0.01365,   0.02438,  -0.06049,   0.00584,   0.04291,  -0.00099,   0.01365,   0.00779,  -0.00099,  -0.02245,  -0.01952,   0.01462,  -0.02537,   0.00974,  -0.00782,   0.00779,  -0.02537,  -0.02537,  -0.01074,  -0.02342,  -0.00196,   0.02925,   0.00096,  -0.03025,   0.01560,   0.00389,   0.00096,   0.00487,   0.00291,  -0.03611,   0.01950,  -0.01952,  -0.03123,  -0.01074,   0.00779,   0.01950,   0.03023,  -0.02147,   0.02828,   0.01365,  -0.02050,  -0.00586,  -0.00489,   0.01072,  -0.03318,  -0.01464,  -0.03708,  -0.01952,  -0.01855,   0.00096,  -0.03903,   0.03120,  -0.00489,  -0.01074,  -0.00294,  -0.02050,  -0.00196,  -0.04976,  -0.01172,  -0.00001,   0.02633,  -0.00489,  -0.00782
   0.00682,   0.01657,   0.01950,  -0.02440,   0.01267,   0.00487,  -0.00782,  -0.04293,   0.00487,  -0.00977,  -0.00099,   0.01365,  -0.00782,  -0.00099,  -0.01757,   0.00096,  -0.02928,   0.00291,  -0.00294,   0.00779,   0.02438,  -0.01172,   0.01852,  -0.00391,  -0.02928,  -0.03513,  -0.03318,   0.00877,  -0.00684,   0.00779,   0.00487,   0.00877,  -0.00977,   0.01560,  -0.01074,   0.03413,  -0.02147,  -0.00977,  -0.00977,  -0.00001,   0.02438,  -0.01464,  -0.00099,   0.05949,   0.00779,  -0.01660,  -0.00782,   0.01657,   0.00096,   0.00487,  -0.00099,  -0.01660,   0.02535,   0.02535,   0.00974,  -0.00294,   0.03413,   0.00487,  -0.01660,   0.02145,  -0.00294,   0.04389,   0.00584,   0.02925,  -0.01757,  -0.00294,   0.02438,  -0.03220,   0.00584,   0.02242,  -0.02635,   0.04291,   0.02438,  -0.03415,   0.00584,  -0.02342,   0.00779,  -0.02342,  -0.00684,   0.02047,  -0.01269,  -0.04976,  -0.00196,   0.07315,   0.00877,  -0.07708,  -0.01269,   0.02730,   0.02730,   0.00096,  -0.01952,   0.01169,   0.00779,   0.01462,  -0.00001,   0.00682,   0.01169,  -0.00391,  -0.00489,   0.01657,   0.04584,  -0.02635,   0.00779,   0.00584,  -0.02635,   0.00096,  -0.02830,  -0.00489,  -0.02733,  -0.01367,  -0.02733,   0.00389,  -0.06537,   0.00779,   0.00487,   0.03803,   0.02242,   0.01852,   0.03218,  -0.00782,  -0.02342,   0.03706,  -0.00879,  -0.02440,  -0.02733,   0.02242,  -0.00391,   0.02633,   0.02633,   0.01462,  -0.00099,  -0.07317,  -0.02928,  -0.00586,   0.03998,  -0.04684,  -0.00684,   0.00291,  -0.01464,  -0.04976,  -0.01367,  -0.02830,  -0.00782,  -0.01367,   0.02438,  -0.03220,  -0.00977,   0.04584,  -0.02245,   0.04779,  -0.01952,  -0.01172,   0.03316,   0.02925,   0.01072,  -0.04488,   0.02047,   0.02730,  -0.00001,  -0.01367,  -0.00196,   0.05169,   0.04681,  -0.06732,   0.00682,   0.02242,  -0.01074,  -0.00879,  -0.01562,  -0.01269,   0.02730,   0.00584,   0.02633,  -0.02928,   0.02438,  -0.00001,   0.02828,  -0.00391,   0.01950,   0.00096,  -0.00879,   0.01755,   0.00389,  -0.05854,   0.02242,  -0.03415,  -0.01464,   0.00584,  -0.00684,  -0.02635,  -0.01074,   0.00974,   0.05071,  -0.01269,   0.00877,   0.00487,  -0.01464,  -0.02050,   0.04681,  -0.01367,  -0.01367,  -0.00879,  -0.03220,  -0.02830,   0.03998,  -0.02440,   0.00779,  -0.01367,   0.01072,   0.03511,  -0.04098,  -0.00001,  -0.03025,  -0.00782,   0.01755,  -0.01367,   0.00877,  -0.01269,  -0.00294,  -0.04976,  -0.00782,  -0.03123,  -0.02147,  -0.01074,   0.02145,   0.02340,   0.03511,  -0.03025,   0.01267,  -0.02928,   0.05071,  -0.00879,   0.01657,  -0.01855,  -0.06732,   0.06047,   0.00682,   0.01267,  -0.01757,  -0.00196,   0.01560,   0.01950,   0.00194,  -0.02537,  -0.00489,   0.02730,  -0.01074,   0.01755,  -0.02537,   0.03706,   0.01365,  -0.01172,   0.00096,  -0.05269,   0.01169,   0.01267
  -0.02733,  -0.01757,  -0.03123,  -0.00684,  -0.01172,   0.01462,   0.01462,   0.00487,  -0.02050,   0.01365,   0.05267,   0.02730,   0.00584,   0.00096,   0.05462,   0.01072,  -0.00489,   0.02438,   0.01169,  -0.01660,  -0.01172,  -0.02733,   0.01950,  -0.01172,   0.01267,   0.01950,   0.03218,  -0.04586,  -0.00391,  -0.04098,   0.02828,  -0.02830,   0.00877,  -0.02147,   0.02047,   0.00487,  -0.03415,   0.00974,  -0.00001,  -0.00099,   0.03120,  -0.02050,   0.01462,  -0.01172,   0.00487,  -0.05074,  -0.03611,   0.01267,  -0.02733,   0.00779,  -0.01172,  -0.03708,   0.00779,  -0.00001,  -0.00782,  -0.03903,  -0.00001,   0.00877,   0.00974,  -0.00294,   0.01852,   0.00779,  -0.00391,   0.01657,  -0.00294,  -0.05269,   0.04486,   0.01462,  -0.00879,  -0.00782,   0.00779,   0.06340,  -0.01952,  -0.03123,   0.02828,   0.03511,   0.00487,  -0.02733,  -0.00977,  -0.03415,   0.02242,   0.00877,  -0.02342,   0.01657,   0.01267,  -0.04001,  -0.00391,   0.02828,   0.01072,   0.01072,  -0.00586,   0.00974,  -0.03220,  -0.00782,  -0.03025,  -0.00001,  -0.00294,  -0.01952,   0.00682,  -0.01269,   0.01365,  -0.00294,  -0.02733,   0.02633,   0.00096,   0.01169,   0.00682,   0.03218,  -0.00977,  -0.02635,   0.01755,   0.05169,  -0.02635,  -0.01855,   0.02340,  -0.02635,   0.00779,   0.00389,   0.01072,   0.03316,  -0.00391,   0.04681,  -0.01464,  -0.00196,  -0.05464,  -0.01464,  -0.01172,   0.01852,  -0.02830,  -0.00391,  -0.02147,  -0.00001,  -0.00586,   0.03608,  -0.01757,  -0.01172,   0.04486,  -0.04391,  -0.01660,  -0.00294,  -0.02147,   0.02438,   0.02340,   0.03413,  -0.01464,   0.03218,  -0.01367,  -0.01855,   0.00877,  -0.00684,   0.03511,  -0.01367,  -0.01464,  -0.00977,  -0.00196,   0.00584,  -0.00879,  -0.03513,  -0.00294,   0.03901,   0.00682,   0.01365,   0.01852,   0.04681,  -0.01269,   0.01560,  -0.00001,  -0.02050,  -0.00977,   0.05267,  -0.00196,   0.04584,   0.02242,   0.01267,  -0.00099,  -0.02440,   0.00779,   0.01560,  -0.00196,   0.02535,  -0.03025,   0.00487,   0.01267,   0.01267,   0.01657,  -0.02342,  -0.02635,  -0.01269,   0.00096,   0.02340,   0.01267,   0.01462,  -0.01562,  -0.01757,   0.01462,  -0.00977,  -0.00001,  -0.05171,  -0.02830,   0.00487,   0.01462,  -0.02635,  -0.00879,  -0.03611,   0.02730,   0.00877,  -0.03611,  -0.00391,   0.01755,   0.01267,   0.04779,  -0.02147,  -0.01464,  -0.05659,   0.02047,  -0.01855,   0.00584,  -0.03415,   0.01560,   0.02340,  -0.00489,   0.00291,   0.00487,   0.00682,   0.04681,  -0.03318,  -0.00294,  -0.02147,   0.01755,  -0.01757,   0.01560,   0.00682,   0.01950,   0.00877,  -0.02928,  -0.00782,  -0.03415,   0.01365,   0.00291,  -0.04196,  -0.00586,   0.00389,  -0.03025,  -0.02733,  -0.00586,   0.01267,  -0.02147,  -0.02537,   0.01462,   0.00584,  -0.03318,   0.00584,  -0.00294,   0.01950,  -0.00879,  -0.00489
  -0.01074,  -0.02440,  -0.00684,  -0.02050,   0.01365,  -0.00294,  -0.02245,   0.02730,  -0.01367,   0.00194,   0.01462,  -0.01074,  -0.03708,   0.01852,   0.01950,  -0.01660,  -0.00782,   0.02242,   0.00877,   0.01169,  -0.00782,   0.00779,  -0.01952,   0.00779,  -0.04488,   0.00682,  -0.00001,  -0.00879,   0.01267,  -0.02537,   0.01852,  -0.01367,  -0.02928,   0.05364,   0.05071,   0.01365,  -0.00977,  -0.01269,  -0.02050,   0.05267,   0.00974,   0.02047,  -0.02635,  -0.04586,  -0.04196,  -0.00684,   0.03608,  -0.04293,   0.02340,  -0.02830,   0.03023,   0.02242,   0.00487,  -0.02928,   0.01462,  -0.03318,  -0.00099,   0.00974,   0.01169,   0.00682,   0.01950,   0.02438,  -0.04293,   0.02925,   0.04779,  -0.00782,   0.01169,   0.00487,  -0.04781,  -0.00782,  -0.00196,  -0.00099,   0.01267,   0.01560,  -0.00391,   0.00584,  -0.02635,  -0.01367,  -0.02245,  -0.01660,   0.01657,  -0.02147,  -0.01757,   0.01755,  -0.03513,   0.00974,   0.00096,   0.00096,  -0.00391,  -0.00294,   0.03218,   0.03218,   0.01462,  -0.01855,  -0.00099,   0.00096,  -0.02147,  -0.04098,  -0.02537,  -0.00586,   0.00194,   0.02242,   0.01267,  -0.01855,  -0.00196,   0.01267,   0.00291,  -0.01074,   0.01072,   0.00487,  -0.02733,  -0.01269,  -0.03220,  -0.00489,  -0.00001,  -0.00196,  -0.00586,   0.01267,  -0.03123,  -0.02050,  -0.00294,   0.01462,   0.00779,   0.00974,  -0.00782,  -0.02537,  -0.00879,  -0.03513,   0.00974,   0.00194,  -0.00196,   0.06144,   0.04974,  -0.00586,   0.03901,   0.02145,   0.00096,   0.00389,   0.02535,  -0.02537,  -0.01660,  -0.03220,  -0.00977,   0.00877,  -0.00099,  -0.02245,   0.01852,  -0.00099,  -0.00489,  -0.02440,   0.01267,   0.03803,  -0.03903,   0.01267,  -0.05269,  -0.03318,  -0.02342,   0.04193,  -0.00684,  -0.00586,  -0.05074,  -0.02733,  -0.02537,  -0.01757,   0.00096,   0.03706,   0.01657,  -0.00879,  -0.00099,  -0.05171,   0.02925,  -0.02050,   0.00682,  -0.02342,  -0.01172,  -0.02050,   0.03120,   0.01365,   0.01950,   0.00779,  -0.00391,  -0.00196,  -0.00294,   0.00487,   0.01169,  -0.00294,  -0.01562,   0.01267,   0.01950,  -0.03025,  -0.03025,   0.02828,  -0.02245,   0.02242,   0.03998,  -0.00391,  -0.01172,  -0.00489,  -0.00001,   0.00096,  -0.01074,  -0.01562,   0.02828,  -0.00977,   0.03803,  -0.01757,  -0.00099,  -0.04879,  -0.04098,  -0.02537,  -0.01074,   0.00389,   0.03998,  -0.00294,   0.03316,  -0.03318,   0.02145,  -0.04879,  -0.01464,  -0.02245,   0.00389,   0.00584,  -0.00977,  -0.00294,   0.01950,   0.03023,  -0.01660,   0.01267,   0.00682,   0.01365,  -0.01172,   0.00974,  -0.02245,   0.00877,  -0.00782,  -0.03025,  -0.01855,  -0.00489,   0.00584,   0.00194,  -0.02733,  -0.00099,   0.01852,  -0.00391,   0.03901,  -0.01562,  -0.03611,  -0.03708,  -0.04098,  -0.02440,   0.02535,  -0.02635,  -0.00684,   0.01072,   0.01365,   0.02047
   0.03120,   0.00877,   0.01267,  -0.00489,   0.05169,   0.00584,   0.01365,  -0.01367,  -0.00586,  -0.03903,  -0.03611,   0.05852,   0.00974,   0.00194,  -0.06147,  -0.00879,  -0.00879,   0.01365,   0.02535,   0.01072,  -0.01562,  -0.01074,  -0.00977,   0.02535,  -0.02245,  -0.01855,  -0.02147,  -0.02050,  -0.01464,   0.00389,   0.01462,   0.00877,  -0.01464,   0.04193,  -0.00391,  -0.01269,  -0.01464,  -0.01952,  -0.02830,  -0.03220,   0.00096,  -0.00001,  -0.00294,   0.01950,   0.01755,   0.02730,   0.03023,  -0.01464,  -0.01562,  -0.01464,  -0.01269,   0.02242,   0.00487,   0.02145,  -0.05171,  -0.05854,   0.02047,   0.01267,   0.05071,  -0.03708,   0.02438,   0.00389,   0.01169,  -0.00099,  -0.00684,  -0.00099,  -0.00879,  -0.00977,  -0.02440,   0.01267,  -0.00391,   0.03901,  -0.00294,  -0.02635,  -0.00586,  -0.01855,   0.01267,   0.01950,  -0.02440,  -0.02830,   0.00682,  -0.00977,   0.03120,  -0.00586,   0.02340,  -0.03611,  -0.00294,  -0.01855,  -0.00782,  -0.02050,   0.01267,  -0.01855,   0.01365,   0.01755,   0.04681,  -0.02928,   0.01365,  -0.02635,  -0.03318,   0.05364,   0.03120,  -0.02245,   0.01462,   0.02340,   0.01852,   0.01365,   0.00682,  -0.00586,   0.02438,  -0.03415,  -0.02733,  -0.00489,   0.00096,  -0.03123,   0.01169,  -0.00294,   0.00096,   0.01462,   0.04486,  -0.02733,   0.01072,   0.03218,   0.00974,  -0.00586,  -0.02050,  -0.04196,  -0.01952,  -0.01562,   0.03511,  -0.00099,  -0.01367,  -0.02440,  -0.00099,   0.01755,  -0.00391,  -0.00879,   0.01755,  -0.00294,   0.06144,   0.02145,   0.00096,  -0.01074,  -0.02928,  -0.00977,   0.02145,   0.01852,  -0.03611,   0.02535,   0.03803,   0.01169,  -0.01269,   0.01365,   0.00389,  -0.00001,  -0.00879,  -0.04098,  -0.03123,   0.00779,  -0.00294,   0.00779,  -0.00684,  -0.02830,   0.04876,  -0.00879,  -0.00391,   0.00291,   0.02925,   0.03998,  -0.01269,  -0.00196,  -0.00977,  -0.00586,   0.00194,  -0.00196,   0.01169,   0.01072,   0.01267,   0.02340,  -0.02537,  -0.00489,  -0.01952,   0.02925,   0.01950,  -0.04488,   0.02145,   0.01267,  -0.03318,  -0.03123,  -0.02440,  -0.02635,   0.00096,  -0.00879,  -0.00879,   0.01657,  -0.00196,  -0.00099,  -0.03708,   0.00779,   0.04389,  -0.00684,  -0.02050,  -0.01952,  -0.00001,   0.00096,   0.00779,  -0.01074,   0.00389,   0.05559,   0.00877,  -0.01464,  -0.03025,   0.02633,   0.01365,   0.01950,   0.01462,   0.00291,  -0.01660,   0.07608,  -0.00196,   0.04389,   0.01950,   0.02047,   0.00974,  -0.02147,   0.00877,   0.00096,  -0.00196,  -0.01855,   0.00487,  -0.00489,   0.02145,   0.03023,   0.04681,  -0.00977,  -0.03611,   0.01755,  -0.02537,  -0.01660,   0.01462,   0.03901,   0.01560,   0.03998,   0.00096,   0.02047,  -0.02342,  -0.00586,  -0.01562,   0.00096,  -0.01855,   0.02925,   0.02340,  -0.00001,  -0.03806,  -0.04001,   0.02242,   0.01560
  -0.01464,   0.00389,  -0.02440,   0.00194,  -0.00879,   0.03023,   0.05169,  -0.00001,   0.01852,  -0.01757,   0.01169,   0.04681,   0.00487,   0.00487,  -0.00684,   0.01657,   0.00584,  -0.02342,   0.02633,   0.01169,  -0.01367,   0.02633,  -0.00099,  -0.00294,  -0.00879,  -0.03025,  -0.03903,  -0.01660,  -0.00782,  -0.00196,   0.00389,  -0.04976,   0.00877,   0.00096,  -0.01172,  -0.02245,   0.02340,   0.00487,  -0.01464,  -0.01757,  -0.03025,  -0.02245,  -0.03123,  -0.00879,   0.03023,  -0.00391,  -0.04781,   0.03413,   0.00096,   0.01560,  -0.01172,  -0.00684,  -0.01074,  -0.00879,   0.01267,   0.00974,   0.01560,   0.02340,  -0.01074,   0.03608,   0.02438,   0.01072,   0.02145,  -0.00684,  -0.00196,  -0.02928,  -0.02342,   0.02242,  -0.00782,  -0.02733,  -0.01074,  -0.01367,  -0.03318,   0.01267,  -0.03611,   0.01852,   0.00487,   0.00974,   0.01169,  -0.00391,   0.02633,   0.00877,   0.01072,   0.00096,   0.00096,  -0.00977,   0.03316,   0.04096,   0.01072,  -0.01074,  -0.03611,   0.01365,  -0.00099,   0.01267,  -0.03220,  -0.00099,  -0.04001,  -0.03123,   0.08388,  -0.01172,  -0.00977,  -0.01074,   0.00487,   0.00487,  -0.00489,  -0.03415,   0.00291,   0.02047,   0.00584,   0.00584,  -0.01952,  -0.01074,  -0.01464,  -0.01952,  -0.00391,   0.01755,   0.03218,   0.01267,  -0.01757,   0.01462,  -0.00099,   0.02438,  -0.01269,   0.00291,  -0.04391,  -0.00196,   0.02828,  -0.02342,  -0.02830,  -0.00586,  -0.01660,   0.00389,  -0.01952,   0.00194,  -0.00001,  -0.00391,  -0.04391,   0.03316,  -0.00977,   0.00584,  -0.02733,   0.02145,  -0.02635,  -0.00977,   0.00389,  -0.01562,   0.00682,   0.03023,   0.03120,   0.00974,  -0.01269,  -0.01172,   0.01657,   0.01657,   0.03316,  -0.02147,  -0.02147,  -0.00196,   0.02047,  -0.00684,  -0.04098,  -0.03806,  -0.01757,   0.00974,  -0.01464,  -0.00489,  -0.01269,   0.01072,  -0.02147,  -0.02928,   0.01657,  -0.02147,   0.01755,  -0.02147,   0.01072,   0.01462,   0.01365,   0.02145,  -0.00489,   0.00974,   0.00877,   0.03120,  -0.00099,  -0.00391,  -0.01172,  -0.01855,   0.00584,  -0.02635,   0.00194,  -0.04391,   0.00487,   0.00682,  -0.00489,  -0.01855,   0.03316,   0.00291,  -0.00099,  -0.02928,  -0.01562,   0.00487,  -0.01464,   0.01072,   0.00682,  -0.02342,   0.02828,   0.04974,   0.01169,  -0.01464,  -0.02537,   0.00779,  -0.00489,  -0.01464,  -0.02050,  -0.00391,  -0.02245,   0.00974,   0.00877,  -0.00099,  -0.00586,   0.00487,   0.00877,  -0.01367,  -0.03513,   0.00194,   0.01852,  -0.00391,   0.03511,   0.04876,   0.01365,   0.01169,  -0.01855,  -0.02440,   0.01657,  -0.00001,   0.02242,  -0.01172,  -0.04001,   0.02242,   0.02925,  -0.04098,  -0.00977,   0.05462,  -0.01660,   0.02925,  -0.00782,  -0.00782,   0.04291,  -0.04391,  -0.01757,  -0.04684,  -0.02928,   0.00389,  -0.00489,   0.01462,  -0.03903,   0.01072
  -0.02440,   0.00584,  -0.02147,   0.00877,   0.00096,   0.00779,   0.00096,   0.02925,   0.00877,   0.00584,  -0.00586,  -0.01367,  -0.02733,  -0.00977,  -0.01367,   0.04193,  -0.00586,  -0.00391,   0.01072,   0.02438,   0.02633,   0.05949,   0.01852,  -0.01464,   0.00096,   0.02242,  -0.01269,  -0.01562,   0.00096,  -0.01660,   0.02340,   0.01267,   0.02047,   0.00584,  -0.03220,   0.02730,   0.03316,   0.03316,   0.01072,   0.03998,   0.01267,   0.00974,  -0.01952,   0.03316,  -0.03025,  -0.01269,   0.01072,  -0.00977,   0.03608,   0.02047,  -0.00391,   0.00682,   0.01267,  -0.03415,   0.01267,   0.01950,  -0.03123,   0.01755,   0.01365,  -0.00294,   0.01365,   0.02340,  -0.01660,   0.02438,   0.01462,   0.00291,   0.01072,   0.02535,   0.00487,   0.03120,   0.01365,   0.02242,   0.00877,   0.01950,   0.03803,  -0.04293,   0.02535,  -0.01855,   0.00291,   0.03023,   0.01755,   0.01852,   0.00682,  -0.01464,   0.01657,   0.03901,   0.03413,  -0.00586,   0.03316,  -0.00001,   0.05462,   0.03511,  -0.00196,   0.01462,   0.03413,  -0.00001,   0.02828,   0.01462,  -0.03513,   0.00584,  -0.02245,  -0.00684,   0.00291,   0.02242,   0.01462,  -0.00684,  -0.00684,   0.01169,   0.02242,   0.02925,  -0.04293,   0.03998,  -0.00391,  -0.00391,   0.00389,  -0.00391,   0.06047,   0.02633,   0.01657,   0.01365,  -0.02635,  -0.02245,  -0.01855,  -0.03903,   0.00974,   0.00682,   0.02145,  -0.00099,   0.00291,  -0.00001,   0.03316,   0.02438,  -0.02342,  -0.01269,   0.01072,  -0.03025,   0.01852,  -0.02245,   0.01267,   0.01950,  -0.00099,  -0.01172,  -0.00879,   0.00682,  -0.01952,  -0.01562,  -0.01367,   0.03608,   0.02242,   0.04291,  -0.00879,  -0.00099,   0.08876,   0.01852,   0.00682,   0.00194,  -0.04684,   0.01365,  -0.03611,  -0.01172,   0.02047,  -0.00294,  -0.01855,  -0.01562,  -0.02635,  -0.00391,  -0.00001,  -0.00879,  -0.03318,   0.01169,   0.00487,  -0.02147,   0.01755,   0.02633,  -0.02245,  -0.04391,   0.00682,  -0.00879,   0.01072,  -0.01269,   0.00291,   0.03803,  -0.01562,   0.02535,  -0.00294,   0.00194,  -0.03415,  -0.01269,   0.02438,   0.01169,   0.00974,  -0.03708,  -0.01172,  -0.01660,  -0.01464,   0.00487,  -0.01367,  -0.02050,   0.00779,  -0.02635,   0.01365,  -0.03806,  -0.00489,   0.02925,  -0.02147,   0.00194,   0.01267,  -0.00586,   0.00194,  -0.05757,  -0.00586,  -0.02928,  -0.02928,  -0.01172,   0.02730,  -0.00586,   0.01169,  -0.01757,  -0.00099,   0.01462,  -0.02245,   0.00487,   0.03511,   0.01852,   0.03023,  -0.05464,  -0.04391,   0.00487,  -0.03415,   0.01169,   0.01462,   0.01462,   0.01755,  -0.00489,   0.00291,  -0.02635,   0.00096,   0.00291,  -0.00879,  -0.03611,  -0.01367,  -0.01464,  -0.02440,   0.02340,   0.01072,   0.05559,  -0.00782,  -0.00391,  -0.05171,  -0.03415,  -0.01367,  -0.02440,  -0.02342,  -0.02830,   0.02730,   0.01169
  -0.00099,   0.01657,  -0.04781,  -0.01855,   0.07218,   0.01852,  -0.00977,  -0.00196,  -0.00001,  -0.02440,   0.02535,  -0.00977,  -0.03123,   0.02438,  -0.02050,   0.01072,   0.01852,  -0.07415,  -0.04293,   0.06047,   0.00389,  -0.00001,  -0.03513,  -0.03806,   0.00194,  -0.00977,  -0.01172,   0.01560,  -0.01367,   0.02340,  -0.00391,  -0.00684,   0.00291,   0.02535,   0.04389,   0.02730,  -0.01464,  -0.04391,   0.02633,  -0.02147,   0.03120,  -0.00294,  -0.01562,   0.00389,  -0.00684,   0.03608,  -0.00294,  -0.01367,   0.01462,   0.00974,   0.00779,  -0.00489,  -0.02245,   0.02633,   0.00584,   0.00682,  -0.00879,   0.02438,  -0.03123,  -0.00977,   0.00682,  -0.00391,   0.01267,   0.00096,   0.02145,   0.02633,   0.00096,  -0.01074,  -0.00586,   0.02340,  -0.00684,  -0.05562,   0.00389,  -0.01757,  -0.03513,   0.02047,  -0.02342,   0.01657,  -0.01952,  -0.01855,  -0.03708,  -0.04196,   0.00877,   0.00487,   0.02633,  -0.00879,  -0.04001,  -0.00391,   0.02340,  -0.00977,   0.02145,   0.00389,   0.00584,  -0.00489,   0.04486,  -0.00879,  -0.02733,  -0.04586,   0.01169,   0.00096,   0.02730,  -0.02928,  -0.02050,   0.00096,   0.00877,  -0.00782,   0.02828,   0.00194,  -0.00391,  -0.00684,  -0.01269,  -0.00586,  -0.04586,   0.02730,   0.03511,   0.01852,  -0.00782,   0.02145,  -0.03513,  -0.02147,  -0.04098,  -0.03903,  -0.02245,   0.01852,   0.00389,   0.01657,   0.00682,  -0.00489,   0.00194,  -0.02440,   0.00194,  -0.03415,  -0.00001,  -0.01757,   0.00487,  -0.08390,  -0.02050,  -0.02440,   0.01462,  -0.00586,  -0.02245,  -0.01367,  -0.02342,  -0.02050,  -0.00391,   0.03023,  -0.01172,   0.04096,  -0.02440,  -0.01660,  -0.02245,  -0.00489,  -0.00391,   0.03608,  -0.01464,   0.00487,  -0.00977,   0.01365,   0.00194,   0.04486,  -0.01269,  -0.02245,   0.00389,  -0.00196,  -0.03415,  -0.00099,   0.01169,  -0.04586,  -0.00586,  -0.00782,   0.01657,   0.01560,   0.00682,  -0.07025,  -0.04391,   0.01072,  -0.03318,   0.05462,   0.01462,  -0.00196,   0.00584,   0.00974,  -0.01074,  -0.00001,  -0.01952,  -0.02245,  -0.00099,   0.01462,   0.00584,  -0.01757,   0.00487,  -0.02928,  -0.01660,  -0.01660,  -0.02245,  -0.00782,   0.02730,  -0.00099,  -0.00586,   0.04096,   0.00877,  -0.00879,   0.04681,  -0.01855,  -0.00489,   0.01950,   0.00096,  -0.01464,  -0.00586,  -0.00294,  -0.02635,  -0.01367,   0.04389,   0.02633,   0.02925,  -0.03123,   0.01169,   0.04681,  -0.00294,  -0.03123,   0.00291,   0.03511,  -0.01269,  -0.05269,   0.04193,   0.00779,  -0.00782,  -0.04879,  -0.02147,   0.03608,  -0.02342,  -0.03708,   0.02145,  -0.00586,   0.02925,  -0.03708,  -0.01172,   0.01365,  -0.01367,  -0.00391,  -0.01660,  -0.02050,   0.01072,   0.00291,  -0.02440,   0.02730,  -0.02245,  -0.04976,   0.00974,  -0.00294,   0.00096,   0.00779,   0.02535,  -0.01855,   0.01267,   0.02925
  -0.00489,   0.01365,  -0.04586,  -0.03708,  -0.01464,   0.01072,  -0.00977,  -0.04293,  -0.01269,  -0.04684,  -0.04001,   0.02340,  -0.01367,   0.01267,   0.01072,   0.01560,   0.00194,  -0.02928,  -0.01562,  -0.03513,  -0.00977,   0.00779,  -0.00782,  -0.01172,  -0.03025,   0.00194,  -0.00879,  -0.02147,  -0.01952,  -0.01172,   0.01169,   0.00584,  -0.00977,   0.02145,  -0.00391,   0.00096,   0.03316,   0.03998,   0.01462,  -0.00099,   0.01072,  -0.07708,   0.01365,  -0.04781,  -0.00001,   0.01950,  -0.01367,  -0.01855,   0.03218,  -0.00782,  -0.04293,  -0.02050,   0.01462,   0.02438,  -0.00196,  -0.01464,  -0.02342,   0.01950,   0.03316,   0.03120,  -0.03123,  -0.01367,   0.01950,   0.01267,  -0.04976,   0.02145,   0.04193,  -0.00196,  -0.01562,  -0.00782,  -0.01269,   0.01755,   0.01950,  -0.05464,  -0.03513,   0.00194,   0.00682,  -0.00391,  -0.00977,  -0.03611,   0.03023,  -0.01855,  -0.02342,   0.04193,   0.00682,   0.00096,  -0.02245,   0.04389,   0.02242,   0.06535,  -0.00294,   0.03316,   0.02633,   0.03218,  -0.02245,  -0.00489,  -0.03611,   0.00779,   0.01950,   0.01169,   0.02340,   0.00194,   0.00096,  -0.01855,   0.03023,   0.01657,  -0.01562,   0.00974,   0.01267,  -0.03611,  -0.00879,  -0.02342,  -0.00196,  -0.03611,  -0.01074,   0.02535,   0.04779,  -0.01757,   0.02047,   0.00194,   0.01657,   0.03901,  -0.00879,   0.00877,   0.02145,  -0.03025,   0.01267,  -0.00099,   0.00389,   0.01169,   0.00682,  -0.01855,   0.01462,   0.01755,  -0.01855,  -0.03903,   0.00779,  -0.01172,  -0.02245,  -0.02245,  -0.05464,   0.00194,  -0.00879,   0.00389,   0.00682,   0.01072,  -0.03025,  -0.06439,  -0.00782,  -0.02440,  -0.04001,  -0.02147,  -0.00684,   0.00096,   0.02438,  -0.00977,   0.00389,  -0.03025,  -0.01562,   0.00584,  -0.01074,   0.01755,  -0.01269,   0.01462,  -0.03220,  -0.00684,   0.01950,   0.00487,   0.01657,   0.02145,   0.00779,  -0.00489,  -0.00196,   0.00779,   0.02242,   0.01852,   0.00389,  -0.00001,  -0.01952,  -0.02733,  -0.05464,   0.00779,   0.00291,   0.01365,  -0.00001,   0.02145,   0.00779,  -0.00782,   0.03023,  -0.00977,  -0.00586,  -0.01562,   0.00194,  -0.01269,  -0.00977,   0.00389,  -0.02733,  -0.04098,  -0.03513,  -0.00782,   0.02242,   0.00877,   0.01072,  -0.02733,   0.01950,   0.02730,   0.02145,  -0.03025,  -0.02830,   0.00487,  -0.00391,  -0.00977,  -0.00294,  -0.00294,  -0.00489,   0.01365,  -0.01855,  -0.00489,   0.01169,  -0.01172,  -0.03318,   0.02535,   0.02047,   0.02340,  -0.00684,   0.04096,  -0.00684,   0.00389,  -0.01855,  -0.04001,  -0.00489,  -0.02245,  -0.03220,  -0.00294,  -0.03903,   0.02925,   0.03218,  -0.01074,  -0.01172,  -0.01562,  -0.00196,  -0.01660,  -0.00586,  -0.02342,  -0.01562,  -0.00879,  -0.02050,  -0.03415,   0.00389,   0.01560,   0.01657,  -0.01074,   0.01462,  -0.00294,   0.01169,  -0.00586
  -0.02050,   0.03608,  -0.00586,  -0.00294,  -0.02537,  -0.00684,  -0.00196,  -0.00001,  -0.01952,   0.01267,   0.00877,  -0.00294,   0.01560,  -0.00391,   0.00682,  -0.01074,  -0.02733,  -0.01464,  -0.01074,   0.00096,   0.01462,  -0.03123,  -0.00489,  -0.02830,  -0.02342,  -0.01172,  -0.03708,   0.03608,  -0.03415,  -0.00294,   0.02730,  -0.04488,   0.02047,  -0.02147,   0.00682,   0.00096,   0.03998,   0.01072,   0.00974,   0.05949,  -0.01660,  -0.02342,  -0.00001,   0.01365,  -0.00294,  -0.00489,  -0.00782,   0.03023,   0.03706,  -0.01952,   0.04096,  -0.00879,  -0.03318,  -0.00489,   0.04193,   0.02242,  -0.02147,  -0.00586,  -0.01464,  -0.01269,   0.02730,   0.00194,   0.04389,  -0.00294,  -0.00196,   0.01755,   0.01852,   0.01852,  -0.02245,  -0.01757,  -0.03318,   0.00194,  -0.00782,  -0.04488,   0.00877,   0.00584,  -0.00684,  -0.00099,   0.00389,   0.02047,  -0.02635,   0.02340,  -0.03513,  -0.01172,  -0.01757,  -0.02342,  -0.04586,   0.03120,   0.00779,   0.01462,  -0.02147,  -0.01367,   0.00096,   0.00096,   0.00291,   0.00389,   0.01169,  -0.01172,  -0.05562,  -0.00586,   0.01560,   0.00096,   0.02145,  -0.02733,  -0.02440,  -0.00294,  -0.02440,  -0.02537,   0.00096,   0.00096,   0.00779,   0.00584,  -0.03025,   0.00194,   0.02633,  -0.01952,   0.01267,  -0.01269,   0.00487,   0.00682,   0.03511,   0.00291,  -0.00196,   0.00682,  -0.02928,  -0.01269,   0.02145,   0.02340,  -0.03123,  -0.03708,   0.00584,  -0.01855,  -0.04293,   0.01365,   0.02340,  -0.01952,   0.00487,  -0.03513,   0.01852,  -0.00489,  -0.03415,  -0.02928,  -0.00001,   0.00584,   0.02047,  -0.00782,   0.01852,  -0.03220,  -0.01855,   0.00584,  -0.02928,   0.02828,   0.02925,   0.00682,   0.01950,   0.01267,  -0.00294,  -0.02440,  -0.00879,  -0.02733,  -0.02050,   0.01365,   0.03608,  -0.00001,  -0.02537,   0.01072,  -0.01367,   0.02145,  -0.03708,  -0.04391,   0.01950,   0.00194,  -0.00294,   0.00682,   0.00291,   0.00096,  -0.00879,   0.01755,  -0.02147,  -0.01172,  -0.01757,   0.04584,   0.00779,  -0.00294,  -0.03123,  -0.04098,   0.01169,  -0.00294,   0.00487,   0.01560,  -0.01562,  -0.00099,  -0.00391,  -0.01464,  -0.01562,  -0.03318,  -0.01952,  -0.01952,  -0.00001,   0.00584,  -0.01464,  -0.02050,  -0.00879,  -0.01172,  -0.00489,   0.00584,  -0.01952,  -0.02635,   0.03120,  -0.02050,  -0.02050,  -0.00586,   0.01755,   0.04096,  -0.00586,  -0.00196,  -0.03123,  -0.00782,   0.00877,   0.03511,   0.02925,   0.00194,   0.02828,   0.01657,   0.02340,   0.02730,  -0.00294,   0.03901,  -0.00684,  -0.00001,  -0.03318,  -0.00196,   0.03998,  -0.02050,  -0.02245,   0.02145,   0.01072,   0.00487,  -0.00489,   0.03218,   0.02925,   0.05949,  -0.08293,   0.00584,  -0.01367,   0.01657,  -0.00684,   0.02242,  -0.00196,  -0.02147,  -0.01562,   0.02535,   0.02047,   0.00389,   0.01950,  -0.04196
  -0.01074,  -0.01464,   0.00096,   0.00584,   0.03413,  -0.00099,  -0.01855,  -0.05171,  -0.02147,   0.04389,   0.00487,   0.00389,   0.02242,   0.00584,  -0.02147,   0.00194,  -0.02635,  -0.01757,   0.00584,  -0.05074,  -0.02245,  -0.04098,  -0.00099,   0.02925,  -0.00782,   0.01755,  -0.01367,   0.02145,  -0.00879,  -0.02440,  -0.03220,   0.00779,  -0.00099,   0.03316,  -0.00099,  -0.00196,  -0.01464,  -0.02733,  -0.00099,  -0.04098,  -0.02245,  -0.02928,   0.00682,   0.02047,   0.00487,  -0.03123,  -0.01074,   0.02730,   0.03413,   0.03998,  -0.01172,  -0.02928,   0.02925,   0.03218,  -0.00782,   0.02828,   0.04486,  -0.01464,   0.00291,   0.01657,   0.00291,   0.01169,  -0.01855,   0.02438,  -0.00391,   0.03218,   0.00584,   0.02242,   0.01462,  -0.01172,  -0.03025,  -0.00586,  -0.01269,   0.01950,   0.00389,   0.02535,  -0.00489,   0.00974,  -0.01952,   0.01267,  -0.00586,  -0.04098,  -0.04781,   0.04389,   0.00096,  -0.04586,  -0.01855,  -0.04001,  -0.01855,  -0.01855,  -0.02342,   0.03706,   0.01365,   0.01755,   0.00974,   0.01657,   0.00974,  -0.02245,  -0.00977,  -0.02050,   0.01462,   0.00096,  -0.00391,  -0.00489,   0.00389,  -0.00001,  -0.01172,   0.00877,   0.00389,   0.02438,   0.03901,   0.01267,  -0.01562,   0.03608,  -0.02050,   0.04291,   0.00779,   0.03511,  -0.00782,  -0.03025,   0.01267,  -0.00684,  -0.00782,   0.00877,   0.01657,   0.01950,   0.00877,  -0.00977,   0.01657,  -0.00099,   0.04584,   0.02633,   0.01852,  -0.00294,   0.04291,   0.01267,  -0.00196,  -0.00196,  -0.00294,  -0.01757,   0.00877,  -0.00879,  -0.01074,   0.02535,   0.04193,   0.00389,   0.00682,  -0.00196,   0.00389,   0.03218,   0.00682,   0.00682,   0.00682,   0.04193,  -0.00977,  -0.06830,   0.06047,   0.00291,  -0.00684,  -0.01172,   0.01365,   0.01950,  -0.00977,  -0.02342,   0.04974,  -0.03123,   0.00487,   0.03511,  -0.00879,   0.02340,  -0.01172,   0.03608,  -0.00977,   0.01852,  -0.00782,  -0.02733,   0.02340,   0.02145,   0.01267,   0.00974,   0.00291,   0.01169,   0.00291,   0.00291,   0.02145,   0.00779,  -0.02342,  -0.00489,   0.00389,  -0.00684,  -0.01172,   0.03413,  -0.02342,  -0.02733,   0.00974,  -0.03806,   0.03608,   0.01852,  -0.01562,  -0.02342,  -0.01464,   0.00389,  -0.01855,  -0.02050,   0.01267,  -0.01660,   0.01755,   0.01267,   0.00194,  -0.02635,  -0.02733,   0.02340,   0.00194,  -0.04781,  -0.00684,  -0.00294,   0.02925,   0.04974,   0.02633,   0.03023,   0.03413,   0.00877,  -0.00489,  -0.01952,  -0.01952,  -0.00099,   0.01072,   0.03316,   0.00194,  -0.01269,  -0.04391,  -0.01172,  -0.01855,   0.01267,  -0.01464,  -0.02342,  -0.02830,  -0.00586,   0.02535,   0.01462,   0.01755,  -0.02440,   0.03803,  -0.01367,  -0.01855,  -0.02342,  -0.00196,  -0.02830,  -0.03025,  -0.03123,  -0.03513,   0.01072,   0.01852,  -0.01660,  -0.00977,   0.01560
   0.00682,   0.02828,  -0.01074,  -0.04001,   0.02438,  -0.00489,  -0.00196,  -0.01269,   0.01267,   0.02730,   0.00389,  -0.01172,   0.03511,   0.00584,   0.01755,   0.03511,  -0.00294,  -0.01074,   0.02047,   0.01267,   0.03998,  -0.01562,   0.03218,  -0.02440,   0.05949,   0.03316,  -0.00977,   0.00487,   0.00291,  -0.02830,  -0.00196,   0.00194,  -0.02245,   0.01462,   0.01950,   0.00389,  -0.06244,  -0.03903,   0.02438,   0.00194,  -0.02537,  -0.00001,  -0.04586,  -0.01172,  -0.00586,   0.00487,   0.06242,   0.02145,   0.03023,   0.01365,  -0.00294,  -0.00977,  -0.01074,  -0.00977,   0.00487,   0.01267,   0.00487,   0.01365,   0.01072,  -0.00782,   0.01560,  -0.01855,  -0.00684,   0.00487,   0.04779,   0.01072,   0.03023,   0.00584,  -0.00099,   0.02730,   0.05657,   0.02925,   0.00096,   0.01267,   0.06144,   0.00291,  -0.00879,  -0.00586,  -0.00001,  -0.01660,  -0.03415,   0.04291,  -0.01562,   0.02047,   0.00194,  -0.03318,  -0.01464,   0.02242,   0.00487,   0.00779,  -0.01074,  -0.01562,   0.05169,  -0.01464,  -0.03513,   0.02730,  -0.00196,  -0.01269,   0.00877,   0.01560,   0.00096,  -0.02147,  -0.01074,   0.02242,   0.01950,  -0.00489,  -0.00489,   0.02340,  -0.00196,  -0.03611,  -0.00196,  -0.03220,   0.01852,   0.00194,  -0.00977,  -0.02147,  -0.02537,   0.00877,   0.00194,  -0.03123,  -0.00391,  -0.02342,  -0.01464,  -0.02245,  -0.00977,  -0.00977,   0.00877,   0.03120,   0.00584,   0.01755,  -0.01464,   0.01267,   0.02730,  -0.02928,  -0.01074,  -0.04391,  -0.01562,   0.02047,   0.01365,   0.02535,   0.05852,   0.00194,  -0.00977,   0.02047,   0.00779,   0.00877,  -0.01074,  -0.02147,   0.03120,  -0.01172,   0.03803,   0.01169,   0.01267,  -0.02147,  -0.01172,   0.02145,  -0.00782,   0.01950,  -0.00391,   0.01657,  -0.01269,   0.01657,   0.02535,   0.01657,   0.00877,   0.04096,   0.00877,  -0.03415,  -0.01367,   0.00877,   0.01852,   0.02145,   0.01267,   0.00194,   0.05169,   0.03706,   0.02242,   0.01072,  -0.00586,  -0.01367,   0.02340,   0.02535,  -0.03708,   0.01365,   0.02242,   0.02633,   0.01755,   0.01365,  -0.01269,  -0.03611,   0.02242,  -0.01952,  -0.02342,  -0.00001,   0.02535,  -0.03220,   0.00291,   0.00291,   0.00487,   0.00682,  -0.01269,  -0.00391,  -0.00489,   0.02340,   0.02145,   0.01657,   0.03023,   0.04096,   0.02047,   0.01950,  -0.00782,  -0.04781,  -0.00489,  -0.03611,   0.01852,  -0.00196,  -0.02147,   0.02242,  -0.01367,   0.03706,  -0.00099,  -0.00489,  -0.00294,  -0.02635,  -0.04001,   0.01560,  -0.04488,   0.01852,  -0.02537,   0.03998,   0.00974,  -0.00977,  -0.00586,  -0.01464,   0.00682,   0.01169,  -0.00391,   0.04389,   0.02145,   0.01560,  -0.00879,   0.01072,  -0.03903,   0.04096,  -0.02733,  -0.02928,   0.02242,  -0.04488,   0.03023,  -0.00489,  -0.01367,   0.00487,   0.00194,  -0.02342,   0.02047,   0.03608
  -0.01172,   0.01950,  -0.00294,   0.01755,   0.02145,   0.02535,   0.01560,   0.04389,   0.01852,  -0.04196,  -0.02050,   0.00877,  -0.01562,   0.04486,  -0.01562,   0.01950,   0.03023,   0.00291,  -0.02635,  -0.04196,   0.01852,   0.02730,   0.03511,  -0.01952,   0.01852,   0.00487,  -0.02245,   0.03511,   0.03706,   0.02535,  -0.00586,   0.00584,  -0.00782,   0.00584,   0.00877,  -0.02342,  -0.03611,   0.06144,   0.03803,   0.00974,  -0.03318,  -0.01660,   0.00877,  -0.01952,  -0.04586,   0.01950,   0.02438,  -0.01464,   0.03023,   0.00974,   0.00096,   0.01560,  -0.01074,   0.01169,  -0.00391,  -0.03415,  -0.00489,  -0.00879,  -0.01757,  -0.01074,   0.00096,   0.00096,   0.02633,   0.05364,   0.01267,  -0.01269,   0.03218,   0.03218,  -0.02635,  -0.00489,  -0.00196,   0.01267,  -0.00196,  -0.01952,   0.05169,  -0.00196,   0.00291,   0.04291,   0.02438,   0.02145,  -0.02635,   0.01657,  -0.01757,   0.01072,  -0.01367,   0.00682,   0.00779,  -0.03318,   0.02047,   0.00487,   0.00877,  -0.03025,   0.05754,  -0.02440,  -0.03806,   0.02633,   0.01657,   0.04584,  -0.00489,   0.01657,  -0.00294,  -0.04391,  -0.03123,   0.01365,   0.00389,   0.01852,   0.01462,  -0.01464,  -0.00001,   0.00487,  -0.03220,   0.03803,   0.00682,  -0.02928,   0.01267,  -0.03708,   0.00487,   0.04291,   0.00194,  -0.04488,   0.00779,  -0.01855,  -0.02733,   0.00877,   0.01657,   0.01755,  -0.00879,  -0.00196,   0.04096,  -0.00879,   0.03706,  -0.03415,   0.00291,  -0.00879,  -0.00196,  -0.01367,  -0.03611,   0.04193,   0.03413,   0.00487,  -0.01172,   0.00682,   0.00096,   0.00096,  -0.00879,  -0.01269,   0.03998,   0.03803,  -0.03708,   0.00096,  -0.01269,   0.00682,  -0.02928,   0.05169,   0.01950,   0.00877,  -0.01660,   0.02535,  -0.02245,   0.02242,  -0.02342,   0.02242,  -0.00684,   0.00389,   0.03120,  -0.01269,  -0.00294,   0.00974,  -0.02830,  -0.00782,   0.01560,   0.02047,  -0.00294,  -0.03611,  -0.03025,  -0.00294,  -0.01074,   0.02438,   0.03316,   0.01169,  -0.00099,  -0.09366,   0.00584,  -0.03025,   0.02145,   0.00096,  -0.02245,  -0.03123,  -0.00294,   0.02145,   0.01267,   0.02242,  -0.02147,  -0.01172,  -0.01757,  -0.01660,  -0.02147,   0.03316,  -0.00196,  -0.00099,  -0.00879,  -0.01464,   0.03120,  -0.00391,   0.03413,  -0.02928,   0.01560,  -0.00294,   0.02438,  -0.02928,   0.00096,   0.00291,  -0.00099,  -0.02245,   0.02340,   0.02535,   0.01560,   0.01267,   0.00291,   0.02242,  -0.00099,  -0.01172,   0.03608,   0.01560,  -0.00684,   0.00877,   0.00389,   0.00974,  -0.01074,  -0.01172,   0.04779,  -0.01757,   0.00974,   0.02633,   0.00974,   0.02828,   0.04876,  -0.03318,   0.01950,  -0.01074,  -0.03220,  -0.00684,  -0.00196,   0.02340,   0.02730,   0.03706,  -0.01074,  -0.02147,  -0.00001,  -0.00196,   0.00974,   0.00487,   0.04486,   0.03511,  -0.01269,   0.01267
   0.01267,   0.01365,   0.02145,   0.01462,  -0.01952,  -0.00782,   0.03023,   0.00194,  -0.03025,   0.05267,  -0.00099,  -0.03025,   0.00194,  -0.00977,  -0.01660,  -0.01464,   0.00096,  -0.02537,  -0.00196,  -0.05659,  -0.00294,   0.03218,   0.00584,  -0.00196,  -0.00294,  -0.00977,  -0.03513,   0.06535,   0.02535,  -0.01660,  -0.01074,   0.00487,  -0.03025,   0.01560,  -0.01464,   0.01169,   0.02730,   0.03901,   0.00779,   0.03901,   0.00096,   0.01169,   0.01852,  -0.01562,   0.01852,  -0.01172,   0.00584,   0.01560,  -0.00489,   0.06925,  -0.00294,   0.03120,  -0.01367,   0.00779,  -0.00684,   0.02145,  -0.02147,  -0.00489,   0.03998,  -0.03123,  -0.03123,   0.01462,   0.01657,  -0.00879,   0.01072,  -0.00782,   0.01267,   0.02730,  -0.00489,   0.02633,  -0.00879,  -0.01074,   0.01657,   0.05949,  -0.03708,   0.01560,   0.03316,  -0.00001,  -0.00586,   0.00096,  -0.03611,   0.03218,   0.02633,  -0.02635,   0.01657,   0.07608,   0.02633,  -0.00099,   0.02340,  -0.02050,  -0.03415,  -0.02245,  -0.01855,   0.02633,  -0.03415,   0.08583,  -0.03513,   0.00877,   0.00096,  -0.03123,  -0.01464,   0.03706,   0.03218,  -0.04391,   0.00974,   0.01755,  -0.01660,  -0.00489,  -0.00489,   0.02730,  -0.04391,  -0.01464,   0.01072,  -0.01660,   0.03316,  -0.01757,  -0.02537,   0.02145,  -0.03415,  -0.00099,  -0.01660,   0.01169,   0.00779,  -0.00586,  -0.03415,   0.01657,   0.01169,  -0.02440,   0.00291,  -0.01855,   0.02340,  -0.01952,   0.06437,   0.04193,  -0.00099,   0.02438,  -0.01757,  -0.00391,  -0.01660,   0.00584,   0.00487,  -0.01855,   0.03120,   0.01169,  -0.00001,  -0.04488,   0.00096,   0.01267,   0.01755,  -0.01172,  -0.02342,  -0.02342,  -0.02342,   0.00487,  -0.00391,  -0.02635,  -0.01660,   0.03120,   0.02535,   0.01169,   0.00682,   0.01755,  -0.02537,  -0.03318,  -0.04586,   0.03120,  -0.00391,  -0.01952,   0.01072,   0.01365,  -0.00879,  -0.01855,   0.01462,  -0.01562,   0.04291,  -0.03415,   0.00584,   0.00389,   0.00779,   0.00389,  -0.00684,   0.03803,  -0.00099,  -0.03220,   0.03023,  -0.00782,  -0.00586,   0.00194,  -0.01757,  -0.00684,  -0.00977,   0.01657,   0.01755,   0.01169,   0.02535,  -0.05757,  -0.00586,  -0.00001,  -0.03025,   0.00389,   0.01365,  -0.02733,   0.07900,   0.01365,   0.02925,  -0.00489,  -0.01367,  -0.00489,  -0.04976,  -0.01952,  -0.01074,   0.00779,  -0.06927,   0.02242,   0.00291,  -0.02147,  -0.00001,   0.02828,  -0.03415,   0.00779,  -0.06244,   0.03901,   0.01072,  -0.00391,   0.03608,  -0.00099,   0.00291,  -0.00684,   0.00389,  -0.04391,  -0.02342,   0.00974,  -0.01269,  -0.00684,   0.01950,  -0.02245,   0.00877,   0.01169,   0.03120,  -0.00196,  -0.04196,   0.01365,   0.02730,   0.03316,   0.00779,  -0.01660,  -0.01660,   0.01852,  -0.03025,  -0.00391,  -0.03611,   0.03218,  -0.02050,   0.01169,  -0.02928,  -0.02733
  -0.01172,  -0.04488,   0.04486,  -0.00391,  -0.00586,  -0.01562,  -0.02537,  -0.01855,  -0.02537,   0.00974,  -0.03611,  -0.04781,   0.00194,  -0.00782,   0.03023,   0.03706,  -0.02928,   0.01560,   0.02047,  -0.02928,   0.02438,   0.02340,   0.00389,  -0.00586,   0.02633,  -0.00294,   0.04584,   0.01462,   0.00682,   0.00584,  -0.03025,  -0.00391,   0.02145,  -0.00001,  -0.02147,   0.00779,  -0.00294,   0.01462,   0.01267,  -0.01074,   0.00974,   0.01560,  -0.04196,   0.01852,   0.00877,   0.00389,  -0.01464,  -0.00001,  -0.01269,  -0.00099,  -0.00977,   0.01462,   0.01169,   0.00779,  -0.02147,  -0.01269,  -0.03025,   0.04193,  -0.02147,  -0.03513,   0.03901,   0.00877,  -0.03025,   0.01755,   0.02535,  -0.01757,   0.00584,   0.00096,   0.03901,  -0.00001,  -0.00294,   0.02145,   0.00877,   0.00974,  -0.04781,  -0.03123,   0.00487,  -0.03708,   0.00877,  -0.00099,   0.00779,   0.00779,  -0.00879,   0.02047,   0.01365,  -0.04391,  -0.03318,   0.02438,  -0.03806,   0.00194,   0.03706,   0.02242,   0.01267,  -0.00099,   0.01365,  -0.01562,   0.03608,   0.01462,  -0.07415,  -0.01464,   0.01169,   0.00096,   0.02047,  -0.00196,  -0.02245,   0.00584,  -0.01172,   0.01657,   0.03608,   0.01365,   0.02925,   0.01852,  -0.01464,  -0.03220,   0.00974,   0.00291,   0.03803,   0.00584,   0.02047,  -0.00879,  -0.01952,   0.00877,  -0.03123,  -0.00489,  -0.02342,   0.03511,   0.01560,   0.00974,   0.00682,   0.00877,  -0.00586,  -0.04196,  -0.01367,  -0.00879,   0.02828,  -0.02830,   0.02340,   0.01560,   0.03316,  -0.01562,   0.03023,  -0.03708,  -0.00391,  -0.05464,   0.01755,   0.00389,  -0.00196,   0.01755,   0.04193,  -0.01855,   0.00682,  -0.01952,   0.02633,   0.02633,   0.03120,   0.02047,   0.01267,  -0.00099,  -0.01172,  -0.02050,  -0.00879,   0.02145,  -0.03220,   0.00974,  -0.01562,  -0.00879,   0.01169,  -0.00294,  -0.02050,  -0.01074,  -0.01074,   0.01072,  -0.00684,  -0.00684,   0.02340,  -0.03123,   0.01072,   0.02438,  -0.00879,  -0.03415,  -0.02050,   0.04389,  -0.00879,   0.01072,  -0.00294,   0.05559,  -0.01660,  -0.00196,   0.04389,  -0.03611,   0.02047,   0.00487,  -0.02635,  -0.00782,  -0.01464,   0.00096,  -0.00196,   0.02828,  -0.02635,  -0.02537,  -0.00196,  -0.01172,   0.00487,  -0.01367,   0.01950,  -0.03220,   0.01169,   0.00194,  -0.05366,  -0.01074,   0.01462,   0.05169,   0.01950,   0.01267,   0.01365,  -0.02635,   0.01462,  -0.01757,  -0.01562,   0.02535,  -0.00391,   0.00291,   0.04096,   0.02925,  -0.02440,   0.03413,   0.03218,  -0.01562,  -0.03220,  -0.00196,  -0.02245,  -0.00196,  -0.01172,  -0.03220,  -0.01464,  -0.00196,  -0.00586,   0.00194,  -0.05074,  -0.01269,   0.00584,   0.02828,   0.01657,   0.05169,   0.02730,   0.00584,   0.03316,  -0.02440,   0.01267,   0.01267,   0.02828,   0.00877,   0.02925,   0.05267,   0.00291,   0.02828
   0.04876,   0.00487,  -0.00489,  -0.01172,   0.02828,  -0.01074,  -0.01660,   0.03120,  -0.01855,   0.01755,   0.03218,  -0.03220,   0.01560,  -0.00879,   0.00487,  -0.00001,   0.03413,  -0.01757,  -0.01855,  -0.02928,  -0.02147,  -0.00294,   0.02242,   0.00974,   0.04876,   0.00779,   0.01950,   0.01169,  -0.01952,  -0.01952,   0.00096,   0.04876,  -0.03123,   0.00779,   0.01072,   0.01657,  -0.04098,  -0.00879,  -0.05854,   0.00877,  -0.00001,  -0.00294,  -0.04293,  -0.01757,  -0.01855,   0.01169,   0.05071,   0.03413,   0.00682,   0.06340,  -0.00782,   0.00779,   0.01755,  -0.00391,   0.02633,  -0.01855,   0.05169,  -0.01464,  -0.03708,  -0.00782,  -0.02342,  -0.02440,  -0.02245,   0.02340,   0.00096,  -0.01952,  -0.00391,  -0.00001,  -0.03025,  -0.00196,  -0.01757,   0.05754,   0.03218,   0.04096,   0.00194,  -0.00099,  -0.02245,   0.00389,   0.01755,  -0.02245,   0.00096,   0.02438,   0.01950,  -0.01367,   0.00194,   0.04974,   0.00682,  -0.01855,  -0.01464,   0.01852,  -0.02635,  -0.00196,  -0.01074,   0.00096,  -0.01855,  -0.01757,  -0.00391,   0.00779,  -0.04684,   0.01755,  -0.00196,   0.02828,   0.02438,  -0.01952,   0.03706,  -0.01855,  -0.02050,  -0.00782,  -0.00489,   0.02145,  -0.01757,  -0.04586,  -0.02537,   0.03413,   0.00096,   0.02535,  -0.02342,   0.00682,  -0.04001,  -0.04586,  -0.01855,   0.04876,  -0.00489,  -0.00586,  -0.01855,   0.03511,  -0.04001,  -0.03220,  -0.02147,   0.01560,   0.01365,   0.01072,  -0.03220,   0.02438,  -0.00977,  -0.04098,  -0.03318,  -0.01952,   0.03803,  -0.03123,   0.06925,  -0.00879,  -0.00294,   0.02145,  -0.01855,  -0.01562,  -0.01757,  -0.02147,  -0.01367,   0.01072,   0.00682,   0.03218,  -0.01757,   0.06925,  -0.02245,  -0.01757,  -0.02440,   0.00096,   0.03608,  -0.04098,   0.02242,  -0.01952,  -0.04391,   0.00877,  -0.06439,   0.01852,   0.01462,  -0.02733,   0.01560,  -0.03611,  -0.00001,   0.00779,   0.01462,  -0.00294,  -0.00684,  -0.02440,  -0.04781,   0.03803,   0.06047,  -0.03123,  -0.01074,  -0.04001,  -0.02928,   0.00877,  -0.03903,  -0.02440,  -0.01367,  -0.01660,  -0.02928,   0.03218,   0.01169,   0.01462,  -0.02147,  -0.01074,   0.02633,  -0.01464,  -0.00684,   0.04974,  -0.01464,   0.02925,  -0.01367,   0.00682,   0.00584,  -0.00684,  -0.00099,  -0.05854,  -0.02635,   0.03608,  -0.02440,   0.03023,   0.00487,   0.04389,  -0.01757,   0.00487,   0.02145,   0.03998,  -0.00879,  -0.00489,  -0.00391,  -0.02733,  -0.00977,   0.00779,  -0.00489,   0.02535,   0.01950,  -0.00977,   0.01365,   0.01657,   0.03218,  -0.05171,  -0.01562,   0.03023,  -0.02440,  -0.01367,   0.04876,  -0.04293,  -0.00684,  -0.00099,  -0.00391,  -0.00489,  -0.02733,  -0.01074,   0.02633,  -0.04781,   0.03316,   0.02047,  -0.01952,  -0.02440,  -0.03025,   0.02340,  -0.04684,  -0.00684,  -0.00977,   0.01169,   0.01169,   0.02438
